solver_type L2R_LR
nr_class 3
label 1 2 3
nr_feature 2097
bias 0.000000000000000
w
0.1903638547332468 0.4244606065898205 -0.4094850574093644 
1.080491268032649 -0.5554375213350918 -0.9195900790077940 
0.01565553860359165 0.03757186952296453 -0.01320672072677554 
-0.3953730150209919 -0.1249565290979045 0.1383826965333896 
0.3674225648195174 -0.3061524271641596 -0.03401994956385562 
0.01404622917137980 0.1107958231570294 -0.1542318026931872 
0.1439253092133514 -0.2214977010823767 0.2974682113628798 
0.3069742231118146 -0.02626657653645274 -0.3311197819277539 
0.1311201407650428 -0.02882238226974047 -0.1812948924577430 
0.1867250391416962 0.1786190987907366 -0.4008124979007087 
0.1133311995114040 0.08106021025085686 -0.2235413520208342 
0.2221798959691755 -0.02301960092250814 -0.3154813447672549 
0.06741950190222626 -0.03414358005972742 -0.04135739260774016 
0.3523263896582807 -0.1183171341013801 -0.2557297855571326 
0.1866887297984841 0.01346316323054843 -0.2657771533991878 
0.08199038875275490 -0.01667614548875959 -0.1085563973382705 
-0.09250627225634636 -0.3096089607448631 0.1323053799359435 
0.08049673140931947 0.3002562925243696 -0.3633549796679657 
0.04057563525833667 -0.04557412230634875 -0.02271364031410644 
0.05262691310530244 -0.007023752463896220 -0.09144639104975963 
0.1992134040651565 0.1752298854723197 -0.1990829203868409 
-0.007001351100178709 0.1234233041088328 -0.1880046684095610 
-0.05020062193184590 -0.0003976713380496287 0.1085088640299177 
-0.3971240352307556 -0.1542459059703330 0.4547279620218837 
0.001755508518024783 0.2136553012362426 -0.2878710479127214 
-0.08319867666063786 0.2950571937848293 -0.2506428980707538 
-0.03237104940289886 0.07459561890071781 -0.05863833772309778 
-0.04233222577748739 0.3060581858709243 -0.2250442015903901 
-0.02413160172990788 0.01417722601243341 0.09240770035755044 
-0.006063302906795623 -0.09362692613488072 0.1454653216592602 
0.01251350682471455 -0.009949433296931277 -0.01821424468785175 
-0.1409815695822442 0.5186994958304308 -0.4401675304941370 
0.001959184727480878 -0.01647166570847940 0.001946729048011733 
-0.03636901047590548 -0.2525284725072958 0.4518493868609040 
0.04949084973431427 -0.1750939950247625 0.1009988202762630 
0.2673328313520765 -0.01917526800293103 -0.6182094441281051 
0.05871868151643478 0.03435892823523518 -0.2041190532404038 
0.1030685915426360 -0.1416983517536785 -0.1159051695260223 
0.1479474422548710 -0.03729042208064273 0.02847372251638508 
0.03200678459373620 -0.01859775727841472 -0.02605249444714967 
0.008751288011584297 0.02102146945444496 -0.03801972612744228 
0.03033266203680592 -0.005642647289253499 -0.03785694258539793 
-0.04727535696044040 0.06683292444182126 -0.02001011186539862 
0.003389339437168873 -0.003174591565701752 -0.01055474185195708 
0.01193837478249317 -0.003218779315700149 -0.01254362912349252 
0.02181668872370443 -0.02402247906503648 -0.01654840782632957 
0.1579332238436982 -0.01372664510478703 -0.3106750778510499 
0.02915906925603925 -0.06510235367270881 -0.003109242530888943 
0.002482570953687566 -0.04269824210389529 0.03738523093675970 
0.01119513942120287 0.007108145384557533 -0.03079062649697743 
-0.02911735094242026 -0.01398869854672534 0.08606125741860596 
-0.01443128326951437 0.03093225640054825 -0.01004621788319729 
-0.02911735094242026 -0.01398869854672534 0.08606125741860596 
0.03540708099128539 -0.004714391338876883 -0.04672506530161127 
0.02446217673545163 -0.005417721992557291 -0.03389365483282709 
0.005986488558579424 -0.02537966362492125 0.01427401406834105 
-0.0008442598213699820 -0.05052639876890783 0.1072154226142666 
0.01332523347525575 -0.002024774538118516 -0.02430186728377255 
0.05956402119305275 -0.01165130664381331 -0.04668373076228490 
0.2961633778262814 0.06844657415222179 -0.02854490080567012 
-0.06343571655616712 0.03445220386382938 0.05118707868526616 
0.008627331199792468 -0.001018818978762856 -0.01743883810343068 
-0.03331423074649211 0.2679049743946633 -0.1545920340762692 
0.1057268283809921 -0.02893386189719575 -0.1470450953174536 
0.01539126759414252 0.1954509863547524 -0.2845032048552744 
0.3521706338798074 -0.03619964084245880 -0.1976087454313592 
0.09462467115964157 -0.03867409412318732 -0.08015668748862530 
-0.03103100697747067 -0.01690602588908292 0.1277758003472924 
0.007070840381744260 -0.001762092201515188 -0.01312451289996612 
0.01101561525116410 -0.001159419073385640 -0.02049758115956010 
0.04387092453647893 0.01057599603569721 -0.07666162381031415 
0.002043206370229734 -0.001522981798682569 -0.006556161811405166 
0.009391690992775524 -0.001174960696486900 -0.01334815473231210 
0.005399428576141879 -0.001196483616510532 -0.008737952069863667 
-0.06487207589262313 0.04381146269293156 0.0006174418353838316 
0.02172626349507414 -0.007131869960917886 -0.01948021547684468 
-0.06769828479110457 -0.08618443082215180 0.1942871007475786 
0.02287441368771445 0.02121238190584929 0.01483490705422444 
0.004785243395967533 -0.001761375821572856 -0.005178491908294016 
0.03761276695308571 0.03934504928557169 -0.07592726301248579 
0.001517438147094192 -0.006339832274191499 -0.01019838256473534 
-0.01458989022593065 -0.001442827710166370 0.001537170169721905 
0.1662947514166106 -0.001029749740953376 -0.2127221136219922 
0.03555601681646415 -0.2425753542961426 0.3382481386672887 
-0.1389917307245863 0.2179934572250024 -0.1435371196288333 
-0.002143861359723439 -0.05703286156451919 0.1556821627603037 
0.005828028518556361 -0.001662291074643251 -0.006417807570218798 
0.1030577315155811 -0.03980016480002949 -0.08352860573349950 
-0.01258646271298408 -0.03289381812751016 0.01403704900921420 
0.003366536575412545 -0.003109915559671453 -0.009956099060413165 
-0.001181804316125516 -0.03045693458775458 0.03269073673013385 
-0.001924181747816515 -0.002063566279127015 -0.007069164988543733 
0.009495826819693787 -0.001800969078348797 -0.01020974496049132 
0.05040308766267800 -0.01159179614640172 -0.04420480237273188 
-0.07262707803434088 0.1085620391856186 -0.06696160115086643 
-0.03090014362851123 0.1471682554842592 -0.09858750820540223 
0.03137560362949242 -0.003311932705729134 -0.01732770955659416 
0.008064303168269877 -0.002259849978252683 -0.008983042762919226 
0.1904476440211380 -0.01466751206391973 -0.1363363194122579 
-0.01805185002862165 -0.04567790063551594 0.1598574140104448 
0.08201801102478283 -0.01322217572904939 -0.02913051968026057 
0.1133788718613811 -0.003227101554992911 -0.1816170152684143 
0.07113052216578372 -0.007706477310416775 -0.1031583198294847 
-0.005206892376268727 0.09638456574613150 -0.1596572251997129 
0.1609235257304394 0.007081758318841500 -0.3211535849934580 
-0.03820014258373403 0.2610980966289477 -0.2076253787670881 
0.01929563933151784 -0.05286371412706736 0.01282377149444285 
0.1560494020934361 -0.03373822012924557 -0.1245929975739469 
0.002040277133306452 -0.0009303659703829336 -0.003836177745908677 
0.003438401363297530 0.008944747310074063 -0.01840927325878067 
-0.0007830098382313353 -0.007468692271596127 0.004044874697279679 
0.006274040969465719 -0.001002650730416806 -0.007964298307807765 
0.07818366909974472 -0.002224332324264818 -0.1323027575329593 
0.003352673086494569 -0.0008369164008856616 -0.006090959544252200 
-0.05367688533570732 0.2918623643148915 -0.1820297847382948 
0.003561160243588762 -0.001268952316556916 -0.003879682789900038 
0.003670917570784145 -0.01224546777067973 -0.002915354539305531 
0.005854655353882346 -0.0006967040398327380 -0.01874852478357141 
-0.03192791465663572 0.03324643208021130 0.008740892666838923 
-0.001568231502896651 -0.007181096098228148 0.01202273602869887 
-0.009681850255785010 -0.01909270856668455 0.02687701651247186 
0.01655519891805267 -0.001918842698195405 -0.01788050606390837 
0.01063754332490604 -0.001414648122510192 -0.009177427713890584 
-0.0001641403332549996 -0.02420398635345016 0.01939061071357299 
0.002927532490169423 -0.0008280003677034733 -0.004205433605454141 
0.1057849511066555 0.06757192915621855 -0.2332771956186761 
0.1865021878029750 -0.1584085705654460 -0.2269080347481845 
0.3941087030288497 0.6376977057594067 -1.119928566157786 
0.5316110340162411 -0.1981635123646939 -0.4237838735312521 
-0.2232190565897428 -0.1099185262133786 0.2484559830178509 
-0.02265303319841778 0.3803917642231399 -0.2888228426328934 
0.1447270279639050 0.1210255403389383 -0.2384539749734362 
0.1213999935579287 -0.02270701500174163 -0.2243149560285987 
-0.1113245806669938 0.3136246190458679 -0.1455872877469824 
0.1114349832271793 0.01534351424417731 -0.06811877586764152 
0.3535602993361338 0.002275047827670580 -0.5154607230479210 
0.09653161776014530 -0.4159676247964630 0.2581162157918061 
0.4534222706598406 -0.1874441875345126 -0.2659748584659773 
-0.09760309381907169 0.5165360879786504 -0.6246484285301780 
0.1913397043252623 0.1208457280740168 -0.3593769412434901 
-0.1679633009161662 0.5105831876247665 -0.5064106725364723 
-0.09263529835146822 0.2834716198761435 -0.3118700529298575 
0.1727874274223718 -0.1290249814516598 -0.06181048382689166 
-0.05557287832326690 0.4310008008236566 -0.5325677099715871 
0.07727788710001554 0.4628360920253477 -0.3590952821663282 
-0.1057523040897385 0.4425860798498121 -0.4838793845437858 
-0.1721911253686345 0.2471466948364512 -0.3171922219180795 
0.06194128400966337 -0.004032658680547296 -0.06109297086700261 
-0.02794526350825623 0.02235472066158585 0.002257433436540017 
-0.1007662721834008 0.1058238659647588 -0.05513708131754290 
-0.1013885027227445 0.1817279115005260 -0.1179952982254568 
-0.06148645375150677 0.1180504733410583 -0.1389775083155753 
-0.1326192110372157 0.3116828919661000 -0.2349732179685763 
-0.08421306655424358 0.1148600852358371 -0.09527790861756225 
-0.03314176827868318 0.1942264406697911 -0.1682145131433482 
-0.02898912074010446 -0.1538280424363429 0.2745076487840516 
-0.06145108346225060 -0.1425917685391985 0.2584785563190403 
0.07820899085111568 0.2165968462047141 -0.2302754866706178 
-0.1024985089287037 -0.2739507448188957 0.1621654052432999 
-0.03398240130348218 0.1063898340636676 -0.1104483820680414 
0.1432322998178640 -0.01703509281568969 -0.3288399115427840 
0.2407808310051401 0.02282287247032554 -0.3875598632748461 
0.03467407720068244 -0.1556964443630382 0.07338876783899252 
0.2732390850157778 -0.1232282730415514 -0.1290196312917560 
-0.04484708608669689 0.08784091361535798 -0.08268270181134783 
-0.1837138300935713 0.3626968779285499 -0.2222736692148088 
0.1800118393956031 0.07512827174137562 -0.1673865258358836 
-0.06714792594510302 -0.02910050462694404 -0.02934789020239395 
0.005073044733502186 0.04261954306294165 -0.1150690894673436 
0.1240211120665999 -0.02160399465514219 -0.05759193539684061 
-0.01241767959095346 0.05110693604989761 -0.08137229597519353 
-0.08247880232760030 0.1806272641505719 -0.1521598308453670 
0.1101770369746087 -0.008998338599607518 -0.08764352721349986 
-0.1277549569357386 -0.009403741465426128 0.1940180622584456 
-0.1058873918662540 0.09119048181744250 -0.03984046288669439 
-0.02508283566920898 0.03697240109002592 0.003861458159552552 
-0.005230892270962597 0.1932178542031622 -0.2756288372590417 
-0.1418369745413013 0.1400344051471464 -0.06245577592710793 
-0.02584130217393577 0.01618749041421071 -0.02369903986882088 
-0.03190896750525517 0.004827183324556429 -0.002586485153932310 
-0.05888766676045087 0.3746273002631088 -0.3017892020255361 
-0.01315038548860322 -0.01582442342256317 0.01954689819373702 
0.09393425355664904 -0.01136051089199980 -0.1537250623044976 
-0.06403191037293413 0.1555924916749935 0.1107324678930588 
-0.03640607711632743 -0.06108622609639096 0.06733698868592640 
-0.001154600960108594 0.06311364552263396 -0.1631919153985008 
-0.001154600960108594 0.06311364552263396 -0.1631919153985008 
0.08091771258025480 0.02305809402960112 -0.06216340550061181 
-0.08865031924791478 0.04166764299856710 -0.01656449889299106 
0.08338749259659356 -0.04617699903511086 -0.02208265319727737 
-0.01765382781712758 0.02996554324112526 0.05053297692937497 
0.2059476652676466 -0.05038199920683599 0.0002705220201563376 
0.05240080219712660 0.06325605878979529 -0.07113717884842512 
-0.01915883723326649 0.02238616919716031 -0.03322114511242282 
-0.06372816025443602 0.01221343416186990 0.08574152085066257 
0.1049641464996508 0.08252678152026156 -0.2409768995894258 
-0.02428925361657482 0.2015293584326943 -0.1604104265464016 
0.1625534901284367 -0.08741378773363744 -0.04171944749348595 
-0.0007291419373565190 0.05840011229526831 -0.05015092626819707 
-0.08015029971492957 0.09181508038430598 -0.08035584208150569 
0.03866072090848757 -0.02547200172886248 -0.008130790279019690 
-0.01632676721321714 -0.01809376255754719 0.008603136854588887 
0.02073508140923099 0.02943445543781401 -0.1303994240010722 
0.06360721470094531 -0.06074238928555823 0.02588390018250724 
0.03321436652895416 -0.005052496602967638 -0.02470240706513644 
-0.02913021661622513 0.09801336140010891 -0.07596082040764707 
0.1719922876655330 -0.1001805642535853 -0.2712821921166858 
0.01245038000316045 -0.01277334367139219 -0.002618872053533758 
0.01364223946226490 -0.006073224432128829 -0.005580771470545630 
-0.004188214572647659 0.03116331642679215 -0.03259846009600183 
-0.05387329868764158 -0.1106614890456006 0.1867283428203723 
0.1009932120976737 -0.1346414786400822 -0.06114157033031552 
-0.02343500261008547 -0.1131830342068776 0.1060202523205762 
0.001711960383864253 0.04790058866817491 0.03242732260258149 
0.04420797926682819 -0.01432822450672649 -0.02087910140449292 
0.01886734543413076 -0.06416620799981097 0.03009277054461948 
0.01211114637509127 -0.005491468769979268 -0.006481592875677847 
0.04114633960839974 -0.01615321680241613 0.02722782374540264 
-0.01539674211087892 0.007426855219961935 -0.007918293590760980 
0.2461843192298518 0.2240119692818333 -0.5010112530947589 
-0.1041633209328039 -0.01920444430452957 0.08882619723110896 
0.01393065908677942 -0.1211936394653173 0.1572215428055751 
0.03502937328454825 -0.001290074476972181 -0.04195050671384275 
-0.02385712827539811 0.05185793655803306 -0.03765668413463679 
-0.02385712827539811 0.05185793655803306 -0.03765668413463679 
0.001943995752413010 0.004985865415352119 -0.01289765695717306 
0.08577223788777705 -0.04038629946943968 -0.006474784953533284 
-0.07058117033116937 -0.05217001930136478 0.1172957775166450 
1.405397880115740e-05 0.02585750267435192 -0.02135780250769577 
-0.001056898883758454 -0.0006609919420971042 -0.006875907599797101 
-0.02385712827539811 0.05185793655803306 -0.03765668413463679 
0.05287109824853595 0.005282630590704106 -0.04760318002883363 
-0.02385712827539811 0.05185793655803306 -0.03765668413463679 
0.05122782336735218 0.1756047955782912 -0.2991231111544375 
-0.008252837468656796 0.01439362264574536 -0.008653082038634234 
-0.02385712827539811 0.05185793655803306 -0.03765668413463679 
-0.008252837468656796 0.01439362264574536 -0.008653082038634234 
-0.02385712827539811 0.05185793655803306 -0.03765668413463679 
0.01000934841124026 -0.01191876135611304 -0.006199285343509573 
-0.05143037736760295 0.04388808212773526 -0.01546018576233525 
-0.01049540088268794 0.07507756429746913 -0.07676041778943517 
0.01212608050057896 0.3233953656551921 -0.3883429319831181 
0.09780773113401231 0.004852442400212573 -0.1768302151118568 
-0.02344344433824979 0.04764355782135423 -0.07354217941018132 
0.02853057409802912 -0.002584430669260600 -0.02246215126097586 
0.07482232936864594 -0.03985400297492131 -0.01565340059604049 
-0.02385712827539811 0.05185793655803306 -0.03765668413463679 
-0.006814794162240811 0.1918265916499247 -0.2312900733398687 
-0.009151077175128218 0.02733878238871767 -0.05598234602937216 
-0.02385712827539811 0.05185793655803306 -0.03765668413463679 
0.2002850431536714 -0.1067476954663563 -0.08596981337039337 
0.4484831628516974 0.7590761935192737 -1.275304836927082 
0.6954722855210926 0.1721441936660326 -0.7487355883296754 
0.1837153432159511 0.01201965276667030 -0.2143768678237223 
-0.1697781869158194 0.2163392201935923 -0.06231917748797942 
-0.2918550251700701 0.09453687025127310 0.09520755366872750 
0.2056280707581369 0.2485268555720966 -0.2612544724698233 
0.5836374597409454 0.09151195927333380 -0.7372994821288187 
-0.03706553134994135 0.3806877173191865 -0.3866049585814788 
0.1187869832427085 0.6034823646133972 -0.6374828238170717 
0.3189438761017757 0.2158550788186652 -0.3423854105822764 
-0.1387144745590405 0.5532643756706835 -0.5411601037507507 
-0.2046082188549177 0.6471999165291508 -0.5704013046542760 
-0.09263529835146822 0.2834716198761435 -0.3118700529298575 
-0.07229697763904704 0.3697566506373987 -0.3280747426799167 
-0.1368982869435332 0.04087741231384062 0.1773362676992973 
-0.1057523040897385 0.4425860798498121 -0.4838793845437858 
0.1466579084897175 0.5250007601153688 -0.6416905807064403 
-0.1729066367715165 0.2051039320043334 -0.3080393142434627 
0.004780307510538039 0.2261807830394750 -0.2474792417233730 
-0.1037535811859865 0.2931185683225852 -0.2080893991779454 
-0.01417156867269614 -0.09160967656861589 0.08026671131733407 
-0.06148645375150677 0.1180504733410583 -0.1389775083155753 
-0.1294336201699514 0.1350819760330805 -0.09146948320674810 
-0.1148399501170586 0.08139785347132758 -0.009786800027114850 
-0.02652945231841723 -0.06830639861293114 0.1855821092067544 
-0.03314176827868318 0.1942264406697911 -0.1682145131433482 
-0.1482777628717197 -0.1304339003007760 0.2451955333303930 
-0.05052534322844196 0.1653046341569402 -0.1648038689278159 
0.07820899085111568 0.2165968462047141 -0.2302754866706178 
-0.03398240130348218 0.1063898340636676 -0.1104483820680414 
0.2355320170496561 0.01709214411874868 -0.3529202037666818 
-0.04484708608669689 0.08784091361535798 -0.08268270181134783 
-0.07135750486869658 -0.009736788401461333 0.008393562665777909 
-0.1763036020301300 0.5450644448506848 -0.5169760409763854 
0.09533545681663030 0.07763890476966588 -0.1066985840672652 
-0.03180189259688038 0.08510858440831644 -0.08611993883489520 
-0.008175410000378958 0.4290100829798932 -0.3753407063613398 
0.1111083907590614 0.4533025300669338 -0.4659213086700329 
-0.08247880232760030 0.1806272641505719 -0.1521598308453670 
-0.06489045901320854 0.4780032297853311 -0.4924201120800870 
-0.1549163302142547 0.1623679780760162 -0.07968947946613180 
-0.03855186188509280 0.007270005372196859 0.002689190838665132 
-0.01681291247262643 0.009732019048699117 0.05754300381019589 
-0.005230892270962597 0.1932178542031622 -0.2756288372590417 
0.1855498170243087 -0.06616251496237757 0.02960424315479561 
-0.04036558008258701 0.3622018848059274 -0.2534895289160462 
0.09533471029702575 0.001514438662644545 -0.2420738055423870 
0.1275972697590820 -0.08800993524576010 0.06110893071847744 
0.1020303703270473 -0.01703372779965984 -0.1546658102366135 
-0.08152167877419840 0.1576735637017150 0.1187754810564577 
-0.04275567126777432 0.1682314723707542 -0.07879751112313120 
-0.03190896750525517 0.004827183324556429 -0.002586485153932310 
-0.1058873918662540 0.09119048181744250 -0.03984046288669439 
-0.01777625633100636 0.2870234796388422 -0.2483657306998129 
-0.01315038548860322 -0.01582442342256317 0.01954689819373702 
0.03030887777670943 -0.005873266782965116 -0.06618387125760550 
-0.03640607711632743 -0.06108622609639096 0.06733698868592640 
0.05045804384185297 -0.008624163539848672 -0.03869066392879814 
-0.001154600960108594 0.06311364552263396 -0.1631919153985008 
-0.001154600960108594 0.06311364552263396 -0.1631919153985008 
-0.08865031924791478 0.04166764299856710 -0.01656449889299106 
0.01130769582920652 0.02861978411531716 -0.1266847799031528 
0.1921195361332678 -0.007752482864230481 -0.04929705067081651 
0.01721680043739782 0.02087458066279016 -0.1560503797671511 
0.3188898385319723 -0.05605897130434850 -0.1112738765518310 
-0.04826147050430245 -0.04729368706317613 0.1092727292943437 
0.2008534660108385 -0.1004083876417594 -0.3256011473670538 
0.03362655707857569 -0.2183658669727813 0.2856775976425450 
-0.01915883723326649 0.02238616919716031 -0.03322114511242282 
0.05737809003442065 0.04464638118267592 -0.05080621515720516 
-0.08015029971492957 0.09181508038430598 -0.08035584208150569 
0.02745514693228455 0.03789967378727787 -0.07101463167514954 
-0.02913021661622513 0.09801336140010891 -0.07596082040764707 
-0.07218727170381527 0.06850345035431382 0.1705915001089798 
0.1077348718009943 0.3385943487780559 -0.3458084658769064 
0.02946510368393616 -0.001160723445144167 -0.04296700445342094 
0.01364223946226490 -0.006073224432128829 -0.005580771470545630 
0.01245038000316045 -0.01277334367139219 -0.002618872053533758 
-0.004188214572647659 0.03116331642679215 -0.03259846009600183 
0.04813992413987216 0.02962002622252685 -0.07195311850770000 
0.005617233525761801 -0.001807393188367239 -0.01228207223479595 
0.06882798285789683 -0.03635959564501557 -0.002453095592817748 
-0.04145387525615565 -0.02083365219959841 0.1119297935838911 
0.09243446923911641 -0.03042349165166128 -0.02243032808736855 
-0.008589845606570248 0.07476841911090618 -0.07960375848836140 
-0.04333426059720475 0.03821486522007521 -0.01640093369445113 
0.08112523356358295 -0.03994600149872211 -0.04294890538619577 
0.4066453739905683 -0.05288147476018965 -0.1300245624819311 
-0.01539674211087892 0.007426855219961935 -0.007918293590760980 
0.06331301789887143 -0.001747608559537539 -0.1709580264858162 
-0.02385712827539811 0.05185793655803306 -0.03765668413463679 
0.08577223788777705 -0.04038629946943968 -0.006474784953533284 
0.001943995752413010 0.004985865415352119 -0.01289765695717306 
-0.02385712827539811 0.05185793655803306 -0.03765668413463679 
-0.003781362662935535 -0.004275369943859502 -0.004266823504558109 
-0.02385712827539811 0.05185793655803306 -0.03765668413463679 
-0.04228334697195010 0.001834937194675148 -0.01654222755020128 
-0.01230584246457909 0.03531247257945168 -0.02356977949416782 
1.405397880115740e-05 0.02585750267435192 -0.02135780250769577 
0.04808486715055541 -0.02112867574277532 -0.04559826500469513 
0.08579373408715263 -0.1345997838145319 -0.01639772123686653 
-0.008252837468656796 0.01439362264574536 -0.008653082038634234 
-0.02385712827539811 0.05185793655803306 -0.03765668413463679 
0.1026034206373389 -0.07941262514989467 -0.01860764200869544 
-0.03016711473719886 -0.01228937808974429 0.02401597709174291 
-0.008252837468656796 0.01439362264574536 -0.008653082038634234 
-0.02385712827539811 0.05185793655803306 -0.03765668413463679 
-0.4200659340427410 -0.3855987367259749 0.5241328118898814 
-0.02385712827539811 0.05185793655803306 -0.03765668413463679 
-0.02716252842394776 -0.01096055976273188 0.04211327806315204 
0.04133384271845583 -0.01412717281452200 -0.01678248082781553 
-0.02344344433824979 0.04764355782135423 -0.07354217941018132 
0.02417021858003159 -0.01733658067020627 -0.004058308823367934 
-0.01234849289245696 -0.008388749303194330 -0.002777457376337866 
-0.02385712827539811 0.05185793655803306 -0.03765668413463679 
0.02486758248359669 -0.03693445085983104 -0.03838539214411213 
0.02509057212959009 -0.01545875074722314 -0.09423965680242322 
0.02853057409802912 -0.002584430669260600 -0.02246215126097586 
-0.5095114837306699 -0.03101668552365919 0.3838435720785197 
0.06874641436207443 -0.01468719783141436 -0.02056315576997738 
0.02246640256100045 0.1104887139277288 -0.06548842801585267 
0.1573149224700063 -0.03069028424342871 0.0006733795412602169 
-0.006814794162240811 0.1918265916499247 -0.2312900733398687 
-0.02385712827539811 0.05185793655803306 -0.03765668413463679 
0.3651002177579809 0.004478887098624613 -0.2297428380251768 
-0.2219789379209190 -0.1139803842214826 0.06696076757191256 
0.1801255595406672 -0.1872762186334598 -0.07187971215306016 
0.3992588973802960 -0.04310393322943137 -0.3571730355833487 
0.008291610284250066 0.1339030593852190 -0.07548926518922609 
0.1900696978075148 0.3975194079235085 -0.6328341521062149 
0.5764200589735803 -0.1638860160712982 -0.6114419871690582 
0.4585843244444625 0.01405381865729305 -0.4938855804046685 
0.3434064663948293 -0.1004632512276558 -0.2623879239350839 
0.1311201407650428 -0.02882238226974047 -0.1812948924577430 
0.4037663602507422 0.1703582654720607 -0.6431523391325606 
0.2221798959691755 -0.02301960092250814 -0.3154813447672549 
0.1133311995114040 0.08106021025085686 -0.2235413520208342 
0.06741950190222626 -0.03414358005972742 -0.04135739260774016 
0.1777411659426509 -0.1256904615137229 -0.2899262191148914 
-0.2576112444555243 0.1305584249312748 0.04024914795757553 
0.2527977565967243 0.6141926063218882 -0.5826457689697554 
0.08199038875275490 -0.01667614548875959 -0.1085563973382705 
0.3120226827726604 -0.1182218875630966 -0.1080059930738623 
0.3824503849479289 -0.1808613665855332 -0.2695664192570119 
0.2595309836491720 -0.04542794019705854 -0.1289250020358845 
0.05262691310530244 -0.007023752463896220 -0.09144639104975963 
0.2690436150509855 -0.1197767373843651 -0.2312886861181329 
-0.05478472701769467 0.04300590743796093 0.02886083113588971 
-0.3089164550374238 0.5279848866979473 -0.4078294349157143 
0.1454822162458851 0.1070865906482843 -0.07855837941128803 
0.08870995357211184 0.006433784001883747 -0.06875613494298272 
0.2779140501064447 0.1261555213946529 -0.5668261084330136 
0.004546226299429701 0.1535782057502976 -0.1654447092438117 
-0.02638920122261958 0.2344273466987358 -0.2093356923679984 
-0.04642359948007858 -0.1279046629490762 0.1980277123619717 
-0.008881193290209269 0.3588936786027325 -0.3948449942233090 
-0.06210924696061064 -0.003571354647585755 0.03458617647101012 
0.0008810282369459180 -0.01345531381073124 -0.0003627028202283007 
0.002339128136796606 -0.03793403387664056 0.02399284031283515 
0.003289395048468525 -0.1831655555615614 0.2212329527798721 
0.1145821431919812 -0.02712872438495164 -0.2154750003072457 
-0.01783897532471671 0.1527153664792650 0.04691281945269061 
0.1255755215257956 0.01520070461495067 -0.1569116150818834 
0.02679612431796164 0.2272260659371974 -0.2458643576085516 
0.02219074763663868 0.1394506143195427 -0.2457386946989955 
0.04528702559997223 -0.06019210065051166 0.04407708790739238 
0.2320744353398277 -0.02103838229719976 -0.2562230190252574 
0.008751288011584297 0.02102146945444496 -0.03801972612744228 
-0.06698715513422570 0.3642977998448234 -0.1612765333142006 
0.05686944917056208 0.01067779402739195 -0.04276169675513412 
0.03033266203680592 -0.005642647289253499 -0.03785694258539793 
0.03817487123246367 0.02921677255566535 -0.1364038141764450 
0.1236397274261902 -0.01905941744939207 -0.3159811893283441 
0.003389339437168873 -0.003174591565701752 -0.01055474185195708 
0.01193837478249317 -0.003218779315700149 -0.01254362912349252 
0.002482570953687566 -0.04269824210389529 0.03738523093675970 
0.01119513942120287 0.007108145384557533 -0.03079062649697743 
0.04812581451586931 -0.005573418397688294 -0.05402226552600120 
-0.02911735094242026 -0.01398869854672534 0.08606125741860596 
-0.03284256346735279 0.2989707607726363 -0.2677233261766138 
0.01239164886570426 -0.01280412663847641 -0.01508311929217260 
0.01973402939803907 -0.05388400124614873 -0.001643953996731982 
-0.01443128326951437 0.03093225640054825 -0.01004621788319729 
-0.002680879119591175 0.01795612047320607 -0.02765262552261081 
-0.02911735094242026 -0.01398869854672534 0.08606125741860596 
0.02446217673545163 -0.005417721992557291 -0.03389365483282709 
0.005986488558579424 -0.02537966362492125 0.01427401406834105 
0.08454747867062039 -0.008076239225091990 -0.1584079686912091 
0.003987136757067895 0.003726035424614258 -0.01171350002511837 
0.05956402119305275 -0.01165130664381331 -0.04668373076228490 
0.3567178875211854 -0.03682998539809048 -0.2015271466451404 
0.008627331199792468 -0.001018818978762856 -0.01743883810343068 
-0.04328940183756453 0.4112878353780939 -0.3682362829808281 
-0.07371650327089584 0.02358936117954683 0.1610004378356718 
0.2074065654032424 0.2382006408417526 -0.3096460019548757 
-0.1026848225823017 0.3009206582398467 -0.2511638894710959 
0.1205230377459712 -0.02559026313086255 -0.2139477705288181 
0.007070840381744260 -0.001762092201515188 -0.01312451289996612 
-0.01103461156221125 -0.2031543549408447 0.3398739984480230 
0.1808085686451467 -0.008011108450994940 -0.2417980358443799 
0.03557825724043150 0.2121665125116752 -0.2636198481851652 
0.002043206370229734 -0.001522981798682569 -0.006556161811405166 
0.01101561525116410 -0.001159419073385640 -0.02049758115956010 
0.01779689729972522 0.01806182371388100 -0.04186208765454703 
-0.06332173052694573 -0.02483936305430705 0.05000300551285643 
0.1434662718619019 -0.06442983803116453 0.1120385839402101 
0.006715949884991964 -0.004810407721952982 -0.01059542292364861 
0.005399428576141879 -0.001196483616510532 -0.008737952069863667 
0.009391690992775524 -0.001174960696486900 -0.01334815473231210 
-0.03706311741745968 -0.008410785694290416 0.1087584069558513 
-0.001347661638742867 0.1644035845306464 -0.1816789031689812 
0.07578276460941963 -0.003781102133709410 -0.1773296891492812 
-0.01319603852587883 -0.03616844987591607 0.01998346813170281 
-0.001181804316125516 -0.03045693458775458 0.03269073673013385 
0.03761276695308571 0.03934504928557169 -0.07592726301248579 
0.001517438147094192 -0.006339832274191499 -0.01019838256473534 
-0.01458989022593065 -0.001442827710166370 0.001537170169721905 
0.008964945751970925 0.007188517987200532 -0.03367894214469968 
0.004785243395967533 -0.001761375821572856 -0.005178491908294016 
0.1662947514166106 -0.001029749740953376 -0.2127221136219922 
-0.04054501244027010 0.1292289487467979 -0.07551258627883130 
0.04817942298413903 0.1461957494105244 -0.2185851096492871 
0.005828028518556361 -0.001662291074643251 -0.006417807570218798 
-0.02760126756923706 -0.1148323070640500 0.2056327791402453 
-0.02589268389941316 -0.04835340509366813 0.06178144110726255 
-0.03435370276268211 -0.05347783004431826 0.06285313355169121 
0.01680294793731768 0.1449592041606654 -0.09999421345133590 
-0.001924181747816515 -0.002063566279127015 -0.007069164988543733 
-0.002613253495364206 0.06468817546838859 -0.05514807202857281 
0.007326923499686758 0.002798242570096908 -0.01160938841760280 
-0.01886039386368671 -0.04711458658316833 0.09423982206727469 
-0.001047760002913024 0.003733058541038579 -0.01086961223379306 
-0.03100899871467684 0.2638888460363760 -0.2653047645548942 
0.03137560362949242 -0.003311932705729134 -0.01732770955659416 
0.008064303168269877 -0.002259849978252683 -0.008983042762919226 
0.05921591938495132 -0.05096796626850180 -0.05075922750876842 
-0.05655628564284333 0.2465044805965188 -0.1921812231946515 
0.2989939537926690 -0.01090330771252858 -0.3152139738774737 
0.08201801102478283 -0.01322217572904939 -0.02913051968026057 
0.1438425196511918 -0.02472361562841421 -0.1737972177700842 
-0.01061829857354075 -0.01992709212369522 0.03383040196188328 
0.1041875681845663 -0.03680393538882503 -0.1569312809766079 
0.1560494020934361 -0.03373822012924557 -0.1245929975739469 
0.002040277133306452 -0.0009303659703829336 -0.003836177745908677 
0.003438401363297530 0.008944747310074063 -0.01840927325878067 
0.09153884644546173 -0.009491244815737727 -0.1120510201075786 
0.006274040969465719 -0.001002650730416806 -0.007964298307807765 
0.003352673086494569 -0.0008369164008856616 -0.006090959544252200 
0.07531843397798847 -0.002249818789737137 -0.1319644795062761 
0 0 0 
0 0 0 
0 0 0 
0 0 0 
0 0 0 
0 0 0 
0 0 0 
0 0 0 
0 0 0 
0 0 0 
0 0 0 
-0.02885502607631902 -0.005618038871119405 0.01476301241239874 
0 0 0 
0 0 0 
0 0 0 
0 0 0 
0 0 0 
0 0 0 
0 0 0 
0 0 0 
-0.05530728455658569 0.9349798643094592 -1.153627316410702 
0 0 0 
0 0 0 
-0.1465939551690351 -0.4133019723762318 0.6140865683571186 
0 0 0 
0 0 0 
0 0 0 
0 0 0 
0 0 0 
0 0 0 
0 0 0 
0 0 0 
0 0 0 
0 0 0 
0 0 0 
0 0 0 
0 0 0 
-0.01798739462720201 -0.005024080448130217 0.007208428458697967 
0 0 0 
0 0 0 
0 0 0 
0 0 0 
0 0 0 
0 0 0 
0 0 0 
0 0 0 
0 0 0 
-0.01057785029885428 -0.02495336889173382 0.02296378674565449 
0 0 0 
0 0 0 
0 0 0 
0 0 0 
0 0 0 
0 0 0 
-0.006524302028084797 -0.005796614843148520 0.008518545309866628 
0 0 0 
0 0 0 
0 0 0 
0 0 0 
0 0 0 
0 0 0 
0 0 0 
0 0 0 
0 0 0 
0 0 0 
0 0 0 
0 0 0 
0 0 0 
0 0 0 
0 0 0 
0 0 0 
0 0 0 
0 0 0 
0 0 0 
0 0 0 
0 0 0 
0 0 0 
0 0 0 
0 0 0 
0 0 0 
0 0 0 
0 0 0 
0 0 0 
0 0 0 
0 0 0 
0 0 0 
0 0 0 
0 0 0 
0 0 0 
0 0 0 
0 0 0 
0 0 0 
0 0 0 
0 0 0 
0 0 0 
-0.09057836124049001 -0.06864885864016299 0.1622749297844948 
0 0 0 
0 0 0 
0 0 0 
0 0 0 
0 0 0 
0 0 0 
0 0 0 
0 0 0 
0 0 0 
0 0 0 
0 0 0 
0 0 0 
0 0 0 
0 0 0 
0 0 0 
0 0 0 
0 0 0 
0 0 0 
0 0 0 
0 0 0 
0 0 0 
0 0 0 
0 0 0 
0 0 0 
0 0 0 
0 0 0 
0 0 0 
0 0 0 
0 0 0 
0 0 0 
0 0 0 
0 0 0 
0 0 0 
0 0 0 
-0.02883990199175189 -0.04037669866882122 0.07266352701852740 
0 0 0 
0 0 0 
0 0 0 
0 0 0 
0 0 0 
0 0 0 
0 0 0 
0 0 0 
0 0 0 
0 0 0 
0 0 0 
0 0 0 
0 0 0 
0 0 0 
0 0 0 
0 0 0 
0 0 0 
0 0 0 
0 0 0 
0 0 0 
-0.1160435514202922 -0.01193950256435335 0.1965124013034352 
0 0 0 
0 0 0 
0 0 0 
0 0 0 
0 0 0 
0 0 0 
0 0 0 
0 0 0 
0 0 0 
0 0 0 
0 0 0 
0 0 0 
0 0 0 
0 0 0 
0 0 0 
0 0 0 
0 0 0 
0 0 0 
-0.04536519125918966 -0.06878652221683310 0.1447173203231200 
0 0 0 
0 0 0 
0 0 0 
0 0 0 
0 0 0 
0 0 0 
0 0 0 
0 0 0 
0 0 0 
0 0 0 
0 0 0 
0 0 0 
0 0 0 
0 0 0 
0 0 0 
-0.01477626332692290 -0.03645015577354027 0.06289621444123940 
0 0 0 
-0.1821451602076529 -0.02581986669869642 0.3717875176620189 
0 0 0 
0 0 0 
0 0 0 
0 0 0 
0 0 0 
0 0 0 
0 0 0 
0 0 0 
0 0 0 
0 0 0 
0 0 0 
0 0 0 
0 0 0 
0 0 0 
0 0 0 
0 0 0 
0 0 0 
0 0 0 
0 0 0 
0 0 0 
0 0 0 
0 0 0 
-0.006524302028084797 -0.005796614843148520 0.008518545309866628 
0 0 0 
-0.007904096895389480 -0.1423110521089088 0.1234680986338029 
0 0 0 
0 0 0 
0 0 0 
-0.004833966143805447 -0.01350405683306164 0.01757827333130696 
0 0 0 
0 0 0 
-0.05017158902180249 0.2934023927647087 -0.3319471300260278 
0 0 0 
0 0 0 
0 0 0 
-0.004833966143805447 -0.01350405683306164 0.01757827333130696 
0 0 0 
0 0 0 
0 0 0 
0 0 0 
-0.4862188582161843 0.6587853571881149 -0.4088514561182006 
0 0 0 
0 0 0 
0 0 0 
-0.01158805569841866 -0.002271773266144248 0.005009133474506245 
0 0 0 
0 0 0 
-0.02706111719899467 0.2392728959873325 -0.2649146564738640 
0 0 0 
0 0 0 
0 0 0 
0 0 0 
-0.2110422065847271 -0.1549869598881096 0.5488299696518085 
0 0 0 
0 0 0 
0 0 0 
0 0 0 
0 0 0 
0 0 0 
0 0 0 
0 0 0 
0 0 0 
0 0 0 
0 0 0 
0 0 0 
0 0 0 
0 0 0 
0 0 0 
0 0 0 
0 0 0 
0 0 0 
0 0 0 
0 0 0 
-0.09841209001764974 0.5485957144691188 -0.6409300001601841 
0 0 0 
0 0 0 
0 0 0 
0 0 0 
0 0 0 
0 0 0 
0 0 0 
0 0 0 
0 0 0 
0 0 0 
0 0 0 
0 0 0 
0 0 0 
-0.01530069060490294 -0.04420451258187121 0.03235841185658499 
0 0 0 
0 0 0 
0 0 0 
0 0 0 
0 0 0 
0 0 0 
0 0 0 
0 0 0 
3.334798322376464 -1.388412881637662 -2.753714022330738 
0 0 0 
0 0 0 
0 0 0 
-0.01063424592789638 -0.04801727720500483 0.1522105614202815 
0 0 0 
-0.03114612821791948 -0.02213386598207720 0.06345087471354580 
0 0 0 
0 0 0 
0 0 0 
0 0 0 
0 0 0 
0 0 0 
0 0 0 
0 0 0 
0 0 0 
0 0 0 
0 0 0 
0 0 0 
0 0 0 
0 0 0 
0 0 0 
0 0 0 
0 0 0 
0 0 0 
0 0 0 
0 0 0 
0 0 0 
0 0 0 
0 0 0 
0 0 0 
0 0 0 
0 0 0 
0 0 0 
-0.01158805569841866 -0.002271773266144248 0.005009133474506245 
0 0 0 
-0.07458112017552444 -0.2171445686180627 0.3761925401666637 
0 0 0 
0 0 0 
-0.05575031384067951 -0.05663834116233937 0.1679742502569336 
-0.01095356487553397 -0.01121244708924074 0.02343851450427434 
0 0 0 
0 0 0 
0 0 0 
0 0 0 
-0.004700882704244507 -0.0008695311626343606 0.001287897019494501 
0 0 0 
0 0 0 
0 0 0 
0 0 0 
0 0 0 
0 0 0 
0 0 0 
0 0 0 
0 0 0 
-0.07093457667088006 -0.004005372018200740 0.07496479269891070 
-0.2626090301334403 0.3141695623857254 -0.1780284821036253 
0 0 0 
0 0 0 
0 0 0 
0 0 0 
0 0 0 
0 0 0 
0 0 0 
0 0 0 
0 0 0 
0 0 0 
0 0 0 
0 0 0 
0 0 0 
0 0 0 
-0.05017158902180249 0.2934023927647087 -0.3319471300260278 
0 0 0 
0 0 0 
0 0 0 
0 0 0 
0 0 0 
0 0 0 
0 0 0 
0 0 0 
0 0 0 
0 0 0 
0 0 0 
0 0 0 
0 0 0 
0 0 0 
0 0 0 
0 0 0 
-0.02763499280909853 -0.01947015567209059 0.04798446236637387 
0 0 0 
0 0 0 
-0.1502498296305853 0.7914950059505350 -0.8714816322706244 
0 0 0 
-0.09798527201049650 -0.07420825617473382 0.2008001901973158 
0 0 0 
0 0 0 
0 0 0 
0 0 0 
0 0 0 
0 0 0 
0 0 0 
0 0 0 
0 0 0 
0 0 0 
0 0 0 
0 0 0 
-1.112246033444055 -0.7713989659960604 0.6754281886101028 
0 0 0 
0 0 0 
0 0 0 
0 0 0 
0 0 0 
0 0 0 
0 0 0 
-0.02930769704473400 -0.02877328898748894 0.08781976542675667 
0 0 0 
0 0 0 
0 0 0 
0 0 0 
0 0 0 
0 0 0 
0 0 0 
-0.1111268949559569 -0.08481578094357750 0.1529088771218558 
0 0 0 
0 0 0 
0 0 0 
0 0 0 
0 0 0 
0 0 0 
0 0 0 
0 0 0 
0 0 0 
0 0 0 
0 0 0 
0 0 0 
0 0 0 
0 0 0 
0 0 0 
0 0 0 
0 0 0 
0 0 0 
0 0 0 
0 0 0 
0 0 0 
1.954376065715106 -1.496510574118142 -1.035573750936726 
0 0 0 
0 0 0 
0 0 0 
0 0 0 
0 0 0 
0 0 0 
0 0 0 
0 0 0 
0 0 0 
0 0 0 
0 0 0 
0 0 0 
0 0 0 
0 0 0 
0 0 0 
0 0 0 
0 0 0 
0 0 0 
0 0 0 
0 0 0 
0 0 0 
0 0 0 
0 0 0 
0 0 0 
0 0 0 
0 0 0 
0 0 0 
0 0 0 
0 0 0 
0 0 0 
0 0 0 
0 0 0 
0 0 0 
-0.04536519125918966 -0.06878652221683310 0.1447173203231200 
-1.324919826632766 0.7142568539726163 0.7150978852222648 
0 0 0 
0 0 0 
0 0 0 
0 0 0 
0 0 0 
0 0 0 
0 0 0 
0 0 0 
-0.2856818948055173 1.531352375813022 -1.603042246073057 
-0.01401542935428692 -0.05669350774013099 0.1122233634025141 
0 0 0 
0 0 0 
0 0 0 
0 0 0 
-0.1502498296305853 0.7914950059505350 -0.8714816322706244 
0 0 0 
0 0 0 
0 0 0 
0 0 0 
-0.01057785029885428 -0.02495336889173382 0.02296378674565449 
0 0 0 
0 0 0 
0 0 0 
0 0 0 
-0.004700882704244507 -0.0008695311626343606 0.001287897019494501 
0 0 0 
0 0 0 
0 0 0 
0 0 0 
0 0 0 
0 0 0 
0 0 0 
0 0 0 
0 0 0 
0 0 0 
0 0 0 
0 0 0 
0 0 0 
0 0 0 
0 0 0 
-0.08219003019493716 -0.008150307035881444 0.1133119545424125 
0 0 0 
0 0 0 
-0.5171233800909525 -0.8432137623027910 1.047306116410933 
0 0 0 
0 0 0 
0 0 0 
0 0 0 
0 0 0 
0 0 0 
0 0 0 
0 0 0 
0 0 0 
0 0 0 
-0.02614559151254661 0.3091601333817754 -0.3303182036022474 
0 0 0 
0 0 0 
0 0 0 
0 0 0 
-0.9452838337888280 0.9366066090894342 -0.4217515938009795 
0 0 0 
0 0 0 
0 0 0 
0 0 0 
-0.02769894585976249 -0.2141096862953454 0.2405746010028036 
0 0 0 
0 0 0 
0 0 0 
0 0 0 
0 0 0 
0 0 0 
0 0 0 
0 0 0 
0 0 0 
0 0 0 
0 0 0 
0 0 0 
-0.01672314002902619 0.004303098647481320 -0.02858922616796514 
0 0 0 
0 0 0 
0 0 0 
0 0 0 
0 0 0 
0 0 0 
0 0 0 
0 0 0 
0 0 0 
0 0 0 
0 0 0 
0 0 0 
0 0 0 
0 0 0 
0 0 0 
0 0 0 
0 0 0 
0 0 0 
0 0 0 
0 0 0 
0 0 0 
-0.03795580589287408 0.2702462545404116 -0.2263546334519798 
-0.03114612821791948 -0.02213386598207720 0.06345087471354580 
0 0 0 
0 0 0 
0 0 0 
0 0 0 
0 0 0 
0 0 0 
0 0 0 
0 0 0 
0 0 0 
0 0 0 
0 0 0 
-0.08155331463457408 -0.06492611516314480 0.1535433110101276 
0 0 0 
0 0 0 
0 0 0 
0 0 0 
0 0 0 
-0.09995350964394299 0.3672108191563167 -0.2715695346692235 
0 0 0 
0 0 0 
0 0 0 
0 0 0 
0 0 0 
0 0 0 
0 0 0 
0 0 0 
0 0 0 
0 0 0 
-0.3429898396315105 -0.001867221460977216 0.2218238418362105 
0 0 0 
0 0 0 
0 0 0 
0 0 0 
0 0 0 
0 0 0 
0 0 0 
-0.04572569776428989 -0.05191828235205010 0.07299798145359660 
0 0 0 
0 0 0 
0 0 0 
-0.007695279056328257 -0.005261245852677323 0.01683545192486418 
0 0 0 
0 0 0 
0 0 0 
0 0 0 
0 0 0 
0 0 0 
-0.2117967181820910 -0.001012180526582643 0.1239295028581509 
0 0 0 
0 0 0 
0 0 0 
0 0 0 
0 0 0 
-0.02001107763341247 -0.007382997551559018 0.05885731913622616 
0 0 0 
0 0 0 
0 0 0 
0 0 0 
0 0 0 
0 0 0 
0 0 0 
0 0 0 
0 0 0 
0 0 0 
0 0 0 
0 0 0 
0 0 0 
0 0 0 
0 0 0 
0 0 0 
0 0 0 
0 0 0 
0 0 0 
0 0 0 
0 0 0 
0 0 0 
0 0 0 
0 0 0 
0 0 0 
0 0 0 
0 0 0 
0 0 0 
0 0 0 
0 0 0 
0 0 0 
0 0 0 
0 0 0 
0 0 0 
-0.1002233732463814 -0.1430120780025046 0.2654303511878866 
-0.01264972805636326 -0.003213068123655694 0.01426739018620185 
-0.02535411362577718 -0.06140352466527409 0.08586000118689388 
-0.1160435514202922 -0.01193950256435335 0.1965124013034352 
0 0 0 
0 0 0 
0 0 0 
0 0 0 
0 0 0 
0 0 0 
0 0 0 
0 0 0 
-0.4425577803349107 -0.7509187812819197 0.9016446079388087 
0 0 0 
0 0 0 
-0.007904096895389480 -0.1423110521089088 0.1234680986338029 
0 0 0 
0 0 0 
0 0 0 
-0.01333662081877985 -0.007943807547069950 0.03071574412022106 
0 0 0 
0 0 0 
-0.2696974034775816 0.7963682519005272 -0.6303995422681941 
-0.7587691598969761 -0.01708990870693234 1.125307578271025 
0 0 0 
0 0 0 
0 0 0 
0 0 0 
0 0 0 
0 0 0 
0 0 0 
0 0 0 
0 0 0 
0 0 0 
0 0 0 
0 0 0 
0 0 0 
0 0 0 
0 0 0 
0 0 0 
0 0 0 
0 0 0 
0 0 0 
0 0 0 
0 0 0 
0 0 0 
0 0 0 
0 0 0 
0 0 0 
0 0 0 
0 0 0 
0 0 0 
0 0 0 
0 0 0 
-0.07133180381598893 -0.1194382817249085 0.2820999925612133 
0 0 0 
0 0 0 
0 0 0 
0 0 0 
0 0 0 
0 0 0 
0 0 0 
0 0 0 
0 0 0 
0 0 0 
0 0 0 
0 0 0 
0 0 0 
-0.3198428296805351 -0.6638312270721979 0.7437265973424466 
-0.1268152571680995 -0.1446807550158502 0.1811236183443692 
0 0 0 
0 0 0 
0 0 0 
0 0 0 
0 0 0 
0 0 0 
0 0 0 
-0.3063932873614612 0.5577455570205392 -0.4715323647454544 
0 0 0 
0 0 0 
0 0 0 
0 0 0 
-0.05037462045119414 -0.5161439868045390 0.3828431670526239 
0 0 0 
0 0 0 
0 0 0 
0 0 0 
0 0 0 
-0.2117967181820910 -0.001012180526582643 0.1239295028581509 
0 0 0 
0 0 0 
0.6294562390823422 -0.7822537201455243 -0.3204758657144503 
0 0 0 
0 0 0 
0 0 0 
0 0 0 
0 0 0 
0 0 0 
0 0 0 
0 0 0 
0 0 0 
0 0 0 
0 0 0 
-0.004833966143805447 -0.01350405683306164 0.01757827333130696 
0 0 0 
0 0 0 
0 0 0 
0 0 0 
0 0 0 
0 0 0 
-0.2124379322496811 -0.008549505334280966 0.1956421458892599 
0 0 0 
0 0 0 
0 0 0 
0 0 0 
0 0 0 
0 0 0 
0 0 0 
0 0 0 
-0.02111429425659931 -0.01305143419675315 0.04302458846878098 
0 0 0 
0 0 0 
0 0 0 
0 0 0 
0 0 0 
0 0 0 
0 0 0 
-0.01791367070285919 -0.006713999713066915 0.02062136235557210 
0 0 0 
0 0 0 
0 0 0 
0 0 0 
0 0 0 
0 0 0 
0 0 0 
0 0 0 
0 0 0 
0 0 0 
0 0 0 
0 0 0 
0 0 0 
0 0 0 
-0.01002282316213619 0.06500645162591191 -0.05424481367953857 
0 0 0 
0 0 0 
-0.01483139005887820 -0.4600888859644622 0.5417399847074502 
0 0 0 
0 0 0 
0 0 0 
0 0 0 
0 0 0 
0 0 0 
0 0 0 
0 0 0 
0 0 0 
0 0 0 
0 0 0 
0 0 0 
0 0 0 
-0.1521344072540996 -0.2285485543588538 0.3158067831266269 
0 0 0 
0 0 0 
0 0 0 
0 0 0 
0 0 0 
0 0 0 
0 0 0 
0 0 0 
0 0 0 
0 0 0 
0 0 0 
0 0 0 
0 0 0 
0 0 0 
0.0009306573140043813 -0.008397873631849672 -0.0003127926784528414 
0 0 0 
-0.007203532741587325 -0.007764525006314267 0.01394598996926194 
0 0 0 
0 0 0 
0 0 0 
0 0 0 
0 0 0 
0 0 0 
0 0 0 
0 0 0 
0 0 0 
0 0 0 
0 0 0 
0 0 0 
0 0 0 
0 0 0 
0 0 0 
0 0 0 
0 0 0 
0 0 0 
0 0 0 
0 0 0 
0 0 0 
0 0 0 
0 0 0 
0 0 0 
0 0 0 
0 0 0 
0 0 0 
0 0 0 
0 0 0 
0 0 0 
0 0 0 
0 0 0 
0 0 0 
0 0 0 
0 0 0 
0 0 0 
0 0 0 
0 0 0 
0 0 0 
0 0 0 
-0.1242888834147813 -0.1206882753233247 0.2552674604717755 
0 0 0 
0 0 0 
0 0 0 
0 0 0 
0 0 0 
0 0 0 
0 0 0 
0 0 0 
0 0 0 
0 0 0 
0 0 0 
0 0 0 
0 0 0 
0 0 0 
0 0 0 
0 0 0 
0 0 0 
0 0 0 
0 0 0 
0 0 0 
0 0 0 
0 0 0 
0 0 0 
0 0 0 
0 0 0 
0 0 0 
0 0 0 
0 0 0 
0 0 0 
0 0 0 
0 0 0 
0 0 0 
0 0 0 
0 0 0 
0 0 0 
-0.008882585518293263 -0.007063736331947672 0.007511712253287404 
0 0 0 
0 0 0 
0 0 0 
0 0 0 
0 0 0 
0 0 0 
0 0 0 
0 0 0 
0 0 0 
0 0 0 
0 0 0 
0 0 0 
0 0 0 
0 0 0 
0 0 0 
0 0 0 
0 0 0 
0 0 0 
0 0 0 
-0.1196374337600651 -0.03302497557092703 0.2067518283002607 
0 0 0 
0 0 0 
0 0 0 
0 0 0 
0 0 0 
0 0 0 
0 0 0 
0 0 0 
0 0 0 
0 0 0 
0 0 0 
0 0 0 
0 0 0 
0.6259409534857486 -0.1499781336814781 -0.5223192356499342 
0 0 0 
0 0 0 
0 0 0 
0 0 0 
0 0 0 
0 0 0 
0 0 0 
0 0 0 
0 0 0 
0 0 0 
0 0 0 
0 0 0 
0 0 0 
0 0 0 
0 0 0 
0 0 0 
0 0 0 
0 0 0 
0 0 0 
0 0 0 
0 0 0 
0 0 0 
-0.4623755320117507 -0.04269076871585806 0.6328953844182017 
0 0 0 
0 0 0 
0 0 0 
0 0 0 
0 0 0 
0 0 0 
0 0 0 
0 0 0 
0 0 0 
0 0 0 
0.02760591163772751 -0.001484147924477853 -0.07357359824462294 
0 0 0 
0 0 0 
0 0 0 
0 0 0 
0 0 0 
0 0 0 
0 0 0 
0 0 0 
0 0 0 
0 0 0 
0 0 0 
-0.007203532741587325 -0.007764525006314267 0.01394598996926194 
0 0 0 
0 0 0 
0 0 0 
0 0 0 
0 0 0 
-0.1033588766898889 0.2089874434414260 -0.1120256744428644 
0 0 0 
0 0 0 
0 0 0 
0 0 0 
0 0 0 
0 0 0 
-0.1033588766898889 0.2089874434414260 -0.1120256744428644 
0 0 0 
0 0 0 
-0.08039748177925797 0.02727402035282174 -0.007911416854356831 
0 0 0 
-0.8224048311729890 0.1445541308867196 0.6864215276349447 
0 0 0 
0 0 0 
0 0 0 
0 0 0 
0 0 0 
0 0 0 
0 0 0 
0 0 0 
0 0 0 
0 0 0 
0 0 0 
0 0 0 
0 0 0 
0 0 0 
0 0 0 
0 0 0 
0 0 0 
0 0 0 
0 0 0 
0 0 0 
0 0 0 
0 0 0 
0 0 0 
0 0 0 
0 0 0 
0 0 0 
0 0 0 
0 0 0 
0 0 0 
0 0 0 
0 0 0 
0 0 0 
-0.03617634333630478 0.1097135130415814 -0.06862924217053967 
0 0 0 
0 0 0 
0 0 0 
0 0 0 
0 0 0 
0 0 0 
0 0 0 
0 0 0 
0 0 0 
0 0 0 
0 0 0 
0 0 0 
0 0 0 
-0.1558372748778554 -0.02269104818136259 0.1408560724461992 
0 0 0 
0 0 0 
0 0 0 
0 0 0 
0 0 0 
0 0 0 
0 0 0 
0 0 0 
-0.1957449123134883 1.316093586123849 -1.034908583887916 
0 0 0 
0 0 0 
0 0 0 
-0.02615352017416859 0.04470706141566944 -0.01438442849100111 
0 0 0 
0 0 0 
0 0 0 
0 0 0 
0 0 0 
-0.03032998757634968 -0.01637295401553379 0.05165262500932488 
0 0 0 
0 0 0 
0 0 0 
0 0 0 
0 0 0 
0 0 0 
0 0 0 
0 0 0 
0 0 0 
0 0 0 
0 0 0 
0 0 0 
0 0 0 
0 0 0 
0 0 0 
0 0 0 
0 0 0 
0 0 0 
0 0 0 
0 0 0 
0 0 0 
0 0 0 
0 0 0 
0 0 0 
0 0 0 
0 0 0 
0 0 0 
0 0 0 
-0.1087592301555418 -0.1441184962866366 0.3857282914895640 
-0.01894240246871007 -0.006761620485706362 0.02565338701652960 
0 0 0 
0 0 0 
0 0 0 
0 0 0 
0 0 0 
0 0 0 
0 0 0 
0 0 0 
0 0 0 
0 0 0 
0 0 0 
0 0 0 
0 0 0 
0 0 0 
-0.04870285708918503 -0.02901960355272629 0.1317870356013500 
0 0 0 
0 0 0 
0 0 0 
0 0 0 
0 0 0 
0 0 0 
0 0 0 
0.02236466358400447 -0.001918569254464771 -0.02792380437402713 
0 0 0 
0 0 0 
0 0 0 
0 0 0 
0 0 0 
0 0 0 
0 0 0 
0 0 0 
0 0 0 
0 0 0 
0 0 0 
0 0 0 
0 0 0 
0 0 0 
0 0 0 
0 0 0 
0 0 0 
0.05072006940568970 -0.07152069912903151 -0.03319511472817179 
0 0 0 
0 0 0 
0 0 0 
0 0 0 
0 0 0 
0 0 0 
0 0 0 
0 0 0 
0 0 0 
0 0 0 
0 0 0 
-0.1493545799340809 -0.2230049696194457 0.3827903539462327 
0 0 0 
0 0 0 
0 0 0 
-0.08039748177925797 0.02727402035282174 -0.007911416854356831 
0 0 0 
0 0 0 
0 0 0 
0 0 0 
0 0 0 
0 0 0 
0 0 0 
0 0 0 
-1.112246033444055 -0.7713989659960604 0.6754281886101028 
0 0 0 
0 0 0 
0 0 0 
0 0 0 
0 0 0 
0 0 0 
0 0 0 
0 0 0 
0 0 0 
0 0 0 
0 0 0 
0 0 0 
0 0 0 
0 0 0 
0 0 0 
0.0008615156774924653 -0.006849721809330116 -0.0003030188658991482 
0 0 0 
0 0 0 
0 0 0 
0 0 0 
0 0 0 
0 0 0 
0 0 0 
0 0 0 
0 0 0 
0 0 0 
0 0 0 
0 0 0 
0 0 0 
0 0 0 
0 0 0 
0 0 0 
0 0 0 
0 0 0 
0.0009306573140043813 -0.008397873631849672 -0.0003127926784528414 
0 0 0 
-0.2525608174176727 0.9805903465375062 -1.098646664920374 
-0.8418501493820069 0.5397383053300749 0.1920977364557742 
0 0 0 
0 0 0 
0 0 0 
0 0 0 
0 0 0 
0 0 0 
0 0 0 
0 0 0 
0 0 0 
0 0 0 
0 0 0 
0 0 0 
0 0 0 
0 0 0 
0 0 0 
0 0 0 
0 0 0 
0 0 0 
0 0 0 
0 0 0 
0 0 0 
-0.01220556633883760 0.1592474949264580 -0.1142163738366593 
0 0 0 
0 0 0 
0 0 0 
0 0 0 
0 0 0 
0 0 0 
0 0 0 
0 0 0 
0 0 0 
0 0 0 
0 0 0 
0 0 0 
-0.08283152182731457 -1.648036581509689 0.8239878366703600 
0 0 0 
0 0 0 
0 0 0 
0 0 0 
0 0 0 
0 0 0 
0 0 0 
0 0 0 
-0.2590109759960038 0.8461378325327326 -0.5996892131437768 
-0.01541903644485858 -0.1019251711002202 0.1062277360851106 
0 0 0 
0 0 0 
0 0 0 
0 0 0 
-0.01576545973065934 -0.03724051776151873 0.05175640276294569 
0 0 0 
0 0 0 
0 0 0 
0 0 0 
0 0 0 
0 0 0 
0 0 0 
0 0 0 
0 0 0 
0 0 0 
0 0 0 
-0.009827653642744710 -0.001315805857194912 0.005548908027055191 
0 0 0 
0 0 0 
0 0 0 
0 0 0 
0 0 0 
0 0 0 
0 0 0 
0 0 0 
0 0 0 
0 0 0 
0 0 0 
0 0 0 
0 0 0 
-0.08419981934777200 -0.01506899473949559 0.1151990898502528 
0 0 0 
0 0 0 
0.02789089816128847 0.006484190277163160 -0.1477937914272111 
0 0 0 
0 0 0 
0 0 0 
0 0 0 
0 0 0 
0 0 0 
0 0 0 
0 0 0 
0 0 0 
0 0 0 
0 0 0 
0 0 0 
0 0 0 
0 0 0 
0 0 0 
-0.1523399236372705 -0.01909126246897043 0.1431079548481303 
0 0 0 
0 0 0 
0 0 0 
0 0 0 
0 0 0 
0 0 0 
0 0 0 
0 0 0 
0 0 0 
0 0 0 
0.05072006940568970 -0.07152069912903151 -0.03319511472817179 
0 0 0 
0 0 0 
0 0 0 
-0.02377913054233536 0.2069490335441148 -0.2672811552637791 
0 0 0 
0 0 0 
0 0 0 
0 0 0 
0 0 0 
0 0 0 
0 0 0 
0 0 0 
0 0 0 
0 0 0 
0 0 0 
0 0 0 
0 0 0 
0 0 0 
0 0 0 
0 0 0 
0 0 0 
0 0 0 
0 0 0 
0 0 0 
0 0 0 
0 0 0 
0 0 0 
0 0 0 
0 0 0 
0 0 0 
0 0 0 
0 0 0 
0 0 0 
0 0 0 
0 0 0 
0 0 0 
0 0 0 
0 0 0 
0 0 0 
0 0 0 
0 0 0 
-0.1222568844460384 -0.1033503542770988 0.2316874353652821 
0 0 0 
0 0 0 
0 0 0 
0 0 0 
0 0 0 
0.001111887619317546 -0.006957605967673368 -0.0003461125283720320 
0 0 0 
0 0 0 
0 0 0 
0 0 0 
0 0 0 
0 0 0 
0 0 0 
0 0 0 
0 0 0 
0 0 0 
-0.03511937983205274 -0.1404407634740544 0.1788233056697797 
0 0 0 
0 0 0 
0 0 0 
0 0 0 
0 0 0 
0 0 0 
0 0 0 
0 0 0 
0 0 0 
0 0 0 
0 0 0 
-0.05326649055105402 -0.06031662840414948 0.1198175688200280 
0 0 0 
0 0 0 
0 0 0 
0 0 0 
0 0 0 
0 0 0 
-0.02959630471575833 -0.3177111426176855 0.2597816932275722 
0 0 0 
0 0 0 
0 0 0 
0 0 0 
0 0 0 
0 0 0 
0 0 0 
0 0 0 
0 0 0 
0 0 0 
0 0 0 
0 0 0 
0 0 0 
0 0 0 
0 0 0 
0 0 0 
0 0 0 
0 0 0 
0 0 0 
0 0 0 
0 0 0 
0 0 0 
0 0 0 
0 0 0 
0 0 0 
0 0 0 
0 0 0 
0 0 0 
0 0 0 
0 0 0 
0 0 0 
0 0 0 
0 0 0 
0 0 0 
0 0 0 
0 0 0 
0 0 0 
0 0 0 
0 0 0 
0 0 0 
-0.4052950799435163 -0.1377179025363375 0.4928319423630206 
0 0 0 
0 0 0 
-0.1196374337600651 -0.03302497557092703 0.2067518283002607 
0 0 0 
0.0009306573140043813 -0.008397873631849672 -0.0003127926784528414 
0 0 0 
0 0 0 
0 0 0 
0 0 0 
0 0 0 
0 0 0 
-0.02375982855840561 0.08640276303804434 -0.1142858840205864 
0 0 0 
0 0 0 
0 0 0 
0 0 0 
0 0 0 
0 0 0 
-0.02504499027593242 -0.02594615300119304 0.05636044174485859 
0 0 0 
0 0 0 
-0.1549074181464092 -0.01730118425666087 0.1467847761744705 
-0.7587691598969761 -0.01708990870693234 1.125307578271025 
0 0 0 
0 0 0 
0 0 0 
0.05072006940568970 -0.07152069912903151 -0.03319511472817179 
0 0 0 
0 0 0 
0 0 0 
0 0 0 
0 0 0 
0 0 0 
0 0 0 
0 0 0 
0 0 0 
0 0 0 
0 0 0 
0 0 0 
0 0 0 
0 0 0 
0 0 0 
0 0 0 
0 0 0 
0 0 0 
0 0 0 
0 0 0 
0 0 0 
0 0 0 
0 0 0 
0 0 0 
0 0 0 
0 0 0 
-0.1198429624294220 -0.1200570913305689 0.2157601308733822 
0 0 0 
0 0 0 
0 0 0 
0 0 0 
0 0 0 
0 0 0 
0 0 0 
0 0 0 
0 0 0 
0 0 0 
0 0 0 
0 0 0 
0 0 0 
-0.02462134423589807 0.09325248484737446 -0.1139828651546873 
-0.03250349429677565 0.1246778774952171 -0.1074381660094347 
0 0 0 
0 0 0 
0 0 0 
0 0 0 
0 0 0 
0 0 0 
0 0 0 
0 0 0 
0.0007980592809709564 -0.006812172749451462 -0.0002743257663680441 
0 0 0 
0 0 0 
0 0 0 
0 0 0 
0 0 0 
0 0 0 
0 0 0 
0 0 0 
0 0 0 
-0.02959630471575833 -0.3177111426176855 0.2597816932275722 
0 0 0 
0 0 0 
-0.9246816712093161 -1.108298276179619 1.016085573126152 
0 0 0 
0 0 0 
0 0 0 
0 0 0 
0 0 0 
0 0 0 
0 0 0 
0 0 0 
0 0 0 
0 0 0 
0 0 0 
-0.1033588766898889 0.2089874434414260 -0.1120256744428644 
0 0 0 
0 0 0 
0 0 0 
0 0 0 
0 0 0 
0 0 0 
-0.09816154201773536 0.1097454767700007 0.01085381478206453 
0 0 0 
0 0 0 
0 0 0 
0 0 0 
0 0 0 
0 0 0 
0 0 0 
0 0 0 
-0.01402433181865979 -0.02952969795685517 0.08600179931122422 
0 0 0 
0 0 0 
-0.2942529516028117 -0.5426075793788351 0.2727755115065284 
-0.3053253852611488 -0.02538835812682550 0.1293937971313873 
-0.1529407512851880 -0.4225382338312168 0.4916746919172987 
-0.01919382516277253 0.1144170774671117 -0.1178423822077320 
-0.04796828971213182 -0.1657451540680703 0.1870024701122810 
-0.01217801986592616 0.05892279828191959 -0.1258560714373471 
-0.007291254632009461 0.1180734357277154 -0.1121169760077632 
-0.1808017981658641 -0.3200161075889884 0.4364844927026239 
0 0 0 
-0.05038698709113540 0.06746543461262432 -0.05143686770422726 
0 0 0 
-0.003150224799895469 0.01578102411220104 -0.03478139343817572 
-0.005153616659368893 0.01039584110833075 -0.01189604656028188 
0 0 0 
0 0 0 
-0.03312761513824404 0.3057898077366650 -0.3623934437834419 
0 0 0 
-0.0004753140675590594 0.01405104795131439 -0.02557959362106059 
0 0 0 
0 0 0 
0 0 0 
0 0 0 
0 0 0 
-0.6992129085529918 -0.5238357765578411 0.7078707705415148 
-0.4001065317865624 -0.2339076625092400 -0.04646129026376270 
0 0 0 
0 0 0 
0 0 0 
0.003125330096857303 -0.0006807131478387043 -0.003189877081141824 
0 0 0 
-0.001054642490785038 -0.005269383037539904 0.001527474978519573 
0 0 0 
-0.01858807625955919 -0.006077355805436650 0.02060105707418026 
0 0 0 
0.003590795548988165 -0.001628074938158203 -0.004919946639209830 
0 0 0 
0 0 0 
0 0 0 
0 0 0 
0 0 0 
0 0 0 
0 0 0 
0 0 0 
0 0 0 
0 0 0 
0 0 0 
