solver_type L2R_LR
nr_class 2
label 1 2
nr_feature 2091
bias 0.000000000000000
w
0.2536884249994318 
0.1419518550071117 
0.1772066137139662 
0.2369746466413349 
0.2313806083159019 
-0.07217681155407553 
-0.05887898152417584 
0.2946922897301448 
0.2521198922986082 
-0.2703989219001221 
-0.1115842089907400 
-0.1571504339480725 
0.01599225975339960 
0.3330437657962836 
0.04895494584632812 
0.2482747305503483 
0.1131638905984093 
0.09047990948957903 
-0.2703161200447095 
0.02982810877057968 
-0.3067506267511356 
-0.2620494803152214 
0.04174315692724761 
0.08347936527748470 
0.04174315692724761 
0.04302487723574134 
-0.2242296632747865 
-0.2304583221950207 
0.02137805616509321 
0.1322319540542693 
0.1322319540542693 
0.1681881486729898 
0.03863421309074317 
0.02595607307423264 
0.04174315692724761 
-0.07547261714213220 
0.02595607307423264 
0.04174315692724761 
0.07910370934650224 
0.2444815769288688 
-0.1940957789362546 
0.06769923000148025 
-0.1705122449829396 
0.04299483943636735 
0.05945195400993092 
0.08347936527748470 
-0.06604146964329885 
-0.05071940577249043 
-0.001024827955588761 
0.2470148498294992 
-0.06604146964329885 
0.02595607307423264 
0.02595607307423264 
0.02595607307423264 
0.0009875644755902226 
-0.1054669531937989 
0.02595607307423264 
0.02595607307423264 
0.005948199629105791 
0.1746273009197622 
-0.01186374396620231 
0.02595607307423264 
0.02595607307423264 
0.2998436811289439 
-0.01434141246557398 
0.006704514086815616 
0.02595607307423264 
0.09048879712702165 
-0.01186374396620231 
-0.1054669531937989 
0.04174315692724761 
0.07142073367116170 
-0.01186374396620231 
0.001281720308493728 
0.0001669730716416814 
0.1706341265716391 
-0.2593589050751972 
0.04174315692724761 
-0.1661937090357660 
0.1422320755987571 
0.003921393030730168 
-0.05170697024808065 
0.001281720308493728 
0.2790602401480054 
0.02595607307423264 
0.02595607307423264 
-0.06312836625225487 
-0.09954355678898796 
0.03666379330492119 
0.0009875644755902226 
-0.2639563467794044 
-0.02286712376344243 
0.02595607307423264 
0.05752329220325207 
-0.04863064683876433 
0.3063025247851907 
-0.001191801027230442 
-0.001191801027230442 
-0.2593589050751972 
0.1022495013301117 
0.2210587767552666 
-0.07504840444946890 
0.0004308210336501285 
-0.1054669531937989 
-0.01434141246557398 
0.05752329220325207 
0.03666379330492119 
0.1461496588182242 
0.05698662995153226 
0.04174315692724761 
-0.01186374396620231 
0.004764532251882424 
-0.01186374396620231 
0.3057235204873511 
0.07142073367116170 
0.2790602401480054 
-0.01186374396620231 
-0.06504529178914077 
0.02595607307423264 
-0.03452441943115658 
0.0003728747054431650 
0.04174315692724761 
0.003921393030730168 
-0.0007931445228964467 
0.001853181614366040 
0.005768456712229415 
-0.05555300035567645 
-0.3204122877204210 
-0.2023123389526525 
0.6493341746085870 
-0.4838055138209726 
-0.3274053803434187 
0.5971772887761387 
0.2228857440907794 
0.2598899163772098 
0.7596517773609489 
0.5607945829408960 
-0.1340920844980560 
0.2999375312794722 
0.4704535929660791 
-0.6017866356083227 
-0.2815752432256106 
-0.3048760229084326 
-0.1680221895194672 
-0.07103169187378411 
-0.6522945024833903 
0.07869432234831317 
0.03182874854051210 
0.2495908328619364 
0.1589166375563076 
-0.07031185853705314 
0.3694316489122941 
-0.3167560160693240 
-0.04865089094241235 
0.5241077606031944 
-0.1007987345182324 
-0.3875422700375508 
0.6731034029456421 
0.02732383096866290 
0.3080973350559567 
0.5147182559351142 
0.02672486090250199 
0.02250456547921791 
0.2489948823068091 
0.03725366440849900 
0.06183163399230066 
0.01956940413869044 
0.01198362674398193 
-0.2462199691357514 
0.01896595231956479 
0.01956552020019919 
-0.01075615825874801 
-0.1562762566302076 
0.3365079460911897 
0.03071863056024437 
0.02132397613532759 
0.02061592563503594 
0.03869169751895787 
0.004506068785947883 
0.2297348540891893 
0.1609825203440141 
-0.02147664497058788 
0.03483756184762068 
0.01364711865741441 
0.2535390971875229 
-0.01472756864708932 
0.1298591551968683 
0.02179352631963276 
-0.1488168576687604 
0.1140863323095084 
0.01317878142049273 
0.07927854809432974 
-0.1266557545545997 
0.07927854809432974 
-0.04937055618436187 
-0.09435357382267219 
-0.1702513536680435 
0.1187240925647119 
-0.09435357382267219 
0.02158554246998435 
0.2282662008157252 
0.007056336937524428 
-0.009959124892517317 
0.05726661881864625 
-0.2669647617392882 
-0.02024589729298672 
0.02600116394010747 
-0.01179958759033057 
0.1360668668709638 
-0.2740894960447863 
0.001710909027308053 
0.05049358644571322 
-0.06125845172815601 
-0.02920287861458643 
-0.09435357382267219 
-0.3383745177114575 
-0.1675287221617979 
0.1197340672184702 
0.09593794872878470 
-0.06151240582884343 
0.07580613427640033 
-0.2554409979373990 
-0.01365095598599598 
0.06163798389996908 
-0.01510045027850281 
0.05097644068467114 
-0.01145596377203326 
-0.08068723741257440 
0.01145662826469988 
-0.1459395087877654 
-0.01555972947123973 
-0.1673395580837835 
-0.08482852370648428 
-0.1475499004614600 
0.04686304416057882 
0.03049811038849965 
0.009315533492214163 
0.05960783896491155 
0.03582409493830614 
-0.2040865744551529 
0.1181939288697746 
-0.01871809068927515 
0.004331727190700603 
-0.1624739627108282 
-0.008035059610538920 
-0.3112872811441638 
-0.09435357382267219 
0.01196112458469658 
0.08719972504529243 
-0.01309054515898521 
0.03172452978646132 
-0.008026013534766693 
-0.3204122877204210 
-0.2440554958799004 
0.5779134409374248 
-0.5942919297844909 
-0.3274053803434187 
0.3872730577566004 
0.2228857440907794 
0.2598899163772098 
0.7596517773609489 
0.5607945829408960 
-0.1340920844980560 
0.2999375312794722 
-0.4415446476820682 
0.5466539135391961 
-0.3696393077649298 
-0.3048760229084326 
-0.1680221895194672 
0.2346918286135676 
-0.6522945024833903 
0.07869432234831317 
0.03182874854051210 
0.2495908328619364 
0.1589166375563076 
-0.07031185853705314 
0.3694316489122941 
-0.2776277885703193 
-0.04865089094241235 
0.5241077606031944 
-0.1007987345182324 
-0.3875422700375508 
0.6731034029456421 
-0.03339713404613354 
0.6277145435265636 
0.5147182559351142 
0.02672486090250199 
0.2489948823068091 
0.2864609122586223 
0.03725366440849900 
0.06183163399230066 
0.01956940413869044 
0.01198362674398193 
0.01896595231956479 
0.01956552020019919 
-0.01075615825874801 
-0.1562762566302076 
0.3365079460911897 
0.05362538922872368 
0.03071863056024437 
0.02132397613532759 
0.02061592563503594 
0.03869169751895787 
0.004506068785947883 
0.2297348540891893 
0.1609825203440141 
0.03483756184762068 
0.01364711865741441 
0.2535390971875229 
-0.01472756864708932 
0.01317878142049273 
-0.07899993717383993 
0.1298591551968683 
0.02179352631963276 
-0.1488168576687604 
0.1140863323095084 
0.07927854809432974 
-0.4479677430109012 
-0.1266557545545997 
0.07927854809432974 
-0.09435357382267219 
-0.1702513536680435 
-0.04937055618436187 
0.1187240925647119 
-0.09435357382267219 
0.02158554246998435 
0.2282662008157252 
0.1330587175711308 
-0.009959124892517317 
0.05726661881864625 
-0.2669647617392882 
-0.02024589729298672 
0.02600116394010747 
-0.01179958759033057 
0.1360668668709638 
-0.4553211724820562 
-0.2740894960447863 
0.001710909027308053 
-0.06125845172815601 
0.05049358644571322 
-0.02920287861458643 
-0.09435357382267219 
-0.3383745177114575 
-0.1675287221617979 
0.1197340672184702 
0.09593794872878470 
-0.2554409979373990 
0.007056336937524428 
-0.06151240582884343 
0.07580613427640033 
-0.01365095598599598 
-0.01510045027850281 
-0.01145596377203326 
0.05097644068467114 
-0.08068723741257440 
0.01145662826469988 
-0.1459395087877654 
-0.01555972947123973 
0.07385671696970740 
-0.08482852370648428 
-0.1475499004614600 
0.04686304416057882 
0.03049811038849965 
0.009315533492214163 
0.05960783896491155 
0.03582409493830614 
-0.2040865744551529 
0.1181939288697746 
-0.01871809068927515 
0.004331727190700603 
-0.1624739627108282 
-0.008035059610538920 
-0.08299417721946617 
-0.09435357382267219 
0.01196112458469658 
-0.1106596717678255 
-0.5791252817488212 
-0.6364200371546784 
0.7345214836006947 
0.5319941319739249 
-0.3877046031890564 
-0.5612873129723089 
0.2563322599108376 
-0.07835880595198755 
0.3629468234129193 
-0.1513092021980924 
0.3413863477948493 
0.3413863477948493 
0.3413863477948493 
0.02760221481289815 
0.02760221481289815 
0.04135595933569563 
0.1213197648306318 
0.01370161393098295 
0.06986446561082865 
0.02375785392475635 
-0.4782507950768679 
0.08302458420721355 
0.3046266068841569 
-0.3983854484451797 
-0.07115303175160920 
0.03092072661813662 
0.4204624260893585 
-0.1172307138895342 
-0.4938835741621319 
-0.4938835741621319 
0.004244638388185471 
0.004244638388185471 
0.2480649958124346 
-0.2321461283629948 
0.006351382963450300 
0.09015866435921907 
0.02035099902522983 
0.1215074376579591 
0.05718354960480036 
0.05066049150235851 
0.1211934248489406 
0.07580357410152241 
0.2640820840812281 
0.08347936527748470 
0.2577958266465129 
0.004543746766429210 
0.2383333565731194 
0.009590759007230039 
0.001545721563692050 
0.02679512052587350 
-0.1386717842879927 
-0.01186374396620231 
0.1322319540542693 
-0.09332222020776525 
0.1681881486729898 
0.004012951078901652 
0.003454000253175470 
0.02595607307423264 
0.04174315692724761 
0.002884024674539215 
-0.1233304974779762 
0.0009296104136342143 
-0.09193938528890504 
0.04174315692724761 
0.02595607307423264 
0.04174315692724761 
0.01741035087388726 
0.08347936527748470 
0.2017867060086883 
0.04298927644936811 
0.2236433605558270 
0.2483155512882879 
-0.05099197146520702 
0.06769923000148025 
-0.3651839003690297 
0.3322585978594233 
0.02595607307423264 
0.2998436811289439 
0.02595607307423264 
0.0002759440133500864 
-0.1178954583631377 
0.09048879712702165 
-0.04583467807739500 
-0.02286712376344243 
0.01450816496019757 
0.02595607307423264 
0.002178631665001354 
0.02595607307423264 
0.05752329220325207 
-0.09954355678898796 
0.07142073367116170 
-0.01186374396620231 
0.08607432697116348 
0.1461496588182242 
-0.2501857363490191 
0.04174315692724761 
0.3535289354285370 
0.09048879712702165 
0.06867850874661807 
0.03471473296126779 
0.02595607307423264 
-0.01186374396620231 
0.3057235204873511 
-0.01186374396620231 
-0.03074468885971749 
-0.01186374396620231 
-0.2593589050751972 
0.02595607307423264 
-0.04863064683876433 
-0.01434141246557398 
0.01580936481825816 
0.02595607307423264 
0.05752329220325207 
0.1422320755987571 
0.05752329220325207 
0.007565864024313182 
-0.1014286902163648 
0.04174315692724761 
0.1706341265716391 
-0.2639563467794044 
0.02595607307423264 
0.02595607307423264 
-0.2639563467794044 
-0.01186374396620231 
0 
0 
0 
0 
0 
0 
0 
0 
0 
0 
0 
0 
0 
0 
0 
0 
0 
0 
0 
0 
0 
0 
0 
0 
0 
0 
0 
0 
0 
0 
0 
0 
0 
0 
0 
0 
0 
0 
0 
0 
0 
0 
0 
0 
0 
0 
0 
0 
0 
0 
0 
0 
0 
0 
0 
0 
0 
0 
0 
0 
0 
0 
0.5147182559351142 
0 
0 
0 
0 
0 
0 
0 
0 
0 
0 
0 
0 
0 
0 
0 
0 
0 
0 
0 
0 
0 
0 
0 
0 
0 
0 
0 
0 
0 
0 
0 
0 
0.1104173021856611 
0 
0 
0 
0 
0 
0 
0 
0 
0 
0 
0 
0 
0 
0 
0 
0 
0 
0 
0 
0 
0 
0 
0 
0 
0 
0 
0 
0 
0 
0 
0 
0 
0 
0 
0 
0 
0 
0 
0 
0 
0 
0 
0 
0 
0 
0 
0 
0 
0 
0 
0 
0 
0 
0 
0 
0 
0 
0 
0 
0 
0 
0 
0 
0 
0 
0 
0 
0 
0 
0 
0 
0 
0 
0 
0 
0 
0 
0 
0 
0 
0 
0 
0 
0 
0 
0 
0 
0 
0 
0 
0 
0 
0 
0 
0 
0 
0 
0 
0 
0 
0 
0 
0 
0.001803131682385802 
0 
0 
0 
0 
0 
0 
0 
0 
0 
0 
0 
0 
0 
0 
0 
0 
0 
0 
0 
0 
0 
0 
0 
0 
0 
0 
0 
0 
0 
0 
0 
0 
0 
0 
0 
0 
0 
0 
0 
0 
0 
0 
0 
0 
0 
0 
0 
0 
0 
0 
0 
0 
0 
0 
0 
0 
0 
0 
0 
0 
0 
0 
0 
0 
0 
0 
0 
0 
0 
0 
0 
0 
0 
0 
0 
0 
0 
0 
0 
0 
0 
0 
0 
0 
0 
0 
0 
0 
0 
0 
0 
0 
0 
0 
0 
0 
0 
0 
0 
0 
0 
0 
0 
0 
0 
0 
0 
0 
0 
0 
0 
0 
0 
0 
0 
0 
0 
0 
0 
0 
0 
0 
0 
0 
0 
0 
0 
0 
0 
0 
0 
0 
0 
0 
0 
0 
0 
0 
0 
0 
0 
0 
0 
0 
0 
0 
0 
0 
0 
0 
0 
0 
0 
0 
0 
0 
0 
0 
0 
0 
0 
0 
0 
0 
0 
0 
0 
0 
0 
0 
0 
0 
0 
0 
0 
0 
0 
0 
0 
0 
0 
0 
0 
0 
0 
0 
0 
0 
0 
0 
0 
0.1104173021856611 
0 
0 
0 
0 
0 
0 
0 
0 
0 
0 
0 
0 
0 
0 
0 
0 
0 
0 
0 
0 
0 
0 
0 
0 
0 
0 
0 
0 
0 
0 
0 
0 
0 
0 
0 
0 
0 
0 
0 
0 
0 
0 
0 
0 
0 
0 
0 
0 
0 
0 
0 
0 
0 
0 
0 
0 
0 
0 
0 
0 
0 
0 
0 
0 
0 
0 
0 
0 
0 
0 
0 
0 
0.1104173021856611 
0 
0 
0 
0 
0 
0 
0 
0 
0 
0 
0 
0 
0 
0 
0 
0 
0 
0 
0 
0 
0 
0 
0 
0 
0 
0 
0 
0 
0 
0 
0 
0 
0 
0 
0 
0 
0 
0 
0 
0 
0 
0 
0 
0 
0 
0 
0 
0 
0 
0 
0 
0 
0 
0 
0 
0 
0 
0 
0 
0.1968310685940523 
0 
0 
0 
0.003323650535078229 
0 
0 
0 
0 
0 
0 
0 
0 
0 
0 
0 
0 
0 
0 
0 
0 
0 
0 
0 
0 
0 
0 
0 
0 
0 
0 
0 
0 
0 
0 
0 
0 
0 
0 
0 
0 
0 
0 
0 
0 
0 
0 
0 
0 
0 
0 
0 
0 
-0.4076246042845280 
0 
0 
0 
0 
0 
0 
0 
0 
0 
0 
0 
0 
0 
0 
0 
0 
0 
0 
0 
0 
0 
0 
0 
0 
0 
0 
0 
0 
0 
0 
0 
0 
0 
0 
0 
0 
0 
0 
0 
0 
0 
0 
0 
0 
0 
0 
0 
0 
0 
0 
0 
0 
0 
0 
0 
0 
0 
0 
0 
0 
0 
0 
0 
0 
0 
0 
0 
0 
0 
0 
0 
0 
0 
0 
0 
0 
0 
0 
0 
0 
0 
0 
0 
0 
0 
0 
0 
0 
0 
0 
0 
0 
0 
0 
0 
0 
0 
0 
0.1968310685940523 
0 
0 
0 
0 
0 
0 
0 
0 
0 
0 
0 
0 
0 
0 
0 
0 
0 
0 
0 
0 
0 
0 
0 
0 
0 
0 
0 
0 
0 
0 
0 
0.1968310685940523 
0 
0 
0 
0 
0 
0 
0 
0 
0 
0 
0 
0 
0 
0 
0 
0 
0 
0 
0 
0 
0 
0 
0 
0 
0 
0 
0 
0 
0 
0 
0 
0 
0 
0 
0 
0 
0.1104173021856611 
0 
0 
0 
0 
0 
0 
0 
0 
0 
0 
0 
0 
0 
0 
0 
0 
0 
0 
0 
0 
0 
0 
0 
0 
0 
0 
0 
0 
0 
0 
0 
0 
0 
0 
0 
0 
0 
0 
0 
0 
0 
0 
0 
0 
0 
0 
0 
0 
0 
0 
0 
0 
0 
0 
0 
0 
0 
0 
0 
0 
0 
0 
0 
0 
0 
0 
0 
0 
0 
0 
0 
0 
0 
0 
0 
0 
0 
0 
0 
0 
0 
0 
0 
0 
0 
0 
0 
0 
0 
0 
0 
0 
0 
0 
0 
0 
0 
0 
0 
0 
0 
0 
0 
0 
0 
0 
0 
0 
0 
0 
0 
0 
0 
0 
0 
0 
0 
0 
0 
0 
0 
0 
0 
0 
0 
0 
0 
0 
0 
0 
0 
0 
0 
0 
0 
0 
0 
0 
0 
0 
0 
0 
0 
0 
0 
0 
0 
0 
0 
0 
0 
0 
0 
0 
0 
0 
0 
0 
0 
0 
0 
0 
0 
0 
0 
0 
0 
0 
0 
0 
0 
0 
0 
0 
0 
0 
0 
0 
0 
0 
0 
-0.05786621830687455 
0 
0 
0 
0 
0 
0 
0 
0 
0 
0 
0 
0 
0 
0 
0 
0 
0 
0 
0 
0 
0 
0 
0 
0 
0 
0 
0 
0 
0 
0 
0 
0 
0 
0 
0 
0 
0 
0 
0 
0 
0 
0 
0 
0 
0 
0 
0 
0 
0 
0 
0 
0 
0 
0 
0 
0 
0 
0 
0 
0 
0 
0 
0 
0 
0 
0 
0 
0 
0 
0 
0 
0 
0 
0 
0 
0 
0 
0 
0 
0 
0 
0 
0 
0 
0 
0 
0 
0 
0 
0 
0 
0 
0 
0 
0 
0 
0 
0 
0 
0 
0 
0 
0 
0 
0 
0 
0 
0 
0 
0 
0 
0 
0 
0 
0 
0 
0 
0 
0 
0 
0 
0 
0 
0 
0 
0 
0 
0 
0 
0 
0 
0 
0 
0.2580912561991351 
0 
0 
0 
0 
0 
0 
0 
0 
0 
0 
0 
0 
0 
0 
0 
0 
0 
0 
0 
0 
0 
0 
0 
0 
0 
0 
0 
0 
0 
0 
0 
0 
0 
0 
0 
0 
0 
0 
0 
0 
0 
0 
0 
0 
0 
0 
0 
0 
0 
0 
0 
0 
0 
0 
-2.536374862336919 
0 
0 
0 
0 
0 
0 
0 
0 
0 
0 
0 
0 
0 
0 
0 
0 
0 
0 
0 
0 
0 
0 
0 
0 
0 
0.2933430127235593 
0 
0 
0 
0 
0 
0 
0 
0 
0 
0 
0 
0 
0 
0 
0 
0 
0 
0 
0 
0 
0 
0 
0 
0 
0.1104173021856611 
0 
0 
0 
0 
0 
0 
0 
0 
0 
0 
0 
0 
0 
0 
0 
-0.4489388864948071 
0 
0 
0 
0 
0 
0 
0 
0 
0 
0 
0 
0 
0 
0 
0 
0 
0 
0 
0 
0 
0 
0.2002250378922591 
0 
0 
0 
0 
0 
0 
0 
0 
0 
0 
0 
0 
0 
0 
0 
0 
0 
0 
0 
0 
0 
0 
0 
0 
0 
0 
0 
0 
0 
0 
0 
0 
0 
0 
0.003323650535078229 
0 
0 
0 
0 
0 
0 
0 
0 
0 
0 
0 
0 
0 
0 
0 
0 
0 
0 
0 
0 
0 
0 
0 
0 
0 
0 
0 
0 
0 
0 
0 
0 
0 
0 
0 
0 
0 
0 
0 
0 
0 
0 
0 
0.2002116264818844 
0 
0 
0 
0 
0 
0 
0 
0 
0 
0 
0 
0 
0 
0 
0 
0 
0 
0 
0 
0 
0 
0 
0 
0 
0 
0 
0 
0 
0 
0 
0 
0 
0.2933430127235593 
0 
0 
0 
0 
0 
0 
0 
0 
0 
0 
0 
0 
0 
0 
0 
0 
0 
0 
0 
0 
0 
0 
0 
0 
0 
0 
0 
0 
0 
0 
0 
0 
0 
0 
0 
0 
0 
0 
0 
0 
0 
0 
0 
0 
0 
0 
0 
0 
0 
0 
0 
0 
0 
0 
0 
0 
0 
0 
0 
0 
0 
0 
0 
0 
0 
0 
0 
0 
0 
0 
0 
0 
0 
0 
0 
0 
0 
0 
0 
0 
0 
0 
0 
0 
0 
0 
0 
0 
0 
0 
0 
0 
0 
0 
0 
0 
0 
0 
0 
0 
0 
0 
0 
0 
0 
0 
0 
0 
0 
0 
0 
0 
0.003323650535078229 
0 
0 
-0.05786621830687455 
0 
0 
0 
0 
0 
0 
0 
0 
-0.09313138624167487 
0 
0 
0 
0 
0 
0 
0 
0 
0 
0 
0 
0 
0 
0 
0 
0 
0 
0 
0 
0 
0 
0 
0 
0 
0 
0 
0 
0 
0 
0 
0.2933430127235593 
0 
0 
0 
0 
0 
0 
0 
0 
0 
0 
0 
0 
0 
0 
0 
0 
0 
0 
0 
0 
0 
0 
0 
0 
0.3558075002531323 
0 
0 
0 
0 
0 
0 
0 
0 
0 
0 
0 
0 
0 
0 
0 
0 
0 
0 
0 
0 
0 
0 
0.2035486884273373 
0 
0 
0 
0 
0 
0 
0 
0 
0 
0 
0 
0 
0 
0 
0 
0 
0 
0 
0 
0 
0 
0 
0 
0 
0 
0 
0 
0 
0 
0 
-0.09760706288815978 
0.2116786026135048 
0 
0 
0 
0.0007997555666825107 
0.009081014881913471 
-0.01026170034465039 
-0.04863064683876433 
0.0007407467337141360 
-0.01389035941946461 
0 
-0.001684831931931148 
0.04948534417593321 
0 
0 
0 
0 
0 
0.01070643963688979 
-0.2194938303111814 
0.3265874819617642 
0 
0 
0 
0 
0 
0 
0 
0 
0 
0 
0 
0.003323650535078229 
0 
0 
0 
0 
0 
0 
