solver_type L2R_LR
nr_class 23
label 1 2 3 4 5 6 7 8 9 10 11 12 13 14 15 16 17 18 19 20 21 22 23
nr_feature 2097
bias 0.000000000000000
w
0.5327342100709660 0.2900103704970807 0.06225805880613550 0.07612200795424540 -0.5542007892708024 0.5028915279782666 0.2240876806053486 -0.1325004213908397 -0.2816143178528146 0.2756108774570380 -0.6414507945231206 -0.2208588028438598 0.06641342348403119 0.3198991930678108 -0.05892938439493027 -0.4540847062716252 -0.8587173499987423 -0.1696115262818034 0.1350767841450452 -0.6108393523867209 -0.3305662798440855 0.2191448213993456 -0.2434311227030114 
0.2044655310754153 -0.3168382821045965 0.4391919568667531 -0.1009937403369264 -0.3081476806282180 1.039971079546914 0.4302177079003295 -0.009044891638725298 -0.2303240581578899 -0.04700586255674117 -0.4800332679610475 0.09830035377784543 -0.1831515658455828 -0.3627596869086607 -0.1655332964127589 -0.1186660848450199 -0.5435867857147263 0.07340247845563617 -0.007590411961943668 -0.5526471822554992 -0.3231177490067701 0.2806113143608941 -0.1949992718305786 
0.3570469599151611 -0.1262909424983365 -0.1617857034278492 0.1513835902040916 -0.3249810997405254 -0.1440547079601443 -0.1741399936693317 -0.1019232870278988 -0.2658403027563668 0.2941826289932890 0.2182802612437167 0.2235322102818035 0.1469530794160459 -0.2464204255896352 0.02597050558019635 0.07280586741795578 -0.04674176530773904 0.5458898598946756 0.4540492009644208 -0.01570641084769795 -0.2350752156766937 -0.2996000931048084 -0.2205770816449136 
-0.05881902138643402 -0.1086557869433889 -0.7871435813926091 -0.7591057355921308 0.2188148874284988 -0.1973507698197758 0.8537839911373855 -0.1367077806223521 -0.07561622607089236 -0.1409836041785119 0.1001102837044977 0.2044905881136319 -0.7486557878640766 0.1187169084908517 -0.1094351667028528 0.1355453354274880 -0.5385477213227118 0.2426467837435230 -0.03208540122745440 -0.4421539580838343 -0.3719570213591801 -0.3995490989221812 -0.1964697394470700 
0.005857259836766859 -0.1379486705698218 0.2046813366419369 -0.1960616856691741 0.07341680936642070 0.07424157969461972 -0.09808885225847169 0.04123026646028150 0.1261877393673984 0.4544767400555989 0.09135147004638562 -0.1391005893705248 -0.01290973896285861 0.1435360104090675 -0.05245839205722404 -0.2022409629704018 -0.01426662374618875 0.1236695785938893 -0.07859404921578529 -0.5053181259398984 0.1178491417053728 -0.2078806053492669 -0.1624812962323186 
-0.08694131546154503 -0.02487672571819000 -0.0005167865993133207 0.7953878045706735 0.1390557146615012 0.2664413993613893 0.1305441928737229 -0.04487896972857721 -0.06744592413377908 0.3109304910909428 -0.2328514939846138 -0.1418979540400303 -0.1893567382545169 -0.2485977136662425 0.1020411146228584 -0.3478975626835073 -0.1192207385875084 -0.4809500567899308 0.05433057017416462 0.3165875345703397 -0.3181654905799888 -0.2570823881053445 -0.1085428770767100 
-0.06292088222097894 -0.1520648617295078 0.1530683882803642 0.5233459137029384 -0.1994025065261507 0.1088531654310805 0.05118959277063175 -0.1581434933022173 0.04550212931688148 -0.1416453742824693 0.3945816017398753 -0.06139248183769719 -0.8794873492888575 -0.2939991016992994 0.2676346520991864 -0.1582052993552831 1.031894018301031 0.03515610509199693 -0.1759450959242674 -0.1029322462287910 -0.06850017474794437 -0.1140262429921221 -0.04656946704834657 
0.1901833793187301 -0.2313269932977451 0.3547887205611865 0.7985163005146266 -0.5745536731993046 -0.1039219831892927 0.3677822377683062 -0.2060072067238863 -0.1134089063758969 -0.1735856450570943 0.1592909107371609 0.1355653323166569 -0.07345025536869935 -0.3970499914834228 -0.1462823252886161 -0.06469277861354021 0.06472250957433948 -0.2791536182462219 -0.2197996918840119 0.2891100256977990 -0.1070341566969242 -0.1822791578358787 -0.1147144068896839 
-0.3036210217457012 -0.06121749905048671 -0.5578701446698333 -0.3794139162517184 0.4057436226071816 0.2937527354785463 -0.1698990755280902 -0.1636184124612175 0.03574392602112572 0.02951675839084477 -0.1632852118023163 0.1196347533364995 0.8609406243851646 -0.2465174068647736 0.1040368639113419 -0.1447625623972397 -1.073269717983476 -0.05847345921208273 -0.1678386894949618 0.1648003834932158 -0.08006187739727107 -0.1168016811616637 -0.1007810394579473 
-0.6356444746246446 -0.08083893279581426 -0.01108825940199718 1.258004484366820 -0.1946252082411724 -0.4099400413657175 -0.1930940384167194 -0.2165804538668717 -0.03573524237788857 0.09740406911428802 -0.4335734193210787 -0.07857835432834160 -0.5567687407672723 0.1043503133525973 -0.1342389323439266 -0.3791715795350191 -0.8139860734918590 0.07293476024613568 0.08664111896175078 -0.1625279910721516 -0.2544115970244700 -0.1959628362001838 -0.1108357510826029 
0.8445064185615451 -0.01310081382907891 -0.1900127576645887 -0.1766730661694872 -0.5264614408707772 -0.4416532697302965 -0.02069484096418066 -0.04390668840221896 -0.05541439894136127 0.02410696678519970 -0.3730169172127911 -0.03179166795270171 -0.03774425903107178 -0.02569094597255555 -0.01606015829008714 -0.03181641609401514 -0.09625530420883369 -0.09268781035209933 -0.1638220434613917 -0.03546814459874968 -0.02259157251822674 -0.05918160689114725 -0.01742679861420562 
0.03278013354398113 0.1324207655190032 -0.5515410107077655 0.1887790762837820 0.4283242805210854 -0.4839310545790163 0.2223873087695426 0.2318948291516696 -0.09370188743853175 0.2693317180572145 -0.1373958921243323 -0.01343083004103995 -0.4168638428661624 0.3403781528338659 0.09456654639083266 0.5171176877834694 -0.05546475522110413 -0.1299422575463109 -0.1118910739216296 -0.1538949984941423 -0.1327592053699593 -0.09333921857935709 -0.08058575203503456 
-0.2868355383862097 0.2428273282748474 0.2283156266442766 0.5846370193487331 0.07441861307530640 -0.1978920999213432 -0.07542682179823189 -0.1764888388818408 -0.06856368810963977 0.01995373755259471 0.1610283096336480 0.2858806515384076 -0.1834304205650316 -0.05679872632480047 0.04517981678281890 -0.1870341995331658 0.1147839401756192 0.09147478544684304 -0.09800154844931455 -0.1137730593461554 -0.08189704797633540 -0.07292725525607492 -0.04774246418569527 
0.1251955152740120 0.5576838529772126 -0.4634602582613934 0.3260110080034430 -0.3490848857777099 -0.1729153323685373 -0.2140555333393108 -0.1914948352532079 -0.05812199000258844 0.02660724803120715 -0.04013721450178718 0.05435327555356056 -0.1194718831271575 -0.1570463496191759 -0.07201146980864837 -0.2335187186705689 -0.07569050916578130 0.05015088111574584 0.2138231723037309 -0.1864358549976858 0.2783464966115958 -0.1031341305877827 -0.07281422437840065 
-0.2412430073456518 -0.008343090145683765 0.4842161157993846 0.1864745734207789 0.5505323101510041 0.07053797952399483 -0.4906591190359411 -0.01504303143514665 -0.009712620755228047 0.07269731773043034 0.4857640934176173 0.002146855359651759 0.09870792293261536 -0.06384345772722295 -0.03061130349422658 -0.1304037458572741 -0.1570643511053232 -0.06283283733100667 -0.01900297506674515 -0.03536771846280776 -0.005550161524320965 -0.01047786230004506 -0.005534359386343560 
-0.1321534692220546 -0.03992074370206266 -0.2074634454104112 -0.2697721433156921 -1.292314738752419 1.532798864069929 -0.3155058631383224 0.01879215153362480 -0.06210991493001989 -0.08776751390637025 -0.01533292034314059 0.1735493049069232 0.2384006000877804 -0.04195067312328366 0.009420675971296706 -0.1413895229557149 0.5557297847501450 -0.09023492003671833 -0.09749785137846004 -0.1069192500360231 -0.05414810150428134 -0.05631494055052033 -0.02368471712238839 
0.4635070806778762 0.1734270184690979 0.03955759781590799 0.1130352747661822 -1.143650795334703 0.08227708970252473 -0.6764866303305370 -0.07422756534688624 -0.02724047602963163 0.1728383800885438 0.1425375683771836 0.07102930006042613 0.5290827968049832 -0.06762441959249403 0.02179207573939728 -0.08072340280048641 -0.04938559415832275 0.5217458452790443 -0.06814882709795120 -0.03358115263379556 -0.01480814664956246 -0.03661382594379180 -0.01259178456718135 
0.1576738802652433 -0.1382937344354617 0.2128224943754564 0.2020257081046087 -0.2845624079495298 0.04590287245009416 -0.03031251894551707 0.1726606534854984 -0.04924601257680066 0.09889374458517056 -0.2746120850499860 0.08265339885233905 0.1025801683014965 -0.03016117100348749 0.08286939408305061 -0.3316806004982744 0.01899709286064793 -0.1831610863715007 -0.1155346918267077 -0.09822662017479601 -0.08299674767996357 -0.06084318146053144 -0.03661613608954938 
-0.3589944305997664 0.05043800242954014 0.1438040948198594 -0.09811400314184930 0.1395038684570652 0.3503610953073470 -0.1064792360518703 -0.1511837549359954 0.05755842619847453 0.1526445885604462 -0.3857137919748106 0.06105569463276757 0.2420462212676361 0.1306994183297185 0.03021131016189716 -0.09173642603774036 0.1744617971830221 -0.1885180251777168 -0.07593114570558304 -0.05059379781923480 -0.04896575022707527 -0.06445428571043824 -0.02055676889569519 
0.1380425351257264 -0.1252500483547613 0.02748419842437145 0.6102018368374739 -0.9421659734543663 -0.3463510500150437 0.4103837925317290 -0.05201019853160119 -0.07507626988888515 0.01958429668802985 -0.1836378889542300 -0.02387784143951182 0.1034969553677733 0.4655543847688310 0.01361128739673177 -0.1074269452438457 -0.1669990711058082 -0.2020821624077616 -0.1113893893801821 -0.03366872346610556 -0.1217765131978360 -0.1071254266845295 -0.05317491983045570 
0.09837228295578145 0.08444327186902100 0.02811446808239383 -0.3792459792174195 -0.9480014398418813 -0.01473031592418352 -0.5945659417609904 0.04991687593895440 -0.02899760563043062 -0.2363232974873123 0.2877602779590759 -0.01773824743846894 0.4761079288099119 0.2100396014355029 0.2207719509046205 -0.05970287967699739 0.1714233535920449 0.5434434051148209 -0.02972439225382848 -0.02730826106677617 -0.02576133256969049 -0.03279149754786529 -0.02408429272451731 
-0.4769933020400114 -0.003594098260711531 0.1395879976025505 -0.2122443848119981 0.9503989193888723 -0.1459203289277630 -0.04989736791805362 -0.01811626693672278 -0.02754659597414440 -0.02979634879019094 -0.03524580919764737 -0.01941719577596958 -0.02119366974113565 -0.03422267571288026 -0.006258910603960798 -0.01574634065599719 -0.03042423229282888 -0.01439329409812447 -0.02258135779376694 -0.01513748586220489 -0.009953244045312509 -0.02896243070369868 -0.01141597449082551 
-0.2409282793651857 -0.08038693113886860 -0.3252949817903591 -0.3058743788386855 0.8263873225670204 0.1042156206233043 -0.3181326844873276 -0.02705841147206849 -0.02479429854953628 -0.3564712434473838 0.4825286072267197 0.1712280691421838 0.4928526325927960 0.09595331572463237 -0.1422998309786388 -0.06525089607535496 0.1971832630075545 0.09959204162602230 -0.04251943609938270 -0.02728957695423135 -0.03274275238575764 -0.02789296839382956 -0.01819352788280448 
-0.8158674172134376 -0.008975609369073323 0.7963485878708617 -0.1944401186035310 0.7961128293804220 -0.3891717953551038 -0.04713771348234917 -0.01628270058243112 -0.009275002500589163 0.2765516452287640 0.08202860048358436 -0.007869867212323694 -0.02385780190390733 -0.01245012601729114 -0.005142877260166459 -0.02097659401604484 -0.02210366883020670 -0.1025554403788892 -0.08798205656450067 -0.01038682345272154 -0.005843083190476842 -0.01413137503565437 -0.006281645975034813 
0.1853225167485367 -0.004797298523623001 0.08188830098448112 -0.09313837287930120 -0.007890445496737277 -0.04348296877257801 -0.04829509760220430 -0.01450112233702716 -0.01664163813135575 -0.02782369678643295 -0.01965911124978281 -0.01099900700174836 -0.01200525190971418 -0.03114961109499335 -0.004632729801197943 -0.01106149587461322 -0.02923046659536162 -0.008314166618230633 -0.009987302955585212 -0.01094019554761081 -0.008125464107883625 -0.01902754944966900 -0.008781752980241909 
-0.9307383152075007 0.08797077145096710 0.3557052688108249 -0.7064854021535402 0.3180561319597059 -0.1159975797945359 0.5327490586451801 -0.03395987803837425 -0.02258205811081229 -0.06686195692792367 0.1194272198250853 -0.006916289452630046 -0.4039646702095796 -0.1005046568146276 0.2538814231258451 -0.1289791553486039 -0.2103054453378105 0.03472177276814182 -0.1104225544829728 -0.03962610522456010 -0.03762277629026987 -0.02378293165162164 -0.01752492606101173 
-0.1356351573790064 0.07260674672226913 0.1182808303059505 0.3123270403107120 0.4944106788882448 -0.4475042473921945 -0.6842824744868212 -0.07866291843174164 -0.02870322723267540 0.04610437130928573 0.1831449993877949 -0.2275763848926661 0.4767255416154838 -0.1823296190802486 -0.03240569095798422 -0.08559695015183261 0.09448307055926128 -0.09103217666720703 -0.04224804235207499 -0.03815318436782357 -0.02805515538797300 -0.02819860076575374 -0.02935660112959091 
0.3445076449651780 -0.03711750311549664 -0.1279361254912764 -0.4951238914048612 -0.1005121269777156 0.3233634042546836 -0.2171657875761871 -0.08268644464586587 -0.02715490191462452 0.1463539361526717 -0.3570131830681662 -0.05393479750849991 0.4176929205784175 -0.1336525783431644 0.1205451765391568 -0.1175709582191265 -0.06032038247636073 0.4422575876918162 -0.03510133095292110 -0.08327913359580831 -0.03464838381233389 -0.03439886387710199 -0.02404141466692963 
0.02347979954564980 0.04911203890200793 -0.2040354326820331 0.03736878272757741 0.2433890290717099 -0.01328879541621699 0.6010811715262406 -0.09931626127476875 -0.06137040542994914 0.1684741929796873 -0.2631207944216698 -0.06923706337307818 -0.7087654954665112 0.1868988607553425 0.002634454964162405 0.05791389150350389 0.1297926609951804 -0.1091694428624459 -0.1636484660249959 -0.08604203128176986 -0.1325899312421494 -0.04873332384779069 -0.03873577706075843 
-0.7884656118037755 -0.04174877638367613 0.1629309229002245 0.09441157086847671 0.5364129796081440 -0.2392749989422251 0.1388846942786312 -0.02935077027622739 -0.02115273095821044 -0.3694753097064099 0.5457195718855153 -0.03475270323066834 0.1999346347240838 -0.02596622153730132 -0.01982384430875615 -0.03102089246300667 -0.09944282716189942 -0.04290144847038800 -0.04325230959559946 -0.03220152713942425 -0.01186377387351427 -0.03216384170332468 -0.01772336747322301 
-0.06203596419903136 -0.1986670063934394 -0.06033356674946136 -0.3180862276773945 0.4210855084541736 -0.1000330121824813 -0.4296138416918579 0.002256173315867159 -0.01270976553053072 -0.3091521626685972 0.1926250334006188 -0.02012149661098409 0.5863500100942990 -0.004009514671323981 0.1205922001820217 0.4657107990266476 0.2525096229862337 -0.1161118730857090 -0.02965750051822877 -0.02627205117828008 -0.01653313716168760 -0.01476232001830694 -0.01040699235591649 
-0.3757763059085313 -0.06997219250083973 -0.03104878533691757 0.08476253636816766 0.3647655596438207 0.1893325570424292 -0.1243993467355072 -0.02985175569030092 -0.01598324403022573 -0.1119402805528798 0.1251222875710474 -0.02369324366297760 0.1511660281335557 -0.02776043543974198 0.01857710324708402 -0.07132924964884138 -0.03340661335893880 -0.1048812973030445 -0.03836627676774244 -0.03849314621233901 -0.01242688746107418 -0.02300950236344378 -0.009375666180200656 
0.1228892133392146 -0.06411256923696984 -0.1601812099002590 -0.4377325172329893 0.5013987590781546 0.3849967541601829 0.5037641215151983 -0.03569844691306486 -0.02190152608826404 0.01595472155219186 -0.2128593771004936 0.03976980063705294 -0.2878062484939755 0.006329649720717975 -0.004108391013531703 -0.3437328451294974 -0.2321275203308714 -0.1258652930092775 -0.03078762484104457 -0.03446826754044699 -0.01457856421294724 -0.02249265435067873 -0.01812541673148424 
-0.02032308156789521 -0.1403243006391494 -0.1461039735883055 0.4044826228519447 -0.3163479231400039 -0.06643988308326981 -0.3010689495425259 -0.1128565290333933 -0.02191514909532343 -0.2047150889136846 0.1410659878944565 0.08302604614373275 0.6458328573908211 -0.05995829746620100 0.04169573068112532 -0.06839067415756407 -0.1175795066585943 0.07451084874817519 -0.1237206237570461 -0.04901573018017090 -0.02492026326153680 -0.02674753455775854 -0.01763982607954722 
0.2032088012054358 -0.01314378261960581 -0.1874547640619407 0.6708357012321278 -0.6508102588693098 0.04576141458803446 0.08586328435365710 0.09570878547731460 -0.02320844539956814 -0.2334603024513656 0.02795292685683153 -0.01013665721631285 0.4632180032242650 0.1714940200713320 -0.1164158902157565 -0.05858109122305739 -0.3328212063182193 -0.1037949736514090 -0.03401972666882892 -0.02528604160891436 -0.03201244013396983 -0.02256425075696689 -0.01456763006002567 
-0.3529574404580428 -0.004433333064658479 -0.5128945053711885 -0.1240742921664492 0.4596796764299856 -0.1195822991251697 -0.04581120920972021 -0.008295557568007870 -0.01072984605844714 0.02487018482520190 -0.3344248820220181 -0.009329679954687440 -0.04981786711936841 -0.01007795094610591 -0.003002933132925345 -0.005391010066318431 -0.02300066293544748 -0.2341114868815659 0.4575627680623073 -0.007021432076886715 -0.006271021363178609 -0.01307679991723819 -0.005690753109198404 
0.4055268510430183 0.1704859695533988 -0.7740001232761272 0.6601401247371720 0.1511043997282194 0.07859689763459102 -0.3244841775895929 -0.05383223173950742 -0.02416672001996084 0.09819888007992304 -0.02437602930609260 0.04147964346991897 -0.3576115954374393 -0.002518521925822480 -0.2007280681543937 -0.02901252344141699 -0.01823923533672082 -0.06851603694488771 -0.03393877681137939 -0.02281190403042855 -0.007450420692556472 -0.01862027817445120 -0.006463391587201037 
0.3592267443745743 -0.006041234043537291 -0.1321447175473633 0.01763753063400010 -0.1153231958144459 -0.1021206691393076 -0.2660218224319172 -0.02393246477441536 -0.009869598075631593 -0.1198780634899074 0.05209602944181582 -0.008423295397384564 -0.2583601245074437 -0.02001037244931381 -0.01740330792959114 0.03620112916694548 -0.02654524961606123 -0.08694421385650429 0.1405049562737796 -0.02951749037967765 -0.005699768046188269 -0.01254677265282168 -0.004417647994569594 
0.4887194472073266 -0.2358328664787448 -0.2668752839017449 0.2330293074575763 0.2156182024163872 0.1274636223950042 -0.1734734187940729 -0.05510499412992630 -0.05976671426139668 -0.09692124059725767 -0.1433475532128841 0.01633673444478175 0.05243641436612829 -0.08855874796245776 -0.02340746020795630 0.4131960021970222 -0.01449196481968601 -0.1234180282840665 -0.07363290836342187 -0.04872049034585130 -0.03753558049030517 -0.03415740208471051 -0.02297761424192001 
-0.1780954255134059 0.01371530587236250 -0.01067850091166152 -0.5551556223774867 -0.3004149900366608 -0.1837935074020122 -0.07755862133997897 -0.02653085975710785 -0.01406416759645604 -0.2904190616023797 0.4333042298819673 0.05896882138827956 0.4183410836095704 -0.1513204098358113 0.01037850156183880 0.08870971075067023 -0.4093389959645297 0.04612185379924672 0.09747107767231238 -0.04621223064148301 -0.06787129939883500 -0.02163463538021855 -0.01127419292109911 
0.1755855118713080 -0.02791663242621905 -0.6837897187639065 -1.051800905984072 1.098461563767333 -0.02125405114587376 -0.06051059372650165 -0.03870007897083560 -0.02447571790158894 -0.1907101801637179 0.1270746846933205 -0.02248864228703133 -0.05394684818199871 0.2952299555742143 0.01130683473490410 -0.04666895504501811 -0.03411945495384913 -0.1148545441840865 -0.03606051154800549 -0.02900879195451891 -0.02729840109477101 -0.02510163652587326 -0.01139856340177043 
-0.01386109485009122 -0.02348734607628017 -0.02595335696090989 -0.5278340888041579 0.009574634406470736 0.06116772751395397 -0.3039691681598640 -0.01827384589100292 -0.01170621789523214 -0.02294745626839849 -0.02156576813550150 -0.02953985399848173 -0.1008731003588045 0.1642664270933382 0.04110681622717684 0.1370957886179370 -0.03089702431112372 -0.06904196213256963 -0.01617786272010573 -0.04761743152202126 -0.01644714809273409 -0.01098366049998229 -0.01065971278847190 
-0.01231929204515833 -0.003628476993890919 -0.02574260674629564 -0.1300114154681397 -0.3311025081148138 -0.005980777973962543 0.2901540927546595 -0.006372251256242519 -0.01245407406012406 -0.01989262544841886 -0.02404607801036960 0.4090985376609947 -0.3706079880279373 -0.1658578749158672 -0.03871468749616062 -0.05331703950140535 -0.02528605392388437 -0.09283412264059226 -0.01187614563501346 -0.04787535565077702 -0.1001919733384149 -0.01132524602948035 -0.01085958805746415 
0.1112363355027178 -0.02849977372885408 -0.2312920914633068 0.2794282405508384 -0.3457524792228229 0.05977632244117687 -0.2802334622018301 -0.01727470167697294 -0.01632576798585553 -0.06013423101061798 -0.02760872153592872 -0.02996914085746736 0.2996827055640932 0.04591316851724091 0.02499034489356566 -0.02006759555078351 -0.01523599646817066 -0.04964105982174375 -0.01985697579283795 -0.01602864398462602 -0.004954376548914286 -0.01318287069078792 -0.003221277404626216 
0.006060967891444873 -0.02637340634400858 -0.08088499771564502 0.1991263164747861 -0.3837355148910372 -0.007030698405813823 0.3150273244332855 -0.04654641862793582 -0.03689711260163876 -0.2391833217853832 0.7243701562501171 -0.04706798571428047 -0.2557049339957902 0.001736376597604217 -0.01675519796206152 -0.06261481611905827 -0.09031541653617571 -0.1580040954672709 -0.04205517545027854 -0.05387926768658752 -0.03357977677662729 -0.03108847663962129 -0.02650094523571688 
-0.02381982532865881 -0.003410200641877623 -0.3798729253059123 -0.03661199810460196 0.04183756265325841 -0.08924274590572874 -0.002282524593871202 -0.008767859309316992 -0.007332416562068032 -0.009826914382919955 -0.01969356545711105 -0.01477125571484733 -0.01357320097179081 -0.006894843884923508 -0.003058610216969706 -0.006517958348292779 -0.01201554614951495 -0.02465826688031400 -0.01924298567082394 -0.006090393944698868 -0.003092237204400169 -0.02334687469928771 -0.003320723248480449 
-0.07458933961133946 -0.002593516886453304 0.3143583335455241 -0.02841902946684223 -0.07637207035536750 -0.2589252973052354 -0.001172829882186083 -0.003100802519406474 -0.001581878162208233 0.8100653155629954 -0.3510297749127785 -0.001984818054403598 -0.007206407555211148 -0.002001469920097638 -0.001435235323722967 -0.004843158136144955 -0.002475852610496648 -0.07294796116011316 -0.05962973298020445 -0.001523274128167877 -0.001691341046931494 -0.002390993686908711 -0.0008973630646502175 
0.4011094108568134 -0.002499811956660217 0.1113448088813748 -0.01993162253223586 -0.4559821205854540 -0.1912894475719552 -0.001421214367063477 -0.005287545204721505 -0.002546278429699509 0.5201339095099460 -0.3166106668966082 -0.001770088963504697 -0.004970875322902219 -0.002317993749757206 -0.001540051934447297 -0.007049336157351703 -0.003976310001942518 -0.06615109511497340 -0.05029259200033168 -0.003984559880302413 -0.003149045398695495 -0.002901856003333626 -0.001626932317329901 
0.1159819593031445 0.01938561587478722 0.01944203687219703 -0.9289014122210576 0.5138350416404568 0.004218827391669545 -0.3173538093813768 -0.05835658839414284 -0.01765416745779356 0.07237708472102204 -0.07664311620757913 0.02606854942768845 0.2127031902868037 -0.05273433233601389 0.3345708229171850 -0.1088964553365528 0.1599676301772829 -0.1053984730064002 -0.02788132285644922 -0.05929036469359893 -0.03533576336911334 -0.02380796160902363 -0.01501688850880256 
-0.2689177906746789 0.5494125063112962 -0.2714513394729553 -0.3316193145151969 0.3120272202693326 -0.05202450629193226 -0.07457218223486542 -0.08600238178111481 0.1288740410412655 -0.3920960128950193 0.3171050390032042 0.06731687119432281 0.005372983454271733 -0.009981442147601006 -0.04283756078145250 -0.04221864253700771 -0.02243362212824485 -0.1259124541647027 0.3381507716711042 -0.01786251741661663 -0.02159559411830555 -0.02370247517798521 -0.01024182367147872 
-0.01073767022780035 -0.009578792050397982 -0.02365173645958832 0.08703474049339008 -0.2026774298307699 0.04217245264053213 -0.07891158241792147 -0.01289809284280239 -0.01275396840416689 -0.02630374820858102 -0.04534890650392393 0.1927912270280585 -0.1179581724340422 -0.2581828934577086 -0.02530858057083892 -0.05393508193796039 -0.02135648516845812 -0.08263443715849293 -0.01410706864836100 -0.03079301232965638 -0.02758913304700430 -0.01190286987411782 -0.009938305960259674 
0.2809769522702150 -0.02278531989679417 0.06639271380057807 0.1328038661518228 0.1349678825759929 -0.002188730970520034 0.4869939993289870 -0.05486317943776269 0.1113788424155795 -0.1099640610767357 -0.04548282437590669 -0.01498533422355099 -0.8259389586349744 -0.04500876799988786 -0.1391128443611425 -0.05603930830163750 -0.1094293060700630 0.2632106068475207 -0.03168468820453564 -0.05901069123034567 -0.01336141900704830 -0.01717462782737457 -0.01117269124928219 
-0.1608467030760047 0.08023733550302127 -0.01438971687462393 0.1598217730550494 0.1871429178102883 -0.06259623409976617 0.1764674846930801 -0.02953878556636240 0.003203247138596340 -0.06215024416815076 0.02834741006346661 0.01078023345987329 -0.01780648862414665 -0.04175517690085369 0.09958101989802812 -0.02390330470640478 -0.04796027753354067 -0.04693664920299817 -0.02425289914024707 -0.02531396253160943 -0.005431950652793088 -0.01534109008097783 -0.02141728929513086 
0.1703784477127461 -0.006026718834175134 -0.08164689849539511 -0.4519840680277718 0.8143346196345157 -0.7741234440956505 -0.08089766507524948 -0.003722755021629866 -0.006514914262999738 -0.01129388016884507 -0.01016439496711346 -0.02895652812829180 -0.09894770259615880 -0.06793202745663570 -0.02158109315890029 -0.05022666044961426 -0.02591668200782491 -0.02102034157534937 -0.005576900614367697 -0.007535131779782428 -0.002743511177879676 -0.007878910062510805 -0.008975978947108247 
-0.008067489489495974 -0.02841061720431605 -0.03252498053738566 0.04237247940815872 -0.5473286271324608 -0.009833926611734656 -0.05379315273301145 -0.02338889031973306 -0.02786634095018496 -0.03767454265953917 -0.04016380908626578 -0.04118609771796222 -0.06572698848915116 0.1944244705827814 -0.02056176177023402 -0.03002331793950880 -0.03006926092918620 -0.04333597532850159 -0.03729119036349415 -0.02404469711565465 -0.03906989304633222 -0.03084496247930173 -0.02337637600320072 
-0.07796687157970777 -0.002841832841723421 0.2872994906738636 0.05612823345007248 -0.4591872289833426 -0.05216146196047404 -0.001965246343725578 -0.01474271478546553 -0.005810604302920045 0.3792072612236848 -0.3968544234142604 -0.005368068685907517 -0.01116419968047706 -0.003928697892574540 -0.001222842750043411 -0.01659517996962187 -0.01779292729723918 -0.02875506086063023 -0.01909403432348521 -0.007007375738466853 -0.003221301650260532 -0.007542338032984666 -0.001674260091468879 
-0.06203107299751017 -0.01477960265363930 0.1054720580632354 0.05953223045688043 -0.4118211266324154 -0.07978930066330596 -0.002969564157062857 -0.01116764830928045 -0.007268341928248453 -0.05120371245383034 -0.04446097679401598 -0.008552460361182481 -0.1722030181569598 -0.009594299531982067 -0.005784736979605865 -0.01112226885827890 -0.01088605792954538 -0.03929727857199140 -0.02129449122932657 -0.005903391155755374 -0.005282602841945218 -0.009831704961550914 -0.002806774146899260 
0.1193807712967368 -0.01550314714870518 -0.3768495927113904 0.2873311808757373 -0.3947996679154775 -0.01376721146449733 -0.2392622213410461 -0.02478405651742147 -0.007887310432076917 0.1285924171143697 0.005164905574166443 -0.02033577433663947 0.2916882322673878 0.05887314788302808 -0.01100007560076648 -0.01779277049771769 -0.05315234218283892 -0.03864257895938457 -0.02683289303236994 -0.02060515682758391 -0.004988614674928123 0.6498264965299501 -0.005467962581668375 
-0.7964727095239066 0.01141472346981795 0.2691611229677755 -0.3377540860981942 0.5179432992132048 -0.04221902800659458 0.5064539283679841 -0.04452084542491235 -0.02377702387523834 0.08283345272506533 -0.1122855463076354 0.006414961755468135 -0.9026350418341532 -0.03612304588249269 0.1573621800902317 0.1574086731261315 0.3400473651575098 -0.09569867154122753 -0.02860203472337619 -0.02812723956997533 -0.02566754483558166 -0.02410656280235950 -0.01797070342619588 
-0.06289396148369174 0.09086502564094688 0.1202641269638565 -0.1377999133801761 -0.1372527586654560 0.01801621427525484 0.2345466588888391 0.3707265331980267 -0.009335273320706770 -0.02182732066184672 -0.03499966262075480 0.06316808608111400 -0.2478589574515339 0.02933212193539497 0.004253449054083616 -0.04941354806114322 -0.009753586896086033 -0.09299343951134230 -0.02170639606770421 -0.03068460304448355 -0.03090328578202018 -0.01080061962420667 -0.009314376759102553 
-0.1650373363473995 -0.002192213892308816 -0.001660676652629820 -0.01132299820849293 -0.01079122454663687 -0.2356897844369051 -0.001008386523994270 -0.001843594159564820 -0.0008374322750656555 0.8196781695530316 -0.3503434508214803 -0.0005946215385756917 -0.002525238325168680 -0.001280997527028516 -0.001215512783835275 -0.004152665113523069 -0.001329738940326612 -0.06947188897283686 -0.05469242463108975 -0.0008357271985584057 -0.001500331576845434 -0.0009854628281473251 -0.0006330545072714050 
0.4088313621767876 -0.009309007378134252 0.008548417115654140 -0.08893483360112715 -0.4607237830481398 -0.03491958344910268 -0.1931181788549667 -0.005855264768228528 -0.008167463085057333 0.4597087903233086 -0.05047118688190724 0.09843589187087962 0.3413100591597136 -0.06338405048971031 0.06119206205159745 -0.02566720895051225 -0.2443492223764774 -0.04042628702890035 -0.01336827081110535 -0.01493657709411325 -0.006922290086673695 -0.01845982854785161 -0.006003620485990057 
-0.1376147518209778 -0.1246315054296675 -0.1115926170696733 -0.1516341168023011 0.06697853154326211 0.09382596194561287 0.6240751324478219 0.3758181879396343 -0.02014963240443324 -0.05138426458666554 -0.06101483524591535 -0.03549646706553151 -0.3169249425831400 -0.04103109410335069 -0.05978500388627079 -0.03137286404163082 -0.01484854460910469 -0.04929444877119359 -0.02652150898560791 -0.02171863747220535 -0.01809206959411383 -0.01920866421820121 -0.009667378819114373 
-0.5168079984511339 -0.02858034460714708 -0.001116394761613872 0.6795483105287305 -0.1143449640001495 -0.03317927837042908 -0.03764262234845020 -0.01258361800159218 0.005339760248800072 0.07544285197765975 -0.07806866612458108 0.002630394447879908 -0.1073619123964253 -0.03440443158643353 -0.04194311358873105 -0.02255095234313306 -0.1227697995625367 -0.04366859132025957 -0.02586983322646965 -0.04377463277497370 -0.02666425133244159 -0.01636435882045374 -0.01815531995604195 
0.05502165809368832 -0.004662862310470611 -0.03463327881966442 -0.03213897403425314 -0.2962512315353990 0.009600084254773676 -0.003284015263204346 -0.006631648000135769 -0.007021639113928699 -0.1221268465093973 0.02257059138315877 -0.007999847048918225 -0.009093274350536232 -0.009619225461639245 -0.003304802347433391 -0.008887353652147753 -0.003315824174537583 0.1619473623728584 -0.07348068689234331 -0.003779526136917270 -0.003118123361713329 -0.01669118675012411 -0.003648637404747935 
0.3402465701763060 -0.04578332128017509 -0.3838591639174719 0.2180203918285133 0.1281909062355809 -0.02025188078925556 0.02064241564091272 -0.05094141367836254 -0.01745416778814032 -0.1812077867671607 0.4204018313871100 0.01925322484046111 0.2726456281969649 -0.03818374539869557 -0.05158687593505289 -0.04816495624266405 -0.2269815425638053 -0.07118254268092603 -0.05818496755452713 -0.02780230886379816 -0.01545156336679010 -0.03426845725280474 -0.01300375841150824 
0.1709806582872214 -0.05081292388818162 -0.1215273065188418 0.7241270298197261 -0.2097117512734923 0.001822484930679728 -0.1286202515791862 -0.03363508323046986 -0.2419655322581896 0.07395345097290891 -0.2905078556532453 -0.03539666108119000 -0.1717931299188536 -0.08686344347339002 -0.03020920586931528 -0.03156618000949871 -0.1225981365479995 -0.08254127165155752 -0.04838907078412358 -0.03997295899386001 -0.02888968072220138 -0.03597002672658530 -0.02505983812063752 
0.08893582919878410 -0.01104851087537917 -0.1768896367234180 -0.1825500622043596 0.1200727456199285 0.07300475876532604 -0.1812826924241344 -0.04030834268859027 -0.02773892480365396 -0.02280884483924862 -0.2178588330402904 -0.02064100755473607 -0.09557481389213490 -0.02166805760649114 -0.08498053295582507 -0.02870674693185830 -0.03179141717792928 -0.02891334837061570 -0.02971132265779918 -0.01512656238005333 -0.01025865218297553 -0.02171849513212524 -0.01627997991583596 
-0.1651668619195934 0.02154772537343984 0.03499375101854375 -0.2692804809910313 -0.1933759711248505 -0.2939870028349899 -0.3195394867171411 -0.02960209006029765 -0.01476386497641575 -0.5231079238582859 0.4726817136079959 0.02965895931415417 0.8106864605136976 -0.05877130784353994 -0.009240756969548564 0.1787560250319991 -0.1285465841990776 -0.07878951103590721 -0.04348673905119638 -0.02180157781168990 -0.02524613130161696 -0.02022985927524099 -0.01192517860484643 
-0.01088562923096824 -0.03655661973063767 -0.02202312900727358 -0.4476090640639227 -0.09715341052744685 0.1547660664356980 0.4430651304515862 -0.01712597686489848 -0.01492421868901227 0.07444241569889647 -0.07602798598492193 0.02951440701042418 -0.6784158274865765 -0.07599265368140928 0.01467681186726310 -0.04391838184012938 0.2566179917734651 -0.09134867386975050 -0.01677740411968692 -0.02919010615856029 -0.02465035448595493 -0.01364872587978413 -0.01343876048609454 
-0.07773541639193493 -0.001352842051607086 -0.009130917373214862 -0.008309045021630875 -0.1421270352702348 0.3019717554609877 -0.0006032157693060126 -0.008651878207401556 -0.003849994407588040 -0.04437426592871697 -0.1564077629942239 -0.001607080552705124 -0.009135234322337576 -0.001975597187957471 -0.0002941969124971082 -0.01488303176050095 -0.001251704745452923 -0.008168494436612357 -0.005604752822849464 -0.003844025812088420 -0.001360309617303699 -0.002043275605693047 -0.0004304063874856814 
-0.2363149941568437 -0.003934782639100065 -0.1526287950080205 -0.1363731331553085 -0.5282141777864916 0.9020685405318575 0.3372651787432147 -0.01749751054221595 -0.005750651404000507 -0.1865109289700294 0.3211565475425215 0.01980047411181167 -0.1098989442331897 -0.02404933095883487 0.01575134820070465 -0.03039404365258747 -0.02699343064418296 -0.02835612738167660 -0.01034631910435431 -0.01748187249130538 -0.005951245466345807 -0.006143747914437179 -0.003286778382071867 
-0.01099485103337558 -0.005738198970760815 -0.005088256418652770 0.1703853964731192 -0.2686639939449186 -0.001857008788358225 0.1264896523179946 -0.01441050182179532 -0.01130639079291951 -0.009533721397111469 -0.01598608572416687 -0.1802284165204163 -0.2741291325031827 0.08918072910499480 -0.008214078644806295 -0.05465832206267906 -0.04866927655781693 -0.05279596181917368 -0.009584843955897126 -0.03333932831514030 -0.004791523934343031 -0.01139972698816002 -0.02347871141923912 
0.1223814864644687 -0.001195647502019818 -0.03765838352894520 -0.09480906884654593 0.004323239447255152 -0.008663862536004605 -0.1771117503644715 -0.002928191193842368 -0.002197323011976905 0.1210776923432091 0.01723303348711657 -0.01174823157127501 0.1969273918947382 0.03129068829933402 -0.002100865423674465 -0.01329974767938285 -0.04738614414364881 -0.007648059685442142 -0.003733022214184485 -0.003694162510103696 -0.001663071427329460 -0.01344013630298993 -0.001643062203363215 
-0.3247265103391751 -0.01918311751526646 -0.05324263897963480 -0.1033771658443422 -0.08961131806140953 -0.003151874038492855 -1.012471652398721 -0.01295143892049435 -0.005090964661575140 -0.006426463370718505 -0.01377789370882884 -0.01432342884327704 0.1552079711614972 -0.01876441541162528 0.1973453411913518 -0.05452086549458256 0.9055357682892621 -0.02566084711333978 -0.005060777679147202 -0.02400227174376596 -0.009326987949344500 -0.01662994975033932 -0.009708380287008270 
-0.01723336256709766 -0.04809951750115741 -0.02235019869017797 0.007692430912388779 -0.1767889251953252 0.04410549225266081 -0.6949447982714170 -0.01520990712719050 -0.01480646048734266 -0.05785212823964812 -0.1156329654439485 -0.007839815920147620 0.5564640835685156 0.4006438638773990 -0.03839286787051280 -0.1124617734668193 0.4147018422887411 -0.03969206846704563 -0.03869545123329164 -0.03402704852149355 -0.008774283567658282 -0.01390610668545016 -0.007871677602823354 
-0.01232030173448193 -0.09453249313711318 -0.03919365373942426 0.7713480513052483 -0.08861095500499247 0.02919710551327670 -0.9249272996534186 -0.006857456483692850 -0.009203891066680180 -0.1235112230602031 -0.1683395494756695 -0.0008663189651972379 1.003427124162521 -0.03450368058666684 0.1313440640501333 -0.04958845411072017 -0.2548075652208764 -0.07104935980339344 -0.01446928764894188 -0.006046516056064626 -0.006541254564951355 -0.009978466999040732 -0.005746332470688797 
-0.2538431101774213 0.08797835221723073 0.02981057372597062 -0.1353478657107887 -0.3035402460203923 0.07347956157744065 -0.06422662436083956 -0.03409719756912402 -0.008113389443112415 0.2868295824516314 -0.1513698802263004 0.03154139215510973 -0.05532288084775491 -0.01848707031240176 -0.02572423448221533 -0.02344367879227965 0.8367133467608963 -0.02742870215153968 -0.01474661347395389 -0.01043104967163401 -0.007878206820918650 -0.009364150927077326 -0.003162438940857063 
-0.4345067672314182 -0.06102444870812261 0.4858823109587824 -0.02406869614180889 -0.1652871452225673 0.05880611471018227 0.5172138654057828 -0.03825864880673609 -0.03055550227351012 -0.1345520752188802 -0.1788147726039593 -0.01830780865670246 -0.1029426907783223 -0.07464247701518270 -0.05036522270280847 -0.02326601870771776 -0.5727328107757801 0.7367423872179910 -0.08531008844814172 -0.01766632926243133 -0.01527530036945227 -0.02924360463685454 -0.01254724088017916 
-0.009003685731599867 -0.1298610691714112 -0.02127968226762119 -0.2330900458947278 0.06472100498827970 0.1185621270074520 0.9156805269025825 -0.01091835923108561 -0.003755404606289293 -0.04224468269793497 -0.01388568473053650 -0.01040425095498174 -0.4113812581673007 -0.02317758586899921 -0.3692976577012220 0.1597078677577768 -0.5141664206916773 -0.04682904170040593 -0.008127227018519390 -0.01154955405769495 -0.005360207939958664 -0.005992130102444931 -0.004640995524910433 
-0.006362940776931592 -0.005904763091287018 -0.008151724696265593 -0.3166301445495198 0.5217291901918550 0.01293462885145999 -0.1269811362902949 -0.008844043771036520 -0.009554288086057858 -0.04016777373470586 -0.1898436647205652 0.1609117195353868 -0.2389797518656941 -0.1317118374214729 0.003522822743386422 -0.02957630018156870 -0.03093703115294647 -0.05143006610603641 -0.006797405329384393 -0.02923227212775570 -0.02637904515168336 -0.009209333108995124 -0.009269575537295630 
0.1681269628591117 0.04975357805133134 -0.3300545876828488 -0.2128446747702492 0.5761751570932215 -0.2094752189279309 -0.4856561127384334 -0.02330095140287119 -0.01046668442363964 -0.2038145744491337 0.1077619457237069 -0.009833858893355652 0.2126690146884090 0.02219312734798848 -0.008852279995857191 -0.04417346735606648 -0.05553995415991142 -0.05418667332233366 -0.02304086970153945 -0.01120934310714351 -0.02162569768301732 -0.009444602594292887 -0.006566462237527284 
-0.008069837743832260 -0.02651679041821122 -0.007367305720579857 -0.2029138611754220 0.1171341625605443 -0.06437677071715239 0.3947132344801596 -0.02447311001316094 -0.008914789580753887 -0.01528112262467782 -0.02636625154732774 0.03218531982011114 0.2176800945132525 -0.04164159476501571 0.1046810445949335 0.2473905004957309 -0.4034048889061996 -0.1005795795227188 -0.008964073015026350 -0.08328607650868135 -0.008617927222209035 -0.008794727061245126 -0.01243337305031005 
-0.1753762179493899 -0.02104807122471020 0.1711001571274241 0.3774911915480580 -0.1263441661881862 -0.07840370469329196 -0.02575723079893593 -0.02717097091205530 -0.02192056326088054 -0.03686983250132353 -0.08671937533005081 0.02630446621067131 -0.05293015360150769 -0.05647190946101561 -0.01988684158775751 -0.02984218664287027 -0.05278200775190010 -0.06028321233846497 -0.02517418648464238 -0.02574369917075290 -0.02885620039420474 -0.02748014955275931 -0.01967421964598680 
0.9901641691150570 -0.003467193094463983 -0.2913771440209310 -0.09233323825794833 -0.5658412264219955 -0.04968588290288267 -0.001361764624435442 -0.004301948919664934 -0.003148943018619794 -0.008935704161815033 -0.01093636870374713 -0.004770306896693528 -0.01738495542599137 -0.003041915892090306 0.01812427168428547 -0.005844744326190842 -0.005158251960518977 -0.01285825357140653 -0.01158834458412510 -0.001671891528794080 -0.001337010316213302 -0.005312977871955545 -0.001232176296338029 
-0.3647672820781169 -0.004438097675577598 0.3757746065043578 -0.08131245405845305 0.1572372623171024 -0.1193368882044506 -0.2609865618489338 -0.01447983354374671 -0.006834369529815833 -0.1469771012183607 0.1019136377214184 -0.008085530739216619 -0.2582871124240819 -0.008685663497616736 -0.002457238793547233 -0.01899212152677687 -0.01176277842568699 -0.02911483092787627 -0.02263930107037288 -0.006411156738618369 -0.003506457023338546 -0.008447194644480885 -0.002978957307573107 
0.1435522240102666 -0.02373946769218887 0.1055437428133694 -0.1532488451256641 0.2389954622961520 -0.03436897608214037 -0.08499848531224453 -0.02233747132016182 0.007861693788934946 -0.07075728482516070 0.09503536159588973 0.009756661217694688 0.03365746326770880 -0.01764288064517883 0.01179394376712624 -0.3953555432447779 -0.01423162858666182 -0.04932499250969758 -0.01095423769058545 -0.01435813930149830 -0.003503274320676558 -0.006557846518863643 -0.003161911762189410 
-0.01710436139659999 -0.03900107817487108 -0.08312424839834014 -0.09794029653160109 0.5320447101011486 0.1206192302720710 0.3314237054958032 -0.08811641132351727 -0.01008734059348025 0.3085173732443902 -0.3521818701843270 -0.01805641207618369 -0.4466267215663960 -0.02905873559564308 0.04413096486165392 -0.05246882976906067 -0.1662769489569760 -0.07760048183095573 -0.01916401079815478 -0.01605915631999736 -0.04272639343390892 -0.01817436106839237 -0.008411290465927210 
0.1718494946347426 0.02792114857329998 -0.2110608899492698 0.2615771889942475 -0.2246968602571871 0.1821111814166945 -0.2468992380854176 -0.01968088618494823 -0.01030232505871061 -0.1102054203851233 -0.05811965673908169 -0.1966418779330457 0.6966036715693497 0.4542143919256272 0.07492001591358600 0.1822702401453810 -0.09859327749720210 -0.04157143885827117 -0.01864344831053967 -0.03082522209302883 -0.006138095746013260 -0.01366974339075091 -0.007419261541559182 
-0.5585044558236731 -0.02596106827944910 -0.05469359273234921 0.2642739976988722 0.08746455177247367 -0.03315894595536883 0.6311011036055575 -0.01654790425295822 -0.009820681621399452 -0.2147841794015648 0.04213054989424203 -0.04200759611555870 -0.5461847992522226 -0.008338592522720631 0.06013095030912839 -0.04996666912832170 -0.2378524607224868 -0.05283506444391652 -0.01019284627576107 -0.01645509849701283 -0.01449461868687811 -0.006891016133440363 -0.005727622286804387 
0.2401406211243811 -0.01127337759876707 -0.1090980873222001 -0.1681160224945718 -0.08868982017813713 -0.02141603712141915 0.2757399835968328 -0.003826607488489441 -0.004689537107598916 -0.007758282625295571 -0.01403478778548349 0.01608666681818313 0.2019458122162452 -0.03556300824548261 0.09920907584657417 -0.03289145278690613 -0.1819299151290375 -0.04231696481376752 -0.009350992432791897 -0.01088096834298232 -0.003242644399386596 -0.006455249820198430 -0.004604080071860002 
-0.01614770017545148 -0.02810717936259034 -0.007067607996124444 -0.02153149234044943 -0.09116039941737895 -0.002740733812609648 0.6380428954779550 -0.07105381308353374 -0.005755421479319173 -0.008353019750752613 -0.01334328313729786 -0.008176408073793977 -0.7073672883222889 -0.01109595079191639 -0.01392413933887469 -0.002736001315357224 -0.003152106615197560 -0.02050989046235493 -0.01753404805481636 -0.001281057665621469 -0.006246438860700402 -0.005836019949444805 -0.002002047885932869 
-1.105446324372316 -0.003187314185982867 0.9485227904567691 -0.08912789718045548 -0.4102943904817293 0.3096989136087944 -0.008890785719945210 -0.01884937618796347 -0.008338960038966645 -0.06049257748849237 0.1050893683858250 -0.005417084712930567 -0.01853762480698977 -0.007408991749215692 -0.001743109906076686 -0.01793880198363120 -0.01000508616468848 0.1752148324107287 0.2740016083143215 -0.01045542574440759 -0.006803842684216619 -0.008683367429170847 -0.002734676569822208 
0.3812149152310123 -0.003063843471199368 -0.2851396859884764 0.06923731965485987 -0.2124037581669579 -0.04166892428538708 -0.001327015430814150 -0.003113741387361934 -0.002476179353895177 -0.009747186208238605 -0.01551354742222523 -0.003607037346899277 -0.01751251470109398 -0.001673999285957591 -0.001808144439634400 -0.002210115534570189 -0.004570098613661949 -0.008406210608584454 -0.01171300551685625 -0.001704387118515720 -0.0007709021533620899 -0.003655355099030453 -0.0006420902822468558 
0.6385756890802753 -0.002639956267650415 -0.4605770116291725 -0.09439478804108140 -0.1703255932245671 -0.07694622476847096 -0.001594862669452791 -0.008782285276007083 -0.01163364697998308 -0.005670360542117744 -0.006723238561706761 -0.01270596401633397 -0.004629424021725188 -0.003885092629874969 -0.001913131277531378 -0.004154406978579024 -0.02053477682745427 -0.007688955480642138 -0.01160328782234636 -0.01077552515918730 -0.005076051992408534 -0.02775842399894665 -0.005662110242517592 
-0.6702906913883828 -0.008935693670784685 0.1529360812616125 0.0001781999489883124 -0.3813135055314537 -0.04989121149935230 0.1867952625616298 -0.02768095722088712 -0.009512112838545816 -0.3513821523826153 0.5761782070380285 0.05820632427519747 -0.09482831895636676 -0.03104934323383881 -0.01574222303486703 -0.02240664732301063 -0.01128035093107627 -0.05546627340366797 -0.01106984016803741 -0.01841720362884017 -0.009905032076604281 -0.01241010035925792 -0.004418484505336926 
0.2063727283343857 -0.002403101638079567 -0.3800895815716939 -0.2015768459027665 0.2114746056008759 -0.05344920851210495 -0.001940496709965679 -0.007742595947397298 -0.004920782146346853 -0.02094342957561472 0.3083398745003319 -0.007724656389435165 -0.008690621103374098 -0.002886549469053179 -0.001707404329707857 -0.005890084217842239 -0.004903543800817425 -0.01289920953699235 -0.009329568483515698 -0.005723095321686712 -0.003023990249416474 -0.01249841351839415 -0.002108404764397102 
-0.005305383985114872 0.02409162944416624 -0.007819918278780614 -0.1064756111157888 -0.2793125869322970 0.01017857132518201 -0.2944867326165820 -0.009638358901696270 -0.01046932037602987 -0.01465838085729590 -0.009766791597908360 -0.04734913752978785 0.3246560030783535 0.09324130193053774 -0.02858982770666565 -0.02885019304116259 -0.01428211231321048 -0.04061586629090976 -0.01706399843055631 -0.02463121960418173 -0.004208050926765021 -0.006529507781534956 -0.009921087937412200 
1.084559543562345 -0.002889129431904731 -0.2865001407575735 -0.01596109054652457 -1.166522755006505 -0.04900497079018164 -0.002219647690550301 -0.004863253444769315 -0.006812597754362119 0.02503094816244449 -0.07071018232255805 -0.008363569145242977 -0.01259604289823354 -0.003261916615148394 -0.001910830384381683 -0.003700142992554865 -0.004696084120653406 0.1842012130994823 -0.06446291408435494 -0.003463260749057541 -0.001918105041943738 -0.01795117442638034 -0.003507456579831181 
0.2453607863165324 -0.003194979178122304 -0.3105546537890603 -0.1368290228222013 0.1764359938617398 0.1691756384001707 -0.3193802044859780 -0.007346248536473285 -0.004929277963386663 -0.04373352930696525 -0.03239010461609051 0.01028931119428034 0.3250434006847120 -0.01691898515041495 0.02036379809237435 -0.01950577191164629 -0.01386250813524235 -0.02149804847383351 -0.02555660158265235 -0.004734613069659892 -0.003446737846253500 -0.005442031037396906 -0.002991536478692007 
0.003225783784293761 -0.002654217439511148 -0.03149061020717030 0.08233298327517949 -0.1926337611804853 -0.01051369845045656 0.1342691436134025 -0.001889012321857816 -0.001593083153084114 -0.01684552827936862 -0.008785171065568502 -0.0003936158233040466 0.04183185046635743 0.01521081668526337 -0.005948168710402333 -0.009186155785616141 -0.03694781654288638 -0.01176004035055999 -0.006486685801962410 -0.002178991862751235 -0.0004802941515814508 -0.001444081284022216 -0.0006615748313623559 
-0.2856989229317500 -0.01233914753069808 -0.01020278660807077 -0.2971342211180121 0.02907883149743708 0.1148730828107844 -0.3073113304803373 -0.004428144364668095 -0.006316446598831378 -0.006882555509381149 -0.1473417921334031 0.04381830725181921 0.4850752161981013 -0.05116088983549501 0.1368363784487845 -0.02694720078020887 -0.03733513256102838 -0.06413395496759834 -0.01025230056718895 -0.01213812606748794 -0.008752863790630089 -0.008492605047250459 -0.004873340662450865 
-0.04016034110391034 0.07497556068723091 0.2567957176882247 -0.2875482727335043 -0.05914830413188826 0.03829149982714906 0.8653507280466158 -0.03085792651657309 -0.01967437272457101 -0.03582401971118587 -0.03984427857402798 -0.008239077521529660 -0.1523268223989804 0.1844208844839729 0.02974750916472268 -0.03350430452520697 -0.2651396832152650 -0.1073198520319746 0.1544388190266441 -0.01534386700896686 -0.02832714842555760 -0.02630483164595436 -0.01669917847704777 
-0.008572204472724080 -0.007385810238587275 0.006737809413845695 0.5240113461378193 -0.3277999417661243 -0.02552534625449769 -0.009534990879674195 -0.009370525698022270 -0.004556942343585806 0.03413172651444507 -0.1701597999513523 2.508602438950919e-05 -0.01914469857558883 -0.01438818938671830 -0.003730609853608329 -0.01113711021790387 0.3432055758929897 -0.03442230244740479 -0.007366789676986915 -0.004073304700023510 -0.003729817345042733 -0.005124222216227277 -0.001840825468002985 
0.6201777343860246 -0.006123659695242698 -0.1249454225316043 -0.2906403640591979 0.6602990365528247 0.009524413527364150 -0.03652290780856775 -0.01988362348830004 -0.004007194552832247 -0.02214924333375470 -0.03175208455860146 -0.01450856236791581 -0.3641907076519846 -0.03421148202677209 -0.005180278155325167 0.3407107388286347 -0.06484810785133560 -0.07223994436926379 -0.2256113805770835 -0.01090672593575518 -0.006414372603147919 -0.005571272432738595 -0.002707824810205664 
1.069229485899311 -0.001762696199748008 -0.1771571779823365 -0.06693617151501840 -0.9490390177657074 -0.04346890689236552 -0.002243730895337005 -0.003435051349413266 -0.002818337370334601 -0.009029926101247993 -0.004935599783563296 -0.004192246811104364 -0.01806440613217210 -0.002774533243891183 -0.001808657434204254 -0.004159599569677977 -0.003551924339848367 -0.01138390023526996 -0.01699927500039522 -0.001438357640089483 -0.001117041308554000 -0.003908609591904002 -0.0009859102912828496 
0.4767818875806553 -0.006469304125860025 0.1348650719085849 -0.1272575053264306 -0.5390576739512130 -0.02955407384041425 -0.3781311917810119 -0.008799623634581307 -0.008468603350740846 -0.09837921063984250 0.09750462420916538 0.05573273701077437 0.1824754488662626 -0.04983061634377862 -0.01146507526586893 -0.01906477603327267 -0.007861919907452115 -0.03472805425892907 -0.04391351615711291 -0.008851180902967147 -0.005157410274944285 -0.01459240873844304 -0.005475801094377053 
0.5609846862867947 -0.008083663569454886 -0.2191301765958731 -0.1603412736604355 -0.4767069684767970 -0.007928206861272703 -0.5086248239983303 -0.003698208819101879 -0.002667895317376990 -0.01316024161710130 -0.01382963880423566 0.003696657863766151 0.7354544651697841 -0.0007319358430264886 -0.01802809458651507 -0.01049307335669287 -0.02721577035560656 -0.03461115635831247 -0.01071932660595048 -0.003280798638662417 -0.001560431192365806 -0.005812970822126699 -0.001587457415610760 
-0.1030945407739136 -0.01187821556484763 0.1099155194031999 -0.2738599580361548 -1.219789263955384 -0.06916559168449503 0.8338791616924136 -0.01016637243777111 -0.008553052717898345 0.2012051288742807 0.07193720835903601 -0.01132061274361013 -0.4467580316794964 -0.006556969160074489 0.01506513610484180 -0.01672345470018256 -0.03963237385908541 -0.08235639205776482 0.3792553229346301 -0.01103908699448549 -0.005418239037022568 -0.01314566049755085 -0.003980898090311547 
0.1429843215363016 -0.02235858708947825 0.1665293022177501 -0.9341741694015455 -0.05095940198864548 -0.05030277879960599 1.158343013824985 -0.009547725020857330 -0.007696148388742114 -0.02135571056609270 -0.01240346030141547 -0.03401538874437047 -0.8189315689088834 -0.04437807969918326 0.02941708623721233 -0.3986665089128351 -0.09496823360401680 0.1721392531148348 -0.01073643278294462 -0.02374462448855713 -0.01041238150171382 -0.008336110685820845 -0.01135597990314609 
0.2552634962976128 -0.008835012528137296 -0.3799435471256637 -0.1766968121359234 -0.4128627104573058 -0.004123960214825282 -0.04721526207435932 -0.004969064174234437 -0.007481266430811722 -0.02915922787161513 -0.01376408722041807 -0.01788867933849318 0.04749039145009438 -0.004149341583007228 -0.01145815403349971 -0.008703617555205980 0.3909438565465516 -0.01980191088276227 -0.01023356724837625 -0.003219102384915326 -0.005847005496320903 -0.01222709853910249 -0.002385376010239144 
-0.03529152273216338 -0.01813248160887808 -0.02214617586709835 -0.2146544181386232 -0.1587949227889318 -0.01552114103339354 0.1304810566809477 0.1366496771208588 -0.006322375891963365 0.05182158128841628 0.08232707077103331 -0.01279969006709806 0.07431279004938747 -0.02421868207739321 -0.04125788220501055 -0.07643343740558833 -0.4301973216496530 -0.04702305892038466 -0.006583899035880913 -0.01861782888666578 -0.003855950304430097 -0.006816023199514778 -0.007543136998767774 
-0.3147517879602091 -0.05642575449327723 -0.1217676634485719 -0.09297455965940120 0.6578174343390651 -0.05454045839619925 0.6120635515795350 -0.007853835364879496 -0.01186647065744002 -0.2024369915684673 0.09216685783041473 -0.01068065600090273 -0.6481963530106541 -0.009628759224024019 0.02401862130571137 -0.02577838139129065 0.04284114008409688 -0.04124482088109893 -0.02244512341763846 -0.007956641523815616 -0.009181122382456396 -0.01567116733204102 -0.007631114777109336 
-0.02518230888929635 -0.004526299582280237 0.1373547205289288 -0.1418853873861913 0.2172943612585314 -0.1151956028728764 -0.002672340373076751 -0.01231919402955852 -0.01060596358173716 0.2012157275803775 -0.1628822024814418 -0.005459832067549309 -0.03803788894518121 -0.02623918498136379 -0.003211312447731675 -0.01160197808177514 -0.009964320532855992 -0.02023104362608120 -0.03329542092397621 -0.006881239518881274 -0.004922559452176839 -0.008406512407001390 -0.004630536690488796 
0.1063794275415770 -0.002133644698194838 0.3655919717760256 0.1533522593107194 -0.03930275408015389 0.007632605344160159 -0.002714410226376276 -0.006154617338619817 -0.005733948112999564 -0.1422423972895981 -0.02080064209535005 -0.003805438339822461 -0.01974958440514335 -0.005308949970013458 -0.001714212366460021 -0.005451979948637526 -0.01466595387536523 -0.05746993905804187 0.1660332650211903 -0.004875351902682114 -0.003021354678547614 -0.006859102937336884 -0.002122284607299089 
-0.3286485925377935 -0.002776023537097162 0.5139068684780115 -0.03719893706272422 -0.3123667982204255 0.004390608744015636 -0.001957160605527072 -0.007366534841297823 -0.004636936717484884 0.03326321626629385 0.08224407511784071 -0.002567365626297038 -0.002900871888411725 -0.001782866652053869 -0.001342188579417903 -0.004494591264271063 -0.006005446333316577 -0.002417504495579781 -0.004321665576330905 -0.005343294957480448 -0.003629711377229352 -0.004038388345707876 -0.002372695839212463 
0.1041476169943778 -0.006414993691647662 0.1005812013493089 -0.07640792772866044 -0.4583409673304729 0.1360499076516276 0.2512693475048119 -0.009121080658792236 -0.003927541927134602 -0.05517802178151621 0.02248469180091554 -0.004184289954380894 0.2315487364473481 -0.01896968954570268 0.01893479376316135 -0.01858499262407514 -0.1945694296523921 -0.06488869796093048 0.1646845337904392 -0.005213001615568348 -0.001514774376726111 -0.004913507331593677 -0.001980839734723497 
-0.004257814821055604 -0.01437418406491542 -0.01006591528223032 -0.2386608459898053 0.007726880593069502 0.01842326886221362 -0.08935499563348202 -0.006812120363449851 0.2582442381010091 -0.02184889800224301 0.09872882440126476 -0.04343944224748146 0.1229880614107035 -0.04066404441386171 0.1196938354415517 -0.04904928650880931 -0.01459959060575139 -0.06728293229263281 -0.008320224283605045 -0.02727866530448121 -0.008684485614221620 -0.006912148720882690 -0.006466075516518998 
-0.2246744018724039 -0.01073875306216674 -0.08969078927163587 -0.3165630621647060 0.1441883839652687 0.05151505046666200 0.2279214888642143 -0.006448308055588624 -0.01895124547457892 0.03059163762413622 0.05668280133093721 0.01233564996216217 -0.06840186781566218 -0.05813139908851726 -0.02518795457987728 -0.01618613725758448 0.6387629508356547 -0.06032105142515121 -0.01644296447056738 -0.01464139103232585 -0.004194450386831917 -0.01136480540904172 -0.004816799585648772 
0.4331549525465088 -0.002299076602591504 -0.06595894868558794 -0.05161334986514288 -0.4422402409751002 -0.003279507003142165 0.1503133103099287 -0.002041476314029298 -0.003457922168845257 -0.006063247209814219 -0.01376256601848654 0.1480054148521140 -0.1392158448963525 -0.07710883220162067 -0.03667522493547396 -0.02863057958326120 0.01131481636645220 -0.02526578377966617 -0.007503473604968941 -0.01263737486493187 -0.003691823928255533 -0.003519899830162959 -0.002224918272889863 
-0.007415156814757754 -0.03307498557347778 -0.006637160916094422 -0.01554051458751335 -0.04118011491121869 -0.001402160251156472 -0.5470654713886792 -0.08121072395037107 -0.002600849033656216 -0.004528905576371213 -0.01014779530629611 -0.005150812313091908 0.7417954872896065 -0.01200863115821359 -0.001360881392008524 -0.001436995374615796 -0.003232605593285732 -0.008417247836100684 -0.002600392769264953 -0.001519442285038000 -0.001050490752895679 -0.005812737684952565 -0.002877510275305010 
-0.7648638734987154 -0.005129473076941478 0.4056759175102463 -0.4788444316870678 0.7837180171420610 0.01727373180145621 0.1981955761239453 -0.01929676383607569 -0.009795517834339260 -0.003230876834299234 -0.04474940645380474 -0.006818912068766656 -0.07838255821546017 0.01108102465088512 -0.0009262294767015514 -0.01070597957727622 -0.07785597590645625 -0.01302780414802847 -0.008039637955254258 -0.03374844652233701 -0.01735408214269854 -0.009676372127125065 -0.01113957188410514 
0.6218849544951691 -0.0009595313645656702 -0.09734795599667251 -0.006529514773297224 -0.9306258367362402 -0.03339348123436401 -0.0004674542267264646 -0.005214180719756496 -0.006881815782924862 -0.002481495421233462 -0.001419790175444224 -0.004985651402565821 -0.0003967969396259951 -0.001700119093410283 -0.001290705322188531 -0.002968751799072673 -0.006943073634717210 -0.002708090502595712 -0.007404313625145868 -0.005751265107143582 -0.002586403373510826 -0.02177985178014453 -0.004538038796435780 
-0.4241145031371809 -0.02947631651535320 0.3866155627176602 -0.4221187961877040 0.5610164048522560 -0.1005324805599352 -0.1162935297317040 -0.03084911674802242 -0.003695389169758250 -0.01281741655857308 -0.04109005545773375 0.06754770257913632 0.2079120283493814 -0.03708283322159872 -0.01192687158181909 -0.02366331283707875 -0.01088647052901346 -0.04827920384837844 -0.007412097523833027 -0.008771511221833600 -0.002563013017513571 -0.004376632252583760 -0.002225621071389928 
-0.03928699853836947 -0.01523239989730743 0.1260135175925910 -0.09575428482985357 0.2185561737128609 -0.06818026658051231 -0.09092744655822582 -0.01228412141769567 -0.01631898599788105 -0.1714310574186849 0.03673313112775420 0.001947234621456688 -0.1083016172211478 -0.05151776547914277 0.007877951446336844 -0.02856478785517132 -0.05012705198637958 -0.1514130539591630 -0.02395995632029014 -0.01521520346171299 -0.01190565279194578 -0.01009287541192987 -0.01097422251590639 
-0.1915616330535760 -0.6265528019394527 0.7177459993694789 0.06001645870828329 0.09298271425568864 -0.2335734546669255 0.7736310031796684 0.02380988671480090 -0.2704411983971259 -0.02182414927486431 0.1592847241848568 0.1543610660843500 -0.6044029994439747 -0.2782615780671910 0.1124088984908925 -0.01127785262152897 -0.7106411174536980 -0.6507616514410917 -0.009777358048745351 -0.3145934945220233 -0.2816611056989900 -0.09742790611140886 -0.4074100036308319 
-0.2337095088777567 -0.3303536991111180 0.4711569394782237 0.1557024851904560 0.02723360459090182 -0.2053148963344779 0.4513813649735182 0.3550944860167756 -0.04647020867239120 -0.007571500303521532 0.1130132627909646 0.006862841088306527 -0.4795064481743434 0.1410824192289100 -0.3846247487112712 0.08704226211474073 0.3420885506169894 -0.2959579979551479 -0.4140637832538283 0.5077158876192065 -0.1696278188128033 -0.1787233713462341 -0.09335884598019012 
0.3941003102674813 -0.3574702225318027 0.1658754602482208 0.3931315501035061 -0.2733950342253006 -0.06005011784395942 -0.3177647438140410 -0.4416773412163674 -0.4376318851968795 -0.4054149417665176 0.09668996784364875 -0.05285759899166901 0.04047842471468862 -0.1840443059067144 -0.05998231844463808 -0.3739553044744580 0.5879424878568406 -0.4130744288565427 -0.4820787488828086 -0.5474586483411695 0.5138520315531816 -0.4526436891610708 -0.3458319277908056 
-0.05818144395473293 0.1676034680516398 -0.3445018650553718 -0.4757372351069640 0.02369056106276534 -0.2074613080653423 0.6385400555971238 -0.2946144713653457 -0.08040228295508739 0.3134693573507100 -0.1890551299711539 -0.03013991193644407 -0.2982026172112852 0.1400025858548864 0.1838975545043933 -0.4434511804395028 -0.2456715953025547 -0.4388832527123386 -0.08321533598986286 -0.5299184644653568 -0.2771347718861408 -0.03825133785563144 -0.3184075896761247 
-0.06183689405414253 -0.05360376183804691 0.005638552654937944 -0.3784507285330901 0.4497366265939075 -0.4245115323220176 0.6203280560703540 -0.1479476142914386 -0.2441817467634837 -0.1016463335792423 -0.06308949152941948 -0.2411930594350565 -0.3543717409735258 0.02636406295709794 -0.008062829922810814 -0.2084714733976009 -0.9025941273802373 0.3150898357875844 -0.01621458186840034 -0.08489287748044623 0.4222358497652670 -0.06787936922745000 -0.07874979895502802 
0.2812218335242721 -0.2160881266219164 -0.3544771835452371 -1.098878617191780 -1.649525686130680 -0.4731165224556535 -0.07179294784352085 -0.3149987298475553 -0.2463546549145659 0.3578382128865649 -0.3523055140474192 -0.1592433881434933 -0.2495101132231225 -0.2171806447289010 -0.1157490854367798 -0.4643334100576124 -0.5157384543511762 -0.1900422263461234 -0.1703378148866143 -0.2065485301587747 -0.4075469148412981 -0.2112123620409795 -0.1379573574702715 
0.1041890703339501 -0.04428238107870723 -0.02691020376915430 0.1860322471623328 -0.06481745604520896 -0.2447185361112646 -0.07684231665105884 0.3541507228686849 0.1143200503298373 -0.1556524489528350 0.1692472655206346 0.1395882984504867 0.06803385362195062 -0.1812636858135882 -0.2089444204754236 0.1097784466345274 -0.09644565840923171 0.07825040561895310 -0.3246023494821310 -0.3055545782328092 -0.06129710865701313 -0.3956827159024207 0.09661728996509727 
-0.8495595878089272 -0.05892002751191119 -0.1229218420912414 0.07651668716552686 0.4296438375979182 -0.2046826015691564 0.5868634663924709 0.04139082425485180 0.03018063292651954 0.1108671936001700 -0.2776903985581377 -0.2892513757320134 -0.7336791805338273 -0.04752852200294563 -0.1766180926918284 -0.1556356735463017 -0.6509693079052444 -0.1000825066366803 0.2580241942453024 -0.3582124753126588 -0.04192573996173037 -0.3287575189340780 -0.3600901864760243 
0.8427553216918536 0.1275611899931537 -0.6192064038222895 -0.3907906939991163 -0.3152952356969942 -0.2970014037637322 0.1819799703467942 -0.1128048370997269 -0.1110084514677577 -0.1517703993839570 0.02037143337995712 -0.1045890519234353 -0.4533316101752232 -0.1079448510814778 -0.04664221076209202 -0.1170873975708666 -0.1265072834419100 -0.1242058966584579 -0.07736548091663545 -0.07886317478488370 -0.04466987481064787 -0.1228696947871654 -0.03847121329621576 
-0.1107866570229316 0.1024731005570336 -0.2668482726447404 0.7522397341589581 -0.1528382259698052 -0.7633152677497537 -0.4199774721051347 0.1800814248538659 0.09411823152010805 -0.3357491018180568 0.3730971797441876 -0.4964656513886588 -0.4756362359382425 0.3752716189718368 -0.03603141794674777 0.01599142866903201 0.2794300208220385 -0.1618016413451042 -0.2018685178628004 0.6206589599546806 -0.2693746469728219 0.04234893576131490 0.2803228155672674 
0.2070511519750792 0.07218347276745521 -0.4225703413030029 0.3589919354020160 -0.2157388430839907 -0.006866162097309713 0.6098837061606607 0.2735142106106123 -0.1377109286565094 0.1244430570565261 -0.08946981993846159 0.4288299116907387 0.1923464566146274 -0.1802914336832012 0.03250485359940197 -0.5829595456017794 -0.3982454949756718 -0.1046365316580673 -0.1461443319090898 -0.4452256560227081 -0.2430510561719528 0.7256313044942625 0.4074879230840491 
-0.2522906270829713 -0.02553121834437142 -0.07210630219214012 -0.2077692032123654 -0.2052803802379242 -0.02909974297073275 -0.08031955433438369 -0.08515313568388080 -0.1001954261972951 -0.1198514519923869 -0.1539851232020484 -0.07279573861811539 -0.03956510599887265 -0.08161939816211675 -0.04041101007457233 -0.07067006256066694 -0.1125665134150454 -0.04449158552893224 -0.06659967864896482 -0.04238292569645696 -0.03215092947308808 -0.1049302916108272 -0.03175311162950968 
0.09493978566678007 0.7603774426919356 -0.1961601368605036 -0.4628918837561649 -0.1321982702717634 -0.07997552143016899 -0.6232893102329411 0.1130044118508885 0.1412914488385469 0.005048608320552038 -0.4467440787346782 -0.3718442927717757 0.3605706803594634 0.2072718435182189 -0.2725611117247626 -0.1813393815289991 -0.2078991742158846 -0.03819691428762222 -0.2550875703597825 0.05093002777791712 0.06567038415161792 -0.3278302071784083 0.2642201887688905 
0.2360027489516585 -0.01586066472087970 0.7640670105393516 -0.3770795138951433 -0.9261274487181478 -0.3832663682704903 -0.07091831522177812 -0.07474929331601837 -0.09801263106559087 -0.1063425758204313 -0.05557722919926230 -0.04762499051459044 -0.04232427783166486 -0.08066926460427612 -0.001076149871212886 -0.06149676076956371 -0.08471585047118178 -0.04250434997856407 -0.04251773936227184 -0.04932004375898022 -0.04465757637809664 -0.07757438195411333 -0.03517287255539572 
1.176019709862980 -0.01924285862010033 -0.7033872011929643 -0.2256257165970530 -0.3456198390936982 -0.1318649875936940 -0.06718518394744456 -0.08920811189418185 -0.06035640378273049 -0.09573187009528969 -0.1478169053327151 -0.06158342937934754 -0.03463678794498947 -0.06907000751080460 -0.03117312733092146 -0.1083157081949771 -0.08980469745313972 -0.03909560394540661 -0.05671883343220813 -0.1080789255453327 -0.02368843400014143 -0.08738599233283943 -0.02519540330811758 
-0.5931474966977520 -0.03328384210370160 1.226001364214967 -0.6007589080339001 -0.09906898905030334 0.3435854857787631 -0.07635581777445480 -0.1141066393944571 -0.1090467636050195 -0.06008782647921976 -0.2089892263027041 -0.04658161874991154 -0.06782436370708178 -0.07869825895170485 -0.002906065147249195 -0.08016073141435372 -0.1228510429775950 -0.1565692730866267 -0.07519701534369985 -0.1040933398529436 -0.05379288518873300 -0.08886697391968185 0.007748120367271873 
-0.08454189979513700 0.4949270866039016 -0.07486460522549020 -0.1840515444332343 -0.4808885904637578 -0.1511392610107600 -0.3042446796641242 -0.2224496419854587 -0.1781266021122584 -0.1538569714446205 -0.08929157713182710 -0.04436980729037868 -0.3271176813510299 -0.2583445662834820 -0.2736770967709115 -0.03123205527091420 -0.1508873977940104 -0.1109696921786176 -0.1137673135538205 -0.08065986402500894 -0.1860434425687788 -0.1385251862267336 -0.1970560870273218 
-0.08107510176464093 0.4902835349473424 -0.07188402350224836 -0.1820601219505796 -0.4641361187676588 -0.1479397496055012 -0.2748757042908007 -0.2280992697840744 -0.1709779891533132 -0.1477874328594232 -0.08719613491580626 -0.04314907354503164 -0.3246078796097267 -0.2457872123272816 -0.2614724979392150 -0.03071479613226353 -0.1474043426020552 -0.1058823187058704 -0.1110009951570685 -0.07850914351817809 -0.1755646595636679 -0.1331556325289399 -0.1923001224565424 
-0.1390471463934583 -0.2064587831841149 -0.1771314994465394 -0.05307558576294351 -0.4774364893030120 -0.1021484063827632 -0.4523680781645507 -0.1683250539499373 0.6618047069474586 -0.09182873221948260 -0.05053153752092861 -0.09630061243545048 0.07036906879104736 -0.1268561831691681 -0.03270457267840733 -0.06287928644215314 -0.1312590038501685 -0.1257378258238308 -0.08352267573626810 -0.1007831909643994 -0.09851779176064640 -0.1020864626081024 -0.1264064298910815 
0.2468683877853640 -0.009613224997465040 0.1021995851121305 -0.1030220206599540 -0.1441356652998684 -0.1209093482502490 -0.1230526595555373 -0.05005710751769940 -0.03453437071644313 -0.03908496541813593 -0.03745944922260536 -0.02437563859339342 -0.03948243030625889 -0.03195304186827163 0.05986989842756345 -0.03617078182315452 -0.07132821202490690 -0.01742074797825700 -0.01606635164784798 -0.06149945061255515 -0.01430010019052877 -0.03931990933931652 -0.01679369879069765 
-0.06266337449824590 -0.1235211570687116 -0.08384996135995598 -0.2276240212034205 0.2928110043652945 -0.03164564351583366 -0.1053682941252488 -0.07729846093431740 -0.1385540385492382 -0.1290766326498631 -0.1368542867133428 -0.1152666948036926 -0.2831521466987177 -0.3293844524604017 -0.03639663827903356 -0.1121101257090162 0.3330448531648046 -0.1703112518365328 -0.1121987458038697 -0.1649947858966352 -0.2126814214558519 -0.1516480433775189 -0.1291140271818698 
-0.3557638354988598 0.1634370320912416 -0.07861737164484080 0.1550542648221639 -0.04961560369689785 0.03426829350927754 0.4277521249625972 -0.1699928548270325 -0.1341230292245110 0.08239849221575574 -0.2885426596273588 -0.1350088040299032 -0.1716649035927438 0.4478044515626327 0.02512393153565002 0.2031712502098174 -0.8232282493493811 -0.3448713653529732 -0.1676210852893373 -0.2113521578754960 -0.2150957229638828 -0.1469573488879078 -0.09161857262106864 
-0.09569086986602263 -0.2032996173491677 -0.1807496299373687 -0.1568003220303524 -0.4536122625564870 -0.1113794297495319 -0.2039140277477723 -0.1696967234083777 0.5527589780656853 -0.1994324068279832 -0.2722951441805517 -0.06590385101755689 0.3862776699286856 -0.1412708028516452 -0.02787792156852774 -0.05616460208501628 -0.09264905030634835 -0.1204310941701195 -0.08072788453104764 -0.1008634956630192 -0.09205306413730492 -0.1068034700106284 -0.1285537432532360 
-0.08762214464730496 -0.1999108649403684 -0.1800676863936430 -0.6519081334352191 -0.3577775993320262 -0.1046218536075207 -0.01804253668627707 -0.1659967484997690 0.6733707185161397 -0.1968747834973957 -0.2774433269510622 -0.06438936827228481 -0.1288995865764675 -0.1380736038277111 -0.02737299590478734 -0.05549717484859500 -0.1113118387859663 -0.1188824823590572 -0.07804646887883174 -0.09852223587234170 -0.09061736571252580 -0.09914512684375620 -0.1237974382933954 
-0.04926167278616004 0.04289353860244755 -0.04808902302278104 -0.1002193595169568 -0.2678416111968148 -0.05349084970596837 0.04086757702361293 -0.06583168365331890 -0.08860656657642807 -0.07790690313282465 -0.04752620887735262 -0.02413335936042951 -0.2132171086083065 -0.1305861383998059 -0.1195028006882410 -0.01331340397091040 -0.08931394895914414 -0.06198124925598111 -0.05519285786612471 -0.03860783907766169 -0.08660669617106877 -0.06556987315615638 -0.09269308368714047 
-0.2680478678595029 0.2682176710514866 0.3777105171016152 0.5830705029496710 -0.6181314525424931 0.2263956101392414 0.1245933160952515 -0.1208580545187577 -0.1137449440059089 0.04720900578956638 0.1297643530519330 -0.003367114250532517 -0.06362565620934169 -0.04713499051667339 -0.006928573372893706 -0.3607406502924522 0.4601458808925485 -0.4547389873287556 -0.08837454529339078 -0.2559869537694612 -0.1060340919896097 -0.1328993214509196 -0.09047533362664015 
0.1147273065369280 -0.08378075120023992 -0.02183742871652722 -0.08832639303420463 -0.02725729011054403 -0.1520155814756009 -0.0001136022435613087 0.1145215447087257 -0.1102864452771385 0.03038517714739994 -0.2314075499474519 -0.1918242021483075 0.1559253378226040 -0.3499327528920916 0.03743509146125786 0.3195505743663358 -0.3770452516832560 -0.09126730736290362 -0.03537673050606432 -0.3210280249001591 -0.09243697454606100 -0.1150183146877571 -0.1100232177379222 
-0.03537309037052609 -0.5244890618642755 -0.4219023985948809 -0.2290296661835061 -0.7638460925350821 -0.4023820127663267 -0.2308650511154461 0.6087951736076659 -0.1024582135498483 -0.2119446627920539 -0.1492558532872838 -0.06501672875124029 0.06504044760837033 -0.05779003142689975 -0.03634280460540483 -0.2583453858922045 -0.1026770524065605 -0.02884717077560614 -0.01251409471488265 -0.3119466323405747 -0.05942096436685097 -0.09482562689876724 -0.09642586236214862 
-0.0001458615994088490 -0.001704312870103551 -0.01542145652537536 -0.2211192296013249 -0.1711845237816503 -5.689774671005276e-05 0.2237387274227309 -0.0002912246058306950 -0.001509763053188688 -0.001663258222399828 -0.0007857097257615263 -0.002350489108605499 0.01622901221512062 -0.004793263529395994 0.01205516991547232 -0.001476124444231226 -0.005773938647342137 -0.003103737238090638 -0.001060592671368713 -0.003386718915625810 -0.001000251976074053 -0.002871208908022493 -0.006702639748688032 
1.020811132111978 -0.1963981957664526 0.03817098203501747 -0.04918279322673839 -0.5809392892817552 -0.006875233008724728 -0.1751634995846388 -0.06422796062356400 0.07873008063872981 0.2536921755053557 -0.4308364806051698 0.1972104620949252 0.1223574314978927 0.1515637515579582 0.05382491562131450 0.1726457626381719 0.1362318579946516 -0.02901579802438371 -0.04466842854474525 -0.2228855624113438 -0.05684897374294450 -0.07478891087273998 -0.1006343412067938 
-0.07868428980558988 -0.3679634101939909 0.2011994207760179 -0.2057022392495233 -0.3377195085659183 -0.4894704637102099 -0.002704775860312308 0.4967585149158871 -0.08673356155172672 -0.1674142352555490 -0.1213602659650125 -0.05537167921008507 -0.4416502499970613 -0.04482363123499922 0.007240322861027999 -0.2213901288866029 -0.1868058766102883 -0.02943658861957821 -0.01082200677343560 -0.2432780732749467 -0.04609973151988187 -0.07666084162250097 -0.08439547117644006 
0.3869965188706139 -0.02247829314582006 -0.6478071046053111 0.1528381113277945 -0.3570650479913899 0.2598499348144945 -0.02102314529552832 -0.06122994708000310 0.1197275419003927 -0.1708688906325767 0.1295999644895231 -0.01914312050731472 -0.03799051805839512 -0.04219787956629838 -0.01367871809233222 -0.04499124238638893 -0.05205393062573872 0.04903809919946712 -0.1489324661617196 -0.04089333086108560 -0.02649335369637954 -0.04328176038231182 -0.01660249671439846 
0.01199511355638396 -0.3251475033212066 0.06725284903402587 0.5535751340651386 -1.274988331319751 0.8183073517307436 -0.1536297680113427 -0.09060211250279411 -0.04573841678933290 -0.1087429643054401 -0.3133479166401769 -0.02987353594030934 0.7036053827885991 0.05385843292734506 0.001086264808252489 -0.03890866450663905 0.09993673410130549 -0.04999658935552692 -0.02035695251776619 -0.07644823832016853 0.05185966889960746 -0.04822110102082002 -0.02587130785566046 
0.02771686977993027 0.1618091378405502 -0.2087204637597790 0.1340741584856125 -0.08878259278867384 0.009326518996261230 0.3996473144906764 0.2101450792432800 -0.05921434582220489 -0.1400725266774723 0.09161079918983658 0.07416208666959694 -0.1335124069648531 -0.3664257583818381 0.05490684237662684 0.3798328925326053 -0.04641228333534305 -0.1128917923025378 -0.02809721168905160 0.05946862895700402 0.3302983101414547 -0.09307045228317365 -0.06075088766644215 
-0.09333715219341000 -0.1518661701247056 -0.3458901877599531 0.3799210621258165 0.2545184970305595 -0.4171480701809867 0.2258215070621839 0.08005827147986055 -0.04680834042762794 0.2957218122966263 0.04481527940363991 -0.07066602949316905 -0.4839381155628245 -0.06983952734859610 -0.01519810907678773 -0.07727133845318489 -0.09721970299956764 0.2956872450696107 -0.09452404280242903 0.1492806320560022 0.2126166162728249 -0.04685911747687059 -0.02550419001860804 
-0.7035383905964239 0.04209688974322472 0.1231708672696604 0.7663649034099042 -0.6681368133048722 -0.3417607332992786 0.3283838139066211 0.04481943666851861 -0.06209357858403175 -0.1340137503586985 0.2437164001432814 -0.06464742727484823 -0.3597237584998192 0.1909503418779477 -0.08152456540652592 -0.1213264590866679 1.249380861186548 -0.09786505359162635 -0.06621918627047556 -0.1427506457837881 -0.1527882332427847 -0.1129735707558185 -0.08074859770447419 
-0.09392849422959505 -0.1160795074862150 0.1604172722231664 0.2676029215417515 -0.02909515497094004 -0.1622332536711514 0.3140894967816278 -0.09073490239044611 -0.06602043675201985 -0.5327618593147435 0.3472264146679927 -0.01115518637074775 -0.3384526772791649 -0.2698670097667605 0.04304129067290774 0.1112298971775811 0.2941488470498535 -0.2421821153729940 0.2623497171778527 -0.1101340904723817 -0.1589885704875981 0.5379092555745364 -0.04424001882712873 
0.2479023293826242 -0.02353242305269923 -0.3767210413341547 -0.04128220752273810 -0.4399327152046477 -0.1741603846628156 0.4713283127605251 -0.06728056944557413 -0.03880931926747477 0.3766888780127990 -0.5102412695434093 -0.02482652959447340 -0.3035950856307166 -0.03927232890235448 0.01701974945719035 -0.08900448917657833 -0.1455883578596226 -0.02955931715657221 -0.01913147077631124 -0.05595058690890920 -0.04593849638445827 -0.03648556733779474 -0.02655248594074610 
0.1446059652765189 -0.1546559375125373 -0.3322313481890021 0.4956928843770001 0.6568516218111234 0.3200287944469847 -0.8918727141063483 -0.1408032180498084 -0.04157033261320332 -0.4918907179737636 0.009171349294216792 0.07158174138593221 -0.2890532418143642 -0.1841319847145383 -0.1597639391741055 -0.1958524299803862 0.6498392659172980 -0.1317117700652911 -0.04169610111808973 0.2005211047026865 0.03621277712996304 -0.1042632791969091 -0.07789742946361952 
0.1846046849195567 0.1779588229266357 0.2938809364211211 -0.6396426967172095 -0.07204720708892136 0.03674499960513430 0.2458609269959644 -0.05890996993726623 -0.05789747921153080 0.1948364297137374 -0.1070066605154411 -0.01104786150382264 0.001922958102142259 -0.04904254554214118 0.03894752871535888 -0.08002383864901651 -0.2194732604658912 -0.06733031867260084 -0.04616220922828995 -0.03329999813719813 -0.09751536364094128 0.5438321460843389 -0.03173217531180705 
0.5998948147007865 -0.006854351461746852 -0.2024232868484791 -0.1084117444013581 -0.5968214168324640 -0.1488840185680364 -0.004505862890647306 -0.03209534251436286 -0.02733555323735608 0.2858178133423155 0.7376547627021491 -0.01315311438678720 -0.01336154632734478 -0.02076986354004821 -0.005127888884374828 -0.02042007872227743 -0.03837375483334270 -0.01643652892589680 -0.01787134249428608 -0.02327491228608707 -0.01371858564876047 -0.01830996739200346 -0.008244956068805384 
-0.02438757901652956 0.4041331921632017 -0.02139157513910255 -0.1013463357944950 -0.5474020244200868 -0.09139217568340595 0.2453234679924694 -0.1389386249789414 -0.06008956985859223 -0.05456973122499355 -0.03524482155178103 -0.01389494495067124 -0.1753432881284981 -0.08688629114222939 -0.1050775559028902 -0.01418484450038418 -0.09573202695985736 -0.03466473851997420 -0.03845894980527349 -0.02537779757015176 -0.07021406300254812 -0.05324897355055983 -0.07139569513625527 
-0.003053439270228065 0.1292474288652891 -0.1419034163875309 -0.5849249215568592 0.3791815608481980 -0.3504483267555033 0.4129751172353535 0.05336738251314609 -0.05889163178288811 -0.1183241722589903 -0.1804032230977056 -0.007803178834304760 -0.3570243386614525 -0.06111392126396993 -0.03251561379456906 0.1430421101680106 0.1094940348605393 -0.02071588191588688 -0.05934819517275651 -0.1865720178349326 -0.09093906561141143 -0.06131112549248228 0.06335458194594272 
-0.02637328316190194 -0.03882757060818054 -0.06889893017115784 0.1692554819140233 -0.5729764771720872 0.1149806264919556 -0.2662963964293114 -0.03461696424794999 -0.04267238490456599 -0.06627739225936706 -0.05426570672017328 0.02110952091189343 -0.1669676498656678 0.2288812080871169 -0.04683031311446739 -0.07345340662186044 -0.1127039231611924 -0.07138018753706132 -0.03132293639846261 -0.09466285902537676 -0.1325364008542271 -0.04630507939433373 -0.05404114289231633 
0.6987454247241398 0.1315505901936499 -0.1164785157803882 0.5474270532186569 -0.2860770260307717 -0.06467177132234742 0.06322964835071995 -0.09264955607106890 0.3648997268589701 0.1544778433010688 -0.09367125888289249 -0.07445550657231363 -0.02681393126570500 -0.2112102469175785 -0.1874450589259188 -0.06374143424955560 0.3249502968382446 0.02607404733361870 -0.04566911546527885 -0.1011165434895514 0.08058298950633341 0.4611523955171140 -0.06526048129828305 
0.1610059852294027 -0.1053897353060886 -0.2383313412936131 0.1004952333230029 0.3151121737042219 -0.2164364289089682 0.2709692291078787 -0.04160154288620738 -0.07300918341219821 -0.2210603279406782 -0.006497246263866749 -0.05635026014892059 -0.09916984083022767 0.5961266122331554 -0.03893576694714368 -0.1100140985387453 -0.5562974126387048 -0.1266589654473315 -0.09449472482807675 -0.07844416991581955 -0.1452112243904939 -0.1040957663412299 -0.05504151662838717 
-0.3456982870304084 0.1216968392948924 -0.1159683293524784 -0.7798658420170521 -0.02173611642355398 0.2756803510427494 0.4456344330299608 0.02178706697262357 -0.03191555656716708 0.1095175868678177 -0.3361305504076588 0.04601304594032570 -0.3744340676226544 0.4763572418094239 0.03694164050259006 -0.1677725701331576 -0.2475899412251069 -0.1305009775854302 -0.06054578678639203 -0.05572118335884430 -0.1038798301205912 -0.04276030954109557 -0.03332725527786346 
-0.01096149849482592 -0.01661309193421353 -0.004576588327943793 0.09115001023937959 -0.5168543970396903 -0.1320063488246464 -0.1235026038269067 -0.03109319198753032 -0.02357118937246726 0.2531262205760707 -0.2205890036272725 -0.01952840850556545 -0.2245926850472646 -0.0001475099504458817 -0.01251365178391610 -0.04945781771448504 0.3001660550079762 -0.01475721375614692 -0.01311422966730913 -0.02439225948994364 -0.03554608429523572 -0.02320451456932794 -0.01356902672231658 
-0.1937862626049158 -0.09701330720382806 -0.008653118789574718 -0.02313669582727997 -0.2930237391264119 -0.01286822756439824 -0.2732607782542130 -0.01082568352449010 -0.03735366671938659 -0.02298590772164499 -0.03341424657958723 -0.02399075498959621 -0.2911351403657444 -0.1241866745982505 0.5784604860461285 -0.1481884350995855 -0.1551925126154841 -0.1213377109581254 -0.03878073848123795 -0.1117011621368574 -0.03440038748847116 -0.07179986015581714 -0.1108431074630500 
-0.3334625260129282 0.03446323965211611 0.3081671502423894 -0.6796527094928596 0.2790852733922681 -0.3133173326969971 0.05549308800370126 -0.05893931134099986 -0.04671542229776846 -0.2899193561356415 -0.09522632875580517 -0.02453878391466497 0.4225460591322328 0.03834395686475751 0.2033033186607191 0.2892343925683096 0.04766850166317938 -0.1515096190785938 -0.03469516471051057 -0.04459353603715097 0.3649124159432471 -0.06674018046239552 -0.04062945202891460 
-0.2569740440468564 -0.05366818331845012 -0.4515928759751699 -0.1068615912720400 0.09411477567344596 -0.3538106086300212 -0.6888568749289707 -0.08090451956819036 -0.03810286244384665 -0.05571147031188503 -0.09097784569286113 -0.2970693732969740 0.8384529275022914 -0.6535249920298103 0.02017674578995068 0.3513316618177509 -0.6392779694091150 -0.2359669723357769 -0.02939960303820682 1.294913259677178 -0.05485261726380122 -0.04502151719257932 0.5060592422227328 
-0.02220367106240045 -0.006279561415401666 -0.04544455023468454 -0.2961954452395417 -0.3625635724328767 0.008277461271004816 -0.1624785292256479 -0.03791041960767116 -0.02823663730398925 -0.03398122411975461 -0.02693698175152843 0.6119135050826496 -0.09546347066784358 -0.5686864830486141 -0.07018582271246906 -0.3649798167293948 -0.05483097323552445 -0.09809391625340341 -0.02073965407747915 0.07882876660994816 -0.02762977159924901 -0.03859308027500510 -0.07312813681874770 
0.2479708736608614 -0.02835086912965378 0.08807128089874097 -0.07128300090672499 -0.06870341768057656 0.3065250265099182 0.08902526016721796 -0.04710753550020312 -0.02766204878195347 -0.1672482121669082 0.05337951210285225 -0.04624864976940734 -0.4021053049002585 -0.05534822123871572 -0.04114184881062424 0.1299772676310033 0.6186888534531819 -0.08196851846613336 -0.02410457760381773 -0.09592291298484726 -0.1020204771127878 -0.03049379841981893 -0.02273455115747727 
-0.2169947301523569 -0.09774006282418056 0.1725672903311388 -0.2351215916827819 -0.07083550708497895 -0.1423423266336830 -0.2600667979520023 -0.007871560516617230 -0.03076745712263602 -0.4793915762357347 0.3868797809550286 -0.04843644671390184 -0.03420601578144178 -0.04936967448407126 0.2445706450111977 -0.1253807941557938 -0.1127726359563150 -0.09956975188836986 -0.03273516658894804 -0.04449637761872800 -0.02504155311903672 -0.05275460879822173 -0.05473695360583128 
0.2950867064350213 -0.003118239118961480 -0.4151096861460778 0.9204758486271102 -0.1015090217497102 0.06459121943482725 0.1009867435878677 -0.009413397691276136 -0.01426035909863645 -0.05961586305306509 0.4323773421136440 -0.05768792411723059 -0.1426482069719505 -0.1427920995850873 0.05388411598075357 -0.1371289085674547 -0.1544929891396505 -0.03379071621407744 -0.01563179721283932 -0.1702342860046872 -0.05832651291930553 -0.01977353683257019 -0.02328458377923594 
-0.09098822074284198 -0.07400065830259961 -0.1221295098810066 1.027889992515006 -0.7641481677406898 -0.08565906266394442 0.7869005020524066 -0.1059910986112593 -0.06640585361525411 -0.02432550488852554 -0.04461809136421026 0.1764209332795314 -0.9138284090963363 -0.09931022957302646 -0.03595935019351246 -0.05504684602576325 -0.02622805481401462 0.2601491469335637 -0.06085184294790000 0.4916839817594571 0.6422362905069217 -0.09748043640409651 -0.03774415705993493 
-0.03030094130157558 0.4841780632558372 -0.06106506552740167 -0.1255137409653722 -0.1924622401923899 -0.07512796229867699 0.03241068468047827 -0.3672107395085876 -0.05810944549828566 0.1340099488168638 0.2368561667968505 -0.1374972417767142 0.06582540086644675 -0.06136662136065928 -0.04741755908100465 -0.1242384952203086 -0.2535238754542435 -0.06862331775069551 -0.02784550957815511 -0.1250319959289175 0.3249729886693930 -0.05646427420838091 -0.04227262697821161 
-0.2709091712996143 0.2044161554469747 0.3417411680064888 -0.1328330400870560 -0.8521044232330628 0.3838523036072299 0.9707744465173780 0.005339534094322432 -0.03047340697708988 -0.01218868061929945 -0.2030539069485778 -0.02101535946934989 -0.5615346924991960 0.3174035575342052 -0.04722367334467963 0.01822420153817203 -0.1840967609056534 -0.03747179839939818 -0.02401492373951656 -0.1206745260910948 -0.02272923583055722 -0.03632932843151582 0.5408460688289373 
-0.2521801413128889 -0.003410665998502573 0.3482541263521405 -0.06130550286155067 0.3408461369776128 0.06421954867674312 -0.005946861823484861 -0.01360521061954016 -0.01263949239129287 -0.01500421318414383 -0.02367039321358179 -0.01136235216891080 -0.008376419494247271 -0.007094506057920404 -0.006697663366562847 -0.006138496971021036 -0.06788020240284866 -0.01101437526722663 -0.01755719594630852 -0.01430724340167334 -0.01094406814319878 -0.03643194675963163 -0.007726580456955276 
-0.6439930625558928 -0.04598651539379273 0.7973760348452726 0.04527847445204333 -0.4025357928690818 0.4127439593168442 -0.1198142422543096 -0.06673761566025418 -0.03293729127735219 -0.1713084596164898 -0.004878217264589574 -0.009480009575731373 -0.1731823732530699 -0.05689824776781241 -0.0008317045785907107 -0.06170954415505642 0.2682173840722618 -0.02174853325641750 -0.01523532340204944 -0.09122300716098845 -0.03158438885020932 -0.04072341912008944 0.5447104375439858 
-0.2477331907512820 0.05407565375495342 -0.4351440350640369 -0.2231841160826822 -0.4596176444034487 0.3013305151770050 0.3767483857189909 -0.09161423514471821 -0.03889059978628204 0.4163172619549974 -0.1137642251727008 0.3091655695713903 -0.7725133305615506 -0.1983274731220049 0.06991182506642987 -0.05578671417673829 0.1743711854692580 -0.05572923880115065 -0.08719367165624828 -0.07235526947203777 -0.09073215880040860 -0.03983254996114735 -0.05380004794116298 
-0.01453718784384409 -0.07590450301792893 -0.03834640301807622 0.5523213700098955 -1.056055887289277 0.005923325665378494 -0.06161931364601159 -0.03179474677106347 -0.05390474743938555 -0.06404426827926873 -0.07079357438668477 -0.04765510781733168 -0.04690601710911938 0.3681230585280869 -0.03466761283474012 -0.03266837360630264 -0.1239066885627595 -0.03166180730474105 -0.04362287463279654 -0.01623502066347150 -0.1248381537923615 -0.07200972096439534 -0.05074435369403399 
0.1629595884529622 -0.02478085359715958 0.08024013278072985 0.1200121386546651 -0.03131287392906256 0.03109450532382571 -0.06719436245120773 -0.02960043727888976 -0.01532631536452541 0.2176155416732097 -0.2585539105996415 -0.4194706007352227 0.07175378014043873 0.2405496661753935 0.09947160368093590 -0.07366146838497813 0.2136720398915755 -0.04931190923131695 -0.01853787694135111 -0.08498455658503656 -0.03601716429636071 -0.02388283428334543 -0.02078366023060739 
-0.01385406067853858 0.003791890029778101 -0.01879384250912230 -0.03802309470843370 -0.1580553856322734 -0.03401880452660052 0.08075309498660191 0.1696860667049262 -0.02206737710058733 -0.02160576566994005 -0.01656876691858262 -0.005520972029597493 -0.1046213179177121 -0.03366036650291543 -0.02892004883088956 -0.005351919350008096 -0.02477939461380302 -0.01608049379995993 -0.01280165603456369 -0.01753613731905922 -0.02232770590426985 -0.01760971742941020 -0.01924761645587301 
0.3017759448319916 0.1055187148222141 -0.1427324995350707 0.08476443360941291 -0.5976825041375428 0.07418547195528649 -0.3804766276339925 -0.02748045137742755 -0.02079500198424163 -0.008064546635077588 0.3595196224809997 0.5220324603321564 0.7482288375577655 0.02952980203979415 -0.01477989120744844 -0.1138072729631902 -0.2862510278369499 -0.06703818615840285 -0.02687883116772229 -0.03860852384689453 -0.07139815158802827 -0.03559629591636476 -0.02359169924237198 
-0.002560638821086762 -0.09128625427790664 -0.002866855260177972 -0.1738921358979747 -0.5144268470676864 -0.001028737126352179 -0.3851861592047411 -0.003309881479504408 -0.02802297373949948 -0.01110465743541012 -0.02055559545244515 -0.04146535182392244 0.3970222972967089 -0.04437934187246039 0.1966737526404168 -0.1118960672648109 -0.1770945863773379 -0.08565292736962365 -0.02817793529613797 -0.04093862792880894 -0.02156294452687740 -0.04276821928312544 -0.05467846982417352 
-0.08406742773380937 -0.006552464161678212 -0.1835263902630400 0.1573553073472254 -0.2002271789057635 -0.009546718422049630 -0.002203608952077600 -0.006809167174896003 -0.008669960900590929 -0.02232582934297418 -0.02293252885900299 -0.006755729064004925 -0.03113714840820019 -0.01873937245615137 -0.003285615619829558 -0.01170482203651168 -0.01791909746321212 -0.007301262044431287 -0.004726126785793460 -0.007766067391609265 -0.006872890496017220 -0.006484782058762895 -0.004073186268790780 
0.09650556464547262 -0.07265642393472284 -0.1554689916941059 0.02373934949037926 0.3392470884333820 0.05562156461480965 -0.1422364463123301 0.005400295085314671 -0.05395848498737230 -0.08828281329982318 0.08450240088204634 0.1158874477617581 0.3391505052258453 0.1429818663986776 -0.02443068094741471 0.1685782021281872 -0.2313924144162999 -0.09114283260481836 -0.03759077163598945 -0.1239507913908907 -0.07157478421680386 -0.04603681505003597 -0.02871334101095395 
-0.4724790781164495 -0.03938198781381174 0.1823905596273435 -0.3959152255124860 0.9582398600634710 -0.1645929551775801 0.1407189344940062 -0.04446729048339484 -0.02355776668277169 -0.1993616237944290 -0.4124250903972450 -0.002399927244067743 -0.5525563942964259 0.2109445434090148 0.05209889677605861 0.6107215191990958 -0.2228517085300370 -0.08054168113718880 -0.01800539720211973 -0.1019653543804013 -0.07999868506241611 -0.02913485925938920 -0.01635625508603528 
-0.02190256160841300 -0.3166528789136068 -0.05794943328372156 -0.2607773682595689 0.4081038694067687 -0.1386070584625676 -0.2472175341607883 -0.07790403149202779 -0.03617547085464682 -0.05110398181605516 -0.05400636982793216 -0.03605172701014421 0.1212505351894007 -0.07364949796818080 -0.05600200289611962 -0.03469220086786361 -0.08584419444828334 -0.04551756407733038 -0.02030206932169305 -0.05836573323881919 -0.1372735359032674 -0.04379885666178624 -0.03966474892788796 
-0.008144286893131772 -0.03523525361002700 -0.009565103856306068 -0.02350966823916301 -0.04740420296015557 -0.007569723354454458 0.01565254528113491 -0.09629512483399523 -0.003364611621713796 -0.007406596017031379 -0.01503647868297485 -0.006673967775173243 0.2349842949848854 -0.01392771505232546 -0.001582688445396004 -0.003088174513521906 -0.004108802367995771 -0.009142464037067496 -0.002737711414795494 -0.003977414314727902 -0.001820188454445308 -0.007316445914606726 -0.003769981970570715 
-0.01642184380972111 -0.1578453269290514 -0.02953919383933512 0.1829004770782290 0.1168149138425013 0.01220482117408479 -0.07152375511645888 -0.03241554996111528 -0.01663512757353286 -0.02336119709319820 -0.02361149327449929 -0.1416508610939717 -0.04364175108242476 0.5377166494151924 -0.03828726884842067 0.2218726279347521 -0.04474644095361018 -0.03306160664620001 -0.01409124044340490 0.1149812032124129 -0.02333084825350797 -0.02283250825670707 -0.03334047253164613 
-0.3617199818473018 -0.006588189176567142 -0.1772383500651144 -0.2214695582905303 0.5767576596931541 0.1253391944615108 0.1251384405284599 -0.05355475771998047 -0.01429689782425437 0.1167395729888948 0.04458695677347561 -0.2549896813198632 -0.001408360413862534 0.4597354919536491 -0.09938951474510961 -0.05080417786987584 0.01525387571943080 0.1464228004287404 -0.07295710223005593 -0.03606357548870179 -0.02115223309573796 -0.03482234572633346 -0.01914926082072374 
-0.01047681992700734 -0.1622044868241353 -0.03518336688702321 -0.2305515424995659 -0.3074960779258204 -0.004382493253889613 -0.03666223956575481 -0.01801114752640552 -0.02072254629335819 -0.02151058533853020 -0.04271883347593598 -0.07556169356800582 -0.04494492034897134 0.4981506875573877 -0.03659502696840603 -0.03957238873831932 -0.04862058550040372 -0.04100369332447401 -0.01533457436024234 -0.1501726997756855 0.2161511913940986 -0.02624492439799078 -0.02970180195663996 
0.4317777132403387 -0.002572711677374784 0.1152573185445935 -0.09017790671414926 -0.6282567597931348 -0.06348373990513034 -0.002176870793874565 -0.005965466308471151 -0.005471946421812505 -0.008701421973108120 -0.008070170824689440 -0.003024605987792582 -0.002682545819899052 -0.01161560111177060 -0.002062930081217891 -0.008681748695422244 -0.01896640306101155 -0.005269620158606284 -0.005674793765217523 -0.004478669527017387 -0.004685026960956491 -0.005793924086346232 -0.003252584739460873 
-0.1512255343066937 -0.02236544929981697 -0.02313356344685075 0.4497082634682309 -0.3964286220981662 -0.1021721080476891 0.01244743619848861 -0.06566682735677211 -0.02141350854830576 0.1401268863559031 -0.2866542566427954 0.005888281353198748 -0.09070922230564336 0.1447000334485287 0.04354473055969359 -0.2379892733403874 0.0004732366511906170 -0.2417437967083685 -0.01170609731722913 0.5464743932666823 -0.02033217898980943 -0.05533411614331998 -0.08299253417382019 
-0.1172937309041643 -0.006147811063966504 0.1039428500035338 -0.04579810692113459 -0.07540384581242680 -0.005225376424195985 -0.01000509947362136 -0.007150414711195333 -0.01504100866196601 -0.009101448198705418 -0.01569015883634659 -0.002341408536537138 -0.006268826734145788 -0.02274144011583199 -0.003854871659672652 -0.005280738005741543 -0.01235293757980426 -0.007224590367792144 -0.004735543731155060 -0.004798648974463336 -0.007268348016204127 -0.008101413290743629 -0.007210354486885909 
0.3037555780954068 -0.005959539544704602 0.3877936013530455 -0.02754013983863601 -0.5041806379234275 -0.06112760600410568 -0.002140993976408727 -0.007129869467534868 -0.008560483023199260 -0.01606585870105463 -0.01436056669543587 -0.004968113867049542 -0.01173090604048822 -0.01101782134344223 -0.003247780246835275 -0.007459427625350699 -0.02749435118018011 -0.007640158430783211 -0.008293913054503580 -0.004402464041770934 -0.003968936999643189 -0.03251120181623592 -0.003699573805585444 
-0.01215228162423319 -0.002529327485235943 1.030685640815225 -0.07034503653776511 -0.9199207230804529 -0.003820044750168866 -0.2297736942531470 -0.007104714637523230 -0.01508046821324907 -0.01471224323557321 -0.01657433759892131 -0.006299584921376676 -0.2522430427235258 -0.01791852147962187 -0.005899834910851480 -0.01275444971374380 0.4629279900288479 -0.005581541963253710 -0.006773256408124937 -0.006536579806279576 -0.004728381280013287 -0.01560041640086784 -0.009257575209468832 
0.2917977574482256 0.006165715981567428 0.08723284212005843 -0.08102321236221245 -0.3161225336945899 -0.05046111956977335 0.7924385499860707 0.06371112888697213 -0.02170445754571243 0.07257230487056063 -0.1208654545434970 0.03323799332576685 -0.2404679152288223 -0.04578712080299667 -0.07819948452566108 -0.04994554941309720 -0.04765758078333136 -0.1066573980219150 0.09728750859565082 -0.06770110181652211 -0.01662570083458701 -0.02828588489652722 0.3749193179957465 
-0.2191133549040155 -0.003153989229281745 0.08047559510436733 -0.001414379666304613 0.8631026776376670 -0.06435491044809590 -0.3144158900431117 -0.02987345760889267 -0.006852440298133761 -0.01594319413209351 -0.02455879161935426 -0.007730562455070433 -0.3416311818877463 -0.02115997555337681 0.02153987976643926 -0.02308375676514134 -0.01932604406904493 -0.01259476030358121 -0.006261987534315876 -0.02823928638016703 -0.01291492804249704 -0.01010529849477608 -0.005511860344363411 
0.04164393821230231 -0.004867508777141676 -0.08766703950412473 -0.05319479640315234 -0.1982827668799413 -0.02517672713673121 -0.1797521360159434 -0.02095532575418367 -0.01117227929676886 -0.1043916078145563 0.2081067120544220 -0.008414182764550002 0.5039146865123915 -0.009645271664340774 -0.004353578323551874 -0.02545717375690234 -0.02084881901036855 -0.003891443279794839 -0.004076878269942855 -0.009005346415145134 -0.01283868443071741 -0.01007741956140258 -0.007410362342638107 
-0.1178991208630321 -0.0003360118352315053 0.1061139000683104 -0.009280808806190430 -0.04107479096225943 -0.01279149576055702 -0.003908731501998101 -0.005641357430471543 -0.01059813724351225 -0.004563602873132415 -0.004515137331419334 0.0007955382261739929 -0.002471157295720983 -0.01897199594414535 -0.001627161432667270 -0.002979839320182511 -0.002827252935073550 -0.001548252489829269 -0.001444344788751593 -0.003024604113434994 -0.002547077310733815 -0.003341011135429894 -0.001335541926311817 
-0.04251978422951466 -0.03290764480005008 -0.02232967212490446 -0.4867066718615395 -0.8829588809668184 0.02105292549637738 0.02769647092646439 -0.04244442601359995 -0.01188410742558942 -0.02272365202115110 -0.02352405974689778 -0.1730930709855444 0.7286826464274766 0.1238291815697872 -0.03520268124158801 1.610767987894666 -0.4865900258137882 -0.03467744213755790 -0.004831790629314573 -1.253415092129907 -0.006801315746616905 -0.02049820074693329 -0.07612915247782455 
-0.1751911812039329 -0.005792254589710221 0.3146754408350810 -0.1812843922607089 -0.04015422726150095 0.07212438434120252 0.05269523321253638 -0.02471247232319728 -0.008818366979482116 0.1255234405409453 -0.1776709485537527 0.09118308643504731 -0.6696272325421977 -0.1958041893399468 0.09283327463499470 -0.09084608512853157 0.2640377201946350 -0.03333330008215391 -0.006572916224447670 -0.1424465046073459 -0.01609012593902822 -0.02631863631753251 -0.03629125544542576 
