solver_type L2R_LR
nr_class 3
label 1 2 3
nr_feature 2097
bias 0.000000000000000
w
0.2169563061144474 0.3324278051468733 -0.9480066643713858 
-0.2718997451011194 0.3400753280900625 -0.2496780262665456 
-0.08927138538228836 0.2592428314632097 -0.3192445688520370 
0.2952132798245405 -0.2819103330515141 0.1131055084316066 
0.08275559913613062 -0.1013802657256866 0.1027114181080422 
0.1225650001423001 -0.001385307061521509 -0.1928296017723467 
-0.2487468608117800 -0.2570598144459658 0.2489025722514374 
-0.2186906704337832 0.6371498324367261 -0.4067995542035048 
-0.4796597288561182 -0.1245222815103067 0.6815907565376863 
0.08272884413673065 0.1263169177993797 -0.2913767252191929 
0.3271218302439009 -0.5109707357283256 0.2218597155165731 
-0.8707062276307601 0.3853989351082214 -0.5127432205364834 
-0.4068743687829981 0.7835500557982603 -0.3210283394529823 
-0.006438920169410438 0.07678226157818291 -0.3252718428530568 
-0.6399973515793845 0.4765872862275707 0.3827241021877472 
-0.2236984840920492 -0.1430202547960138 0.3524854517239965 
0.6667569270340381 -0.4571155330208204 -0.1490509546538831 
0.3833208661739191 -0.3371003671879498 -0.2543237025544859 
-0.5178532289507486 1.110703484352608 -0.8968837524961436 
-0.4519232616005426 0.7266341212693628 -0.09965761075085915 
0.4959477978504024 -0.3715548435300761 -0.1566944648829630 
0.5060189830881286 -0.5431726446569106 0.1377889905210377 
0.2506943300343812 -0.2831935342713693 0.1222704878671818 
0.3031391347608471 -0.3476851998072019 0.1685014010755317 
0.2246578209360658 0.03969818639272869 -0.3093724809875091 
-0.004040509956386996 -0.7137095640828864 0.4832921041396083 
0.1864125313484674 -0.8519986484631195 0.7282193692153147 
-0.02973902424204413 -0.2242363687676322 0.3043112307108360 
0.09220048432833335 -0.2467749262345269 0.1982944326203199 
0.05353753009133622 0.1913407751816782 -0.3478540533486009 
-0.1463895314984169 -0.02201919972375730 0.1987247552985432 
0.1851431354730135 0.05794783761094351 -0.3135216300612874 
-0.2402976896919942 0.9786903264602539 -0.6847957965872941 
-0.1166266524162348 0.6113873179453667 -0.6492571772848856 
0.2179616116914337 -0.5467286295816506 0.2997709029855228 
0.3637720369340006 -0.2595475487232191 -0.1862699405409697 
0.06593599726540422 0.1865075845776577 -0.4805265231799444 
-0.2289548315987053 0.4888505981525401 -0.3527954249828919 
-0.01379162516303265 0.08297633408149664 -0.1953142100930226 
-0.3609216278129473 -0.09688248702231420 0.3573002708879496 
-0.1027916130900272 0.4123019038661082 -0.4517865971605049 
-0.004360486860652234 -0.01356833123942768 0.09038984063889603 
0.3777139705666107 -0.3446905975192497 0.1022358217594013 
0.1734653004139218 -0.02793255391802649 -0.2366520226796245 
-0.1082174517360459 0.2611980987676658 -0.1815889922291018 
0.05632015380367177 -0.3183535664955345 0.5141726468891332 
0.8118935579317872 -0.8424376983155064 -0.1278122460636826 
-0.1671102861180188 -0.6060667239072607 0.7329952252945079 
-0.2982922063840122 -0.1091294650315680 0.3146677199447579 
-0.05765832070658665 0.4257840352581090 -0.3056923520646249 
0.04465738568137065 0.2692664143231003 -0.3049994573739199 
0.3355698209514600 -0.04832091223972953 -0.2672007887194869 
0.3072635447143220 -0.3079270230290359 -0.1424423335203493 
0.7808274720506724 -0.6456039950744608 -0.1096837734098348 
-0.3246505537944403 0.3031305995373001 -0.1245217460497556 
0.1714731407285982 0.1470448262999597 -0.4510244406978324 
0.2747566319002711 -0.2466793369827191 -0.06027918178226644 
0.08700708985786809 -0.3937879348669944 0.3007723418674178 
0.01742514017711278 0.1681544055487501 -0.3376170882284006 
0.2735537628940585 -0.2860101785470757 -0.06703979973201184 
-0.2534030853620972 -0.2275998336949351 0.2698724437128838 
-0.1389893242618563 0.2513644330561328 -0.1173531021494438 
-0.04231596960025311 0.3584302567763962 -0.1615824789726812 
0.02807102159052096 0.1866944140442601 -0.3754642978836672 
0.1396777124270358 -0.2605048034263049 -0.1073502804508111 
-0.2408049004623908 0.4150418325162867 -0.2136494518954464 
0.1705647217125225 -0.3756308000094573 -0.01892509799815629 
0.2371222926124386 -0.2878365260859196 -0.03143036077134099 
0.1191061493186384 -0.1328021109983489 -0.07200093490646493 
-0.3892216414328263 0.4562262321228758 -0.06790558891359404 
-0.01994182347235938 0.1614547169198958 -0.1211267324044458 
-0.4122554473780671 0.6657002507639375 -0.2516555777918678 
-0.09445104419189933 0.2617734821529515 -0.2114719843089820 
0.05558344719301157 0.1695453412075559 -0.2772606063723779 
-0.06043855747349634 -0.5571186754416687 0.4740216881985676 
-0.01768687941345799 0.1446670343932525 -0.08615776486384338 
-0.05069372532809751 0.09184554117574398 0.1111472392328573 
0.2995241689218603 -0.03446804653983188 -0.2068838113020312 
-0.1996310166782409 0.3701605525431169 -0.2473956853734710 
0.2295223765279731 -0.3225201478981089 -0.03691210502248390 
0.05924150736993608 -0.01894200660452037 -0.1700872795707110 
-0.09753079163279581 0.3580968063416632 -0.3972196319321696 
-0.1923846357458046 -0.2791491724443578 0.5773026278020974 
-0.2456182943625087 0.4984076692043322 -0.1269783598557488 
-1.180260525805814 0.7581952130941391 0.01722694379218671 
0.2031584535851855 -0.2569639636369425 -0.03897153431352939 
0.02004927234478094 0.3666844891501139 -0.2259233981143755 
-0.01401805160711994 0.003198942283207587 0.04094552367418911 
0.08542635565989877 0.03202518323447058 -0.09670350218801149 
-0.05386993470900469 0.1323545624099549 -0.09702994936339737 
0.1718535679490999 -0.04275008378840554 -0.2379670367892924 
-0.1387146650647802 -0.07233975904179156 0.1371548122435779 
-0.2745494243391068 0.3047964561365518 -0.07579877683799094 
-0.5156931680227383 0.5247295757524142 -0.1075779444093293 
0.07698859801238650 0.07052222839397924 -0.1585731461126748 
0.1014558810854214 0.09548978017372627 -0.1681135372413709 
-0.3601657457489300 0.5496579365554404 -0.09579032908638221 
0.2552260115047560 -0.2639780121059224 -0.04941415463883760 
-0.4192055586581174 0.5850926350620661 -0.1925951195422877 
-0.2241788817173119 0.4866393106180124 -0.1799256578314093 
-0.2973718138614479 -0.002491547262108561 0.5645943106675567 
0.1853612066605832 -0.1820639869823811 -0.1621819391528815 
0.1278188655832032 -0.1552293485287254 -0.04535557372997577 
0.007880681952753410 0.1668252942949202 -0.09463524351303819 
-0.05649530903903462 0.09022583296411340 -0.1016022330673484 
-0.07876566935342699 0.4119681197600366 -0.3111865919668698 
0.06755982594005566 -0.001321406976847322 -0.02536154515021612 
0.1671750922168567 -0.3423530679666155 -0.03766148670702753 
-0.01964642267312192 0.1716876650488812 -0.1184630929919062 
0.07565205549014667 0.1550231470079945 -0.1938596700003973 
-0.1291399459742179 0.1804773888051711 -0.1899805692228247 
0.2436675857231613 -0.1683855774098581 -0.1088200968290856 
0.1402395062363540 -0.1349945607114617 -0.02424485274672539 
-0.06075971127168181 -0.01833273653593630 0.009226952765722905 
-0.04231596960025311 0.3584302567763962 -0.1615824789726812 
-0.2092608897190078 0.2941288996124553 -0.04271335470608589 
0.002556814659004345 -0.02438141460912954 -0.05364479271468221 
-0.01977781220503711 -0.02982224199815289 -0.05122423940146108 
0.1937042212780906 -0.1736024368613995 -0.1235831488624471 
-0.1336884581160840 0.4025105460720222 -0.2617011380066427 
-0.07696269565194645 -0.08408026229089201 0.2279645940531732 
0.08409496215790806 -0.1249185200488356 -0.05106567089547098 
0.1682264831529860 -0.6070026684824824 0.5757377160708785 
0.05327735262149520 -0.09159663804923703 -0.04190984776731835 
0.03576820648008559 0.1194606501798008 -0.1300260274578814 
-0.5842771238230079 0.3028766169801146 0.05005289766162312 
-0.4762317708162313 -0.02118029569108820 0.3727281116574865 
-0.1224988478414466 -0.2226424889213791 0.3077604578161472 
0.1371408635100004 0.07711884840910647 -0.3363412451572105 
-0.1675164347971282 0.06924574487783074 0.2586224256247230 
-0.2744810089295617 0.03642703529002494 0.3441286790148714 
0.1251625617267025 -0.3425128924027517 0.2654954076855072 
0.5341289284602500 -0.1059973547319390 -0.3710261877885941 
-0.05399300328995729 0.4962433407009150 -0.5855989003956296 
0.05273749687724094 1.017518937599301 -1.694373290567843 
-0.03526105632792552 -0.2649839077399934 0.3740355604390678 
-1.489503289108342 2.075096341448033 -1.198935396769803 
1.018035410236257 -1.142225568979800 -0.1669462042344756 
1.529992180110316 -1.309270652387638 -0.4985905167640901 
-0.1040350758822551 -0.3810277375732733 0.4497984363498025 
-0.2737849439399987 0.1931785055963091 -0.06182940844776511 
-0.04308372284136491 -0.02936591238081706 -0.03634627273482841 
0.06814282907555787 0.5513389034418242 -0.6121270127232087 
0.4322156364359922 -0.3950348760236407 -0.03742737617224189 
0.04887527915365948 0.2923242762692312 -0.3865226032950939 
-0.06164063939497601 0.01735672100498356 0.08376394503773660 
-0.5408357493808204 0.5007920779283267 0.08231270586572413 
-0.004227067459628566 0.4852355882330355 -0.6404354242453177 
0.03787918567238534 -0.003379600977477432 -0.1067432224812061 
0.1247011985470498 -0.2779096977959540 0.09782344655500147 
-0.1440937962807316 0.09104146333927811 0.002480915798511699 
0.5637052451294330 -0.4475474238328100 -0.1844268634710579 
0.02881814698844335 -0.08955251117746048 0.1932210018121740 
0.4219607269960294 -0.6090575975039576 -0.01104600631994684 
0.4973787613042472 -0.3598153274050420 -0.01822797186033954 
-0.1393338245250356 -0.03783927585240184 0.07022661055406723 
0.008748146861964110 0.08376094823892197 -0.1572807271406418 
-0.03754011382250452 0.1970010509685004 -0.2460279310381515 
-0.4277488680148499 0.04086602340714946 0.4763797468950275 
0.4992350708269632 -0.4148921744172358 -0.1786542148401073 
-0.03651360197470222 -0.4353255079644922 0.4267023996877750 
0.3006127060621342 0.1555600780310696 -0.5433452521040630 
-0.4552087514083819 0.4444131339046989 -0.07578042545501308 
0.06851040071480488 0.1144861674106676 -0.2017856716890964 
-0.04602204195553285 0.3791757245518382 -0.3922492551502658 
0.2246760949723800 0.05642981998226196 -0.2198757816084312 
-0.08093597226344547 -0.5218147360923331 0.4919328056441356 
-0.003327739924412308 -0.1431090345333206 0.2299653723901095 
-0.2949937894505035 0.1987907083670177 -0.07595050198801040 
-0.06912922211736382 0.2811905598069456 -0.2641572636419710 
-0.4643264686813277 0.07967066855132156 0.3050250024652768 
-0.3050111473352021 0.1851165123893810 0.5166789000880204 
0.09229624954377197 -0.2749085952377509 0.2006099927357455 
-0.1832372971035783 0.4573614582271383 -0.4922510876958400 
0.06936153994184456 0.2084931477534111 -0.1582201080101682 
-0.6455780928118670 0.4460652756267858 0.1862627038609993 
0.06753298981155992 0.3123070011528424 -0.3993482105638048 
-0.3310302382182895 0.4087088636313901 -0.09752733957782970 
-0.4199254964691743 0.4609438587208066 -0.2381906859178829 
-0.3173919001902738 -0.1957158842635618 0.3382978551798198 
-0.04566786810522704 0.4329500811781790 -0.4080381016616402 
0.04476645396098267 0.02941598085465703 -0.05100165345079689 
0.2590851370122417 -0.2988026792718673 -0.03184498390321587 
-0.06821292427473308 -0.6367654459250123 0.5094518491129412 
-0.1782772795209141 0.5644571410652444 -0.3410703251177752 
-0.09235010521418405 -0.4589971810413462 0.6856205937434319 
0.3411142909175468 -0.6978588751345406 0.3208178731701191 
0.09687200868036128 -0.05011415224593448 -0.09128528601460463 
-0.07116389500219149 -0.3215403289795215 0.3430735053320944 
0.004730402108133715 0.1712874006143673 -0.2747463659532827 
0.2039000824620900 0.07805382637462772 -0.2990676145580049 
-0.4412456962425129 0.8576131937421303 -0.4425590308831137 
-0.06685822568965290 0.2187402385805349 -0.1683737424969980 
-0.09193403560341253 0.1438171317815123 -0.1471949436952616 
-0.06880837262391631 -0.4138624947781887 0.5044632313803478 
0.2541644069904034 -0.1030145519463021 -0.2825306231364439 
0.1780917142741852 -0.2092190709715914 -0.07541967793237117 
0.3067119270540610 0.03340401004722548 -0.1762474506194073 
-0.3374740694145519 0.3938497035835270 -0.04700600882224215 
0.06321002071152727 -0.07076104827730946 0.01347831157005788 
-0.5318302240266066 0.7669370472108802 -0.1175119820666512 
0.4282498610356116 -0.4408241665938882 -0.05935445902687313 
0.1573776250828798 0.1786996153579415 -0.3503902943501832 
-0.2748598370320384 -0.01778158740211305 0.4376318307923056 
-0.04998327077616866 0.2288543526358107 -0.1551087017917852 
0.05463920935175740 -0.01672956840495763 -0.04094919454418981 
-0.04506792484761631 -0.02069800863499824 0.02502779128040594 
0.1164526297899430 0.01158242930116090 -0.1028806422378734 
-0.1105700996917960 0.1764587328779907 -0.05071583683497741 
0.02261223853717882 0.3240640987722353 -0.1224814193142964 
0.3771654655287728 -0.2801550392116211 -0.1188377296775827 
-0.1024767289237587 -0.7179755683253870 0.8869196883870023 
-0.05205789320287541 -0.6806039965916673 0.6645075976011166 
-0.1710323745248750 0.2897927303188672 -0.05266190424850371 
0.2124077718238108 -0.2426034482195907 -0.06371805905767622 
-0.2454870690051767 0.5292022320193872 -0.2073480251834013 
-0.1343965616925792 0.2276544704069087 -0.07688379349749769 
-0.02116421469510005 -0.2130527234720779 0.3618153587325361 
-0.2386698729312592 0.4982218882318517 -0.1428958390098951 
-0.2111739420976950 0.4538866271731428 -0.2609148044601050 
-0.02968049198693174 0.1052431698056897 -0.09222763739325265 
-0.007247041320357850 0.008914437163469326 -0.1864090104965564 
-0.08903701220800925 -0.07278800372598308 -0.01754246399834214 
-0.01312638690235439 -0.2903678983557161 0.1886152887900702 
-0.04033697559507041 0.3151153012155358 -0.2062511037679369 
-0.03943940176736007 0.3454973772664720 -0.2743940536188742 
-0.1863652278219890 0.3401087584909498 -0.05981591716816046 
-0.09757111221126133 0.3614686293933252 -0.3165963733752873 
0.2023746413012131 -0.8350176788181450 0.5921319332172231 
-0.1246460795485228 0.1218725770717556 -0.05046731272286797 
-0.08702504605446552 -0.1421438116215232 0.2232769726825481 
-0.1433098728298899 0.06849819744507897 -0.07176777597351189 
0.2456392353394157 -0.05224188363875337 -0.1394555970650048 
0.07443736552356399 -0.1028437039049971 -0.02711623028125687 
-0.5640176698761468 0.8964883081167233 -0.4751677414856151 
-0.3130327140978648 -0.3583969069249066 0.7575055321906708 
0.06712779021984760 0.03238151984449216 -0.09094723627694508 
0.2150349165265175 -0.3534902495527255 0.1519056248089279 
0.1069210897640991 -0.1267011663881285 -0.1175469062050733 
-0.01850792054588719 0.09886276117482953 -0.06716604842262928 
-0.06247022276173397 0.1764642969092490 -0.08742543040251784 
-0.1837176226576725 0.1931055594515765 -0.06400475123195166 
-0.7771262485060626 1.205753833254667 -0.3782051526072203 
0.1158841414366819 0.01358441906077228 -0.1015536081012129 
0.02837566285694402 0.09891593361969149 -0.08904731730189343 
-0.04952419724384623 0.2896410941478467 -0.2400304325881227 
-0.03324830388443433 -0.2214849307993169 0.2976164316627601 
0.05072449463696426 0.3003557013083744 -0.2367667998986542 
-0.1622353600176600 0.09545046009233767 -0.04306231556695824 
-0.05193885556940978 0.1010628651254116 -0.05847820131857287 
0.001032661815192160 0.07080938866235144 -0.2188622426472062 
-0.3431181164897430 0.6853216370166250 -0.8476507760481178 
0.06779900208518311 -0.02524921252587516 -0.08055821557387108 
0.4986711451264538 -0.1593855892030717 -0.3373057972914569 
-0.1438234550270479 -0.05485524067517621 0.2009848974317603 
0.2752691105049439 0.005970912919110105 -0.1966094307628967 
-0.2146636641825444 0.5582240993530367 -0.4717335619014968 
-0.7002020845935036 0.3698975721199690 0.1152737562772003 
-0.1684145252733702 -0.7377844590136425 0.8957258892913597 
-0.1388709293525375 0.08390224783673403 -0.8257764296153636 
0.4323081951626104 -0.1448244361726676 -0.8001248080160319 
0.1341703528745648 0.1830904352623484 -0.3903540395732501 
0.6695524989214706 0.09627934206901141 -0.9098103163043280 
0.5815842641690189 -0.6026123475467058 -0.2264766531972248 
0.04019724771550416 0.02745206354374399 0.1027873575338951 
-0.008379744291791127 -0.04565782875845890 0.09068496105316155 
0.2465091584949831 -0.8665160767820200 0.5480685738223066 
0.7196888178517302 -0.4816064523383553 -0.4214324242149242 
0.5683613928591297 -0.4513516807939675 -0.3384248515354205 
-0.3933651774289614 -0.1153542958339113 0.4361796989991566 
-0.3112060493327988 0.5686750609003409 -0.5771321572224556 
0.6372721064806725 -0.6471918116142523 -0.1521516934439970 
0.02634268164583216 0.02435818847273953 -0.1066882677854180 
-0.05871551044044555 -0.2212850239909205 0.2367247120568895 
0.03440277844098079 -0.01396790813169342 0.1246928227366449 
0.2642272491318742 -0.3590476047638699 0.03180159937685337 
-0.04372319425213694 -0.2210984118745864 0.09280510550999242 
-0.5126978426889290 -0.02666670599175890 0.5669236323235957 
0.3753705946377306 0.1250410673421616 -0.3797316573118370 
-0.01396710282598071 0.2133028420141094 -0.01552439719713237 
-0.03754011382250452 0.1970010509685004 -0.2460279310381515 
0.3646879479976926 -0.1282185200049669 -0.2597847069679535 
0.08851457985393028 -0.4297497026570475 0.4192756515546854 
0.2728100585239692 -0.3939074376422159 0.1217410049464520 
-0.08996192641422131 -0.6878414977671351 0.7827729893642134 
-0.06414013248642454 0.6925805182719726 -0.7117164269933768 
-0.08214795962613074 0.2621446572553098 0.004090826950578799 
0.3028017452721763 0.07350767987104860 -0.3483925645096514 
-0.07254420183687861 0.4515933700288646 -0.4560209190407265 
0.2074047228441443 0.05926789129721453 -0.1781170357764718 
0.2517246521300097 -0.1154302243969354 -0.1452770193435813 
-0.2509905707580129 0.1730510976772033 0.08133279047498639 
0.3119817903188157 -0.2405465113245034 -0.01095943760561458 
-0.1481106307861482 -0.9435924766014793 1.048144935132782 
0.3425860385739403 -0.3919782425950599 -0.05065588171849463 
0.05502189229040878 0.05284448617709722 -0.07392940115992623 
-0.1247259812286513 0.1529420092634402 -0.1085347702858017 
-0.09446430559501082 -0.1963357603417376 0.6244941982933526 
0.09445322650229819 -0.1608527930129602 0.04968571986714198 
0.07863585206812775 0.1401340865464564 -0.2899648060801641 
0.2015552164799438 -0.2464505816250563 -0.08316364280442787 
0.03411150173172096 -0.6640567924494457 0.6256509915554445 
-0.04230636542324592 -0.3209949487337643 0.2897979111289193 
0.2187916475164928 0.1333885031762860 -0.4175355661579104 
-0.7518220208443226 0.5811160444153091 -0.08916487274645840 
-0.3641882243263496 -0.2925565532552868 0.3940811279385025 
0.1364711262999753 -0.2076891287532508 0.06393105813327546 
-0.04540727854795713 0.3823566400931343 -0.3445491253095946 
0.2662477838468692 -0.8115390871105395 0.3292508693272649 
0.4682838227170690 -0.2638322224226312 -0.1015363673849812 
0.2746636060564440 -0.3537763944718171 -0.07459752801780589 
0.1294680567370106 0.1062638986378778 -0.2964507025878178 
0.08457360144587270 -0.03883796611052541 -0.2104068476808988 
0.5221407129355287 -0.5460308423179342 -0.08022303840341012 
0.2033657131134766 -0.03633848750609187 -0.2403173538374860 
-0.04437125629487738 0.2322459677678512 -0.3352599451116693 
-0.07056508343203309 0.2254752961646823 -0.1748429572931796 
0.2590378888209395 -0.3431318994595535 -0.02483061623987309 
0.07527035346668005 -0.02026414461334403 -0.09596012670787230 
-0.09122916410051490 -0.0006339953962120503 0.3669219522103603 
0.1291179261663396 0.09780016387343760 -0.2960002704282243 
0.2702277813879402 -0.2640705225434537 -0.1506110327912588 
0.03522503611667034 -0.5679237746411430 0.5444597638070886 
0.02182259933559677 0.2429039227299532 -0.1006800523661053 
-0.03916825196015553 0.2369958824105717 -0.3579706107573989 
0.3845246971042746 -0.3003182906373861 -0.1214506225757205 
-0.2083251537821439 0.3045806848130339 -0.1703426295553111 
-0.1024197753909051 0.2135238609060336 -0.09575288087240370 
-0.06621881043632528 -0.03706494234136497 0.1350972010933455 
-0.2240696964407567 0.4185627367773297 -0.2012067218158735 
0.4950620254563777 -0.3617649001281231 -0.1515910662780335 
0.1619329615023431 0.03293149914214556 -0.1788192381351028 
0.4157973507843348 -0.5286943921473961 -0.05313598992450273 
0.2229485902784971 0.1134546100103556 -0.1713736394406870 
-0.07511923479965982 0.2131372420378195 -0.2393657376475222 
-1.756021550592003 1.392900740717695 -0.01535248301502874 
-0.6020166397167479 0.02730331759515396 0.8679043588329503 
-0.3965181512974063 0.7800179091395670 -0.5033434447213588 
-0.1070756139780776 0.2620346645779202 -0.1355331738535474 
-0.2777804571820684 0.7229030184758317 -0.2429661915605694 
-0.1710323745248750 0.2897927303188672 -0.05266190424850371 
-0.06513991944009200 0.3374171013810195 -0.2835386058888303 
0.2424311677136618 -0.1540206118939198 -0.1076322449943271 
0.07678274222479278 -0.1045101237611363 -0.03875935566728406 
0.2525603233312463 -0.1168828127279568 -0.1603139277068631 
0.3026742940302403 -0.1928439471815017 -0.1369026880649075 
0.3734897170412941 -0.3044518147906145 -0.09209012450962942 
0.3805875150916714 -0.2718638215332696 -0.1116102273182593 
-0.03420358979927249 0.1653353367967996 -0.1992534834811890 
-0.7771262485060626 1.205753833254667 -0.3782051526072203 
0.2206432357481807 -0.1771910976981660 -0.03149754027108993 
-0.2866706058724817 0.4867000629800001 -0.1819014670598821 
0.1712169790090184 -0.1294907745133205 -0.03794862390808899 
-0.07616463917340686 -0.4080625721157504 0.5610306899266089 
-0.02968049198693174 0.1052431698056897 -0.09222763739325265 
-0.05804501088879067 0.2008097381313933 -0.1184576954958895 
0.3105907533720699 -0.7352282746531168 0.5212619807887027 
-0.04542994761170398 0.2340543544269159 -0.1967276209117768 
0.08777487391104737 0.08128948157630443 -0.09180564976461973 
0.1249909474813372 -0.1261289277097359 -0.02768163547048147 
0.2759176625844709 -0.1732640355892398 -0.09709338243857730 
0.04367676474042843 -0.2676171995446799 0.1173924448005153 
-0.05680891619801346 -0.1817897198521666 0.2958682560806216 
-0.1246460795485228 0.1218725770717556 -0.05046731272286797 
0.1359631813909509 -0.1168779958648746 -0.02261219244494739 
0.1824275586628858 -0.02417754165391193 -0.1251953237375000 
-0.04920164178618843 -0.3247697833176747 0.3704775465021367 
0.05322174416510873 -0.1170633227843462 -0.04433034296712908 
0.3233243081173574 -0.3204811588650325 -0.03229221303270944 
0.07865481547825628 0.008169509563777795 -0.1257622425697156 
0.1547644657713471 -0.08708728324935960 -0.09448265039642575 
-0.05631020402326260 0.1387691278855350 -0.06550487263451983 
-0.05104856090561322 0.1843664058477250 -0.1550522362841036 
0.2382669738820189 -0.5272761753046266 0.3400706324956523 
-0.01483203268514203 -0.4920374674376049 0.3129566239526189 
0.2089972911833306 -0.2707866377431386 0.3223457923355614 
0.7050491852182954 -0.4810143622975551 0.09917434163561033 
-0.05782035699379762 -0.2060171882040484 0.5566139640725384 
0.05719696674131913 0.1578580031974606 -0.2187895588393559 
-0.2334335391833537 -0.2958553891605490 0.6023281909018676 
-0.3469009778006701 0.02837416438374136 -0.002456336756777875 
0.4659972891500733 -0.3202145492503756 -0.2918502943224020 
0.1981268709501093 -0.7862375017997482 0.4127242119192582 
-0.2137450177978484 0.6811153022791177 -0.6973462525566145 
-0.2500772210403904 1.483601906099928 -1.684871330078343 
-0.8170668497342470 0.5312390067684377 0.4046347185984178 
-1.204529685148552 2.002059029887464 -1.374578440055611 
0.2855508767365700 0.01145080179737054 -0.2243607041740487 
0.3490841965495933 -0.05862473939528423 -0.5435894468403296 
0.1678995238531656 -0.04952130965893553 -0.09358158530745520 
0.2407152347841469 -0.8250196225125433 0.4749993359273805 
-0.4939772397279120 0.7335682134831711 -0.2017714073838774 
0.06797969089412370 -0.1147481291218859 -0.1900165475101278 
0.3740857230057206 -0.3293255050683993 -0.2486904875731158 
-0.09961613668910986 -0.3058448632261917 0.5345941794537604 
0.2279602544298350 0.07991201256827468 -0.2454295440350040 
-0.02685614222255436 -0.04760317645476109 -0.01096656499895005 
-0.4610392441022805 1.040793780361222 -0.8830302858215044 
0.02896226789581462 -0.3233673958637228 0.2829760174566612 
0.3168940433304158 0.1140569939591993 -0.4457858720638586 
-0.09000233494270200 0.1127778126580931 -0.1598209574909470 
0.7784741508012157 -0.9223730906791036 -0.005372568481758371 
-0.2164634426305552 0.4219270325236462 -0.1897410603959540 
0.4215842715634811 -0.2576248340132053 0.009642721628960925 
0.04516304324907164 0.04641440548382325 0.01302223159818847 
0.2510328041674965 -0.5875383240182508 0.2730509321527422 
0.05353753009133622 0.1913407751816782 -0.3478540533486009 
0.05733428534818226 -0.3661899757963341 0.3412280909813582 
-0.01529701265558827 0.1400242696137957 -0.2677499782173132 
-0.2928831589306874 -0.3374801483327312 0.5515867193374271 
-0.9148679681474825 0.8965959538449527 -0.2426072512089660 
-0.2725273747833444 0.1594449640026679 0.1390064031202050 
-0.9402041090655476 0.8490990792924403 0.09604879640986770 
-0.4351522527684508 -0.03241548738921089 0.3777324064944227 
-0.2485335059710674 0.4720848380661690 -0.3902767789714248 
-0.7588056575273370 0.9586012420238992 -0.1633068061844973 
0.007861843190420558 0.5108732625496495 -0.5360127384978631 
-0.07545734363274015 0.04575995243955944 0.1362258366029930 
0.001702743424627233 0.3749354261292864 -0.3186539626055547 
0.05427654647596702 0.1468668286419224 -0.4039233026141611 
0.1487718176500824 -0.1603620512782165 -0.1500088865447386 
0.2338780905217913 -0.04593879749243176 -0.2799401533094365 
0.4926907326444151 -0.6128732311477023 -0.06173517853612026 
0.3671827245232306 -0.4193334631984915 -0.04728727207846212 
-0.4555205675937536 0.7427745863068522 -0.3641227828212882 
0.1971637410495913 -0.4283307957455417 -0.03201702580585197 
-0.04600501369577922 0.09731467920856866 0.003941066717532687 
-0.006052737305507667 -0.2622902462781351 0.2357507657789183 
0.2273708198801541 -0.9081903459883279 0.4382766602861347 
-0.2016501883203553 0.3053905085241356 -0.1149141848210148 
0.1003903905121468 0.07711327232957026 -0.3175620031360121 
-0.05389802105169125 -0.04844032527364232 0.1436354853328484 
-0.01842799654109728 0.1691621890647097 -0.1390223680371814 
0.2431642420219549 -0.2551061717633156 -0.06580197165769121 
-0.1993915341876945 0.5054890242727378 -0.3625415359525796 
-0.1007007197835543 -0.5388114328217322 0.6560049350777154 
0.6951212247451198 -0.5813855616072990 -0.09702486829909214 
0.1915501890379334 0.09135048651638372 -0.4297135278923191 
0.4203380697470761 -0.6308102433526283 0.2617612914485999 
-0.1928727137792542 -0.03189740765131911 0.2783183998541110 
-0.06752349303398660 -0.9043927987795225 0.7705540638561988 
0.2636640620630860 -0.4006904998305242 -0.07037856921578138 
0.2339146578782602 0.1113792192597297 -0.2094183786316892 
-0.3723264659698237 0.1688315402156131 -0.09574883835744531 
0.2325426464381410 -0.3349651209427358 -0.03763857971815704 
0.1233796169566120 0.1433473808902144 -0.4170631839648996 
0.5842932292024950 -0.3755761952483734 -0.1686110843932532 
0.03080245732623921 0.2539370339996528 -0.3160647158205345 
-0.3243110937783933 0.2331883764703425 -0.02369344497498610 
0.4524378669428942 -0.6092860414035565 -0.05693702382810012 
-0.1954359601454115 -0.1635945263037017 0.5573068905799160 
-0.7839494519146145 0.7870708257203268 -0.1634676992145566 
-0.1609562346437843 0.5629770015834098 -0.4161052457607387 
-0.1032776244406478 0.1670583234167663 -0.05627019957031065 
0.03274209638851947 0.4726676185239026 -0.5031351775341738 
0.2031584535851855 -0.2569639636369425 -0.03897153431352939 
-0.1432105504577155 0.07346236736623530 0.1385548664778610 
0.1863978715143372 -0.3144430491584325 -0.02946129015278587 
-0.06316590482741262 0.1255221219481342 -0.06474721129277507 
0.4379040276802343 -0.2019342786661190 -0.1379675015968576 
-0.01353900680069858 0.1162034493088767 -0.1551262087914437 
0.08542635565989877 0.03202518323447058 -0.09670350218801149 
0.02530348050549140 0.07584012903674031 -0.1695753035726540 
0.2583186481213637 -0.2763449601989174 -0.04876995626697912 
-0.05611258818031403 -0.01763417483578910 0.1302121294691133 
0.2431119538982626 -0.1454567706514723 -0.2519259532871775 
0.1903219641527154 0.08581161672993204 -0.2589637447521265 
-1.176507724687722 0.9341270716299500 -0.05514002519185326 
0.1173800676925231 -0.1963869297404683 -0.01259460593705464 
-0.1829009649481345 0.2873114897730440 -0.09281885158949754 
-0.5156931680227383 0.5247295757524142 -0.1075779444093293 
-0.3367561219895843 0.4804156835470148 -0.1656130728925556 
0.1878044539631061 -0.1715517618320111 -0.1243515379984150 
0.06597498877725100 -0.9298204696242591 0.6792882194406350 
-0.7354848290886429 1.127714998483902 -0.4862958793143389 
-0.09871818854836517 -0.5905422154663084 0.8838746914132400 
0.08814522017547849 -0.3429286979905412 0.1805653873845498 
0.1580427017435221 0.06799017737253940 -0.1300882866895323 
0.007913394372680098 0.08515888079159010 -0.1007781091528374 
-0.4522545959156689 0.6820424174016451 -0.1274313352003871 
0.1746493703396785 -0.2687777756405024 -0.02797707583407634 
0.1804981223957898 -0.1825269170349559 -0.07356526204403009 
0.1623472383043382 -0.1609031235179175 -0.03836021278587252 
-0.2340830740805525 0.4056419070417293 -0.08671077267958484 
0.002672747721361746 0.1060196237505613 -0.03464425105697649 
-0.1631171445332795 -0.3126958042341154 0.5481655406091028 
-0.02346958771443392 0.08955590016627800 0.05733872456376458 
0.02454708254063827 -0.2042381477262616 0.2345969588883763 
-0.3076702576703304 0.2273554457195122 0.2942250386413095 
-0.1291399459742179 0.1804773888051711 -0.1899805692228247 
0.2443620838460464 -0.004073366597102392 -0.1771650433192003 
0.02654838101948589 0.3093630910248905 -0.3928839448588603 
0.01370078910571353 0.1486533540309495 -0.1273118857605671 
0.02031218094321667 0.1873168969646913 -0.1653577736122434 
-0.2108543823364352 0.2677903569783235 -0.04961936016386295 
0.1940512676392310 -0.09834773861219060 -0.2084678666201612 
0.1402395062363540 -0.1349945607114617 -0.02424485274672539 
0.2122645443993932 -0.1776726815220797 -0.02505305091763563 
-0.04231596960025311 0.3584302567763962 -0.1615824789726812 
0.2269133203339339 -0.4084956218874443 -0.04821456524204763 
0 0 0 
0 0 0 
0 0 0 
0 0 0 
0 0 0 
0 0 0 
0 0 0 
0 0 0 
0 0 0 
0 0 0 
0 0 0 
0 0 0 
0 0 0 
0 0 0 
0 0 0 
0 0 0 
0 0 0 
0 0 0 
0 0 0 
0 0 0 
0 0 0 
0 0 0 
0 0 0 
-0.1334711836752529 0.8161839122142805 -0.7195081828526292 
0 0 0 
0 0 0 
0 0 0 
0 0 0 
0 0 0 
0 0 0 
0 0 0 
0 0 0 
0 0 0 
0 0 0 
0 0 0 
0 0 0 
0 0 0 
0 0 0 
0 0 0 
0 0 0 
0 0 0 
0 0 0 
0 0 0 
0 0 0 
0 0 0 
0 0 0 
0 0 0 
0 0 0 
0 0 0 
0 0 0 
0 0 0 
0 0 0 
0 0 0 
0 0 0 
-0.005254716911839204 -0.2229444667383519 0.09646439091536377 
0 0 0 
0 0 0 
0 0 0 
0 0 0 
0 0 0 
0 0 0 
0 0 0 
0 0 0 
0 0 0 
0 0 0 
0 0 0 
0 0 0 
0 0 0 
0 0 0 
0 0 0 
0 0 0 
0 0 0 
0 0 0 
0 0 0 
0 0 0 
0 0 0 
0 0 0 
0 0 0 
0 0 0 
0 0 0 
0 0 0 
0 0 0 
0 0 0 
0 0 0 
0 0 0 
0 0 0 
0 0 0 
0 0 0 
0 0 0 
0 0 0 
0 0 0 
0 0 0 
0 0 0 
0 0 0 
0 0 0 
-0.2264020715925398 -1.131828736972880 1.383416875593545 
0 0 0 
0 0 0 
0 0 0 
0 0 0 
0 0 0 
0 0 0 
0 0 0 
0 0 0 
0 0 0 
0 0 0 
0 0 0 
0 0 0 
0 0 0 
0 0 0 
0 0 0 
0 0 0 
0 0 0 
0 0 0 
0 0 0 
0 0 0 
0 0 0 
0 0 0 
0 0 0 
0 0 0 
0 0 0 
0 0 0 
0 0 0 
0 0 0 
0 0 0 
0 0 0 
0 0 0 
0 0 0 
0 0 0 
0 0 0 
0 0 0 
0 0 0 
0 0 0 
0 0 0 
0 0 0 
0 0 0 
0 0 0 
0 0 0 
0 0 0 
0 0 0 
0 0 0 
0 0 0 
0 0 0 
0 0 0 
0 0 0 
0 0 0 
0 0 0 
0 0 0 
0 0 0 
0 0 0 
0 0 0 
0 0 0 
0 0 0 
0 0 0 
0 0 0 
0 0 0 
0 0 0 
0 0 0 
0 0 0 
0 0 0 
0 0 0 
0 0 0 
0 0 0 
0 0 0 
0 0 0 
0 0 0 
0 0 0 
0 0 0 
0 0 0 
0 0 0 
0 0 0 
0 0 0 
0 0 0 
0 0 0 
0 0 0 
0 0 0 
0 0 0 
0 0 0 
0 0 0 
0 0 0 
0 0 0 
0 0 0 
0 0 0 
0 0 0 
0 0 0 
0 0 0 
0 0 0 
0 0 0 
0 0 0 
0 0 0 
0 0 0 
0 0 0 
0 0 0 
0 0 0 
0 0 0 
0 0 0 
0 0 0 
0 0 0 
0 0 0 
0 0 0 
0 0 0 
0 0 0 
0 0 0 
0 0 0 
0 0 0 
0 0 0 
0 0 0 
0 0 0 
0 0 0 
0 0 0 
0 0 0 
-0.005254716911839204 -0.2229444667383519 0.09646439091536377 
0 0 0 
0 0 0 
0 0 0 
0 0 0 
0 0 0 
0 0 0 
0 0 0 
0 0 0 
0 0 0 
0 0 0 
0 0 0 
0 0 0 
0 0 0 
0 0 0 
0 0 0 
0 0 0 
0 0 0 
-0.5813178398302181 -0.9669321813385408 1.251556656357817 
0 0 0 
0 0 0 
0 0 0 
0 0 0 
0 0 0 
0 0 0 
0 0 0 
0 0 0 
0 0 0 
0 0 0 
0 0 0 
0 0 0 
0 0 0 
0 0 0 
0 0 0 
0 0 0 
0 0 0 
0 0 0 
0 0 0 
0 0 0 
0 0 0 
0 0 0 
0 0 0 
0 0 0 
0 0 0 
0 0 0 
0 0 0 
0 0 0 
0 0 0 
0 0 0 
0 0 0 
0 0 0 
0 0 0 
0 0 0 
0 0 0 
0 0 0 
0 0 0 
0 0 0 
0 0 0 
0 0 0 
0 0 0 
0 0 0 
0 0 0 
0 0 0 
0 0 0 
0 0 0 
1.453984537273121 -1.346139294116975 -0.02997765537958112 
0 0 0 
0 0 0 
0 0 0 
0 0 0 
0 0 0 
0 0 0 
0 0 0 
0 0 0 
0 0 0 
0 0 0 
0 0 0 
0 0 0 
0 0 0 
0 0 0 
0 0 0 
0 0 0 
0 0 0 
0 0 0 
-0.004710263621447501 0.03184850638071710 -0.05298468923911379 
0 0 0 
0 0 0 
0 0 0 
0 0 0 
0 0 0 
0 0 0 
0 0 0 
0 0 0 
0 0 0 
0 0 0 
0 0 0 
0 0 0 
0 0 0 
0 0 0 
0 0 0 
0 0 0 
0 0 0 
0 0 0 
0 0 0 
0 0 0 
0 0 0 
0 0 0 
0 0 0 
0 0 0 
0 0 0 
0 0 0 
0 0 0 
0 0 0 
2.303117876256594 -1.632407162330685 -0.8602037224895958 
-0.009634687383072823 -0.3839926305029275 0.3011538867341302 
0 0 0 
0 0 0 
0 0 0 
0 0 0 
0 0 0 
0 0 0 
0 0 0 
0 0 0 
0 0 0 
0 0 0 
0 0 0 
0 0 0 
0 0 0 
0 0 0 
0 0 0 
0 0 0 
0 0 0 
0 0 0 
0 0 0 
0 0 0 
0 0 0 
0 0 0 
0 0 0 
0 0 0 
0 0 0 
0 0 0 
0 0 0 
0 0 0 
0 0 0 
0 0 0 
0 0 0 
0 0 0 
0 0 0 
0 0 0 
0 0 0 
0 0 0 
0 0 0 
0 0 0 
0 0 0 
0 0 0 
0 0 0 
0 0 0 
0 0 0 
0 0 0 
0 0 0 
0 0 0 
0 0 0 
0 0 0 
0 0 0 
0 0 0 
0 0 0 
0 0 0 
-0.5281633023072639 -0.8546427220592618 1.091274779914470 
0 0 0 
0 0 0 
0 0 0 
0 0 0 
0 0 0 
0 0 0 
0 0 0 
0 0 0 
0 0 0 
0 0 0 
0 0 0 
0 0 0 
-0.2440780650176507 0.1375851233778000 -0.6277889866929552 
0 0 0 
0 0 0 
0 0 0 
0 0 0 
0 0 0 
0 0 0 
0 0 0 
0 0 0 
0 0 0 
0 0 0 
0 0 0 
0 0 0 
0 0 0 
0 0 0 
0 0 0 
0 0 0 
0 0 0 
0 0 0 
0 0 0 
0 0 0 
0 0 0 
0 0 0 
0 0 0 
0 0 0 
0 0 0 
0 0 0 
0 0 0 
0 0 0 
0 0 0 
0 0 0 
0 0 0 
0 0 0 
0 0 0 
0 0 0 
0 0 0 
0 0 0 
0 0 0 
0 0 0 
0 0 0 
0 0 0 
0 0 0 
0 0 0 
0 0 0 
0 0 0 
0 0 0 
0 0 0 
0 0 0 
0 0 0 
0 0 0 
0 0 0 
0 0 0 
0 0 0 
0 0 0 
0 0 0 
0 0 0 
0 0 0 
0 0 0 
0 0 0 
0 0 0 
0 0 0 
0 0 0 
0 0 0 
0 0 0 
0 0 0 
0 0 0 
0 0 0 
0 0 0 
0 0 0 
0 0 0 
0 0 0 
0 0 0 
0 0 0 
-0.5871050446538406 0.4947558270039791 -0.5958155122939994 
0 0 0 
0 0 0 
0 0 0 
0 0 0 
0 0 0 
0 0 0 
0 0 0 
0 0 0 
-0.3313200346565238 0.0003682518189364053 0.2932572787170093 
-0.1019666860711701 -0.2325657426009957 0.5818917478654143 
0 0 0 
0 0 0 
0 0 0 
0 0 0 
-0.04953732484283661 0.2952039405432982 -0.2162359918693961 
0 0 0 
0 0 0 
0 0 0 
0 0 0 
0 0 0 
0 0 0 
0 0 0 
0 0 0 
0 0 0 
0 0 0 
0 0 0 
-0.2004908146908766 0.3976263554080992 -0.3281626220286555 
0 0 0 
0 0 0 
0 0 0 
0 0 0 
0 0 0 
0 0 0 
0 0 0 
0 0 0 
0 0 0 
0 0 0 
0 0 0 
0 0 0 
0 0 0 
0 0 0 
0 0 0 
0 0 0 
0.3430269796361947 -0.3571707036261649 -0.03197347439894462 
0 0 0 
0 0 0 
0 0 0 
0 0 0 
0 0 0 
0 0 0 
0 0 0 
0 0 0 
0 0 0 
0 0 0 
0 0 0 
0 0 0 
0 0 0 
0 0 0 
0 0 0 
0.7447317710206396 -0.8515420360092756 -0.01987808128506952 
0 0 0 
0 0 0 
0 0 0 
0 0 0 
0 0 0 
0 0 0 
0 0 0 
0 0 0 
0 0 0 
0 0 0 
0 0 0 
0 0 0 
0 0 0 
0 0 0 
0 0 0 
0 0 0 
0 0 0 
0 0 0 
0 0 0 
0 0 0 
0 0 0 
0 0 0 
0 0 0 
0 0 0 
0 0 0 
0 0 0 
0 0 0 
0 0 0 
0 0 0 
0 0 0 
0 0 0 
0 0 0 
0 0 0 
0 0 0 
0 0 0 
0 0 0 
0 0 0 
0 0 0 
0 0 0 
0 0 0 
0 0 0 
0 0 0 
0 0 0 
0 0 0 
0 0 0 
0 0 0 
0 0 0 
0 0 0 
0 0 0 
0 0 0 
0 0 0 
0 0 0 
-0.2102378484739638 -0.7831472210894995 0.9753980222626003 
0 0 0 
0 0 0 
0 0 0 
0 0 0 
0 0 0 
0 0 0 
0 0 0 
0 0 0 
0 0 0 
0 0 0 
0 0 0 
0 0 0 
0 0 0 
0 0 0 
0 0 0 
0 0 0 
0 0 0 
0 0 0 
0 0 0 
0 0 0 
0 0 0 
0 0 0 
0 0 0 
0 0 0 
0 0 0 
0 0 0 
0 0 0 
0 0 0 
3.896508663631153 -3.162151388276737 -1.456122495924660 
0 0 0 
0 0 0 
0 0 0 
0 0 0 
0 0 0 
0 0 0 
0 0 0 
0 0 0 
0 0 0 
0 0 0 
0 0 0 
0 0 0 
0 0 0 
0 0 0 
0 0 0 
0 0 0 
0 0 0 
0 0 0 
0 0 0 
0 0 0 
0 0 0 
0 0 0 
0 0 0 
0 0 0 
0 0 0 
0 0 0 
0 0 0 
0 0 0 
0 0 0 
0 0 0 
0 0 0 
0 0 0 
0 0 0 
0 0 0 
0 0 0 
0 0 0 
0 0 0 
0 0 0 
0 0 0 
0 0 0 
0 0 0 
0 0 0 
0 0 0 
0 0 0 
0 0 0 
0 0 0 
0 0 0 
-0.9604116712855859 0.5891171126065972 -0.2288276789738199 
0 0 0 
0 0 0 
0 0 0 
-0.005567668990487679 0.01405143878546986 -0.01895322317904829 
0 0 0 
0 0 0 
0 0 0 
0 0 0 
0 0 0 
0 0 0 
0 0 0 
0.3430269796361947 -0.3571707036261649 -0.03197347439894462 
0 0 0 
0 0 0 
0 0 0 
0 0 0 
0 0 0 
0 0 0 
-0.01780788438010887 -0.5751066288926124 0.6091020234688561 
0 0 0 
0 0 0 
0.7447317710206396 -0.8515420360092756 -0.01987808128506952 
0 0 0 
0 0 0 
0 0 0 
0 0 0 
0 0 0 
0 0 0 
0 0 0 
0 0 0 
0 0 0 
0 0 0 
0 0 0 
0 0 0 
0 0 0 
0 0 0 
0 0 0 
0 0 0 
0 0 0 
0 0 0 
0 0 0 
0 0 0 
0 0 0 
0 0 0 
0 0 0 
0 0 0 
0 0 0 
0 0 0 
0 0 0 
0 0 0 
0 0 0 
0 0 0 
0 0 0 
0.7447317710206396 -0.8515420360092756 -0.01987808128506952 
0 0 0 
0 0 0 
0 0 0 
0 0 0 
0 0 0 
0 0 0 
0 0 0 
0 0 0 
0 0 0 
0 0 0 
0 0 0 
0 0 0 
0 0 0 
0.3430269796361947 -0.3571707036261649 -0.03197347439894462 
0 0 0 
0 0 0 
0 0 0 
0 0 0 
0 0 0 
0 0 0 
0 0 0 
0 0 0 
0 0 0 
0 0 0 
0 0 0 
0 0 0 
0 0 0 
0 0 0 
0 0 0 
0 0 0 
0 0 0 
0 0 0 
0 0 0 
0 0 0 
0 0 0 
0 0 0 
-0.5871050446538406 0.4947558270039791 -0.5958155122939994 
0 0 0 
0 0 0 
0 0 0 
0 0 0 
0 0 0 
0 0 0 
0 0 0 
0 0 0 
0 0 0 
0 0 0 
0 0 0 
0 0 0 
0 0 0 
0 0 0 
0 0 0 
0 0 0 
0 0 0 
0 0 0 
0 0 0 
0 0 0 
0 0 0 
0 0 0 
0 0 0 
0 0 0 
0 0 0 
0 0 0 
0 0 0 
-0.05948701970634726 -0.8561345486865541 0.9429782920822880 
0 0 0 
0 0 0 
0 0 0 
0 0 0 
0 0 0 
0 0 0 
0 0 0 
0 0 0 
0 0 0 
0 0 0 
0 0 0 
0 0 0 
0 0 0 
0.02418633415870818 0.06111368029551235 -0.05160582650421912 
0 0 0 
0 0 0 
0 0 0 
0 0 0 
0 0 0 
0 0 0 
0 0 0 
0 0 0 
0 0 0 
0 0 0 
0 0 0 
-0.04799812655442567 0.6007422013020270 -0.6706064858792119 
0 0 0 
0 0 0 
0 0 0 
0 0 0 
0 0 0 
0 0 0 
0 0 0 
0 0 0 
0 0 0 
0 0 0 
0 0 0 
0 0 0 
0 0 0 
0 0 0 
0 0 0 
0 0 0 
0 0 0 
0 0 0 
0 0 0 
0 0 0 
0 0 0 
0 0 0 
0 0 0 
0 0 0 
0 0 0 
0 0 0 
0 0 0 
0 0 0 
0.03098126290881603 0.02234942126322170 -0.06338388209069905 
0 0 0 
-0.005109573161143855 -0.1852663310695262 0.05997153715779455 
0 0 0 
0 0 0 
0 0 0 
0 0 0 
0 0 0 
0 0 0 
0 0 0 
0 0 0 
-0.1031944174365307 0.05873067079870489 -0.004826649185112909 
0 0 0 
0 0 0 
0 0 0 
0 0 0 
0 0 0 
0 0 0 
0 0 0 
0 0 0 
0 0 0 
0 0 0 
0 0 0 
0 0 0 
0 0 0 
0 0 0 
0 0 0 
0 0 0 
0 0 0 
0 0 0 
0 0 0 
0 0 0 
0 0 0 
0 0 0 
0 0 0 
0 0 0 
0 0 0 
0 0 0 
0 0 0 
0 0 0 
0 0 0 
0 0 0 
0 0 0 
-0.2399266760850387 -0.8150618095781822 1.067813309461257 
0 0 0 
0 0 0 
0 0 0 
0 0 0 
0 0 0 
0 0 0 
0 0 0 
0 0 0 
0 0 0 
0 0 0 
0 0 0 
0 0 0 
0 0 0 
0 0 0 
0 0 0 
0 0 0 
0 0 0 
0 0 0 
0 0 0 
0 0 0 
0 0 0 
0 0 0 
0 0 0 
0 0 0 
0 0 0 
0 0 0 
0 0 0 
0 0 0 
0 0 0 
0 0 0 
0 0 0 
0 0 0 
0 0 0 
0 0 0 
0 0 0 
0 0 0 
0 0 0 
0 0 0 
0 0 0 
0 0 0 
0 0 0 
0 0 0 
0 0 0 
0 0 0 
0 0 0 
0 0 0 
0 0 0 
0 0 0 
0 0 0 
0 0 0 
0 0 0 
0 0 0 
0 0 0 
0 0 0 
0 0 0 
0 0 0 
0 0 0 
0 0 0 
0 0 0 
0 0 0 
0 0 0 
0 0 0 
0 0 0 
0 0 0 
0 0 0 
0 0 0 
0 0 0 
0 0 0 
0 0 0 
0 0 0 
0 0 0 
0 0 0 
0 0 0 
0 0 0 
0 0 0 
0 0 0 
0 0 0 
0 0 0 
0 0 0 
0 0 0 
0 0 0 
0 0 0 
0 0 0 
0 0 0 
0 0 0 
-0.06762448778220387 0.03847448878700425 -0.006318032725674068 
0 0 0 
0 0 0 
0 0 0 
0 0 0 
0 0 0 
0 0 0 
0 0 0 
0 0 0 
0 0 0 
0 0 0 
0 0 0 
0 0 0 
0 0 0 
0 0 0 
0 0 0 
0 0 0 
0 0 0 
-0.06762448778220387 0.03847448878700425 -0.006318032725674068 
0 0 0 
0 0 0 
0 0 0 
0 0 0 
0 0 0 
0 0 0 
0 0 0 
0 0 0 
0 0 0 
0 0 0 
0 0 0 
-0.005109573161143855 -0.1852663310695262 0.05997153715779455 
0 0 0 
0 0 0 
0 0 0 
0 0 0 
0 0 0 
0 0 0 
0 0 0 
0 0 0 
0 0 0 
0 0 0 
0 0 0 
0 0 0 
0 0 0 
0 0 0 
0 0 0 
0 0 0 
0 0 0 
-0.5734666099476001 -1.001197760798853 1.226882802825060 
0 0 0 
0 0 0 
0 0 0 
0 0 0 
0 0 0 
0 0 0 
0 0 0 
0 0 0 
0 0 0 
0 0 0 
0 0 0 
0 0 0 
0 0 0 
0 0 0 
0 0 0 
0 0 0 
0 0 0 
0 0 0 
0 0 0 
0 0 0 
0 0 0 
0 0 0 
0 0 0 
0 0 0 
0 0 0 
0 0 0 
0 0 0 
0 0 0 
0 0 0 
0 0 0 
0 0 0 
0 0 0 
0 0 0 
0 0 0 
0 0 0 
0 0 0 
0 0 0 
0 0 0 
0 0 0 
0 0 0 
0 0 0 
0 0 0 
0 0 0 
0 0 0 
0 0 0 
0 0 0 
0.3484259041918106 -0.5325140860423773 0.1230473743402782 
0 0 0 
0 0 0 
0 0 0 
0 0 0 
0 0 0 
0 0 0 
0 0 0 
0 0 0 
-0.01340157837161719 0.07535264801975430 -0.02963232818248579 
0 0 0 
0 0 0 
0 0 0 
0 0 0 
0 0 0 
0 0 0 
0 0 0 
0 0 0 
0 0 0 
0 0 0 
0 0 0 
0 0 0 
0 0 0 
0 0 0 
0 0 0 
0 0 0 
0 0 0 
0 0 0 
0 0 0 
0 0 0 
0 0 0 
0 0 0 
0 0 0 
0 0 0 
0 0 0 
0 0 0 
0 0 0 
0 0 0 
0 0 0 
0 0 0 
0 0 0 
0 0 0 
0 0 0 
0 0 0 
0 0 0 
0 0 0 
0 0 0 
0 0 0 
3.334740107973692 -2.424384150485563 -0.9080835919303003 
-0.01223093589023641 -0.2508370725977379 0.2917352852553606 
0 0 0 
0 0 0 
0 0 0 
0 0 0 
0 0 0 
0 0 0 
0 0 0 
0 0 0 
0 0 0 
0 0 0 
0 0 0 
0 0 0 
0 0 0 
0 0 0 
0 0 0 
0 0 0 
0 0 0 
0 0 0 
0 0 0 
0 0 0 
0 0 0 
0 0 0 
0 0 0 
0 0 0 
0 0 0 
0 0 0 
0 0 0 
0 0 0 
0 0 0 
0 0 0 
0 0 0 
0 0 0 
0 0 0 
0 0 0 
0 0 0 
0 0 0 
0 0 0 
0 0 0 
0 0 0 
0 0 0 
-0.1031944174365307 0.05873067079870489 -0.004826649185112909 
0 0 0 
0 0 0 
0 0 0 
0 0 0 
0 0 0 
0 0 0 
0 0 0 
0 0 0 
0 0 0 
0.09413300092394623 -0.04507151015914376 -0.04399449567650731 
0 0 0 
-0.7208642368320080 -0.1439402692810017 0.5849831353500149 
0 0 0 
0 0 0 
0 0 0 
0 0 0 
0 0 0 
0 0 0 
0 0 0 
-0.006895971650868717 0.2370448387376264 -0.2556181363641308 
0 0 0 
0 0 0 
0 0 0 
0 0 0 
-0.2440780650176507 0.1375851233778000 -0.6277889866929552 
0 0 0 
0 0 0 
0 0 0 
0 0 0 
0 0 0 
0 0 0 
0 0 0 
0 0 0 
0 0 0 
0 0 0 
0 0 0 
0 0 0 
0 0 0 
0 0 0 
0 0 0 
-0.4099538804701947 0.7057248777557876 -0.2974079850868522 
0 0 0 
0 0 0 
0 0 0 
0 0 0 
0 0 0 
0 0 0 
0 0 0 
0 0 0 
0 0 0 
0 0 0 
0 0 0 
0 0 0 
0 0 0 
0 0 0 
0 0 0 
0 0 0 
0 0 0 
0 0 0 
0.03098126290881603 0.02234942126322170 -0.06338388209069905 
0 0 0 
0 0 0 
-0.01340157837161719 0.07535264801975430 -0.02963232818248579 
0 0 0 
0 0 0 
0 0 0 
0 0 0 
0 0 0 
0 0 0 
0 0 0 
0 0 0 
0 0 0 
0 0 0 
0 0 0 
0 0 0 
0 0 0 
0 0 0 
0 0 0 
0 0 0 
0 0 0 
0 0 0 
0 0 0 
0 0 0 
0 0 0 
0 0 0 
0 0 0 
0 0 0 
0 0 0 
0 0 0 
0 0 0 
0 0 0 
0 0 0 
0 0 0 
0 0 0 
0 0 0 
-0.1031944174365307 0.05873067079870489 -0.004826649185112909 
0 0 0 
-0.8450398021230858 0.3574997083528561 0.1623548586610306 
0 0 0 
0 0 0 
0 0 0 
0 0 0 
0 0 0 
0 0 0 
0 0 0 
0 0 0 
-0.3425542158309358 0.3443966603772904 -0.2579735000760793 
-0.1381552403373282 -0.4541320528624964 0.7444334481580365 
0 0 0 
0 0 0 
0 0 0 
0 0 0 
0.04575683498404945 0.2471506613596731 -0.2545550633328295 
0 0 0 
0 0 0 
0 0 0 
0 0 0 
0 0 0 
0 0 0 
0 0 0 
0 0 0 
0 0 0 
0 0 0 
0 0 0 
-0.2755140922260255 0.5653027347572235 -0.4667962359266501 
0 0 0 
0 0 0 
0 0 0 
0 0 0 
0 0 0 
0 0 0 
0 0 0 
0 0 0 
0 0 0 
0 0 0 
0 0 0 
0 0 0 
0 0 0 
0 0 0 
0 0 0 
0 0 0 
-0.4773319896612538 0.7445496199849763 -0.4873822980297885 
0 0 0 
0 0 0 
0 0 0 
0 0 0 
0 0 0 
0 0 0 
0 0 0 
0 0 0 
0 0 0 
0 0 0 
0 0 0 
0 0 0 
0 0 0 
0 0 0 
0 0 0 
0.03526133562300045 -0.1054988514208954 -0.08273588470863498 
0 0 0 
0 0 0 
0 0 0 
0 0 0 
0 0 0 
0 0 0 
0 0 0 
0 0 0 
0 0 0 
0 0 0 
0 0 0 
0 0 0 
0 0 0 
0 0 0 
0 0 0 
0 0 0 
0 0 0 
0 0 0 
0 0 0 
0 0 0 
0 0 0 
0 0 0 
0 0 0 
0 0 0 
0 0 0 
0 0 0 
0 0 0 
0 0 0 
0 0 0 
0 0 0 
0 0 0 
0 0 0 
0 0 0 
0 0 0 
0 0 0 
0 0 0 
0 0 0 
0 0 0 
0 0 0 
0 0 0 
0 0 0 
0 0 0 
0 0 0 
0 0 0 
0 0 0 
0 0 0 
0 0 0 
0 0 0 
0 0 0 
0 0 0 
0 0 0 
0 0 0 
-0.1695807398317677 -0.7918139854826367 0.7030081527920891 
0 0 0 
0 0 0 
0 0 0 
0 0 0 
0 0 0 
-0.03204810515099420 0.008245012261333055 -0.001172334592432107 
0 0 0 
0 0 0 
0 0 0 
0 0 0 
0 0 0 
0 0 0 
0 0 0 
0 0 0 
0 0 0 
0 0 0 
0 0 0 
0 0 0 
0 0 0 
0 0 0 
0 0 0 
0 0 0 
0 0 0 
0 0 0 
-0.005039845854952588 0.01157788406851979 -0.009363924982455172 
0 0 0 
0 0 0 
0 0 0 
1.999953732256467 -1.223618281574288 -1.200943180920939 
0 0 0 
0 0 0 
0 0 0 
0 0 0 
0 0 0 
0 0 0 
0 0 0 
0 0 0 
0 0 0 
0 0 0 
0 0 0 
0 0 0 
0 0 0 
0 0 0 
0 0 0 
0 0 0 
0 0 0 
0 0 0 
0 0 0 
0 0 0 
0 0 0 
0 0 0 
0 0 0 
0 0 0 
0 0 0 
0 0 0 
0 0 0 
0 0 0 
0 0 0 
0 0 0 
0 0 0 
0 0 0 
0 0 0 
0 0 0 
0 0 0 
0 0 0 
0 0 0 
0 0 0 
0 0 0 
0 0 0 
0 0 0 
0 0 0 
0 0 0 
0 0 0 
0 0 0 
0 0 0 
0 0 0 
-1.016008789742854 0.6736761355519413 -0.06116686807119168 
0 0 0 
0 0 0 
0 0 0 
-0.005567668990487679 0.01405143878546986 -0.01895322317904829 
0.03098126290881603 0.02234942126322170 -0.06338388209069905 
0 0 0 
0 0 0 
0 0 0 
0 0 0 
0 0 0 
0 0 0 
-0.4000789892785866 0.6518916438545299 -0.4098078417715214 
0 0 0 
0 0 0 
0 0 0 
0 0 0 
0 0 0 
0 0 0 
-0.03944176579428269 -0.6217651673606118 0.6680431881786637 
0 0 0 
0 0 0 
0.1828386537066080 -0.2023880592626527 -0.07428357681741643 
0 0 0 
0 0 0 
0 0 0 
0 0 0 
0 0 0 
0 0 0 
0 0 0 
0 0 0 
0 0 0 
0 0 0 
0 0 0 
0 0 0 
0 0 0 
0 0 0 
0 0 0 
0 0 0 
0 0 0 
0 0 0 
0 0 0 
0 0 0 
0 0 0 
0 0 0 
0 0 0 
0 0 0 
0 0 0 
0 0 0 
0 0 0 
0 0 0 
0 0 0 
0 0 0 
0 0 0 
0.2148867588576023 -0.2106330715239858 -0.07311124222498433 
0 0 0 
0 0 0 
0 0 0 
0 0 0 
0 0 0 
0 0 0 
0 0 0 
0 0 0 
0 0 0 
0 0 0 
0 0 0 
0 0 0 
0 0 0 
0.02016947838323739 -0.1016325989356629 -0.08862398236785643 
0.1397603497047767 -0.2102235060848734 -0.02459764016890000 
0 0 0 
0 0 0 
0 0 0 
0 0 0 
0 0 0 
0 0 0 
0 0 0 
0 0 0 
-0.01781049990483845 0.08776114639134030 -0.05015138672772428 
0 0 0 
0 0 0 
0 0 0 
-0.1475773180836077 0.09688920784175736 -0.008452307891218550 
0 0 0 
0 0 0 
0 0 0 
0 0 0 
0 0 0 
0 0 0 
0 0 0 
0 0 0 
-0.8584413804947071 0.4328523563726220 0.1327225304785475 
0 0 0 
0 0 0 
0 0 0 
0 0 0 
0 0 0 
0 0 0 
0 0 0 
0 0 0 
0 0 0 
0 0 0 
0 0 0 
0 0 0 
0 0 0 
0 0 0 
0 0 0 
0 0 0 
0 0 0 
0 0 0 
0 0 0 
0 0 0 
0 0 0 
0 0 0 
0 0 0 
0 0 0 
0 0 0 
0 0 0 
0 0 0 
-0.05948701970634726 -0.8561345486865541 0.9429782920822880 
0 0 0 
-0.01029458719162930 0.04779936503440520 -0.02377587431681266 
-0.3229131325859063 0.01915961739641663 -0.1249888794489973 
0 0 0 
0 0 0 
-0.01599727050519349 -0.2614707180501172 0.1680964146865599 
0 0 0 
-0.2327462517965191 0.4949310552213720 -0.2780582766143036 
0.3117595758181723 -0.1078802231880836 -0.3503937697091750 
0 0 0 
0 0 0 
-0.01983925641220775 0.08340085689666350 -0.04064370384375284 
0 0 0 
0 0 0 
0 0 0 
0 0 0 
0 0 0 
0 0 0 
0 0 0 
0.03565827046400444 -0.09055546489839283 -0.001800771763267458 
0 0 0 
0 0 0 
0 0 0 
0 0 0 
0 0 0 
0.7952905789556499 -0.4980759101007686 -0.1141244372342623 
0 0 0 
0 0 0 
-0.2977167849092196 -0.4657774407667837 0.4577752413714030 
0 0 0 
-0.7291178726259945 0.8577594148371250 -0.4883684629966857 
0.02053369588432626 0.06215944950768939 -0.2753105742916996 
-0.03306768232243459 0.1815196099005773 -0.2077607535416952 
0 0 0 
0 0 0 
0 0 0 
0 0 0 
0 0 0 
0 0 0 
0 0 0 
0 0 0 
0 0 0 
0 0 0 
0 0 0 
0 0 0 
0 0 0 
0 0 0 
0 0 0 
