solver_type L2R_LR
nr_class 6
label 1 2 3 4 5 6
nr_feature 2097
bias 0.000000000000000
w
-0.07142951233153076 -0.5270261868768402 0.08602556961428345 -0.08082177449414181 0.03204938853764582 -0.3601891986562285 
-0.2208079822642826 0.2129140518872362 -0.07341920905357849 0.3242880898298812 -0.2289927530236227 -0.4256665410250835 
-0.4529288777800778 -0.08156565782207086 0.01311805360704535 0.3739118498767449 -0.4097123328749380 -0.08592725835789573 
0.1069177406433823 0.3138077665125135 0.4213185184208133 -0.3049721463333880 -0.3657162199130769 0.08916903071148305 
-0.4648087575735193 -0.1307221434387541 0.9847450167420186 -0.1278097021483615 -0.04770195377391871 -1.009514664023504 
-0.2323024502593320 -0.04939367919710541 -0.5044104411872712 0.5290149734103706 0.01504324622585123 0.1623701028007328 
0.3304153144395745 -0.09665268765054927 -0.2005855672015453 -0.4286819904727800 0.5274308864898581 -0.5910012844354756 
0.04530797491780864 -0.3565699186274656 0.1679794664805173 -0.2446871710973153 0.3085276597258492 -0.1757833810868226 
-0.2376242648709959 0.3199952941427575 -0.4134396059712410 0.2346967619402151 -0.4609473758843438 0.1479838139739572 
-0.04639199255383984 -0.3121108566063654 -0.1793404713655940 0.04313029098300950 -0.01240897646020598 0.2215859119363625 
-0.07097729512451066 -0.02746243784908816 -0.02158930677620376 -0.3876387217224681 -0.1457743493291938 0.3074032828312655 
0.3193362071271150 0.05644431141485214 0.2444537060300791 -0.3173149739409000 0.07918278058314834 -0.1546077279417718 
-0.1336282956252504 -0.3254763702445935 -0.08168242387034805 0.1242907736471181 -0.1260878225439347 0.1889614313288208 
-0.03098845318091142 -0.09401273259092138 -0.08159239784589244 -0.005176695979890282 -0.01449399543046441 -0.1588181639150199 
0.6302408697644967 -0.1397712708538873 0.03361443239823870 -0.4093716047571725 -0.1182067449406436 -0.7288552261798485 
-0.2317441548969209 -0.2024779198042779 -0.3806815581796365 0.7811619195492411 -0.1968793222908803 -0.007812659792713545 
0.004388857431958294 0.2152866747180238 0.1275865554893795 -0.4450090302601862 0.6170471442339612 -0.2794303453179266 
-0.06369491559319819 0.1004356094453420 -0.1701468422467322 -0.1274893224133907 -0.1414401152028991 -0.1764901036377198 
-0.01054719101100960 0.03027985479117434 0.4102390660314825 -0.4464940266140888 -0.2269706012222356 -0.02709632239754243 
0.4520178966453680 -0.1300782269357625 -0.1695028655099524 -0.2079105367062838 -0.1415378014606275 -0.4147551405337080 
-0.2325988511121886 0.07583150523116468 -0.003746734033709082 -0.08054132571716070 -0.1054848767529470 0.4906930384239930 
0.04439885628926765 -0.4380887210460235 0.07789019091052858 0.1979543232658412 0.03348204103592344 -0.1359072232850558 
-0.08105458021759883 0.1617354372190427 0.5532656619241221 -0.1903597335218682 -0.2845976408697632 -0.2237759793576521 
-0.04576745688602606 0.4534399883970627 -0.1000250115575156 -0.3916326563724001 -0.07468643531685734 -0.09927197707702572 
0.03316138951602551 -0.2870875008278731 -0.3432128259917402 0.5298907207671023 0.04272110553273752 -0.2265019036771251 
-0.07799202003698900 0.6143903360845819 -0.1011406460995449 -0.3641793185314342 -0.1128268513805293 -0.1869382068257584 
0.03804103279336851 -0.06219091147284418 0.4427558347305288 -0.5801225778124510 -0.1751630671765258 0.02065857438015075 
-0.06057067830198170 -0.05724318805133390 0.1555210978306740 -0.2606666231230453 0.7070742145643879 -0.2897078166544053 
0.06268018813026215 -0.1534371672358954 0.2542096526005712 0.03602191530476124 -0.1176081625821253 -0.1105740465961979 
0.01330509834632871 0.1250088460173383 -0.3635819334257112 0.6603950037476280 -0.2472373628060897 -0.1839376890079286 
0.03089973454389369 -0.04509508425530749 0.2241900485891902 -0.4205062278322142 -0.1425917171371220 0.1241306054140107 
-0.07839135287573945 -0.03489048563854273 0.7814401869073356 -0.3695185752561734 -0.1970735168443502 -0.3011709967573328 
0.004378803998536855 0.01273584407508530 -0.3732301039487057 -0.07500538000779591 0.2327442822133762 0.1312796642904742 
-0.05334512520999127 0.08165591115676835 0.3105328928574887 -0.3843967150566196 -0.07831124840121716 -0.07374300451446542 
-0.1185268720920570 0.08212304562286800 0.2639350709388598 -0.5408010128306504 -0.03795698165414060 0.3760985966404397 
-0.009722158379098778 0.04539906272900616 0.3792459898437940 0.1080451933938453 -0.1818775097887654 -0.06205684503918018 
-0.0001122631656932347 0.02145048082984122 -0.07362331995383953 -0.1303427176685124 -0.06673625019347727 -0.07356779234388187 
0.01431964510070277 -0.08416745727685447 -0.3353380829410954 0.3673190106235450 -0.05338069660198026 -0.1043115836320513 
-0.04962351957864788 -0.02749282058463786 -0.09442022506013170 0.3441122777328458 -0.1543269133907549 -0.03948237095578205 
0.1951339654173233 -0.04418559333567645 -0.1282704701555969 -0.08953339186712420 -0.02939544064854108 -0.2753910594276474 
-0.04523141933862229 0.1702513854194929 -0.1288161930013283 -0.08303072030468292 -0.04066246982818215 -0.03829047105423879 
-0.06658205238055935 -0.03084708458868826 -0.06664700524456288 0.3176362287759392 0.3392953198164477 -0.3244558472278825 
-0.04829842454702055 -0.03638566072368923 0.2793545820253593 0.05169493167180934 -0.1344821325124501 -0.05310779798671166 
0.06397810479997570 -0.2324903676706470 -0.05074568930536575 0.2238261683685706 -0.09884014858317915 -0.07464764791888170 
0.5204849527411772 -0.1725813536995618 -0.1463885961747709 -0.2469219086573727 -0.04656527784262667 -0.09727485256881462 
-0.01236671902216243 0.04734896419076937 -0.007276265681289365 -0.2142439953409962 -0.02119041067183055 -0.04857545342090031 
-0.0004083832066548240 0.1496683588680597 -0.3915418465885394 0.3984981714569592 -0.05755577551620047 -0.1398810335645606 
-0.03467269551183459 0.3171539173677989 -0.05540175745604262 -0.3536730373609172 -0.009538552295267216 -0.02594376126367697 
0.1155681158067908 -0.05750050522074316 0.1590511486317482 -0.03569326973707614 -0.03237915167974256 -0.2304681650108983 
0.06477733106916721 -0.06655511723881045 0.2970792033319257 -0.04074896918197442 -0.04834746046177402 -0.09487829907890805 
0.07750461089339854 -0.01989831915120374 0.1625193080981906 -0.5067230652925647 0.2528547636227976 -0.06148005793842680 
-0.02064469692844596 -0.06227384578236481 -0.1238507454324030 0.07693655598421358 -0.02166453300985935 -0.02869387127354862 
-0.04189413643569567 0.1614362970590707 0.2651471481155250 -0.09140023199576554 -0.1460609817034346 -0.1602110085796979 
0.005790864408444737 -0.01769213758531439 0.2563001428089797 -0.2854085138267303 -0.09876432707592450 -0.06180466620017851 
-0.05022510122716923 -0.02950946165581648 -0.6310407692878306 0.2106059271167853 0.8292195659296356 -0.05401199028137695 
0.04163566151966192 0.09483758613312976 -0.03504271504969403 -0.2188654933039364 -0.005613654416872690 -0.01841857408926080 
0.04178803769853773 -0.007292860895841495 0.1356714095533300 -0.4007063869542574 -0.03889804824946892 -0.07982779323719360 
-0.01701796126526098 -0.1552400314650090 -0.5910631003515917 0.5093622964910096 -0.06882575969715446 -0.1112016825027250 
-0.04603883175266879 0.1118236347727396 -0.1346404900364465 -0.1239633768758785 -0.02616336467120604 0.1635900625920717 
0.1066433668321303 -0.03166188675587742 0.2042103318802607 -0.2884274692127706 -0.05359898659965579 -0.1590726880267933 
-0.06559562942466879 0.2317477285057992 0.4034338859890324 -0.4898483249753273 0.3296291445072833 -0.2827930601948608 
-0.05493062318698361 0.2291040602744570 -0.02215297361699456 -0.1483879761014006 -0.01095256861500870 -0.03443958695635044 
-0.03278026306582237 -0.07600421533291386 0.07000164250968903 0.1340840069459494 -0.03969103869604548 -0.1549814533318076 
-0.03124184097702525 0.1855984877104035 -0.06261975571087683 -0.3529959634904841 -0.04073219139021029 0.2259878336251909 
-0.008560406701291936 -0.1700994303901332 0.1444756843053175 0.3052892697708873 -0.1377760113778115 -0.1558377901885146 
-0.04659388830496457 0.3101132294744465 -0.05893177589851224 -0.1937620391115408 -0.09795044372524606 -0.02889496638433029 
0.09656769606543807 -0.04134706898228888 0.1891481091243060 -0.1296319031966095 -0.08418743201490173 -0.1790463753737505 
-0.1505148387172779 0.01387537863658804 -0.1638242495364003 -0.04975116960969372 -0.07695685183639240 0.2856260527464930 
-0.005580950256427322 -0.01917621099531006 0.02375196908418798 0.2189020848493745 -0.2404852276605221 -0.08598113554220063 
-0.03422139829955533 -0.009183919588306302 -0.1315082451818325 0.2923159883502131 -0.08680126224381950 -0.1447102265598173 
-0.003582269707302352 0.1240122836824453 0.2742054527365159 -0.3171113713111325 -0.01154279470592834 -0.1269035452293179 
-0.01514701254319400 0.2442694865141639 -0.02779931089399771 -0.2314534292595624 -0.01450105234059112 -0.02620917634956095 
-0.009917004227385413 0.5723534543483945 -0.06460395020644526 -0.5558120905608153 -0.01113790168223234 -0.1430997504970513 
-0.03063297008711152 0.2723819940501033 -0.04378538632001698 -0.3186298331939601 -0.007605805648471745 -0.02418903699163629 
-0.01202796106928628 0.1289606625680263 0.1710655603294030 -0.2320413415554068 -0.1072608970112985 -0.06431890461838029 
0.07543952292318393 0.03915103112959335 0.2561757423548730 -0.3465350388287764 -0.01515250744389405 0.07461367230929554 
-0.06068479874076540 -0.04761509980231447 0.2038058186815325 -0.1144845740282394 -0.01114690341423803 -0.1527322537203183 
-0.02103623269892780 -0.06510447282755695 -0.04800810569287070 0.2245856826054292 -0.006558030755751745 -0.06770692294179749 
0.002323146419267439 0.01532377852302461 -0.1912108890382226 0.4157692607404580 -0.01461029061716987 -0.2106891043334763 
-0.04635346190944163 -0.01505010477043255 0.2376286860342957 -0.03023480563913230 -0.1580814301620995 -0.04701889348489150 
-0.01535782781110081 -0.1332615991852246 0.1656909533731893 0.3352703618315795 -0.04585169454255245 -0.1840654023216851 
-0.04295290265049967 -0.004871440424426951 -0.08083150513203848 0.1163318963967994 -0.006461195885516290 -0.002682171065840169 
-0.02567231091094069 0.01246316802288064 0.4660298476741917 0.1511470100775795 -0.2552360801516573 -0.1638087626202522 
0.03966475137033412 -0.04013861228641975 0.09670300622333687 -0.3011545223526636 -0.06321399889114104 0.03751867654135386 
0.01260418285606012 0.08145410116239145 0.08456260177926188 -0.4277028337541219 -0.008711907784580517 -0.06906395718471463 
-0.02689384052171352 -0.04485297072598839 -0.1270859801462771 -0.02177442865379508 -0.01557623257300566 -0.03508429947114682 
-0.01819654882713649 -0.05629896050560081 0.06543845274950413 -0.07882858779538396 -0.003780474296075684 -0.02055021265931525 
0.02643902542310491 0.1538085946218283 0.01577433231000773 -0.2506505576164372 -0.009945566724147040 -0.04057798919523353 
-0.006262591752185613 0.05627267513118581 -0.01772540887134396 0.05480514122259297 -0.008883519169886940 -0.04395814626683998 
0.07423914159242112 -0.04157692089504508 -0.1316042772994022 0.2430148913520557 -0.01294992451758131 -0.09858724519975295 
0.09056372796052707 -0.004429011784899163 0.1577852691133766 -0.2818056044064387 -0.05326741354914732 -0.09162968852469783 
-0.02338111248753566 -0.08382573776452307 0.1688069351507310 0.01225099528558708 -0.03851985808900894 -0.08651356708695086 
-0.005151226778782209 -0.02560140272329249 0.04575180390783908 -0.1525873640241902 -0.04670585812840663 -0.02946384221617082 
-0.002405429196807835 -0.009208188613401717 0.4480583991054801 -0.5191970856307848 -0.2144839569203322 -0.04351185647818182 
0.2044279624891428 -0.02190362922599775 -0.04420789537429015 -0.08395208532273254 -0.01877989536608071 -0.1699723343380112 
0.03789083236114153 -0.05707737429915453 0.1097642585512379 -0.1793175909925160 -0.05009255391344524 0.05339167328830729 
-0.02689384052171352 -0.04485297072598839 -0.1270859801462771 -0.02177442865379508 -0.01557623257300566 -0.03508429947114682 
0.06356966557484590 -0.08557962634493485 -0.07712511452011168 0.1442701140722551 -0.001845684371851159 -0.06197565830205570 
0.05076638395475063 -0.05128825989900298 -0.03324346046116355 -0.0001266684407605372 -0.001712462905996307 -0.04211559796921110 
-0.08872805063801073 -0.05835086133600227 0.4554275377822293 -0.09113633790204500 -0.01380106787348032 -0.2103966201306542 
-0.05985595074680662 -0.04467872216615255 -0.02899496167292826 0.1359755554382609 -0.001430505277879666 -0.1408556814704405 
-0.02161958092517640 0.2244572213818422 -0.05758171945904207 -0.07204544011248006 -0.005044722557856441 -0.1402372008852291 
-0.07104580662187217 -0.02098221086439100 -0.04437536349328031 0.1424136252410951 -0.03792041624671034 -0.1571075859315617 
-0.05473889681643351 0.04588090428479792 0.2525873112256828 -0.1604925157539684 -0.05900023281848579 -0.03846187989058513 
-0.01819654882713649 -0.05629896050560081 0.06543845274950413 -0.07882858779538396 -0.003780474296075684 -0.02055021265931525 
-0.002066394156631989 0.07000095645351730 -0.0007322028337821523 -0.1374014829302177 -0.001298614336225818 -0.008820484282482555 
-0.002066394156631989 0.07000095645351730 -0.0007322028337821523 -0.1374014829302177 -0.001298614336225818 -0.008820484282482555 
0.1395935482950039 -0.01314231488507490 -0.4236932924510592 0.4955985722490837 -0.03426443420813968 -0.3009932645714296 
-0.3238900243642305 0.1219356149941254 -0.3400647252595364 0.4592454425062146 -0.09478351652543868 0.4574376779076859 
0.1094617155532685 -0.02041162286708052 -0.05400550327174460 -0.006549021804914608 -0.0005446560024058067 -0.06025008446390159 
0.07468721316219143 -0.004844079184123084 -0.05705188923535908 -0.03896042729498114 -0.01075932204002639 -0.04228403938168829 
-0.1094869662062139 -0.01019760906897869 -0.03413463478477773 -0.1438468745556734 -0.01461523698088500 0.5178010235390293 
-0.02592036069816558 -0.09008752224809341 -0.06727987691311830 -0.06947689835374485 -0.01560487126368827 0.3812183566016600 
-0.02434781514236244 0.1267303237575652 0.2221130732930909 -0.1170935258995860 -0.05332818420369723 -0.02498008329440041 
-0.003276996095268252 -0.008911262912925927 0.04351158217255362 -0.09469498568690302 -0.02760045685014203 -0.02002023086411117 
0.08754008427966581 0.03144449001266324 -0.04412433081598859 0.08996616682588242 -0.007327019595488368 -0.005359399010145005 
0.05419278057910472 -0.03139266740848794 0.1655043225652557 -0.06685887840312096 -0.01998342914362004 -0.08433283665651145 
-0.006701308080489710 -0.4758670163951509 -0.02110476196185781 0.4957638286148381 -0.008087153381012183 -0.04094162692513512 
-0.1173913334972424 0.3176219076749452 -0.04925661252888111 -0.01555869990942188 -0.01008695123573489 -0.1303272781390280 
-0.04512209348212756 -0.01930081724509814 -0.04788755033521858 0.1352714121123899 -0.01226370935642712 -0.006377329327491007 
-0.002563114694326508 -0.02236063038769733 0.08542530193746035 -0.04012042720102595 -0.01028582688299209 -0.006643836342530242 
0.04198683551968371 -0.02175945346845207 0.4321731837337755 -0.1357777936588565 -0.08163308603463469 -0.1220150759549731 
-0.04512209348212756 -0.01930081724509814 -0.04788755033521858 0.1352714121123899 -0.01226370935642712 -0.006377329327491007 
0.01178245867882224 -0.01341911010678742 -0.05012685135337733 -0.2417840152193678 -0.01057000710371352 0.2605580011805115 
0.04938467909348322 -0.03474386001404008 -0.02556724427760177 -0.02331796276302943 -0.02970456781134852 -0.03986454253042315 
-0.2098967052670555 -0.3844190687465421 -0.2325290732035781 0.1075419456841386 -0.1599641499498608 0.1491315423363645 
0.1694744331112345 0.2437917423313632 -0.1461760623970233 -0.03507656527085670 -0.5365803699937095 -0.1678360314370100 
0.05030469190196302 0.06335776363194431 -0.06453238131194593 0.3546712155253073 -0.2690101840583992 -0.6959062582812002 
-0.4314973929326894 -0.2583490572504660 0.5313138632244710 -0.3455142994450322 -0.02183945217133290 -0.7140754835444708 
-0.2231793237898596 0.1598014792990801 0.3361748884617128 0.03526029014274765 -0.7213061911268900 0.04190718174543699 
-0.1055212716951711 0.4946554387160460 -0.7950492039886771 -0.1931119882726593 0.8215371263395848 -0.4375095240146745 
-0.1784297928736961 -0.5423045801753716 0.2344052915790730 -0.02108994008196690 0.1377167630757918 0.03910323165757605 
-0.08295004905229646 0.2009175716992022 0.1607037967519723 -0.03386408710063028 -0.4087358309521862 -0.2386233925924695 
0.08517146905274621 0.2779098276428370 0.03813191179216335 -0.4822287654138474 0.2300171901532298 -0.1834797816677043 
-0.03413584218601092 -0.1375796421814931 0.4489476111909461 -0.2474612885958384 0.1393535473547857 -0.2309474785076623 
-0.008096029755150232 -0.1244753552747252 -0.6705876523928035 -0.4293578479390079 1.035379690560800 -0.2345892850913463 
-0.4829863871679788 -0.1769210375003713 -0.1745859908173908 0.1349434701789973 0.1572614714236201 -0.03793016897931294 
0.09412112702156933 0.2392725110939992 -0.4318466042488433 0.2686055978230690 -0.02864000217968865 -0.3935711108292406 
-0.1351513295775435 -0.1900679893076820 0.08276219586107654 -0.4106666754487988 0.7414751312803450 -0.5218696829158923 
0.1117134966193268 -0.2402617815451199 0.2464916722464490 0.1219853579663810 -0.3066863789440550 -0.3873862267199058 
-0.06043027804710157 -0.06219217610138156 -1.090824882128079 -0.7915838064980207 1.266913814114823 -0.1445113691305698 
0.2414806135316984 0.1719262653378614 0.2154068214331895 -0.6544560004765564 0.2204738372566555 -0.07586172841370785 
-0.08960591872310693 0.007438234850441934 -0.01874652614991285 -0.06137130785398527 0.03411340057750746 -0.1336138814455973 
-0.2132293787387102 0.1279604953839175 0.3319239129537119 -0.005960138352587554 0.02739840316884031 -0.1647337881439291 
-0.1313063112629278 0.4070502206870648 -0.3217172149234671 -0.5710636490493473 0.3322217974780112 -0.07066853400956902 
0.1167810127896509 0.2428256626186492 0.4158684143709995 -0.1249006640485233 -0.2058125218204854 -0.5522000249992078 
-0.09490864335845459 -0.1031109832274847 -0.5776158384070790 0.06639634705430536 0.5833909916143570 -0.2191831389998260 
-0.09299034848846748 -0.02223390088009434 0.2395273083546832 -0.08395631308287450 -0.2259945990230720 -0.1197670807889186 
-0.1424727428939153 -0.02553534361799518 0.4948156352931615 -0.02641862492067718 -0.08300571171850672 -0.3131351373087312 
-0.1353276851338338 0.3588781483365253 -0.2530747330251284 -0.1390222252586898 -0.07899216419163141 -0.1400079990790177 
0.01456744562401028 0.1171728695754983 0.4040063891597699 -0.4507051947287274 -0.1372301743585981 -0.1372809718483080 
0.05731621407483017 0.2229747730231490 -0.3383691844501159 -0.07764606488384142 -0.07336691476459052 -0.1143086613215991 
-0.05765709383600266 -0.07761935397269092 0.08033490484483641 -0.07156429252057994 -0.1823056998661038 -0.3405686930034866 
-0.1165375189216398 -0.2185232899544271 0.04616102574424409 0.1347233655466832 -0.1249913084692169 0.2493525758979839 
0.05068932870653276 -0.3764698076053482 -0.3493205181624653 0.2893817663297240 -0.3776212257521260 0.1407433062996422 
0.2481142801509860 -0.02674537512497760 0.03654186040047212 -0.2634145346039565 -0.2186587986457091 -0.3657149551865909 
-0.03005939342759434 -0.05630073769770188 -0.01668981304380401 -0.04905829659522959 0.06055852671064549 -0.1481033176974108 
-0.2488516936679257 -0.5258411454401107 -0.02490324860251788 0.6611687415447295 -0.06053939063590285 -0.08356597146126139 
-0.03098503688824320 -0.07048365338172367 -0.5033827464928896 0.4497052986858691 0.3824169958119320 -0.1108598409288524 
0.07189936866003924 -0.007843486309203906 -0.5744884388313883 0.1365060382794683 0.2353199124420622 -0.08992090783696582 
-0.03391537514985951 -0.2730443516183050 -0.09758518051153264 0.4618350904787248 -0.03775139448500654 -0.04004566782167266 
0.01544093992639499 -0.03447602034774656 -0.06949464072859088 0.08235476948210106 -0.09275163315791483 -0.08104855793875074 
-0.06934295803932898 0.4893003694521554 -0.09743048310543151 -0.3694193781345292 -0.01711110520835008 -0.08949156221702562 
-0.02703277985415319 0.1800171905197343 0.08289740769355343 -0.2717525545400720 -0.06989529818555512 -0.01844906539871865 
-0.04111012969696914 -0.1185043058046846 -0.2464070015745496 0.2215239907830833 -0.01203810880020194 -0.06849130976270410 
0.3484036711962569 -0.05824763253163282 -0.09416073387272889 -0.3138009131352441 -0.04293682734357235 -0.1675134790745279 
-0.09569757377834445 0.1534199699440452 0.2998663777704985 -0.02134658300921587 -0.1895065372324231 -0.1402753353616051 
-0.04179641178842877 -0.2526295247018293 -0.07437040507337284 0.2224167808328150 -0.01794824005700703 -0.01118056602333738 
-0.006939903389064496 0.3211455452063758 -0.04666171922760511 -0.3753365442837442 -0.1799424484936211 0.05741034196087826 
-0.01854650900030653 0.1546965130527440 -0.04211063872254385 -0.2045250851217864 0.006759661440454074 -0.009902847411499056 
-0.1410859969981071 -0.09346114521876220 0.4691077233461590 0.2425441126473417 -0.2270218952212925 -0.2629309523802758 
-0.0003556464676573041 0.2204875382231181 -0.05396524493918038 -0.2542343722993666 -0.01441182657807191 -0.08140753801011749 
0.03330964340099283 -0.05225722424276303 -0.1941507066173958 -0.3808431618937846 0.5940982766108279 -0.05870382816803144 
-0.01546866551788403 0.1627279446551275 -0.02944163610256712 -0.1959949259711993 -0.006391350130243859 -0.009239987139780474 
-0.05010899138665075 0.2064925097477358 -0.03496066728782810 -0.2478783212543860 -0.02017693465785145 -0.04794545492373548 
-0.03892348323631917 -0.001110741402589499 0.2270009479502485 -0.2185035691287994 -0.07806766770015174 -0.07277825995562070 
-0.01505020612334738 -0.01286197880622325 -0.6746467366237230 0.6743856586065545 -0.2076714943904284 -0.06376912627505656 
0.1378177754505639 0.09667362416147500 -0.05134786753959392 -0.2427628448314523 -0.02803197958052729 -0.1406238847901294 
-0.02507250858757523 0.6427801641188580 -0.1410571510439465 -0.5568725521387220 -0.08442026020133604 -0.1080823083286262 
-0.02776307109386238 -0.02664560657096418 -0.3337716104783439 0.6405981749498599 -0.09299746101835235 -0.1572740138098440 
-0.02675209998012062 -0.02412810671731702 0.4206597529359833 -0.1291641814174381 -0.4365076347547196 -0.07138798574146422 
-0.05773423080173711 -0.003131312402433409 0.009387980681821546 0.05416410627246267 0.3329828543599273 -0.1146508304495525 
-0.02737387087324127 0.1649319146627948 -0.1023896850685691 -0.2039636447999794 -0.004132437488394154 -0.004440611915599291 
-0.02125851873628854 -0.02877260369196017 0.02690581696076903 0.2428055813691605 -0.1001158492332515 -0.06608034864200847 
-0.002596549246063064 -0.006109131223886866 -0.09329159456638601 -0.1135470263317020 0.05318576255224233 -0.003381837426538427 
-0.07726611819229080 0.02217506606760591 -0.04072140276924856 -0.1439392055510008 -0.1555317875194177 0.4368039444125369 
0.01377742448309862 -0.01234947633285601 -0.2369081042676000 0.1150112438889703 0.4683266549692812 -0.1330688309179997 
-0.08716888280691247 -0.6673828612783334 -0.2958891070708983 0.5490816293377928 -0.05279643049867785 0.07596519483548970 
0.06140116021182313 -0.02026549320390224 -0.2504737341400729 -0.3123736353574240 0.3808081407102441 -0.03081435124503100 
-0.01423628606918042 0.3291854041935388 -0.03567983465736944 -0.2902871218260036 -0.03694015559642495 -0.04378626686610790 
-0.02219535848957635 -0.1621245501147293 -0.3999721908781316 0.6209628013964789 -0.2282944758805389 -0.04429258273680086 
-0.01736793106048208 -0.02403117713056033 -0.7091317173171529 0.3404429338507007 0.2993549693103781 0.1113406065973373 
0.1935104504361558 -0.03225091305349682 -0.04917541530056656 -0.1730124095922280 -0.03406567879977625 -0.1198322240663844 
-0.04098363324750131 -0.03866128516517169 0.2599471361058799 -0.3035432312308800 0.1704339976509316 -0.1521897690395634 
0.09666735465650637 -0.3075536588752645 -0.2642124024104966 0.2517996158533667 -0.04792900542880010 0.1191597923367274 
-0.1932380173072178 -0.003173294002114414 0.09733794621844702 -0.1037823126159709 -0.04693353884396311 -0.02114837837062735 
0.05083508742687654 0.04577300146095981 -0.08259351916196431 0.3115935198615612 -0.008947455571951460 -0.09829393192261027 
-0.001720434813027607 0.1459353439223113 0.2001025231319731 -0.3362823937091691 -0.02273686823719153 -0.03935468430661231 
-0.02865722982348037 0.1918094373029564 -0.1366716607023511 0.2716309160818456 0.1380673724895414 -0.2362034079245561 
-0.02592590667089350 0.2279988474328806 -0.02333898969876370 -0.1991453471055742 -0.02151019073505087 -0.01468378473416811 
-0.01967686008046123 -0.06733888460045413 -0.04240711673504754 0.1449088146927870 -0.01964836198840730 -0.01773346679757530 
-0.03494818518195170 -0.2355419202154994 -0.09252180421110234 0.4774498916798042 -0.02136145675670796 -0.01010346397422393 
-0.006030296772515309 0.03479988247136073 -0.2297564478644584 -0.04391326961128218 0.01584608388269798 -0.003581870346917127 
-0.006167695273962769 -0.03018455001001380 0.6125145715725734 -0.2911249111869192 -0.3654168222370265 -0.09425440079449744 
0.02455901537684897 -0.04263636973063313 -0.2899575187413183 0.2450873427205372 0.2009893200833006 -0.04176623849843430 
0.06665104069365206 0.02961562696509236 0.4545647997160953 -0.1739871131212707 -0.07452260068286895 -0.07142021381557534 
-0.003662601274181820 0.07937887955753278 0.01380825023360813 -0.1231069231575544 -0.2102687534543748 -0.01023269746920398 
-0.02998310328864019 -0.02971595136195076 0.2829557365731840 -0.06081909667965724 0.03939676062229794 -0.05646642362364056 
0.1754887727190533 -0.02669598456475786 -0.03199377163868129 -0.08864087051567415 -0.04602080593376038 -0.07796248579724986 
-0.01768206645915802 -0.02036124803921209 -0.4607301334178778 0.1248366644887823 -0.1145412096397056 0.2826865825074277 
0.06015879266848886 -0.03163151000730041 0.2059663790275000 -0.1258388746228494 -0.2186729022381442 -0.04263682912782363 
-0.01401142004555017 0.1424708219742022 -0.02863299455917880 -0.08033774474560866 -0.03302770850381712 -0.02080978761597481 
-0.008317835664892059 0.1146940392215113 0.1690681650193978 -0.2418014514625951 -0.01897147493424598 -0.004792085260976018 
-0.03770586391517102 0.1829251806148858 -0.01528403546380128 -0.2782715930997324 -0.01024094761938764 -0.02098716906391956 
-0.01196060749463970 -0.1372085272497608 0.04425292597599793 -0.02880902809834778 -0.08843478968299649 -0.02855529064416256 
-0.02381620920073784 0.2148947751497830 -0.1384102289536812 -0.1823958853472195 -0.07848900588578228 0.2573933116404016 
0.02408028240305862 -0.01348036480970941 -0.01167464941893362 -0.03196075252517171 -0.001320901502112095 -0.02613599594234143 
-0.1629941751650135 0.07215865037006436 0.05675703978852893 0.2209686287670673 -0.005659369885075809 -0.009022469729023415 
-0.01992327026572127 0.04164683102004153 -0.2276258785593271 0.5620961738401339 -0.08257451782553903 -0.1847615342870101 
-0.008884284061312173 -0.1262679106819969 -0.04983725472642711 0.04405638283877506 -0.08661123262158898 -0.009301059982194776 
-0.09560187331751653 -0.04627759032593005 0.2780211985541761 -0.3531726273355277 0.3074013273535140 0.1502416044441809 
0.08989922172412491 -0.007690330043517809 -0.3620532195525538 0.1135798304313039 -0.02872922290555836 -0.02854577179100324 
-0.05750584524067677 -0.07111760530073970 -0.3687251425387237 0.7144730980605928 0.1718075777655208 -0.06687824833132108 
0.3379148043146787 -0.008575998854881430 -0.06696609319876483 -0.07148996620689607 -0.08786557637446839 -0.1274309027918817 
-0.007303517243224416 -0.004724621020984653 -0.04575258084241483 -0.04933986695577522 0.04438739562025366 -0.009120617851445788 
0.02001110653548428 -0.03416956029040283 0.2779736970802130 -0.2028621083201422 -0.01241672554175462 -0.09353420004965390 
-0.01285174135951699 -0.1053615394181440 -0.02268803566217844 0.1407453005708978 -0.007775450320133296 -0.03478352623318259 
-0.1872174956402643 -0.007393118655424537 -0.01814870439636678 -0.1223056484442725 -0.01365173977696477 0.2768822038281857 
-0.007257175202360830 0.1650121840624070 0.1199223204606787 0.04559185701082445 -0.08857228925145999 -0.1318097343979379 
-0.01397372202058761 0.3274322428054025 -0.03214608481450551 -0.2993684269898013 -0.01001503697575502 -0.01402966769249816 
-0.003463841998979790 0.1044104576123912 -0.03817747223302248 -0.1123567628889852 -0.002082651990856703 -0.003030761768597369 
-0.001656666489558338 -0.002749432436066816 0.07569167180759533 -0.04022371795253890 -0.1086574953809558 -0.01010207037702689 
0.1447445401096428 -0.02608103655860129 -0.1235538726566667 -0.01352115168831487 -0.03692506160379653 -0.07633091769179184 
-0.01658948218388807 -0.1668343341620728 -0.03393685782896103 0.1844427165688880 -0.006280617443415324 -0.008001731051821242 
-0.01469017047126858 0.1212002532144339 0.6108651677770918 -0.4514299362821084 -0.1065899246198492 -0.05002778122308278 
-0.02639096106209858 -0.02820487028317213 0.3609838914323770 0.2610793360509184 -0.09453743896276649 -0.04421280286178036 
-0.008210226599975499 -0.1434964636684458 -0.02157619219100075 0.1680561319134352 -0.01256085407315975 -0.1571090381397333 
-0.04124201251761038 0.1158845229236285 -0.03342894708751567 -0.2189029262629098 -0.006677436976089044 -0.02257436918131285 
-0.003052225049269578 -0.3199483296560519 0.2263233457254130 0.1985439181673699 -0.1154314372855724 -0.01441208319139830 
-0.004388397547327404 0.06197355119590264 -0.2825735729539309 0.05448366017603260 -0.01420566807922902 -0.006626349894457447 
-0.004018292756356351 -0.004763564636443528 0.4417775578670268 -0.2174680407679169 -0.2270350987579692 -0.004339764568644334 
-0.004020434540654947 -0.003031769439795684 0.02121593133741540 0.2852164840455736 -0.3518533855187286 -0.01905785867076546 
-0.04240218865068686 -0.02709976806310249 -0.2559021619521287 0.01125618578870696 0.4537879069701972 -0.06897915029456570 
-0.1406634917499178 -0.008103784101482032 -0.05271212781908943 -0.07366563598118864 -0.003824714618240703 0.1621409284442023 
-0.01578491226298262 -0.4521868079180474 -0.05364189979459071 0.4107683125794950 -0.02033929600421868 -0.03410347029119265 
-0.01658948218388807 -0.1668343341620728 -0.03393685782896103 0.1844427165688880 -0.006280617443415324 -0.008001731051821242 
0.05279858574046039 0.06559967810777650 -0.02578146711570445 -0.1206637663775404 -0.01285752609365530 -0.1367067173131659 
-0.2582264303108716 -0.001235128944941757 -0.01837781490997742 -0.08385460901082337 -0.006139086149131367 0.6555704460441796 
-0.03668092249844675 -0.4102523753359049 -0.02138017544380724 0.2870132716891751 0.3247784814180796 -0.008680491810809064 
-0.02424208274048123 -0.004690740083210554 -0.01293279099392138 -0.01046062554439641 -0.03155628040315837 -0.01384976773737754 
-0.1911921341799313 -0.2812706079724123 -0.8195825506061013 0.1295134080539921 0.8543247839374497 -0.3198629504233659 
-0.4604985346036749 -0.2820011668498979 1.329275682984717 -0.3172603030258895 -0.2800160298788576 -0.9212827989012426 
-0.2048509473037668 -0.05509706477550359 -0.03596701152217213 0.4586120344789968 -0.6291542363454882 -0.4122804899201038 
0.1786794742374044 -0.4796280247852064 0.4004517813215557 -0.06878127546627308 -0.4764040780365843 -0.4444009029401577 
-0.04102299712133762 0.4736184455261510 -0.5608112861676685 0.2695829886054404 0.7460075141047835 -0.6367196840543885 
-0.09478018494701243 0.2444481753868424 0.09418024270744463 -0.3053800259142824 -0.3833825948535320 -0.4182095730315305 
-0.1771550156393245 -0.1800758354091552 0.2792198510231673 0.01730160533147366 0.1446447218852938 -0.8031163337346900 
-0.1617928402258002 -0.07029074795575646 0.3389712591033449 0.03528558883399546 -0.2523649742711653 -0.01386024179475035 
-0.09936979877880205 0.002175166167284519 -0.5215974732183253 0.3262050426021079 0.05726729350438792 0.1229075276841480 
-0.04183760643488385 -0.4439080221374244 0.1831628355895525 0.2686312042533252 0.4799297013747806 -0.3404659736501755 
-0.09181192785815549 -0.1174587375925284 -0.4716414445236773 -0.5405848420106673 0.7202224165359854 -0.2260564371888498 
-0.1725815067744897 -0.1902493613615539 0.1063174628409675 0.1024734054465720 0.3458948822008710 -0.5995957783840261 
0.07360263275204414 -0.2586508995502186 0.1707758251460751 -0.06886218254965851 -0.3200583314316751 -0.03509768968597464 
0.08350081194491875 0.1437881727095293 -0.2079465110520879 0.1552260710638347 0.04442987460953313 -0.3657698254070935 
0.2298440542101509 -0.2726707220103465 0.1336481036293769 0.07726311783307688 0.08225414449800565 -0.02923185985150446 
-0.06043027804710157 -0.06219217610138156 -1.090824882128079 -0.7915838064980207 1.266913814114823 -0.1445113691305698 
-0.4903489277271584 -0.3469542720975885 -0.09196208049907675 -0.1459941303333942 0.5350030206332359 0.2868241234831934 
-0.3168472741876759 0.09633751608235179 0.6536656816721418 -0.4742782175821366 -0.3430934294502945 0.4215142042927983 
0.1750398430541506 0.2404550988609474 0.3885197424556702 -0.1605085049363646 -0.2091969823709031 -0.5597340195948560 
-0.1035033494336370 0.1076674768744650 0.1513564200050756 0.1558766562363707 -0.1726764595834146 -0.6332590058050847 
-0.01342511508568714 0.3030717434512582 -0.2692653569457095 -0.3189947571756624 0.3119134640347031 -0.08187571928940716 
-0.1318305842041025 0.1109357479204669 -0.08359132094508571 -0.3327688602000800 0.5213107484276981 -0.2570885080034347 
-0.1247204919349348 0.3167895014038230 -0.2725981022536337 -0.2778005566009632 -0.08321776491850265 -0.1616641605831285 
-0.09171889349750045 -0.1997027093625151 0.2529927836317860 0.04234236805202573 -0.2297524177161207 -0.1146819036199139 
0.01456744562401028 0.1171728695754983 0.4040063891597699 -0.4507051947287274 -0.1372301743585981 -0.1372809718483080 
0.1186387923233090 -0.1416308638802367 -0.2903886975078656 0.3857817851066341 -0.1169035672167979 -0.1857009368718990 
0.2886827488812441 -0.2285776655756633 0.2611164926284670 -0.05041495398296846 -0.1577139141815551 -0.3972334947003611 
-0.008447677492915617 -0.08670249685716509 -0.3479499504042325 0.1778265458668754 0.5680257536747959 -0.3191912339184567 
-0.05765709383600266 -0.07761935397269092 0.08033490484483641 -0.07156429252057994 -0.1823056998661038 -0.3405686930034866 
0.06261880455119291 0.1205767135267114 -0.2800687361877537 0.1107770429148142 -0.07247393312929916 -0.09109080773823690 
0.2481142801509860 -0.02674537512497760 0.03654186040047212 -0.2634145346039565 -0.2186587986457091 -0.3657149551865909 
-0.03005939342759434 -0.05630073769770188 -0.01668981304380401 -0.04905829659522959 0.06055852671064549 -0.1481033176974108 
-0.2488516936679257 -0.5258411454401107 -0.02490324860251788 0.6611687415447295 -0.06053939063590285 -0.08356597146126139 
-0.03984207809695992 -0.2766271275227514 -0.1146956604966286 0.4681237530860078 -0.03931995951033337 -0.05217226589849450 
-0.03619847445596398 0.2888989391601525 0.02805792080281196 -0.3490369228849470 -0.07082476713787213 -0.02276250973991016 
0.3181476974135766 -0.05887157816212726 -0.1053520510457714 -0.1962254238724413 -0.04444115690381913 -0.1982832578941483 
-0.02810219437212108 -0.03882796816590271 -0.4913069848638607 0.4374113014984302 0.3831860608447197 -0.1045728206190988 
0.004606411570935766 0.1151935277994116 -0.08494151230774862 0.05677373469415865 -0.09290863126014061 -0.1048889858772591 
-0.02715525554526196 -0.04984910506463163 -0.6859447414414636 0.6562268544672103 -0.2510142791168861 -0.07353209650094680 
-0.04467925430455089 -0.2842852099176502 -0.08644616670240178 0.2347107780202539 -0.01871730508979485 -0.01746758633309104 
-0.06934295803932898 0.4893003694521554 -0.09743048310543151 -0.3694193781345292 -0.01711110520835008 -0.08949156221702562 
-0.1414660409934954 -0.09416744085178760 0.7694308888621579 -0.1373016411774165 -0.2820366698296489 -0.2879703483734918 
-0.04111012969696914 -0.1185043058046846 -0.2464070015745496 0.2215239907830833 -0.01203810880020194 -0.06849130976270410 
-0.09569757377834445 0.1534199699440452 0.2998663777704985 -0.02134658300921587 -0.1895065372324231 -0.1402753353616051 
0.02823565921244615 0.01292298259785442 -0.7265363184333986 0.4137671867630267 0.2382062411222295 -0.07416992648084196 
-0.01854650900030653 0.1546965130527440 -0.04211063872254385 -0.2045250851217864 0.006759661440454074 -0.009902847411499056 
-0.02370666683759801 -0.03474748896872418 -0.1623833812211383 0.3985707251487579 -0.1179999079470351 -0.07422400725624184 
0.1251919051499288 0.1851234172015191 0.3817089531723995 -0.2360486911041542 -0.09480702569317567 -0.1539069565666309 
-0.0003556464676573041 0.2204875382231181 -0.05396524493918038 -0.2542343722993666 -0.01441182657807191 -0.08140753801011749 
0.03330964340099283 -0.05225722424276303 -0.1941507066173958 -0.3808431618937846 0.5940982766108279 -0.05870382816803144 
-0.02675209998012062 -0.02412810671731702 0.4206597529359833 -0.1291641814174381 -0.4365076347547196 -0.07138798574146422 
-0.01546866551788403 0.1627279446551275 -0.02944163610256712 -0.1959949259711993 -0.006391350130243859 -0.009239987139780474 
-0.05010899138665075 0.2064925097477358 -0.03496066728782810 -0.2478783212543860 -0.02017693465785145 -0.04794545492373548 
-0.03892348323631917 -0.001110741402589499 0.2270009479502485 -0.2185035691287994 -0.07806766770015174 -0.07277825995562070 
0.1378177754505639 0.09667362416147500 -0.05134786753959392 -0.2427628448314523 -0.02803197958052729 -0.1406238847901294 
-0.02507250858757523 0.6427801641188580 -0.1410571510439465 -0.5568725521387220 -0.08442026020133604 -0.1080823083286262 
-0.05773423080173711 -0.003131312402433409 0.009387980681821546 0.05416410627246267 0.3329828543599273 -0.1146508304495525 
-0.02737387087324127 0.1649319146627948 -0.1023896850685691 -0.2039636447999794 -0.004132437488394154 -0.004440611915599291 
-0.04618994414698457 -0.04112839982215958 0.03395579258286496 0.1629985958820691 0.1094062119871099 -0.4187181680521168 
0.1868021794718418 -0.02946609555951061 -0.03285358166641295 -0.1315045079420686 -0.07507067894328591 -0.08778350587331775 
-0.02982836580925998 0.1906825166264465 -0.3246312900525881 -0.1700565831847482 0.6771872613366285 -0.2478519783088680 
-0.002596549246063064 -0.006109131223886866 -0.09329159456638601 -0.1135470263317020 0.05318576255224233 -0.003381837426538427 
-0.02444117273435743 -0.07668019600120390 -0.05193009447899228 0.1652144275716984 -0.02159916114503057 -0.02094333256342477 
-0.01423628606918042 0.3291854041935388 -0.03567983465736944 -0.2902871218260036 -0.03694015559642495 -0.04378626686610790 
-0.01415234058793335 0.06073919670104999 -0.04051792139217258 0.04119727419206237 -0.2657150601639349 -0.05001804306626835 
-0.02219535848957635 -0.1621245501147293 -0.3999721908781316 0.6209628013964789 -0.2282944758805389 -0.04429258273680086 
-0.09248164107203229 -0.3381233104374859 -0.3149670971040621 0.9607267128205937 -0.08973814306323637 -0.1232228533331648 
0.01269784798233709 -0.05707470849939270 0.1819864435997639 -0.2666307911875405 0.3013788565549641 -0.1062649036428593 
0.1935104504361558 -0.03225091305349682 -0.04917541530056656 -0.1730124095922280 -0.03406567879977625 -0.1198322240663844 
-0.02998310328864019 -0.02971595136195076 0.2829557365731840 -0.06081909667965724 0.03939676062229794 -0.05646642362364056 
0.1122450677634165 -0.05885155792624047 -0.1612773268097004 -0.06753663084021304 -0.07640264051807358 -0.06032517416444912 
-0.003662601274181820 0.07937887955753278 0.01380825023360813 -0.1231069231575544 -0.2102687534543748 -0.01023269746920398 
-0.02664239394526290 -0.4142060153823080 -0.03406876593323917 0.5576520188103629 -0.01774774639611377 -0.1797117357099801 
-0.1932380173072178 -0.003173294002114414 0.09733794621844702 -0.1037823126159709 -0.04693353884396311 -0.02114837837062735 
-0.001720434813027607 0.1459353439223113 0.2001025231319731 -0.3362823937091691 -0.02273686823719153 -0.03935468430661231 
-0.05517281346800269 -0.1623018281433959 -0.02310095838907735 0.2723993450063034 -0.01475624450977893 -0.02266197504991803 
-0.02592590667089350 0.2279988474328806 -0.02333898969876370 -0.1991453471055742 -0.02151019073505087 -0.01468378473416811 
0.08829071649110677 0.2106698456372814 -0.1409801005239269 -0.2455209742286325 -0.1013969489342643 0.2311970664437740 
-0.03494818518195170 -0.2355419202154994 -0.09252180421110234 0.4774498916798042 -0.02136145675670796 -0.01010346397422393 
-0.006030296772515309 0.03479988247136073 -0.2297564478644584 -0.04391326961128218 0.01584608388269798 -0.003581870346917127 
-0.1682004860644967 0.06969153571307646 -0.1692343037344861 0.6875104558800165 -0.06668715554889747 -0.2755508687415769 
0.01075162073889155 -0.01751442064139822 -0.2348682151646170 -0.2914785854781617 0.3840350910287191 -0.02226458783474683 
-0.02807227049415072 0.1127948219854084 -0.01477111430660685 -0.1375107091809024 -0.06918408037061681 -0.02210714490373431 
-0.006167695273962769 -0.03018455001001380 0.6125145715725734 -0.2911249111869192 -0.3654168222370265 -0.09425440079449744 
-0.01747866564766034 0.1908813969386772 -0.5752138556373330 0.2216524099150552 -0.06738618456559277 0.2056473301652972 
-0.006427678133624017 -0.005127909435213527 -0.4726318713242292 0.3801323766374563 0.3110126670927668 -0.03336199183635179 
-0.008317835664892059 0.1146940392215113 0.1690681650193978 -0.2418014514625951 -0.01897147493424598 -0.004792085260976018 
-0.02135379483778427 -0.1761756455628226 -0.04345983557290577 0.2047483294477994 -0.008231416600038592 -0.01121159681767071 
0.09551676871083968 -0.03161261374696960 0.2176184114126465 -0.1545697693695938 -0.2225978736490649 -0.09107617122504573 
-0.05412257040738330 -0.3287727043406798 0.1776553141433032 -0.1007039295303626 -0.1193232988855463 0.4217781425525199 
0.09074159397276436 -0.4313014341126623 0.3003371748648947 0.1151550946402773 -0.01311048721958202 -0.05808039758259079 
0.09350087404410899 -0.03863926759594479 -0.03949486633557790 -0.04046320863717469 -0.01010911353570423 -0.05210141520742646 
-0.01196060749463970 -0.1372085272497608 0.04425292597599793 -0.02880902809834778 -0.08843478968299649 -0.02855529064416256 
-0.02758330828855096 0.3242210620121761 -0.1062715406045656 -0.2451136821340871 -0.002663162494697623 -0.02612279145440246 
0.02408028240305862 -0.01348036480970941 -0.01167464941893362 -0.03196075252517171 -0.001320901502112095 -0.02613599594234143 
-0.02135379483778427 -0.1761756455628226 -0.04345983557290577 0.2047483294477994 -0.008231416600038592 -0.01121159681767071 
-0.01819654882713649 -0.05629896050560081 0.06543845274950413 -0.07882858779538396 -0.003780474296075684 -0.02055021265931525 
-0.009263260301542378 0.07711912653127838 -0.07721275527401744 0.1392735059853817 -0.04561939857569950 -0.08908242140300618 
-0.04089996872640255 -0.4830073769565060 -0.03009782213248431 0.3966782721852936 0.3166621520855339 -0.02284424093257059 
0.2456548715043781 0.007801887530337428 -0.07872070728409444 -0.1058554474723250 -0.02293714110699229 -0.02219748400112790 
-0.008884284061312173 -0.1262679106819969 -0.04983725472642711 0.04405638283877506 -0.08661123262158898 -0.009301059982194776 
-0.02515901311246007 -0.007326779763957602 -0.4213712581854430 0.6367340265226069 0.1613881742125790 -0.1304473887224173 
-0.09560187331751653 -0.04627759032593005 0.2780211985541761 -0.3531726273355277 0.3074013273535140 0.1502416044441809 
0.08364560299698995 -0.07413524153852961 -0.2404503995118062 -0.1623648465436216 0.4949560998482412 -0.06128613709760516 
0.01683318697941803 -0.01738249580473512 -0.04466953794632005 0.2444771635995578 -0.01747174124932505 -0.03537281373492415 
-0.003954600297248435 0.1982711602157613 -0.04284237167166526 -0.2943575850226231 -0.03060176934320757 -0.008238659106740211 
-0.05750584524067677 -0.07111760530073970 -0.3687251425387237 0.7144730980605928 0.1718075777655208 -0.06687824833132108 
0.01139311910875773 0.05449495519852071 -0.05574530976504150 -0.1861346783266335 -0.03602140257757142 -0.01462926587961033 
-0.007303517243224416 -0.004724621020984653 -0.04575258084241483 -0.04933986695577522 0.04438739562025366 -0.009120617851445788 
-0.07956707807952694 -0.05625193563578484 0.04191040585705327 -0.1797798457427022 -0.05286089139311434 0.3088084402730719 
-0.01285174135951699 -0.1053615394181440 -0.02268803566217844 0.1407453005708978 -0.007775450320133296 -0.03478352623318259 
-0.03333990211668799 -0.04457010150182507 0.2755515009149969 -0.1756632407193608 -0.02847267460494989 -0.1577242421117031 
0.09319815508332250 -0.009452749885318582 0.1443846745945976 -0.2409345344001500 -0.06686898191197327 -0.01526697448702499 
0.04281682248821198 -0.006984766896023066 0.01032454570528421 -0.07781811748961501 -0.01229213039564209 -0.01576767743143577 
-0.01397372202058761 0.3274322428054025 -0.03214608481450551 -0.2993684269898013 -0.01001503697575502 -0.01402966769249816 
-0.003463841998979790 0.1044104576123912 -0.03817747223302248 -0.1123567628889852 -0.002082651990856703 -0.003030761768597369 
-0.001656666489558338 -0.002749432436066816 0.07569167180759533 -0.04022371795253890 -0.1086574953809558 -0.01010207037702689 
-0.02639096106209858 -0.02820487028317213 0.3609838914323770 0.2610793360509184 -0.09453743896276649 -0.04421280286178036 
-0.004388397547327404 0.06197355119590264 -0.2825735729539309 0.05448366017603260 -0.01420566807922902 -0.006626349894457447 
-0.01469017047126858 0.1212002532144339 0.6108651677770918 -0.4514299362821084 -0.1065899246198492 -0.05002778122308278 
-0.008951386926440793 0.1775247690629810 -0.01474139028251741 -0.2172992176391153 -0.004412268281169022 -0.005292573514287359 
0.04416250348550290 0.1582833663583940 -0.02210423865540130 -0.1321307819912996 -0.05413632253630080 -0.01162683848450799 
-0.004018292756356351 -0.004763564636443528 0.4417775578670268 -0.2174680407679169 -0.2270350987579692 -0.004339764568644334 
-0.008723474765042650 -0.05297971784759307 -0.002418683997876835 -0.03947446726300940 -0.009309554162688223 -0.01014248930026994 
0.07521514468565076 0.2114654601569035 -0.06926807220735656 -0.1710195923344559 -0.03736821918288603 -0.02793957871860841 
0.01807107561037025 0.06349570181032425 -0.2442431921160276 0.1721273626845916 -0.2308341934077494 0.1578859836123081 
0.3697060938602184 0.4773284427234980 -0.03257853710567298 0.009070241914786219 -0.5734391333842538 -0.5487986416987446 
-0.2303646280778796 0.01178796307575144 0.1367265163210444 0.3533884311579893 -0.6405444725535792 -0.02427575110740295 
0.1555868703210543 0.1335736387796170 -0.1135299767098430 -0.2951054546919090 0.7223321896832919 -1.019735407020468 
-0.1480426760819137 0.3236755105551413 -0.4924270198493955 0.4422854472250446 -0.01661326302688387 -0.4273071087479021 
-0.07763663346301117 -0.01717927347623200 0.04529403067729256 0.2587148922424963 0.1327326874385364 -0.4312768687845298 
-0.1879052914769843 0.2701393989094376 0.5221545698397392 -0.2855567178059285 -0.2299507455702015 0.1732663395144222 
-0.1978312369158720 0.07531194465078771 0.6981856496715486 -0.1206728687972794 -0.2347684522257220 -0.3450035251048730 
-0.4388706374595602 0.08577436166026553 0.6265624607927067 -0.4616901381603532 -0.03832233629298114 0.03540691840539521 
-0.1497076782759589 -0.05317891037566348 0.1365124587155567 -0.001579095587888154 0.09450746407586301 0.08285231722932787 
0.4290928757273842 0.1531617841713882 -0.2367829028895681 -0.1601290386792957 0.03736282193398753 -0.4328725599997675 
0.06990323684542739 0.2286429948015149 -0.4688647570476005 0.01062581593505991 -0.1853998231297027 0.1115839506092492 
-0.07182048203360858 -0.05610934833290737 -0.3644821551864944 0.2959540420304767 -0.09080654916908931 -0.2575345346677624 
0.08849631941559692 -0.1317472867618203 -0.3875339447408630 0.4006078820701806 0.5623213177169245 -0.4634929237405220 
-0.4851637779340730 -0.3745925469941511 0.06088250186119209 0.5618038560428262 -0.1538365913525788 0.5485802390460728 
-0.08450282696457947 0.1718585352853481 0.02408404458770557 -0.3012126076214808 -0.07927483576112526 -0.2424287875829447 
-0.09472401226981116 0.2468778637819810 -0.1492213791060443 -0.3669577198581731 0.3518482053704438 0.1484010492621879 
-0.03307850915748140 0.3171152842702974 0.03585740724218408 -0.3346689591961879 0.4913122904467108 -0.4137857188937927 
-0.1481265467947400 0.03044676003438060 -0.2007453546693273 0.3650689252852962 -0.1159142611133404 -0.2028337614319993 
-0.3061075336079800 -0.6100407906844104 0.4713924205194970 0.5717059832240318 -0.4510893216476469 -0.1064665024139964 
-0.07359817232210744 -0.5580974576826573 -0.1487236944315359 0.5833781906883618 -0.1328663248371145 -0.09249884957012808 
-0.02130896589562676 -0.01934024477920741 0.07354513346893501 -0.3734895533484161 0.3104878865772049 -0.08251654880145398 
0.4480439724445324 -0.07161906792034313 -0.1433407475803708 -0.2540586501455305 -0.06518147445264637 -0.3880834219722692 
-0.06665816761704171 -0.03513631778629992 0.2691814426620570 -0.09432713346758730 0.1145030513636440 -0.2406521378895355 
-0.05758277072530484 0.1968010189513317 0.4323239204823811 -0.5108772514936433 -0.2038733991040654 -0.1389090861733021 
-0.008713766307075547 0.008994551556698418 0.4564774935696511 -0.1235869804292314 -0.2139593683728377 -0.2975383874118829 
-0.1313610310059657 -0.05681814761348562 0.4060926005888222 -0.3608196770968208 0.1247990963195936 -0.1273038346144428 
0.04953398211168597 -0.06862281680379455 0.1970384310401132 -0.4596558667029067 0.2406029820685298 -0.1770596124661833 
-0.01088098687815569 -0.01404160950548493 -0.1877711789546980 -0.1776407434407218 0.2082253140694038 -0.03578019980918924 
0.006856544248871093 -0.1893910744886490 0.3539787453198303 -0.1556826854824537 -0.1309148650603449 0.2395344187046856 
0.01333293020305227 0.1761648445582640 -0.1294225320457964 -0.2854680654219037 -0.06225072491164328 0.1113074707237124 
0.02873361833468341 0.06923296988868052 -0.1115293562982195 0.03905473916500098 0.2302529799699743 -0.06731646784918555 
-0.1178207637236823 0.1424992271534692 0.1983873431625492 -0.3722809533689825 -0.1675210141828442 0.1673204682900341 
0.09782310267312788 -0.4567810774619910 -0.4340535979500790 0.6135104391302215 0.1885732499199737 -0.09131422475017890 
-0.06380548246359814 -0.1261011715803113 -0.1231284560096681 0.1950065140536867 0.3312560416529252 -0.2559731318153816 
-0.03376517758961872 0.1112119684992587 0.07921603248811855 -0.003766996770711911 -0.1050772134361748 -0.1779884963158610 
0.04438419054338079 -0.07006245801480582 -0.2276385609119664 0.2376413258818493 -0.04382599727711213 -0.08112458062216175 
-0.5974609035215577 0.2319572551575471 -0.1027692664122646 -0.2678026771188284 -0.08104146670934928 0.7228608709595876 
-0.01158196224705214 0.003060018173564402 0.6085152580831935 -0.4854550451996429 -0.3363560608293642 -0.08478029830864048 
-0.01961309711186064 0.004994934556488929 -0.04204047991809592 0.1994361697823563 -0.04453356772804271 -0.09221195301443473 
0.01431368467239441 -0.008340283713834783 -1.035463302170975 0.8617299332748629 0.2912757435128947 -0.06541125437035009 
-0.04070714556287104 0.3436858830656830 -0.06467256578749954 -0.2424076151664265 -0.01104393218206273 -0.1330475979082895 
0.01556713623111595 0.08991094572908202 0.2973567204672151 -0.4689715414206542 -0.03781255285768223 0.2065103710221048 
-0.07385996216800254 -0.09218538258911747 0.02124548952553766 -0.004984884481260823 -0.05599931074259985 0.1223115240287715 
-0.04829842454702055 -0.03638566072368923 0.2793545820253593 0.05169493167180934 -0.1344821325124501 -0.05310779798671166 
-0.06354092038721036 -0.02863099184285766 0.3473289304009087 0.06199769992954779 -0.1873658922167599 -0.1817995298995021 
-0.2925317796871255 -0.03643636535773667 -0.1416945833955645 0.07343813776580767 -0.04237217420223860 0.2751613738292084 
-0.03192744252852539 0.1819448417444477 0.1655272149907215 -0.3334500725428773 -0.08674364693863129 -0.1305979102313433 
-0.02814952454442427 0.2564521194060744 -0.3649114557630686 -0.2789135104083716 0.2283752765483480 0.1435649659788968 
-0.05447975524707625 0.09795286447750637 0.04031203001241464 -0.09149408189744712 -0.02064161408342324 -0.06257082939389286 
-0.04683796276554891 -0.02569524902527809 -0.3348337227184379 0.4466283298314194 -0.1098084071746929 -0.02586433224844152 
0.06477733106916721 -0.06655511723881045 0.2970792033319257 -0.04074896918197442 -0.04834746046177402 -0.09487829907890805 
0.1000707262659791 -0.05175655312967877 0.1805728629663336 -0.1376265594482020 -0.09032658438445654 -0.1930700321420355 
0.1017563699571128 0.06553628230106745 -0.08695989716191609 -0.02831066480796060 -0.007707492858670248 -0.03740401560841571 
-0.06239377381731836 -0.02637315148349064 -0.004643714089925118 0.03373131444251353 0.3843003543766298 -0.2519788849655454 
-0.01545299143328128 0.1028183215665421 0.2785174649362622 -0.4209661680664855 -0.1228204493310365 -0.05303836843405617 
-0.02147083598799623 -0.07068336949802118 0.1142125873952595 -0.01315857324947694 -0.03779248702721957 -0.07684366582342501 
-0.02064469692844596 -0.06227384578236481 -0.1238507454324030 0.07693655598421358 -0.02166453300985935 -0.02869387127354862 
0.06447391564871949 -0.3487704120397130 -0.05028597816042461 0.4230264919452450 -0.02315263446790742 -0.07422028241633971 
0.08783115376993021 0.04123575117267061 -0.05585635771843631 -0.08496061171068686 -0.01140040685212157 -0.1376724994397747 
-0.01615969387915676 0.09112272373541028 0.1307887426322027 -0.3786185052314080 -0.06972775340258916 0.3745040473098903 
-0.03630291444517325 0.2338441766853076 -0.2028301215366420 -0.2353738784837665 -0.02098527792417370 0.005054136743601272 
-0.01914429520578249 0.5475542012453861 -0.2845870002215366 -0.1604598513465615 -0.01566456746405875 -0.1563248931467305 
-0.02120549134809443 0.1909970668054212 -0.3845833457236418 0.1189578168426086 -0.01252544593115305 -0.06595390479688693 
-0.03012838775993021 -0.03420277096394662 0.1660998527246375 -0.3661657955850604 -0.02504591392586358 0.3460154105119224 
-0.03410948165078977 -0.1433973968441234 -0.1230343131329564 0.5762043973056477 -0.08063492120962466 -0.09338601684167448 
0.0006145194292328975 0.05081575303635391 0.2643083599409620 -0.01039173874299095 -0.05877244873719228 -0.1008342448193964 
0.01761712392028012 -0.2788649749072902 0.009434865395938640 -0.06288392600907700 -0.04065588023252829 0.1920864593562661 
0.04266237630994400 -0.1191191559698746 0.1314373252452058 0.1389991162331294 -0.02085204858008495 -0.08502170740479520 
-0.01019068063363356 -0.02748296072436198 0.1826458586984378 -0.09229649397517100 -0.1804651666396245 -0.04032997951296987 
-0.01189232884056611 -0.7475956593692732 -0.03444035276609694 0.8340379925833334 -0.003888029597638467 -0.03709441385876609 
0.006295209906933098 0.1574543818268246 -0.009814728325456977 -0.3354685426277053 -0.007657548236111878 -0.03061940854010893 
-0.01764454322492313 0.2816028780411115 -0.02117544878725563 -0.3444004278494062 -0.02767904356601196 -0.01453378642043966 
0.02043798062069262 0.03241165990895574 0.1989390510878349 -0.1070081449831703 -0.03031469826341885 -0.08865996023487357 
-0.03617331880062439 -0.01679173234961246 0.4169529355715924 -0.1863484353436941 -0.1786850668449649 -0.1435834104615250 
-0.01912000780337302 0.2277188012007598 -0.1412698120251945 -0.2895469018921459 -0.01304968950015654 0.1692057661573764 
-0.04242700903956873 -0.07075620243871074 0.06469951997270285 0.03309745686739461 -0.01860502885471483 -0.05965769386790541 
0.02555850997384532 -0.02721582271844360 -0.1654973809099970 0.3373792538810365 -0.05656345777008466 -0.07580556796652896 
-0.01202796106928628 0.1289606625680263 0.1710655603294030 -0.2320413415554068 -0.1072608970112985 -0.06431890461838029 
-0.03366521846681657 0.03962604732153700 0.09402055895738240 -0.2196365674390305 -0.08036371601000358 0.1484685705536518 
-0.01070421288672361 -0.02408249018315185 -0.1008645357596036 -0.4038121143120581 0.4985977937678245 -0.06752268781616233 
0.1636397550457436 -0.02553463144687238 -0.04381586729911069 -0.09171006701801192 -0.02978160010205488 -0.1696800416482253 
-0.06068479874076540 -0.04761509980231447 0.2038058186815325 -0.1144845740282394 -0.01114690341423803 -0.1527322537203183 
-0.02103623269892780 -0.06510447282755695 -0.04800810569287070 0.2245856826054292 -0.006558030755751745 -0.06770692294179749 
-0.04635346190944163 -0.01505010477043255 0.2376286860342957 -0.03023480563913230 -0.1580814301620995 -0.04701889348489150 
0.1441742175117412 -0.02588659789701306 -0.02187321163451800 -0.05404292868991367 -0.04290937770725002 -0.05497085558595726 
-0.01186153807369226 0.1703179343900390 -0.02509117727868789 -0.2629753716650035 -0.01201271075570175 -0.01914063369898372 
-0.5764386309321785 -0.02784363771640175 0.04565728828200062 -0.3025128183241205 0.3176964661877723 0.4979962639541610 
-0.04295290265049967 -0.004871440424426951 -0.08083150513203848 0.1163318963967994 -0.006461195885516290 -0.002682171065840169 
-0.01027220365318085 -0.8049505976744138 -0.03239746545078563 0.9424167645182097 -0.002651750753941659 -0.03215255175035987 
0.08544542119604467 -0.02211861385290670 -0.03253257090182177 0.1033960488552064 -0.03416883757912850 -0.1611036217291094 
0.1255623151890509 -0.03047311934909154 -0.03325069548070448 -0.1422460664394209 -0.006789095701253747 -0.09689777669782701 
-0.01819654882713649 -0.05629896050560081 0.06543845274950413 -0.07882858779538396 -0.003780474296075684 -0.02055021265931525 
0.02643902542310491 0.1538085946218283 0.01577433231000773 -0.2506505576164372 -0.009945566724147040 -0.04057798919523353 
-0.006262591752185613 0.05627267513118581 -0.01772540887134396 0.05480514122259297 -0.008883519169886940 -0.04395814626683998 
-0.07735725857023977 -0.01942859756274639 0.1557349420626582 -0.2148527232037563 -0.1160203235848799 -0.08036807762235676 
0.03169908087788180 -0.03652614047071023 -0.1335343102264477 0.08564309102203331 -0.02625457228407429 -0.03069594994159204 
0.03845790105514316 -0.05338760702805421 0.08113024346121564 -0.1227430571106221 -0.1460528142839253 -0.01654466895700816 
0.05076638395475063 -0.05128825989900298 -0.03324346046116355 -0.0001266684407605372 -0.001712462905996307 -0.04211559796921110 
-0.005913281051503410 -0.02879005655379253 -0.3325178807454456 1.024933086988579 -0.4114125019791918 -0.03504549160389614 
0.06356966557484590 -0.08557962634493485 -0.07712511452011168 0.1442701140722551 -0.001845684371851159 -0.06197565830205570 
-0.005913281051503410 -0.02879005655379253 -0.3325178807454456 1.024933086988579 -0.4114125019791918 -0.03504549160389614 
-0.003799652229640196 -0.01092610716391652 0.5848502728775647 -0.4724530065320073 -0.2342124847680862 -0.06842197857697824 
-0.05985595074680662 -0.04467872216615255 -0.02899496167292826 0.1359755554382609 -0.001430505277879666 -0.1408556814704405 
0.07616362046274090 0.04441761524252037 -0.2862925808360413 0.03479263747903974 -0.01150783720122654 0.1309517833039588 
-0.02821299470991578 0.1726966456332792 -0.01149099438681242 -0.08419347459525733 -0.08066841642386496 -0.01631833417931975 
-0.02163807411240699 -0.03047277297490813 -0.1892349651192379 0.08150502994628760 -0.04299959761592227 -0.02519960847154915 
-0.002066394156631989 0.07000095645351730 -0.0007322028337821523 -0.1374014829302177 -0.001298614336225818 -0.008820484282482555 
-0.05373260651334669 0.2682328102778264 -0.05787411516648672 -0.2259291999684114 -0.01381731559035217 -0.04317716600859217 
0.1094617155532685 -0.02041162286708052 -0.05400550327174460 -0.006549021804914608 -0.0005446560024058067 -0.06025008446390159 
-0.002066394156631989 0.07000095645351730 -0.0007322028337821523 -0.1374014829302177 -0.001298614336225818 -0.008820484282482555 
0.07468721316219143 -0.004844079184123084 -0.05705188923535908 -0.03896042729498114 -0.01075932204002639 -0.04228403938168829 
0.04158957830643346 -0.03902733110741168 -0.04853671474290616 -0.02291257924642569 -0.01795930573078313 -0.03011039694518803 
-0.01596904654474024 0.1049394821086152 -0.1646784118577789 0.3153201749675962 -0.005751430681720583 -0.1588132065025741 
0.003183384787359556 0.03139070417403903 -0.06570113755664109 0.3455610463563154 -0.07782454091269736 -0.1512879148660549 
-0.003276996095268252 -0.008911262912925927 0.04351158217255362 -0.09469498568690302 -0.02760045685014203 -0.02002023086411117 
-0.01471378759117078 0.2268757936018535 -0.05125984838595818 -0.1175420856364061 -0.01318501048680362 -0.05629819437383844 
-0.02434781514236244 0.1267303237575652 0.2221130732930909 -0.1170935258995860 -0.05332818420369723 -0.02498008329440041 
0.08754008427966581 0.03144449001266324 -0.04412433081598859 0.08996616682588242 -0.007327019595488368 -0.005359399010145005 
0.05091986612808729 -0.03356906643219690 0.1906282200750604 -0.2499242664407116 -0.03949799672156509 -0.04147070580183290 
-0.03588667549725431 -0.02998381128967714 0.3495056549550530 -0.07193252247788419 -0.03928315334798552 -0.07073189784260707 
-0.01000903540265183 0.1047880972809984 0.1748184892494896 -0.2391738060054971 -0.03978267558179620 -0.04272539506869533 
-0.06264706154459086 -0.02352476605269993 0.2542486555520562 -0.2530435758171778 0.2379960546032232 -0.1241424667053715 
-0.01477797827567071 0.1442518028159579 -0.2442520480887489 -0.2971317889340004 -0.005380733490839007 0.1127478911721812 
-0.006092760263727103 0.1975593523044951 -0.02293219662424189 -0.2364904015220344 -0.009382807149419248 -0.003882309283974482 
0 0 0 0 0 0 
0 0 0 0 0 0 
0 0 0 0 0 0 
0 0 0 0 0 0 
0 0 0 0 0 0 
0 0 0 0 0 0 
0 0 0 0 0 0 
0 0 0 0 0 0 
0 0 0 0 0 0 
0 0 0 0 0 0 
0 0 0 0 0 0 
0 0 0 0 0 0 
0 0 0 0 0 0 
0 0 0 0 0 0 
0 0 0 0 0 0 
0 0 0 0 0 0 
0 0 0 0 0 0 
0 0 0 0 0 0 
0 0 0 0 0 0 
0 0 0 0 0 0 
0 0 0 0 0 0 
0 0 0 0 0 0 
0 0 0 0 0 0 
0 0 0 0 0 0 
0 0 0 0 0 0 
0 0 0 0 0 0 
0 0 0 0 0 0 
0 0 0 0 0 0 
0 0 0 0 0 0 
0 0 0 0 0 0 
0 0 0 0 0 0 
0 0 0 0 0 0 
0 0 0 0 0 0 
0 0 0 0 0 0 
0 0 0 0 0 0 
0 0 0 0 0 0 
0 0 0 0 0 0 
0 0 0 0 0 0 
0 0 0 0 0 0 
0 0 0 0 0 0 
0 0 0 0 0 0 
0 0 0 0 0 0 
0 0 0 0 0 0 
0 0 0 0 0 0 
0 0 0 0 0 0 
0 0 0 0 0 0 
0 0 0 0 0 0 
0 0 0 0 0 0 
0 0 0 0 0 0 
0 0 0 0 0 0 
0 0 0 0 0 0 
0 0 0 0 0 0 
0 0 0 0 0 0 
0 0 0 0 0 0 
0 0 0 0 0 0 
0 0 0 0 0 0 
0 0 0 0 0 0 
0 0 0 0 0 0 
0 0 0 0 0 0 
0 0 0 0 0 0 
0 0 0 0 0 0 
0 0 0 0 0 0 
0 0 0 0 0 0 
0 0 0 0 0 0 
0 0 0 0 0 0 
0 0 0 0 0 0 
0 0 0 0 0 0 
0 0 0 0 0 0 
0 0 0 0 0 0 
0 0 0 0 0 0 
0 0 0 0 0 0 
0 0 0 0 0 0 
0 0 0 0 0 0 
0 0 0 0 0 0 
0 0 0 0 0 0 
0 0 0 0 0 0 
0 0 0 0 0 0 
0 0 0 0 0 0 
0 0 0 0 0 0 
0 0 0 0 0 0 
0 0 0 0 0 0 
0 0 0 0 0 0 
0 0 0 0 0 0 
0 0 0 0 0 0 
0 0 0 0 0 0 
0 0 0 0 0 0 
0 0 0 0 0 0 
0 0 0 0 0 0 
0 0 0 0 0 0 
0 0 0 0 0 0 
0 0 0 0 0 0 
0 0 0 0 0 0 
0 0 0 0 0 0 
0 0 0 0 0 0 
0 0 0 0 0 0 
0 0 0 0 0 0 
0 0 0 0 0 0 
0 0 0 0 0 0 
0 0 0 0 0 0 
0 0 0 0 0 0 
0 0 0 0 0 0 
0 0 0 0 0 0 
0 0 0 0 0 0 
0 0 0 0 0 0 
0 0 0 0 0 0 
0 0 0 0 0 0 
0 0 0 0 0 0 
0 0 0 0 0 0 
0 0 0 0 0 0 
0 0 0 0 0 0 
0 0 0 0 0 0 
0 0 0 0 0 0 
0 0 0 0 0 0 
0 0 0 0 0 0 
0 0 0 0 0 0 
0 0 0 0 0 0 
0 0 0 0 0 0 
0 0 0 0 0 0 
0 0 0 0 0 0 
0 0 0 0 0 0 
0 0 0 0 0 0 
0 0 0 0 0 0 
0 0 0 0 0 0 
0 0 0 0 0 0 
0 0 0 0 0 0 
0 0 0 0 0 0 
0 0 0 0 0 0 
0 0 0 0 0 0 
0 0 0 0 0 0 
0 0 0 0 0 0 
0 0 0 0 0 0 
0 0 0 0 0 0 
0 0 0 0 0 0 
0 0 0 0 0 0 
0 0 0 0 0 0 
0 0 0 0 0 0 
0 0 0 0 0 0 
0 0 0 0 0 0 
0 0 0 0 0 0 
0 0 0 0 0 0 
0 0 0 0 0 0 
0 0 0 0 0 0 
0 0 0 0 0 0 
0 0 0 0 0 0 
0 0 0 0 0 0 
0 0 0 0 0 0 
0 0 0 0 0 0 
0 0 0 0 0 0 
0 0 0 0 0 0 
0 0 0 0 0 0 
0 0 0 0 0 0 
0 0 0 0 0 0 
0 0 0 0 0 0 
0 0 0 0 0 0 
0 0 0 0 0 0 
0 0 0 0 0 0 
0 0 0 0 0 0 
0 0 0 0 0 0 
0 0 0 0 0 0 
0 0 0 0 0 0 
0 0 0 0 0 0 
0 0 0 0 0 0 
0 0 0 0 0 0 
0 0 0 0 0 0 
0 0 0 0 0 0 
0 0 0 0 0 0 
0 0 0 0 0 0 
0 0 0 0 0 0 
0 0 0 0 0 0 
0 0 0 0 0 0 
0 0 0 0 0 0 
0 0 0 0 0 0 
0 0 0 0 0 0 
0 0 0 0 0 0 
0 0 0 0 0 0 
0 0 0 0 0 0 
0 0 0 0 0 0 
0 0 0 0 0 0 
0 0 0 0 0 0 
0 0 0 0 0 0 
0 0 0 0 0 0 
0 0 0 0 0 0 
0 0 0 0 0 0 
0 0 0 0 0 0 
-0.09719839473254867 -0.01940261870434057 -0.02578276264704015 0.6955381864313661 -0.05206955571843643 -0.2293162716369454 
0 0 0 0 0 0 
0 0 0 0 0 0 
0 0 0 0 0 0 
0 0 0 0 0 0 
0 0 0 0 0 0 
0 0 0 0 0 0 
0 0 0 0 0 0 
0 0 0 0 0 0 
0 0 0 0 0 0 
0 0 0 0 0 0 
0 0 0 0 0 0 
0 0 0 0 0 0 
0 0 0 0 0 0 
0 0 0 0 0 0 
0 0 0 0 0 0 
0 0 0 0 0 0 
0 0 0 0 0 0 
0 0 0 0 0 0 
0 0 0 0 0 0 
0 0 0 0 0 0 
0 0 0 0 0 0 
0 0 0 0 0 0 
0 0 0 0 0 0 
0 0 0 0 0 0 
0 0 0 0 0 0 
0 0 0 0 0 0 
0 0 0 0 0 0 
0 0 0 0 0 0 
0 0 0 0 0 0 
0 0 0 0 0 0 
0 0 0 0 0 0 
0 0 0 0 0 0 
0 0 0 0 0 0 
0 0 0 0 0 0 
0 0 0 0 0 0 
-0.01574762252192446 -0.004273707315007786 0.3662509491476834 -0.1483830945545668 -0.06193249146362063 -0.01190351634933848 
0 0 0 0 0 0 
0 0 0 0 0 0 
0 0 0 0 0 0 
0 0 0 0 0 0 
0 0 0 0 0 0 
0 0 0 0 0 0 
0 0 0 0 0 0 
0 0 0 0 0 0 
0 0 0 0 0 0 
0 0 0 0 0 0 
0 0 0 0 0 0 
0 0 0 0 0 0 
0 0 0 0 0 0 
0 0 0 0 0 0 
0 0 0 0 0 0 
-0.01133917400578397 0.8542489056981852 -0.02699093594952666 -0.6083478667503904 -0.1060269143399619 -0.1178584731533833 
0 0 0 0 0 0 
0 0 0 0 0 0 
0 0 0 0 0 0 
0 0 0 0 0 0 
-1.247216304204927 -1.369339101515728 1.106065340161638 0.7437192946604140 0.4931795159336124 -0.4132940363451579 
0 0 0 0 0 0 
0 0 0 0 0 0 
0 0 0 0 0 0 
0 0 0 0 0 0 
0 0 0 0 0 0 
0 0 0 0 0 0 
0 0 0 0 0 0 
0 0 0 0 0 0 
0 0 0 0 0 0 
0 0 0 0 0 0 
0 0 0 0 0 0 
0 0 0 0 0 0 
0 0 0 0 0 0 
0 0 0 0 0 0 
0 0 0 0 0 0 
0 0 0 0 0 0 
0 0 0 0 0 0 
0 0 0 0 0 0 
0 0 0 0 0 0 
0 0 0 0 0 0 
-0.2137547314938244 -0.03999204120579909 -0.07008580793598823 -0.05324948330531662 -0.04040993991109275 0.3569531880175391 
0 0 0 0 0 0 
0 0 0 0 0 0 
0 0 0 0 0 0 
0 0 0 0 0 0 
0 0 0 0 0 0 
0 0 0 0 0 0 
0 0 0 0 0 0 
0 0 0 0 0 0 
0 0 0 0 0 0 
0 0 0 0 0 0 
0 0 0 0 0 0 
0 0 0 0 0 0 
0 0 0 0 0 0 
0 0 0 0 0 0 
0 0 0 0 0 0 
0 0 0 0 0 0 
0 0 0 0 0 0 
0 0 0 0 0 0 
0 0 0 0 0 0 
0 0 0 0 0 0 
0 0 0 0 0 0 
0 0 0 0 0 0 
0 0 0 0 0 0 
0 0 0 0 0 0 
0 0 0 0 0 0 
0 0 0 0 0 0 
-0.1252360738195386 -0.01209314298911880 -0.03689358504372222 -0.05156606611662400 -0.001488214965278741 0.1706411855281098 
0 0 0 0 0 0 
0 0 0 0 0 0 
0 0 0 0 0 0 
0 0 0 0 0 0 
0 0 0 0 0 0 
0 0 0 0 0 0 
0 0 0 0 0 0 
0 0 0 0 0 0 
0 0 0 0 0 0 
0 0 0 0 0 0 
0 0 0 0 0 0 
0 0 0 0 0 0 
0 0 0 0 0 0 
0 0 0 0 0 0 
0 0 0 0 0 0 
0 0 0 0 0 0 
0 0 0 0 0 0 
0 0 0 0 0 0 
0 0 0 0 0 0 
0 0 0 0 0 0 
0 0 0 0 0 0 
0 0 0 0 0 0 
0 0 0 0 0 0 
0 0 0 0 0 0 
0 0 0 0 0 0 
0 0 0 0 0 0 
0 0 0 0 0 0 
0 0 0 0 0 0 
0 0 0 0 0 0 
0 0 0 0 0 0 
0 0 0 0 0 0 
0 0 0 0 0 0 
0 0 0 0 0 0 
0 0 0 0 0 0 
0 0 0 0 0 0 
0 0 0 0 0 0 
0 0 0 0 0 0 
0 0 0 0 0 0 
0 0 0 0 0 0 
0 0 0 0 0 0 
0 0 0 0 0 0 
0 0 0 0 0 0 
0 0 0 0 0 0 
0 0 0 0 0 0 
0 0 0 0 0 0 
0 0 0 0 0 0 
0 0 0 0 0 0 
0 0 0 0 0 0 
0 0 0 0 0 0 
0 0 0 0 0 0 
0 0 0 0 0 0 
0.4692092979011464 -1.512583398406660 0.7061705929375193 1.916858054275212 -0.3233479051841217 -0.3813780956996624 
0 0 0 0 0 0 
0 0 0 0 0 0 
0 0 0 0 0 0 
0 0 0 0 0 0 
0 0 0 0 0 0 
0 0 0 0 0 0 
0 0 0 0 0 0 
0 0 0 0 0 0 
0 0 0 0 0 0 
0 0 0 0 0 0 
0 0 0 0 0 0 
0 0 0 0 0 0 
0 0 0 0 0 0 
0 0 0 0 0 0 
-0.01574762252192446 -0.004273707315007786 0.3662509491476834 -0.1483830945545668 -0.06193249146362063 -0.01190351634933848 
0 0 0 0 0 0 
0 0 0 0 0 0 
0 0 0 0 0 0 
0 0 0 0 0 0 
0 0 0 0 0 0 
0 0 0 0 0 0 
0 0 0 0 0 0 
0 0 0 0 0 0 
0 0 0 0 0 0 
0 0 0 0 0 0 
0 0 0 0 0 0 
0 0 0 0 0 0 
0 0 0 0 0 0 
0 0 0 0 0 0 
0 0 0 0 0 0 
0 0 0 0 0 0 
0 0 0 0 0 0 
0 0 0 0 0 0 
0 0 0 0 0 0 
0 0 0 0 0 0 
0 0 0 0 0 0 
0 0 0 0 0 0 
0 0 0 0 0 0 
0 0 0 0 0 0 
0 0 0 0 0 0 
0 0 0 0 0 0 
0 0 0 0 0 0 
0 0 0 0 0 0 
0 0 0 0 0 0 
0 0 0 0 0 0 
0 0 0 0 0 0 
0 0 0 0 0 0 
0 0 0 0 0 0 
0 0 0 0 0 0 
-0.6459811832863046 -0.7425023992631552 -0.4554670015042082 -0.6577603543736527 -0.8965857047665010 -0.005635801203961036 
0 0 0 0 0 0 
0 0 0 0 0 0 
0 0 0 0 0 0 
0 0 0 0 0 0 
0 0 0 0 0 0 
0 0 0 0 0 0 
0 0 0 0 0 0 
0 0 0 0 0 0 
0 0 0 0 0 0 
0 0 0 0 0 0 
0 0 0 0 0 0 
0 0 0 0 0 0 
0 0 0 0 0 0 
0 0 0 0 0 0 
0 0 0 0 0 0 
0 0 0 0 0 0 
0 0 0 0 0 0 
0 0 0 0 0 0 
0 0 0 0 0 0 
0 0 0 0 0 0 
0 0 0 0 0 0 
0 0 0 0 0 0 
0 0 0 0 0 0 
0 0 0 0 0 0 
0 0 0 0 0 0 
0 0 0 0 0 0 
0 0 0 0 0 0 
0 0 0 0 0 0 
0 0 0 0 0 0 
0 0 0 0 0 0 
0 0 0 0 0 0 
0 0 0 0 0 0 
0 0 0 0 0 0 
0 0 0 0 0 0 
0 0 0 0 0 0 
0 0 0 0 0 0 
0 0 0 0 0 0 
-0.1135797186055432 -0.01073611468865909 -0.05461175691549984 -0.2721408689050978 -0.02182248062875198 0.3818144870787514 
0 0 0 0 0 0 
0 0 0 0 0 0 
0 0 0 0 0 0 
0 0 0 0 0 0 
0 0 0 0 0 0 
0 0 0 0 0 0 
0 0 0 0 0 0 
0 0 0 0 0 0 
0 0 0 0 0 0 
0 0 0 0 0 0 
0 0 0 0 0 0 
0 0 0 0 0 0 
0 0 0 0 0 0 
0 0 0 0 0 0 
0 0 0 0 0 0 
0 0 0 0 0 0 
0 0 0 0 0 0 
0 0 0 0 0 0 
0 0 0 0 0 0 
0 0 0 0 0 0 
0 0 0 0 0 0 
0 0 0 0 0 0 
0 0 0 0 0 0 
0 0 0 0 0 0 
0 0 0 0 0 0 
0 0 0 0 0 0 
0 0 0 0 0 0 
0 0 0 0 0 0 
0 0 0 0 0 0 
0 0 0 0 0 0 
0 0 0 0 0 0 
0 0 0 0 0 0 
0 0 0 0 0 0 
0 0 0 0 0 0 
-0.1340940083231729 -0.007787900106214013 -0.03342164952835530 -0.07182947140999624 -0.0001444287964583640 0.1695882256183349 
0 0 0 0 0 0 
0 0 0 0 0 0 
0 0 0 0 0 0 
0 0 0 0 0 0 
0 0 0 0 0 0 
0 0 0 0 0 0 
0 0 0 0 0 0 
0 0 0 0 0 0 
0 0 0 0 0 0 
0 0 0 0 0 0 
0 0 0 0 0 0 
0 0 0 0 0 0 
0 0 0 0 0 0 
0 0 0 0 0 0 
0 0 0 0 0 0 
0 0 0 0 0 0 
0 0 0 0 0 0 
0 0 0 0 0 0 
0 0 0 0 0 0 
0 0 0 0 0 0 
0 0 0 0 0 0 
0 0 0 0 0 0 
0 0 0 0 0 0 
0 0 0 0 0 0 
0 0 0 0 0 0 
0 0 0 0 0 0 
0 0 0 0 0 0 
0 0 0 0 0 0 
0 0 0 0 0 0 
0 0 0 0 0 0 
0 0 0 0 0 0 
0 0 0 0 0 0 
0 0 0 0 0 0 
0 0 0 0 0 0 
0 0 0 0 0 0 
0 0 0 0 0 0 
0 0 0 0 0 0 
0 0 0 0 0 0 
0 0 0 0 0 0 
0 0 0 0 0 0 
0 0 0 0 0 0 
0 0 0 0 0 0 
0 0 0 0 0 0 
0 0 0 0 0 0 
0 0 0 0 0 0 
0 0 0 0 0 0 
0 0 0 0 0 0 
0 0 0 0 0 0 
0 0 0 0 0 0 
0 0 0 0 0 0 
0 0 0 0 0 0 
0 0 0 0 0 0 
0 0 0 0 0 0 
0 0 0 0 0 0 
0 0 0 0 0 0 
0 0 0 0 0 0 
0 0 0 0 0 0 
0 0 0 0 0 0 
0 0 0 0 0 0 
-0.6459811832863046 -0.7425023992631552 -0.4554670015042082 -0.6577603543736527 -0.8965857047665010 -0.005635801203961036 
0 0 0 0 0 0 
0 0 0 0 0 0 
0 0 0 0 0 0 
0 0 0 0 0 0 
-0.1073349262360273 -0.05260365702215655 -0.2104199572284978 -0.1226259607843045 -0.06097962579680862 0.4330195508947941 
0 0 0 0 0 0 
0 0 0 0 0 0 
0 0 0 0 0 0 
0 0 0 0 0 0 
0 0 0 0 0 0 
0 0 0 0 0 0 
0 0 0 0 0 0 
0 0 0 0 0 0 
0 0 0 0 0 0 
0 0 0 0 0 0 
0 0 0 0 0 0 
0 0 0 0 0 0 
-1.024337800472005 2.676906663074347 -1.422992335038652 -1.262583140005247 -0.5512241202969257 -0.6513428192705547 
0 0 0 0 0 0 
0 0 0 0 0 0 
0 0 0 0 0 0 
0 0 0 0 0 0 
0 0 0 0 0 0 
0 0 0 0 0 0 
0 0 0 0 0 0 
0 0 0 0 0 0 
0 0 0 0 0 0 
0 0 0 0 0 0 
0 0 0 0 0 0 
0 0 0 0 0 0 
0 0 0 0 0 0 
0 0 0 0 0 0 
0 0 0 0 0 0 
0 0 0 0 0 0 
0 0 0 0 0 0 
0 0 0 0 0 0 
0 0 0 0 0 0 
0 0 0 0 0 0 
0 0 0 0 0 0 
-0.1727605037612761 -0.03667212973695400 -0.1002754661431415 -0.03229382957045940 -0.02914107989646150 0.5744918598950258 
0 0 0 0 0 0 
0 0 0 0 0 0 
0 0 0 0 0 0 
0 0 0 0 0 0 
0 0 0 0 0 0 
0 0 0 0 0 0 
0 0 0 0 0 0 
0 0 0 0 0 0 
0 0 0 0 0 0 
0 0 0 0 0 0 
0 0 0 0 0 0 
0 0 0 0 0 0 
0 0 0 0 0 0 
0 0 0 0 0 0 
0 0 0 0 0 0 
0 0 0 0 0 0 
0 0 0 0 0 0 
0 0 0 0 0 0 
2.977873266076407 -0.7783225700447378 -1.081718899574620 -0.3828785437842272 -0.7546708828250175 -1.987214721493108 
0 0 0 0 0 0 
0 0 0 0 0 0 
0 0 0 0 0 0 
0 0 0 0 0 0 
0 0 0 0 0 0 
0 0 0 0 0 0 
0 0 0 0 0 0 
0 0 0 0 0 0 
0 0 0 0 0 0 
0 0 0 0 0 0 
0 0 0 0 0 0 
0 0 0 0 0 0 
0 0 0 0 0 0 
0 0 0 0 0 0 
0 0 0 0 0 0 
0 0 0 0 0 0 
0 0 0 0 0 0 
0 0 0 0 0 0 
0 0 0 0 0 0 
0 0 0 0 0 0 
0 0 0 0 0 0 
0 0 0 0 0 0 
0 0 0 0 0 0 
0 0 0 0 0 0 
0 0 0 0 0 0 
0 0 0 0 0 0 
0 0 0 0 0 0 
0 0 0 0 0 0 
0 0 0 0 0 0 
0 0 0 0 0 0 
0 0 0 0 0 0 
0 0 0 0 0 0 
0 0 0 0 0 0 
0 0 0 0 0 0 
0 0 0 0 0 0 
0 0 0 0 0 0 
0 0 0 0 0 0 
0 0 0 0 0 0 
0 0 0 0 0 0 
0 0 0 0 0 0 
0 0 0 0 0 0 
0 0 0 0 0 0 
0 0 0 0 0 0 
0 0 0 0 0 0 
0 0 0 0 0 0 
0 0 0 0 0 0 
0 0 0 0 0 0 
0 0 0 0 0 0 
0 0 0 0 0 0 
0 0 0 0 0 0 
0 0 0 0 0 0 
0 0 0 0 0 0 
0 0 0 0 0 0 
0 0 0 0 0 0 
0 0 0 0 0 0 
0 0 0 0 0 0 
0 0 0 0 0 0 
0 0 0 0 0 0 
0 0 0 0 0 0 
0 0 0 0 0 0 
0 0 0 0 0 0 
0 0 0 0 0 0 
0 0 0 0 0 0 
0 0 0 0 0 0 
0 0 0 0 0 0 
0 0 0 0 0 0 
0 0 0 0 0 0 
0 0 0 0 0 0 
0 0 0 0 0 0 
0 0 0 0 0 0 
-0.1340940083231729 -0.007787900106214013 -0.03342164952835530 -0.07182947140999624 -0.0001444287964583640 0.1695882256183349 
0 0 0 0 0 0 
0 0 0 0 0 0 
0 0 0 0 0 0 
0 0 0 0 0 0 
0 0 0 0 0 0 
0 0 0 0 0 0 
0 0 0 0 0 0 
0 0 0 0 0 0 
0 0 0 0 0 0 
0 0 0 0 0 0 
0 0 0 0 0 0 
0 0 0 0 0 0 
0 0 0 0 0 0 
0 0 0 0 0 0 
0 0 0 0 0 0 
0 0 0 0 0 0 
0 0 0 0 0 0 
0 0 0 0 0 0 
0 0 0 0 0 0 
0 0 0 0 0 0 
0 0 0 0 0 0 
1.953583350505733 -0.9878707714947781 -1.323376473365307 -0.5972444087052375 -0.8556758298847603 -0.03416387124840768 
0 0 0 0 0 0 
0 0 0 0 0 0 
0 0 0 0 0 0 
0 0 0 0 0 0 
0 0 0 0 0 0 
0 0 0 0 0 0 
0 0 0 0 0 0 
0 0 0 0 0 0 
0 0 0 0 0 0 
0 0 0 0 0 0 
0 0 0 0 0 0 
0 0 0 0 0 0 
0 0 0 0 0 0 
0 0 0 0 0 0 
0 0 0 0 0 0 
0 0 0 0 0 0 
0 0 0 0 0 0 
0 0 0 0 0 0 
0 0 0 0 0 0 
0 0 0 0 0 0 
0 0 0 0 0 0 
0 0 0 0 0 0 
0 0 0 0 0 0 
0 0 0 0 0 0 
0 0 0 0 0 0 
0 0 0 0 0 0 
0 0 0 0 0 0 
0 0 0 0 0 0 
0 0 0 0 0 0 
0 0 0 0 0 0 
0 0 0 0 0 0 
-0.2313945689419761 -0.2076180535225965 -0.5896109580593585 0.5921163079890189 -0.1002849341321562 0.9745682058674346 
0 0 0 0 0 0 
0 0 0 0 0 0 
0 0 0 0 0 0 
0 0 0 0 0 0 
0 0 0 0 0 0 
0 0 0 0 0 0 
0 0 0 0 0 0 
0 0 0 0 0 0 
0 0 0 0 0 0 
0 0 0 0 0 0 
0 0 0 0 0 0 
0 0 0 0 0 0 
0 0 0 0 0 0 
0 0 0 0 0 0 
0 0 0 0 0 0 
0 0 0 0 0 0 
0 0 0 0 0 0 
0 0 0 0 0 0 
0 0 0 0 0 0 
0 0 0 0 0 0 
0 0 0 0 0 0 
0 0 0 0 0 0 
-0.5664676765766427 2.018572170365872 -0.7438126780506594 0.04592704751957959 -0.9805989398210093 -1.150579388123600 
0 0 0 0 0 0 
0 0 0 0 0 0 
0 0 0 0 0 0 
0 0 0 0 0 0 
-0.3311264266906314 -0.3985494518773132 0.2722712068268516 -0.2700897922085871 0.6173171064987006 0.6225312419494813 
0 0 0 0 0 0 
0 0 0 0 0 0 
0 0 0 0 0 0 
0 0 0 0 0 0 
0 0 0 0 0 0 
0 0 0 0 0 0 
0 0 0 0 0 0 
0 0 0 0 0 0 
-0.2476737269287162 -0.01852401479487310 -0.08803340644385513 -0.3439703403150941 -0.02196690942521034 0.5514027126970863 
0 0 0 0 0 0 
0 0 0 0 0 0 
0 0 0 0 0 0 
0 0 0 0 0 0 
0 0 0 0 0 0 
0 0 0 0 0 0 
0 0 0 0 0 0 
0 0 0 0 0 0 
0 0 0 0 0 0 
0 0 0 0 0 0 
0 0 0 0 0 0 
0 0 0 0 0 0 
0 0 0 0 0 0 
0 0 0 0 0 0 
0 0 0 0 0 0 
0 0 0 0 0 0 
0 0 0 0 0 0 
0 0 0 0 0 0 
0 0 0 0 0 0 
0 0 0 0 0 0 
0 0 0 0 0 0 
0 0 0 0 0 0 
0 0 0 0 0 0 
0 0 0 0 0 0 
0 0 0 0 0 0 
0 0 0 0 0 0 
0 0 0 0 0 0 
0 0 0 0 0 0 
0 0 0 0 0 0 
0 0 0 0 0 0 
0 0 0 0 0 0 
0 0 0 0 0 0 
0 0 0 0 0 0 
0 0 0 0 0 0 
0 0 0 0 0 0 
-0.0002113480853166538 -0.0008705262158965668 -0.004745613590006802 -0.01193525819675844 0.001666855082688165 -0.0004684854897334433 
0 0 0 0 0 0 
0 0 0 0 0 0 
0 0 0 0 0 0 
0 0 0 0 0 0 
0 0 0 0 0 0 
0 0 0 0 0 0 
0 0 0 0 0 0 
0 0 0 0 0 0 
0 0 0 0 0 0 
0 0 0 0 0 0 
0 0 0 0 0 0 
0 0 0 0 0 0 
0 0 0 0 0 0 
-0.01041197247139262 -0.01225823721307648 0.2086693217419762 -0.05550513917807746 -0.01853246994362364 -0.04898421183216106 
0 0 0 0 0 0 
0 0 0 0 0 0 
0 0 0 0 0 0 
-0.7421428043138529 -0.6099301377642705 0.7685858575090758 0.09955233720178014 0.09152735710364111 -0.7910229575293927 
0 0 0 0 0 0 
0 0 0 0 0 0 
0 0 0 0 0 0 
0 0 0 0 0 0 
0 0 0 0 0 0 
0 0 0 0 0 0 
0 0 0 0 0 0 
0 0 0 0 0 0 
0 0 0 0 0 0 
0 0 0 0 0 0 
0 0 0 0 0 0 
0 0 0 0 0 0 
0 0 0 0 0 0 
-0.09756539261593766 -0.03531405781015962 -0.1799031975853069 -0.1048192552708557 -0.04535456358772934 0.4175714929844399 
0 0 0 0 0 0 
0 0 0 0 0 0 
0 0 0 0 0 0 
0 0 0 0 0 0 
0 0 0 0 0 0 
0 0 0 0 0 0 
0 0 0 0 0 0 
0 0 0 0 0 0 
0 0 0 0 0 0 
0 0 0 0 0 0 
0 0 0 0 0 0 
0 0 0 0 0 0 
0 0 0 0 0 0 
0 0 0 0 0 0 
0 0 0 0 0 0 
0 0 0 0 0 0 
0 0 0 0 0 0 
0 0 0 0 0 0 
0 0 0 0 0 0 
0 0 0 0 0 0 
0 0 0 0 0 0 
0 0 0 0 0 0 
0 0 0 0 0 0 
0 0 0 0 0 0 
0 0 0 0 0 0 
0 0 0 0 0 0 
0 0 0 0 0 0 
0 0 0 0 0 0 
0 0 0 0 0 0 
0 0 0 0 0 0 
0 0 0 0 0 0 
0 0 0 0 0 0 
0 0 0 0 0 0 
0 0 0 0 0 0 
0 0 0 0 0 0 
0 0 0 0 0 0 
0 0 0 0 0 0 
0 0 0 0 0 0 
0 0 0 0 0 0 
0 0 0 0 0 0 
0 0 0 0 0 0 
0 0 0 0 0 0 
0 0 0 0 0 0 
0 0 0 0 0 0 
0 0 0 0 0 0 
0 0 0 0 0 0 
0 0 0 0 0 0 
0 0 0 0 0 0 
0 0 0 0 0 0 
0 0 0 0 0 0 
0 0 0 0 0 0 
0 0 0 0 0 0 
0 0 0 0 0 0 
0 0 0 0 0 0 
0 0 0 0 0 0 
0 0 0 0 0 0 
0 0 0 0 0 0 
-0.1775401039290075 -0.04334862399353036 -0.06445401062236500 -0.3211603326106714 -0.04910455136101877 0.5078235727012844 
0 0 0 0 0 0 
0 0 0 0 0 0 
0 0 0 0 0 0 
0 0 0 0 0 0 
0 0 0 0 0 0 
0 0 0 0 0 0 
0 0 0 0 0 0 
0 0 0 0 0 0 
0 0 0 0 0 0 
0 0 0 0 0 0 
0 0 0 0 0 0 
0 0 0 0 0 0 
0 0 0 0 0 0 
0 0 0 0 0 0 
0 0 0 0 0 0 
0 0 0 0 0 0 
0 0 0 0 0 0 
0 0 0 0 0 0 
0 0 0 0 0 0 
0 0 0 0 0 0 
0 0 0 0 0 0 
0 0 0 0 0 0 
0 0 0 0 0 0 
0 0 0 0 0 0 
0 0 0 0 0 0 
0 0 0 0 0 0 
0 0 0 0 0 0 
0 0 0 0 0 0 
0 0 0 0 0 0 
0 0 0 0 0 0 
0 0 0 0 0 0 
0 0 0 0 0 0 
0 0 0 0 0 0 
0 0 0 0 0 0 
0 0 0 0 0 0 
0 0 0 0 0 0 
0 0 0 0 0 0 
0 0 0 0 0 0 
0 0 0 0 0 0 
0 0 0 0 0 0 
0 0 0 0 0 0 
0 0 0 0 0 0 
0 0 0 0 0 0 
0 0 0 0 0 0 
0 0 0 0 0 0 
0 0 0 0 0 0 
0 0 0 0 0 0 
0 0 0 0 0 0 
0 0 0 0 0 0 
0 0 0 0 0 0 
0 0 0 0 0 0 
0 0 0 0 0 0 
0 0 0 0 0 0 
0 0 0 0 0 0 
0 0 0 0 0 0 
0 0 0 0 0 0 
0 0 0 0 0 0 
0 0 0 0 0 0 
0 0 0 0 0 0 
0 0 0 0 0 0 
0 0 0 0 0 0 
0 0 0 0 0 0 
0 0 0 0 0 0 
0 0 0 0 0 0 
0 0 0 0 0 0 
0 0 0 0 0 0 
0 0 0 0 0 0 
0 0 0 0 0 0 
0 0 0 0 0 0 
-0.03195722849768441 -0.01128934394498583 -0.05958805852805675 -0.03804038009060824 -0.01628542623249219 0.03053332412086516 
0 0 0 0 0 0 
0 0 0 0 0 0 
0 0 0 0 0 0 
0 0 0 0 0 0 
0 0 0 0 0 0 
0 0 0 0 0 0 
0 0 0 0 0 0 
0 0 0 0 0 0 
0 0 0 0 0 0 
0 0 0 0 0 0 
0 0 0 0 0 0 
0 0 0 0 0 0 
0 0 0 0 0 0 
0 0 0 0 0 0 
0 0 0 0 0 0 
0 0 0 0 0 0 
0 0 0 0 0 0 
0 0 0 0 0 0 
0 0 0 0 0 0 
0 0 0 0 0 0 
0 0 0 0 0 0 
0 0 0 0 0 0 
-0.09673047971579529 -0.009012189365565398 -0.006594536708149750 -0.02114593281510904 -0.02033876314083676 0.06541402850958211 
0 0 0 0 0 0 
0 0 0 0 0 0 
0 0 0 0 0 0 
0 0 0 0 0 0 
0 0 0 0 0 0 
0 0 0 0 0 0 
0 0 0 0 0 0 
0 0 0 0 0 0 
0 0 0 0 0 0 
0 0 0 0 0 0 
0 0 0 0 0 0 
0 0 0 0 0 0 
0 0 0 0 0 0 
0 0 0 0 0 0 
0 0 0 0 0 0 
0 0 0 0 0 0 
0 0 0 0 0 0 
0 0 0 0 0 0 
0 0 0 0 0 0 
0 0 0 0 0 0 
0 0 0 0 0 0 
0 0 0 0 0 0 
0 0 0 0 0 0 
0 0 0 0 0 0 
0 0 0 0 0 0 
0 0 0 0 0 0 
0 0 0 0 0 0 
0 0 0 0 0 0 
0 0 0 0 0 0 
0 0 0 0 0 0 
0 0 0 0 0 0 
0 0 0 0 0 0 
0 0 0 0 0 0 
0 0 0 0 0 0 
0 0 0 0 0 0 
0 0 0 0 0 0 
0 0 0 0 0 0 
0 0 0 0 0 0 
0 0 0 0 0 0 
0 0 0 0 0 0 
-1.450367133763997 -0.05218561926168712 -0.3356173335628240 0.8399928845246774 0.03027907997384387 -0.8579687274703031 
0 0 0 0 0 0 
0 0 0 0 0 0 
0 0 0 0 0 0 
0 0 0 0 0 0 
0 0 0 0 0 0 
0 0 0 0 0 0 
0 0 0 0 0 0 
0 0 0 0 0 0 
0 0 0 0 0 0 
0 0 0 0 0 0 
0 0 0 0 0 0 
-0.01137840589404442 -0.01651751138136542 0.2774272442732065 -0.3244785811510543 -0.02693651754520473 -0.06230274091505301 
0 0 0 0 0 0 
0 0 0 0 0 0 
0 0 0 0 0 0 
0 0 0 0 0 0 
0 0 0 0 0 0 
0 0 0 0 0 0 
0 0 0 0 0 0 
0 0 0 0 0 0 
0 0 0 0 0 0 
0 0 0 0 0 0 
0 0 0 0 0 0 
0 0 0 0 0 0 
0 0 0 0 0 0 
0 0 0 0 0 0 
0 0 0 0 0 0 
0 0 0 0 0 0 
0 0 0 0 0 0 
0 0 0 0 0 0 
0 0 0 0 0 0 
0 0 0 0 0 0 
0 0 0 0 0 0 
0 0 0 0 0 0 
0 0 0 0 0 0 
0 0 0 0 0 0 
0 0 0 0 0 0 
0 0 0 0 0 0 
0 0 0 0 0 0 
0 0 0 0 0 0 
0 0 0 0 0 0 
0 0 0 0 0 0 
0 0 0 0 0 0 
0 0 0 0 0 0 
0 0 0 0 0 0 
0 0 0 0 0 0 
-0.02795382508699596 -0.003553389826072188 -0.1392473165246705 -0.3170710059241234 0.1989222868134731 0.2487032821728535 
0 0 0 0 0 0 
0 0 0 0 0 0 
0 0 0 0 0 0 
0 0 0 0 0 0 
0 0 0 0 0 0 
0 0 0 0 0 0 
0 0 0 0 0 0 
0 0 0 0 0 0 
-0.02514344011975147 -0.02789635021184497 -0.08397958575391015 -0.01836479238100780 0.002891390312979156 0.0008082581382934022 
0 0 0 0 0 0 
0 0 0 0 0 0 
0 0 0 0 0 0 
0 0 0 0 0 0 
0 0 0 0 0 0 
0 0 0 0 0 0 
0 0 0 0 0 0 
0 0 0 0 0 0 
0 0 0 0 0 0 
0 0 0 0 0 0 
0 0 0 0 0 0 
0 0 0 0 0 0 
0 0 0 0 0 0 
0 0 0 0 0 0 
0 0 0 0 0 0 
0 0 0 0 0 0 
0 0 0 0 0 0 
0 0 0 0 0 0 
0 0 0 0 0 0 
0 0 0 0 0 0 
0 0 0 0 0 0 
0 0 0 0 0 0 
0 0 0 0 0 0 
0 0 0 0 0 0 
0 0 0 0 0 0 
0 0 0 0 0 0 
0 0 0 0 0 0 
0 0 0 0 0 0 
0 0 0 0 0 0 
0 0 0 0 0 0 
0 0 0 0 0 0 
0 0 0 0 0 0 
0 0 0 0 0 0 
0 0 0 0 0 0 
0 0 0 0 0 0 
0 0 0 0 0 0 
0 0 0 0 0 0 
0 0 0 0 0 0 
-0.5945487027591244 -0.3915230725715763 -0.04252502771415339 -0.02891134382292633 -0.003152948398026757 0.9246612183427015 
0 0 0 0 0 0 
0 0 0 0 0 0 
0 0 0 0 0 0 
0 0 0 0 0 0 
0 0 0 0 0 0 
0 0 0 0 0 0 
0 0 0 0 0 0 
0 0 0 0 0 0 
0 0 0 0 0 0 
0 0 0 0 0 0 
0 0 0 0 0 0 
0 0 0 0 0 0 
0 0 0 0 0 0 
0 0 0 0 0 0 
0 0 0 0 0 0 
0 0 0 0 0 0 
0 0 0 0 0 0 
0 0 0 0 0 0 
0 0 0 0 0 0 
0 0 0 0 0 0 
0 0 0 0 0 0 
0 0 0 0 0 0 
0 0 0 0 0 0 
0 0 0 0 0 0 
0 0 0 0 0 0 
0 0 0 0 0 0 
0 0 0 0 0 0 
0 0 0 0 0 0 
0 0 0 0 0 0 
0 0 0 0 0 0 
0 0 0 0 0 0 
0 0 0 0 0 0 
0 0 0 0 0 0 
0 0 0 0 0 0 
0 0 0 0 0 0 
0 0 0 0 0 0 
0 0 0 0 0 0 
0 0 0 0 0 0 
0 0 0 0 0 0 
0 0 0 0 0 0 
0 0 0 0 0 0 
0 0 0 0 0 0 
0 0 0 0 0 0 
0 0 0 0 0 0 
0 0 0 0 0 0 
0 0 0 0 0 0 
0 0 0 0 0 0 
0 0 0 0 0 0 
0 0 0 0 0 0 
0 0 0 0 0 0 
0 0 0 0 0 0 
0 0 0 0 0 0 
0 0 0 0 0 0 
1.227717930956563 0.3390695079252649 -1.020038594676663 -0.7088137836090019 0.6906581190443056 -0.6078420214565315 
0 0 0 0 0 0 
0 0 0 0 0 0 
0 0 0 0 0 0 
0 0 0 0 0 0 
0 0 0 0 0 0 
0 0 0 0 0 0 
0 0 0 0 0 0 
0 0 0 0 0 0 
0 0 0 0 0 0 
0 0 0 0 0 0 
0 0 0 0 0 0 
0 0 0 0 0 0 
-0.6459811832863046 -0.7425023992631552 -0.4554670015042082 -0.6577603543736527 -0.8965857047665010 -0.005635801203961036 
0 0 0 0 0 0 
0 0 0 0 0 0 
0 0 0 0 0 0 
0 0 0 0 0 0 
0 0 0 0 0 0 
0 0 0 0 0 0 
0 0 0 0 0 0 
0 0 0 0 0 0 
0 0 0 0 0 0 
0 0 0 0 0 0 
0 0 0 0 0 0 
0 0 0 0 0 0 
0 0 0 0 0 0 
0 0 0 0 0 0 
0 0 0 0 0 0 
0 0 0 0 0 0 
0 0 0 0 0 0 
0 0 0 0 0 0 
0 0 0 0 0 0 
0 0 0 0 0 0 
0 0 0 0 0 0 
0 0 0 0 0 0 
0 0 0 0 0 0 
0 0 0 0 0 0 
0 0 0 0 0 0 
0 0 0 0 0 0 
0 0 0 0 0 0 
0 0 0 0 0 0 
0 0 0 0 0 0 
0 0 0 0 0 0 
0 0 0 0 0 0 
0 0 0 0 0 0 
0 0 0 0 0 0 
0 0 0 0 0 0 
0 0 0 0 0 0 
0 0 0 0 0 0 
0 0 0 0 0 0 
-0.3741729135868711 -0.2791163779320884 -0.6595828436224290 -0.3959424754981409 -0.2308905439483896 1.007810643379928 
0 0 0 0 0 0 
0 0 0 0 0 0 
0 0 0 0 0 0 
0 0 0 0 0 0 
0 0 0 0 0 0 
0 0 0 0 0 0 
0 0 0 0 0 0 
0 0 0 0 0 0 
0 0 0 0 0 0 
0 0 0 0 0 0 
0 0 0 0 0 0 
0 0 0 0 0 0 
0 0 0 0 0 0 
0 0 0 0 0 0 
0 0 0 0 0 0 
0 0 0 0 0 0 
0 0 0 0 0 0 
0 0 0 0 0 0 
0 0 0 0 0 0 
0 0 0 0 0 0 
0 0 0 0 0 0 
0 0 0 0 0 0 
0 0 0 0 0 0 
0 0 0 0 0 0 
0 0 0 0 0 0 
0 0 0 0 0 0 
0 0 0 0 0 0 
0 0 0 0 0 0 
0 0 0 0 0 0 
0 0 0 0 0 0 
0 0 0 0 0 0 
0 0 0 0 0 0 
0 0 0 0 0 0 
0 0 0 0 0 0 
0.2406136571654866 -0.2937439517078157 -0.07950763453653868 0.04058488256843557 -0.2780528998520790 -0.1134811400429984 
0 0 0 0 0 0 
0 0 0 0 0 0 
0 0 0 0 0 0 
0 0 0 0 0 0 
0 0 0 0 0 0 
0 0 0 0 0 0 
0 0 0 0 0 0 
0 0 0 0 0 0 
-0.4499978991392715 0.5589796474475285 -1.085825376161919 0.8242951563337183 -0.05510919098066724 -0.7225162159850895 
-0.2582264303108716 -0.001235128944941757 -0.01837781490997742 -0.08385460901082337 -0.006139086149131367 0.6555704460441796 
0 0 0 0 0 0 
0 0 0 0 0 0 
0 0 0 0 0 0 
0 0 0 0 0 0 
-0.02262070171342313 -0.02878633337516524 -0.3640736556657664 -0.1778290394436027 -0.04316114173359326 0.4304859002124460 
0 0 0 0 0 0 
0 0 0 0 0 0 
0 0 0 0 0 0 
0 0 0 0 0 0 
0 0 0 0 0 0 
0 0 0 0 0 0 
0 0 0 0 0 0 
0 0 0 0 0 0 
0 0 0 0 0 0 
0 0 0 0 0 0 
0 0 0 0 0 0 
-0.006385680324492218 -0.006954444986847540 -0.3165535913236409 -0.05307437800399110 0.3202315844176834 -0.004402863474622484 
0 0 0 0 0 0 
0 0 0 0 0 0 
0 0 0 0 0 0 
0 0 0 0 0 0 
0 0 0 0 0 0 
0 0 0 0 0 0 
0 0 0 0 0 0 
0 0 0 0 0 0 
0 0 0 0 0 0 
0 0 0 0 0 0 
0 0 0 0 0 0 
0 0 0 0 0 0 
0 0 0 0 0 0 
0 0 0 0 0 0 
0 0 0 0 0 0 
0 0 0 0 0 0 
-0.01098412765742528 0.02467465662945803 -0.1545350670590839 -0.05591327291322905 0.07889378254882616 -0.005112048114651576 
0 0 0 0 0 0 
0 0 0 0 0 0 
0 0 0 0 0 0 
0 0 0 0 0 0 
0 0 0 0 0 0 
0 0 0 0 0 0 
0 0 0 0 0 0 
0 0 0 0 0 0 
0 0 0 0 0 0 
0 0 0 0 0 0 
0 0 0 0 0 0 
0 0 0 0 0 0 
0 0 0 0 0 0 
0 0 0 0 0 0 
0 0 0 0 0 0 
-0.1103132337041232 -0.2194433746229210 -0.04891853045053241 0.2351813453858904 -0.4879139501490162 -0.5892506582866196 
0 0 0 0 0 0 
0 0 0 0 0 0 
0 0 0 0 0 0 
0 0 0 0 0 0 
0 0 0 0 0 0 
0 0 0 0 0 0 
0 0 0 0 0 0 
0 0 0 0 0 0 
0 0 0 0 0 0 
0 0 0 0 0 0 
0 0 0 0 0 0 
0 0 0 0 0 0 
0 0 0 0 0 0 
0 0 0 0 0 0 
0 0 0 0 0 0 
0 0 0 0 0 0 
0 0 0 0 0 0 
0 0 0 0 0 0 
0 0 0 0 0 0 
0 0 0 0 0 0 
0 0 0 0 0 0 
0 0 0 0 0 0 
0 0 0 0 0 0 
0 0 0 0 0 0 
0 0 0 0 0 0 
0 0 0 0 0 0 
0 0 0 0 0 0 
0 0 0 0 0 0 
0 0 0 0 0 0 
0 0 0 0 0 0 
0 0 0 0 0 0 
0 0 0 0 0 0 
0 0 0 0 0 0 
0 0 0 0 0 0 
0 0 0 0 0 0 
0 0 0 0 0 0 
0 0 0 0 0 0 
0 0 0 0 0 0 
0 0 0 0 0 0 
0 0 0 0 0 0 
0 0 0 0 0 0 
0 0 0 0 0 0 
0 0 0 0 0 0 
0 0 0 0 0 0 
0 0 0 0 0 0 
0 0 0 0 0 0 
0 0 0 0 0 0 
0 0 0 0 0 0 
0 0 0 0 0 0 
0 0 0 0 0 0 
0 0 0 0 0 0 
0 0 0 0 0 0 
-0.03303412313444195 -0.02330248667423987 -0.2397016828359859 -0.1938257220225977 -0.03042765262093677 0.3872195589151106 
0 0 0 0 0 0 
0 0 0 0 0 0 
0 0 0 0 0 0 
0 0 0 0 0 0 
0 0 0 0 0 0 
0 0 0 0 0 0 
0 0 0 0 0 0 
0 0 0 0 0 0 
0 0 0 0 0 0 
0 0 0 0 0 0 
0 0 0 0 0 0 
0 0 0 0 0 0 
0 0 0 0 0 0 
0 0 0 0 0 0 
0 0 0 0 0 0 
0 0 0 0 0 0 
0 0 0 0 0 0 
0 0 0 0 0 0 
0 0 0 0 0 0 
0 0 0 0 0 0 
0 0 0 0 0 0 
0 0 0 0 0 0 
0 0 0 0 0 0 
0 0 0 0 0 0 
0 0 0 0 0 0 
0 0 0 0 0 0 
0 0 0 0 0 0 
0 0 0 0 0 0 
-0.05534939717114906 -0.05479053278270197 -0.4232552430999729 -0.1370180843268224 -0.05854063657810394 0.4430898908880451 
0 0 0 0 0 0 
0 0 0 0 0 0 
0 0 0 0 0 0 
0 0 0 0 0 0 
0 0 0 0 0 0 
0 0 0 0 0 0 
-0.06101676366674061 -0.1275208615029790 -0.2375824345959099 -0.1581627700027794 -0.08408767434157464 0.2780502449368046 
0 0 0 0 0 0 
0 0 0 0 0 0 
0 0 0 0 0 0 
0 0 0 0 0 0 
0 0 0 0 0 0 
0 0 0 0 0 0 
0 0 0 0 0 0 
0 0 0 0 0 0 
0 0 0 0 0 0 
0 0 0 0 0 0 
0 0 0 0 0 0 
0 0 0 0 0 0 
0 0 0 0 0 0 
0 0 0 0 0 0 
0 0 0 0 0 0 
0 0 0 0 0 0 
0 0 0 0 0 0 
0 0 0 0 0 0 
0 0 0 0 0 0 
0 0 0 0 0 0 
0 0 0 0 0 0 
0 0 0 0 0 0 
0 0 0 0 0 0 
0 0 0 0 0 0 
0 0 0 0 0 0 
0 0 0 0 0 0 
0 0 0 0 0 0 
0 0 0 0 0 0 
0 0 0 0 0 0 
0 0 0 0 0 0 
0 0 0 0 0 0 
0 0 0 0 0 0 
0 0 0 0 0 0 
0 0 0 0 0 0 
0 0 0 0 0 0 
0 0 0 0 0 0 
0 0 0 0 0 0 
0 0 0 0 0 0 
0 0 0 0 0 0 
0 0 0 0 0 0 
0.1577446705205327 -0.08569192772736124 -0.3530871877303705 -0.2948088487472234 -0.09171977993778300 0.4738442199426513 
0 0 0 0 0 0 
0 0 0 0 0 0 
0 0 0 0 0 0 
0 0 0 0 0 0 
0 0 0 0 0 0 
0 0 0 0 0 0 
0 0 0 0 0 0 
0 0 0 0 0 0 
0 0 0 0 0 0 
0 0 0 0 0 0 
0 0 0 0 0 0 
-0.01098412765742528 0.02467465662945803 -0.1545350670590839 -0.05591327291322905 0.07889378254882616 -0.005112048114651576 
0 0 0 0 0 0 
0 0 0 0 0 0 
0 0 0 0 0 0 
0 0 0 0 0 0 
0 0 0 0 0 0 
0 0 0 0 0 0 
0.2374009153376822 -0.03064155629054093 -0.2873159763257330 -0.2851818481679911 -0.07530463237064264 0.2653738755192226 
0 0 0 0 0 0 
0 0 0 0 0 0 
-0.09893482781007984 -0.2029258632415559 -0.3263457747237359 0.5596599265369436 -0.4609774326038115 -0.5269479173715665 
0 0 0 0 0 0 
0 0 0 0 0 0 
0 0 0 0 0 0 
0 0 0 0 0 0 
0 0 0 0 0 0 
0 0 0 0 0 0 
0 0 0 0 0 0 
0 0 0 0 0 0 
0 0 0 0 0 0 
0 0 0 0 0 0 
0 0 0 0 0 0 
0 0 0 0 0 0 
0 0 0 0 0 0 
0 0 0 0 0 0 
0 0 0 0 0 0 
0 0 0 0 0 0 
0 0 0 0 0 0 
0 0 0 0 0 0 
0 0 0 0 0 0 
0 0 0 0 0 0 
0 0 0 0 0 0 
0 0 0 0 0 0 
0 0 0 0 0 0 
0 0 0 0 0 0 
0 0 0 0 0 0 
0 0 0 0 0 0 
0 0 0 0 0 0 
0 0 0 0 0 0 
0 0 0 0 0 0 
0 0 0 0 0 0 
0 0 0 0 0 0 
-0.09893482781007984 -0.2029258632415559 -0.3263457747237359 0.5596599265369436 -0.4609774326038115 -0.5269479173715665 
0 0 0 0 0 0 
0 0 0 0 0 0 
0 0 0 0 0 0 
0 0 0 0 0 0 
0 0 0 0 0 0 
0 0 0 0 0 0 
0 0 0 0 0 0 
0 0 0 0 0 0 
0 0 0 0 0 0 
0 0 0 0 0 0 
0 0 0 0 0 0 
0 0 0 0 0 0 
0 0 0 0 0 0 
-0.01098412765742528 0.02467465662945803 -0.1545350670590839 -0.05591327291322905 0.07889378254882616 -0.005112048114651576 
0 0 0 0 0 0 
0 0 0 0 0 0 
0 0 0 0 0 0 
0 0 0 0 0 0 
0 0 0 0 0 0 
0 0 0 0 0 0 
0 0 0 0 0 0 
0 0 0 0 0 0 
0 0 0 0 0 0 
0 0 0 0 0 0 
0 0 0 0 0 0 
0 0 0 0 0 0 
0 0 0 0 0 0 
0 0 0 0 0 0 
0 0 0 0 0 0 
0 0 0 0 0 0 
0 0 0 0 0 0 
0 0 0 0 0 0 
0 0 0 0 0 0 
-0.06101676366674061 -0.1275208615029790 -0.2375824345959099 -0.1581627700027794 -0.08408767434157464 0.2780502449368046 
0 0 0 0 0 0 
0 0 0 0 0 0 
-0.1335592564213844 -0.5728603296399041 -0.7390904781589682 -0.3553575929297055 -0.5089434438004686 0.8943295033369321 
0 0 0 0 0 0 
0 0 0 0 0 0 
0 0 0 0 0 0 
0 0 0 0 0 0 
0 0 0 0 0 0 
0 0 0 0 0 0 
0 0 0 0 0 0 
0 0 0 0 0 0 
0 0 0 0 0 0 
0 0 0 0 0 0 
0 0 0 0 0 0 
0 0 0 0 0 0 
0 0 0 0 0 0 
0 0 0 0 0 0 
0 0 0 0 0 0 
0 0 0 0 0 0 
0 0 0 0 0 0 
0 0 0 0 0 0 
0 0 0 0 0 0 
0 0 0 0 0 0 
0 0 0 0 0 0 
0 0 0 0 0 0 
0 0 0 0 0 0 
0 0 0 0 0 0 
0 0 0 0 0 0 
0 0 0 0 0 0 
0 0 0 0 0 0 
0.09475802000290781 -0.003979319827182053 -0.03920342482759903 -0.09678493795790458 -0.002850697796235439 -0.1138365144328320 
0 0 0 0 0 0 
0 0 0 0 0 0 
-0.07718272290025234 -0.3789430330434020 0.1586335717790392 0.1675160979691037 0.09412072704213220 -0.7476415251718208 
-0.2450150393952610 -0.02563268697270955 -0.3325424509495187 -1.059860391988279 -0.3203813144086220 1.308740140125201 
0.1324237257236980 -0.2259416804008211 0.1385599048750878 0.06369243323756586 -0.1190470824098558 -0.8453783661626830 
-0.1063368958911359 0.3391704904274377 -0.5870046391130074 -0.02262533718209247 -0.01682153037313846 -0.1967245452693186 
0 0 0 0 0 0 
-0.1117098468473977 -0.5299263339814007 0.6595344341684497 -0.3987268815280827 -0.5122346273455388 0.9888846058062385 
-0.008102334598401826 0.2109010881121158 -0.5249021953260274 0.2024790825271741 -0.02452310925327690 -0.1285734957976695 
-0.09688407881763547 -0.3946181822171995 -0.02332423714240880 0.4679068364686361 -0.006660169278434745 -0.1689426049917452 
0 0 0 0 0 0 
-0.07198981675671788 0.2988890548612659 -0.06137328250713126 -0.9100702386907409 0.7571440255225934 -0.06649529770149110 
0.1208139221223106 0.2203305984754532 -0.1168150285332724 -0.8378660156368173 0.3579425203846596 -0.1159223876400926 
-0.01099779941867566 -0.02459924323161121 0.2092449663548663 0.2330065590148053 -0.1885850150228936 -0.06989437907746915 
0.005872494190673968 -0.02430320134873437 -0.3242812111885626 1.030107004625997 -0.2766866913875573 -0.2890189549543517 
-0.1634677724822364 -0.1996686518895091 -0.02699241764179251 -0.3159986423976375 0.003999921041293762 0.3801461193717682 
-0.007945213529657241 -0.003921912159064348 0.4521510338193421 0.01258556076493461 -0.07960644328991333 -0.02747835315075447 
0 0 0 0 0 0 
0 0 0 0 0 0 
0 0 0 0 0 0 
0 0 0 0 0 0 
-0.005459804685622401 -0.004238705894986019 -0.07635545009927326 0.7100935784418052 -0.5652469159879410 -0.02733675658978158 
0 0 0 0 0 0 
0 0 0 0 0 0 
0 0 0 0 0 0 
-0.7651931816425249 -0.4330904577319842 -0.03395644757924585 -0.2354719185619473 0.2951184966748558 -0.01979991254916732 
0 0 0 0 0 0 
-0.6771513054387116 -0.07314111446018147 0.4532710168723095 -0.2869950690790188 -1.041517971650654 0.2628773829442798 
0 0 0 0 0 0 
0 0 0 0 0 0 
0.8033392174571371 -0.2397427816590160 -0.2637280232691204 -0.4846911442274562 -0.06665019236752973 -0.2377904926247519 
0 0 0 0 0 0 
0 0 0 0 0 0 
0 0 0 0 0 0 
0 0 0 0 0 0 
0 0 0 0 0 0 
-0.003495179578535901 0.007784994068666666 -0.0004068066338082361 -0.05693679912337255 -0.02289738708683787 -0.001681869165667537 
-0.0005590723764188882 -0.0009502127493676226 -0.01076378577918190 -0.02090774855815355 0.01322988896148251 -0.001090149100907951 
0 0 0 0 0 0 
-0.002921661707253367 -0.003362826731277000 -0.5998829551151480 0.4272423251763178 -0.07386853929780740 -0.008150760707757016 
0 0 0 0 0 0 
0 0 0 0 0 0 
0 0 0 0 0 0 
0 0 0 0 0 0 
0 0 0 0 0 0 
0 0 0 0 0 0 
0 0 0 0 0 0 
0 0 0 0 0 0 
