solver_type L2R_LR
nr_class 3
label 1 2 3
nr_feature 2097
bias 0.000000000000000
w
0.3152045319549623 -0.2633246865392561 -0.03568303442959512 
0.09608648919830351 -0.5678517387946831 0.5443276156025365 
0.1892172312259875 -0.5343493739765186 0.2648692919732826 
-0.1011266343256871 0.3010220379116619 -0.4587689368998412 
0.3079796760579054 -0.5284964804811664 0.2529614866680888 
0.8224793774705176 -0.5847842921601560 -0.1778394032035822 
0.1615077624189563 -1.576646688377194 1.322091621612541 
0.01264992923124719 -0.1977088885081158 0.4966395597025974 
0.4176549073249791 -0.4794141778701415 0.05833792767688453 
0.5930619796015517 -0.5015311283347902 0.1338628638592026 
0.1297904801642487 0.03373775721345332 -0.02252672959114935 
0.02360952390009595 -0.2528817939261857 0.1578876530017206 
-0.3638362704759874 0.7836434484532762 -0.8090140562396734 
0.5696103064875160 -0.7533148032152235 0.1802564451534071 
-0.1818727398914747 -0.9600597581025613 0.8274274436008150 
-0.1204706007409339 -0.2804687794907698 0.2226390045600263 
0.2570466982125792 -0.1576184615426645 -0.3596374019956728 
0.5115081458381200 -0.6105137777916014 -0.02210996665263390 
0.009579761185295490 0.7336149052245855 -0.8103487392344154 
-0.2305129332624265 0.4016979281297775 -0.2052325756571959 
-0.03691139566360118 0.2549047113058997 -0.3238260448869480 
0.2747845423108827 -0.1313688158398591 -0.2167521242943327 
-0.06748719824534550 0.8013782266509970 -0.9876417376121394 
0.1061849484571250 -0.2987836051312516 0.3205534718481581 
0.1764373183033848 -0.2577774546745527 0.1266032732540361 
-0.3137265168952027 0.1682199357890380 0.06961824546156818 
0.09087639734123507 0.06382793779563392 -0.2310827768409836 
-0.1352815219177542 -0.1319046386757420 0.02933907697980101 
0.02778757933611332 0.2981369937566300 -0.4384811651999829 
0.1822608487617042 -0.04797790093950763 -0.4131265732858150 
-0.06979523593952781 -0.1926272951890469 0.2767550122329436 
0.06494935784652524 -0.7150213712247546 0.5013375243793932 
-0.2650523063684199 0.1748860533804653 -0.1167757151235145 
0.04894619682694703 -0.9076152546821028 0.6455827293015630 
-0.2515401089906383 0.7547473960111386 -0.5918910456507908 
0.05136239934114403 0.6132619960191861 -0.7481168371641407 
0.4110768654781198 -0.3511973862170663 -0.03463563769404969 
0.04807499179453892 0.05951112099511755 -0.1541069851632928 
-0.2755555184107198 -0.2304911441635111 0.3089105110626396 
0.2891412724651774 -0.3699253523350801 0.2541428769137705 
0.1034481102569103 0.07223495821601733 -0.3926736021724129 
0.07682220080333219 -0.08938333042767440 -0.1488375010339909 
0.05017965777526846 -0.01838092171427797 -0.2426862222054261 
0.06025486290207266 -0.4434074847386901 0.2984300646465620 
-0.04056199223278161 0.01545761131162065 -0.02599875414156917 
-0.04656687536516701 0.005440974242815708 -0.03133057395069355 
0.1948645538815443 -0.1172787349368012 -0.2575290834880519 
0.3264855324013485 0.05318026629117584 -0.4154236022550399 
0.04224405226265866 -0.02490955859113464 0.07378996524454778 
0.1165642674993364 -0.1890989312814940 0.1121405015197449 
0.1134929937137547 -0.4225314353630676 0.2507805243070491 
0.2984130577196522 -0.09553516938104419 -0.04832240740978918 
0.07552979926321556 -0.4076629999213706 0.1179451840720978 
0.03769017615623122 -0.4302188299344635 0.3686528109064695 
0.2304429327622821 -0.05379237459489830 -0.3773150190917020 
0.1711267541561864 -0.05580203484292318 -0.1699747283550654 
0.01708054655791357 0.2891309284126439 -0.3143445504284687 
0.02949422982473894 0.04283841463547330 -0.2721463449321139 
-0.07561551484319685 -0.08598256579064080 0.07792385072750908 
0.1549041592329805 -0.04834833301565306 -0.07642948020326706 
0.7853953044843152 -0.7642232045891613 -0.08983722624408560 
-0.1945986938204376 0.5440507416948038 -0.3107318733507363 
-0.03462870499051331 -0.1602325996002487 0.2128893915774302 
0.06984583709479618 -0.02209793879699159 -0.09260180661263154 
0.005021158092378875 0.1506914857638280 -0.06903510435234952 
0.2082756731536813 0.02072970220355970 -0.1318646043944582 
-0.05155988602778117 0.3849268469844128 -0.4947640294879385 
-0.04747955976128454 0.2508889017083941 -0.1503898314300756 
-0.8086673211608901 0.7957196552637227 -0.1047143108916785 
0.07448270839775187 -0.6446523695858873 0.4881879310646883 
0.03418374109187174 -0.004805950240591201 -0.02339410928730579 
-0.3149468675660307 -0.01902369396873310 0.3587854572999567 
-0.2730926517687894 0.2066151987600436 -0.1261453948694664 
0.5368025227810033 -0.6712598051527662 -0.04332978827434767 
0.3148365383018711 -0.2281566463392525 -0.1026778713834314 
0.3493732459066578 -0.3162569831415976 -0.1545694267362854 
-0.1401715817757446 0.3819520404041314 -0.1467204258277335 
0.1185100704830355 -0.07215747290870704 -0.01456147534810143 
0.1195009384508177 -0.02553416679670322 -0.1307288109073262 
0.06410667107043808 0.1360292885067380 -0.1409780707499079 
0.2403838410365264 -0.1434519306322173 -0.07705179066202197 
-0.1556229524593860 0.1956651561236042 0.04695901366523916 
0.1685061504001270 -0.1960120798237137 -0.1347290764591836 
-0.1321180374688865 0.2721133249480080 -0.09706637489274318 
0.01924138479638402 0.001313277324156456 -0.1883213538017013 
0.1621849099092111 -0.1869509893430638 -0.04037386320118381 
-0.2809204163800822 0.3244036869669063 -0.05852253883749777 
0.04174652682262860 -0.03840707079666491 -0.05077663691150391 
0.02767087690016347 -0.05121988579243519 -0.01200769322140765 
-0.04069317733307203 0.3195497588397546 -0.3074563136562163 
0.09401779745445571 -0.06597121033502713 -0.06837700973193862 
0.04038096478307139 -0.02130345534396798 -0.03888297497864250 
0.1669879624359375 -0.07707962093256725 -0.1386426307044657 
0.2724032707113456 -0.2668292020430197 -0.04101156481874017 
0.09175565812995123 -0.04740061259521636 -0.1301319589872195 
0.1461917784809079 0.4520081717376431 -0.5469563799726501 
-0.01633986282494055 -0.09388541406942669 0.04079853916153717 
-0.1035190285132888 0.09941021468522539 -0.04077845648290743 
0.1931152680887923 0.1054249155686013 -0.1731150923172946 
0.05284937172515748 -0.03865764698657640 -0.02812312403944968 
0.1714495261964880 -0.1502942903408086 -0.2407019892142448 
0.05564522063908034 -0.03171253303468625 -0.03756939797288527 
0.02086752979161108 -0.008189995942055113 -0.01808518621134040 
-0.01218184172751019 0.1738440767806139 -0.1665869391374817 
0.1560307091968980 -0.1897590369560174 0.09996196706381509 
-0.03656125983736405 0.1696319842596342 -0.1039522225749548 
0.1056103915829476 -0.1050968185598443 -0.04870962947818527 
0.02458922230004859 -0.005134458678686603 -0.04808799920940628 
0.02458922230004859 -0.005134458678686603 -0.04808799920940628 
0.3349897997717998 -0.4282424272561520 0.1268203117369900 
0.04975996053514806 -0.03296117120651482 -0.1112602809399494 
0.2217434849165109 -0.03268993647171581 -0.1585895680391544 
0.1019932066568888 0.1546617841053819 -0.3807811870659040 
-0.009938912634696387 0.1520624631523726 0.04329576381786970 
-0.3476496339137105 0.4543067482584154 -0.02445946385399614 
-0.07267452974211802 -0.8670240564372442 0.9989381059574057 
-0.04984245716862353 -0.2623349347501190 0.3580181392785828 
0.5890162750968550 -0.1643814256402819 -0.2702747936033456 
0.02745552623061261 -0.004393449160208040 -0.08548788629881976 
-0.06696780815376872 -0.1352422657625148 0.3500468676650125 
0.2897291468265710 -0.4322284999247016 0.07864073639422049 
0.01678577467033674 -0.001652018252058811 -0.04683844371933776 
0.09774819265736708 0.4542838689920352 -0.5470221044812423 
0.2235945228671271 0.06108784604203869 -0.3334617609606368 
0.05113774943593955 -0.03177956137622577 -0.06853210185978673 
0.1495507090400646 -0.5220085606014851 0.5643768040506123 
-0.02439680794487220 0.4713301229756363 -0.6287427150589052 
-0.1763024344799723 0.4904136500311154 -0.6970454975657430 
0.03254700144507466 -0.3951937852377076 0.1225217528607945 
0.1225957226351796 -0.1240511181558271 0.02970268058905001 
-0.1178152485686434 0.1300942675457152 0.2433273508811223 
0.2411015188673403 -0.6993161390077784 0.7463746125279884 
0.3839474650763751 -1.074222574210909 0.5429118211319337 
-0.04538759671791778 0.1849509124801446 -0.1559649147714841 
-0.03675137707053175 -0.8663479957500329 0.2470601664868994 
-0.7633916208827476 -0.08708380322834289 0.4755396732894324 
-0.3148545789301402 -0.6975081044350788 0.5910496012216958 
-0.3720417144014037 -0.9714141141645541 1.044671297775645 
-0.1274078732408909 0.1482728116515812 -0.08981451162312934 
0.6432395450222914 -0.06650326887480347 -0.8786817526836267 
0.1225040255310331 -0.2146821280154326 -0.1701825851574987 
0.6239927074561877 -0.4751392484236569 -0.09138616028524600 
0.2637389961766869 -0.5224849908548701 0.2407537149630186 
-0.5068094460551479 0.4608579874539983 0.4411512481886855 
-0.1187297981492718 0.1242175015906636 -0.08653224645584828 
0.4841881192752311 -0.8319970428689187 0.3230133508061184 
0.6172697311579455 -0.9172038328264852 0.1912653027352055 
-0.1841462186605985 -0.05890294899745116 0.3898016745744795 
0.2948398375770545 -0.4502593959754448 0.1228054119678840 
0.5101477883459488 -0.1735911203436421 -0.2664099381117350 
-0.4769745391549018 -0.2795983542267025 0.8908046203650343 
-0.1125357490750424 -0.01988449110047473 -0.02317008528903797 
-0.1582931766208696 0.09768213473337925 0.1275268153845952 
0.4220756049854482 -0.4292138721509416 0.04983764843480184 
0.04114756793842689 -0.09920742377505103 0.07210819662065569 
0.4658823067601214 -0.3534174393866199 -0.2368950511818796 
-0.07080283790679026 -0.09685391227226310 0.3481773230724856 
0.04411257595950462 -0.2963383077155325 0.1576509470983467 
-0.2493376284176978 -0.1134213059935925 0.3269346789584176 
-0.7267135887967876 -0.6955400000479429 1.238079550698242 
-0.1609592999234976 -0.6507469359024971 0.6277767950989741 
0.1454764290798581 -0.06103934727054355 -0.2763762811927130 
-0.04462844188517293 -0.2736801706958769 0.2094045561839181 
0.1253123452011663 -0.06072491260266233 -0.2758185445354364 
-0.2225086676242819 0.3421494641685402 -0.1098615229486121 
0.2442585574440843 -0.3440452710685933 0.1880873981024731 
0.2835160897166032 -0.5360425136354702 0.3842847123323346 
0.06761229131351719 -0.1122519182318470 -0.03148552517705875 
-0.4084502930796141 -0.2494547620582883 0.6123575732404132 
0.2448166731010846 -0.2074675336858743 -0.1726750687237866 
0.02236840909853763 0.1158492240951853 -0.1335395669688039 
-0.08772367288120435 -0.02359915831385543 0.04602094354787093 
-0.2415265025596882 -0.2248718652863283 0.5280296717199546 
-0.7105627531532936 0.5801907781966407 -0.1160961267122163 
-0.02997336095531728 -0.06457723589069156 0.05053770586564301 
-0.2214869735471603 0.4701501991652571 -0.4069016644178205 
0.1294246420756729 -0.02245283920643998 -0.2462421781615492 
0.09024185118323555 0.5815012090763725 -0.6090469050871611 
-0.06725092319070879 -0.2681528882845235 0.6539064340427256 
0.09940808778902145 0.1026784067169215 -0.1311625873305211 
-0.1877626055246388 0.3523473703044108 -0.4208560175235849 
-0.04551740542162919 -0.2049328116096595 0.2832752290322707 
-0.1106888915735981 0.07852834888069586 -0.1151157938204301 
-0.02619582958764783 -0.05945245160307747 0.03952970399486167 
-0.003885261429141444 0.07218078664462207 -0.1756155177996459 
0.2303797847931299 -0.1480184138878465 -0.3265297346246712 
0.1707397633219728 -0.1882066734270993 -0.003287402362012229 
0.1994819220718639 0.04075164469537748 -0.5602068450978321 
0.1173117586460698 -0.2988018566638521 0.2127858255475524 
-0.07209034622462873 0.1135384479701263 -0.1016289958485327 
0.2584997596479388 -0.2601397384703186 0.3194850830564364 
-0.2954491846468392 0.4628761017042545 -0.4775962676580119 
0.2368415526749098 -0.1237843917136732 -0.2633103705972126 
0.008449713966088940 -0.1322961220461234 -0.01403508577517654 
0.1390418821645724 -0.01195596121343197 -0.07606635566808005 
-0.2242572242809151 0.3133262510076922 -0.2366919714809158 
-0.01655216870877871 0.1218895333362079 -0.1949083766126585 
0.1935289502317897 0.1032084268430146 -0.3318529066225002 
0.2910195859182864 -0.2649311448891696 -0.1830638963804028 
-0.07125789581993192 -0.5678133134564834 0.5018272178532717 
0.08625942426357713 0.1102524063412652 -0.1705333687778914 
-0.3993993263951270 -0.2736497113757089 0.5454334878027457 
-0.1717462575214063 -0.1883382053343523 0.2544429526414194 
0.04665203672793779 -0.4130445104667537 0.1883173635408041 
-0.3838527738752290 0.8853705404144986 -0.4902728014911670 
-0.5977882647299942 -0.3013277270203374 0.7559446790684776 
0.03194225856615873 0.6436190307811108 -0.5040801802829836 
-0.5621823900409303 0.2085137334751432 0.3500003375215969 
-0.04708702398539217 -0.5216827180770021 0.4157968978949723 
-0.006617785724045972 -0.1613468001275844 0.08403819670437976 
0.1106273158885862 0.2355293876027070 -0.3910140695567180 
0.2648130250031371 -0.2157764880389353 -0.02628619156386280 
-0.006617785724045972 -0.1613468001275844 0.08403819670437976 
0.1320850873454380 -0.001090965576048820 -0.1738001534958462 
0.2213902207201921 -0.02795921679954991 -0.1564190663194410 
0.4130646442840424 -0.09270993477600374 -0.3735933062212856 
0.1942853603046295 -0.001861840060910753 -0.2587559150075746 
0.2213902207201921 -0.02795921679954991 -0.1564190663194410 
0.2213902207201921 -0.02795921679954991 -0.1564190663194410 
-0.01478498743143468 -0.1086613709697288 0.06703562536564853 
0.2119205954412033 -0.09210549082961628 0.1817758590506697 
0.1267147426213278 -0.2516418116802832 -0.01851407405222179 
0.1405726874130743 0.02984980394921016 -0.2128581247579796 
0.4770997917800589 -0.2587745468179377 -0.1311734538698293 
0.3941539977985435 0.2224628446652346 -0.5298077095487770 
0.2480614031179758 0.08105514594025688 -0.3624117453576087 
0.5463578035237244 -0.2641593917768793 -0.2691330835954626 
0.2647730357951655 -0.1079371479378200 -0.08680964413777055 
-0.4106482583151640 -0.3441274584008643 0.6581446417812348 
0.006295274527844218 0.1343530350835369 -0.3734674652482000 
0.07859337912407208 -0.2252665214729120 0.1981533385699381 
0.1054526665322658 -0.07067473090266672 -0.01645014137142026 
0.1775516614868196 -0.05415512419069087 -0.06611221518020060 
-0.09577294311376768 -0.006395484251024446 0.09642021989926847 
0.09971671419526891 -0.2128763081570368 0.2030261487559033 
-0.1979859913348642 0.2844093850301186 -0.1822242324167440 
-0.04498222984009720 -0.04391499833532768 0.06832755967287878 
0.01998091263873638 0.3360797142101757 -0.2812412234844980 
-0.2306153870504450 -0.1463384765000569 0.2776434259769853 
-0.009592114788274020 -0.03822992588980621 0.02177282740845303 
0.1345358948665524 -0.1501784161275002 0.02234665997827224 
0.06141901169679276 -0.04348372239178048 -0.05572728688987728 
-0.04302372568432124 -0.2774252748235117 0.2885561451110179 
0.2643030627300673 -0.09299580265699921 -0.1375134481449580 
-0.05020218284075002 -0.02607135264257291 0.04015918595815365 
0.08334941172205312 0.1495624882813660 -0.1016938369492667 
0.4413811101329669 -0.3501119773554134 -0.1069951179731041 
0.04290485128281753 -0.001316530531298793 -0.08766548469793588 
-0.5524095198778552 0.5425495796182903 -0.02484808875731979 
-0.2252892211272693 -0.4015537199197825 0.5720423104192882 
0.5728980329827246 -0.8217664149138390 0.5430383789619475 
0.2180317481225801 -0.9309002956663470 0.9204602525934873 
-0.08850084688117629 -0.1644238367772454 0.2778873066900454 
0.1138754628503761 0.4056019451262865 -0.3889970928481221 
0.4812369233525636 -0.6388161748241046 0.3487155014614403 
-0.6558554171367625 0.4359882928202037 0.1202966675150867 
0.2877235685057351 -0.4274778645963748 0.08412413072159591 
-0.5001598408544917 0.3251858227926696 0.03014883468098312 
0.09739084838766580 -0.6942451473313426 0.5380647116749370 
-0.6553321194167427 -0.07420339471451516 0.3620783887992344 
-0.04767916307796662 0.01935322894470217 -0.04289255757978014 
-0.5071903459952971 -0.3377825881631671 0.5010791208469960 
-0.5310445527051324 -1.076862990761156 1.339516910515283 
-0.09077489687928927 0.5737550866659927 -0.6585850734929254 
0.07356164036232599 -0.09701273021300261 -0.2837886702488808 
0.5780426819949805 -0.2416818524739456 -0.3661573526316350 
0.1152756238517190 -0.07655413088662090 -0.1840243891523842 
0.4914381170148476 -0.4042656411429840 -0.05589385132337441 
0.2624839910127239 -0.6971357244327334 0.4120870889922890 
0.2443954496380373 -0.4730028580132711 0.3017959479822366 
-0.2690673012122487 0.6563048810159187 -0.4750988980006134 
-0.1298052166394378 0.1483721001761660 -0.002489826437806328 
0.4498013940102763 -0.6310198430469053 0.4261768665685956 
0.4841881192752311 -0.8319970428689187 0.3230133508061184 
-0.3767625800875209 -0.2966495541866183 0.6567140615811053 
0.1623978912894550 -0.4556966681190049 0.1090675478516965 
-0.2301779689915608 -0.1735077311551202 0.5058408622930204 
0.08377489234662687 0.2257597152701253 -0.2363422527908900 
-0.1050991651534270 0.6384630695025445 -0.6566858810259657 
0.4443140242690548 -0.2584633204289767 -0.1254901428079343 
0.06273269151905723 -0.1023503678199888 0.1481936832787166 
0.1511624163504388 -0.1532569096880291 0.1524411798371510 
0.02167001273697125 -0.4589791925491611 0.4152810097187270 
0.02951839766949121 0.1138608099857303 -0.3676289316567331 
0.1892499004409061 -0.5159799237543381 0.6662330239636850 
0.02987604532835636 -0.1376833274174287 -0.1049739051563469 
-0.04462844188517293 -0.2736801706958769 0.2094045561839181 
-0.5220588443481058 -0.6567981898279541 1.001846723884906 
-0.2639916802700665 0.5335174039699574 -0.1788178139121077 
-0.1870918688734197 0.3987047354842091 -0.3908353334779410 
0.3028835921934847 0.06334005039193195 -0.4336629717344295 
0.4078844022932849 -0.2170643504498816 -0.2699642021978024 
0.3001954909653701 -0.1469434879121506 0.02736625165314994 
0.3526653078364063 -0.4329210926541894 -0.03146915028806275 
-0.3300730041858367 0.7978191734835908 -0.5646588396322526 
-0.4014761717091821 -0.2965528357600068 0.6730837269976226 
0.2186219538706782 -0.1381144067354033 -0.2632763535839203 
-0.2415265025596882 -0.2248718652863283 0.5280296717199546 
-0.02997336095531728 -0.06457723589069156 0.05053770586564301 
0.06098289923234488 -0.1293504741067137 -0.05395823819162896 
0.03384831960917008 0.1491843952884264 -0.1387465963414648 
-0.06520161535793847 -0.3258999581686128 0.5568022065105730 
0.03079470046397176 0.06899389265259474 -0.2147073525260706 
0.1482972000994394 -0.3508475582607279 0.2543426602583680 
-0.02949236652047205 0.3204148313294832 -0.2366439041924368 
-0.02405053726738678 0.1089554467227849 -0.3942788851549595 
-0.02619582958764783 -0.05945245160307747 0.03952970399486167 
0.1200710519603969 -0.2960314381926956 0.1397246293146931 
0.1986047879379108 -0.6811866102524964 0.1810190661938439 
0.03317300064362978 -0.1753616932856851 -0.03263019589455825 
0.3266626697498491 -0.1780786466280842 -0.3224810769413884 
-0.07083815431014283 -0.1099401080959499 0.3016122020883345 
0.2029644619402650 -0.4615855882293871 0.3165784188884921 
0.07785505853890125 0.1272866699103585 -0.5261850981051626 
-0.2636773429509585 0.3655006538743102 -0.1682992786345354 
0.1578213081722420 -0.05256794358865156 -0.1672247027782752 
-0.4416381349459240 0.3177722256597937 0.3671622285845315 
-0.02298312009859090 0.08253064346210472 -0.1619963461169482 
-0.1157887707519761 -0.9016165477591412 0.9673691706906131 
-0.06542529008027907 0.2256411693304613 -0.3349568576610859 
-0.5548485271244407 0.1135726884185617 0.4344035535306053 
-0.09495470633985886 -0.7241017628549612 0.8457113504583729 
0.3561386963457326 -0.2730283293927240 -0.07667055148538238 
-0.03896980297542182 -0.5247505487130851 0.5687616338404666 
-0.1717462575214063 -0.1883382053343523 0.2544429526414194 
-0.07125789581993192 -0.5678133134564834 0.5018272178532717 
0.5236388769636201 0.09105893052689064 -0.5777643721663068 
0.2594976928932262 -0.01774039174762112 -0.2700737325382124 
0.03263537417145722 0.6435508205929908 -0.5237908726548850 
-0.8552994658881212 -0.3028114212010498 0.8007155810871744 
-0.1197932513799993 0.9975012755750782 -0.7399977794575904 
-0.3993993263951270 -0.2736497113757089 0.5454334878027457 
0.1401248889935141 0.04714962376808724 -0.1218319688169061 
-0.1588486643543278 0.1380479915471198 -0.02760659696999348 
0.3862767529148799 -0.1314198366060873 -0.1920164766661557 
0.04665203672793779 -0.4130445104667537 0.1883173635408041 
-0.2855666187928295 0.1543048411191535 0.2668710973220880 
-0.006617785724045972 -0.1613468001275844 0.08403819670437976 
-0.006617785724045972 -0.1613468001275844 0.08403819670437976 
-0.5588259668106752 0.4438818546171589 0.1006164415542382 
0.1720948580771955 -0.1377798075072833 -0.1465781841915924 
0.2213902207201921 -0.02795921679954991 -0.1564190663194410 
0.2213902207201921 -0.02795921679954991 -0.1564190663194410 
0.2949223616296710 0.1415839856634855 -0.2937003541022151 
-0.3190035744276267 0.2398733879686825 -0.03468189169128357 
0.2677959415271966 -0.2472307644003021 -0.1896097108047899 
0.5475530554578829 -0.5636254696605439 -0.004634904486961054 
0.2213902207201921 -0.02795921679954991 -0.1564190663194410 
-0.01478498743143468 -0.1086613709697288 0.06703562536564853 
0.1272629480160876 -0.2492906481117379 -0.01791963137035325 
-0.003523062209804916 0.4537785376162860 -0.2906228967933981 
0.09293144135372187 -0.09273771093306830 -0.08933133751737049 
0.08154963659466173 0.3807845679626721 -0.4458830096223042 
-0.4202596745180325 -0.1175959208835975 0.3822079262305445 
0.3079533767169125 -0.2198133832123779 -0.06474221813045147 
0.3220698582143459 -0.1374156480415310 -0.1401508725168983 
-0.04914854433623724 0.2746821350779188 -0.3044545122084932 
0.5832758784026286 -0.4183753566284950 -0.3638017273813883 
-0.008683695007089943 0.07232652002658592 -0.1155074702891063 
0.2072115774414175 0.1463967322817568 -0.2541296037733276 
-0.3099387057486375 0.1452715400525658 -0.04434470004257390 
0.3756042355360706 0.02447669649565561 -0.2916901785470190 
-0.003942703750424870 0.1283664419042802 -0.3692036414678740 
0.05672562867625026 -0.1643478747953013 0.08453938961880020 
-0.03718713885717965 0.1328668677320991 -0.07950448633805325 
-0.4292090930468849 0.1639133830894101 0.1527703814270073 
0.08386471677683287 0.1735868186974725 -0.2605263992724083 
-0.2252892211272693 -0.4015537199197825 0.5720423104192882 
0.08776150959049832 -0.06443438454642461 -0.06508912217559938 
-0.2306153870504450 -0.1463384765000569 0.2776434259769853 
-0.2450567166958812 -0.1465814522338070 0.5784624330048015 
-0.03446649466539137 -0.05297333822048671 0.04075763940924639 
0.06141901169679276 -0.04348372239178048 -0.05572728688987728 
-0.5386008044972431 0.6253070202341412 -0.02354817711256052 
-0.01284638081635212 -0.1941828404242097 0.2097172762689076 
-0.01764708587704946 0.2063885287106969 -0.4243762872466613 
-0.1377742256762178 -0.2077879441419225 0.5191233642182319 
-0.4923718352434159 0.1085438350933008 0.3888467790601316 
-0.1477315259817391 0.03536745395737347 0.1402418995834873 
-0.1525785146189801 0.06801418291097776 -0.004546439379011859 
0.08135129866637751 -0.4195785297727521 0.3443242358729353 
-0.3834198613868645 -0.1519810955373892 0.6209830337567565 
-0.1915359493255936 -0.3513478974390883 0.2867455900418439 
-0.1670458382780032 0.02260234717883551 0.008597593487332493 
0.3591605775422431 -0.2327324838997984 -0.2395734769122388 
0.3018680662412669 0.1436501183429224 -0.3825633397708456 
-0.2868125192298124 -0.5204095452444375 0.4660690322180214 
0.5111616367240479 -1.372057532453052 0.8184777062770017 
0.01211267830519711 -0.1168092090594294 -0.06307063800122083 
-0.1384543104461206 -0.1583452543545023 0.05964744104636800 
0.1544597214687877 -0.1783010119862560 -0.2781076053179499 
0.2789577719840136 -0.7375413031025015 0.8101811583229263 
0.1782337363463319 0.09549447673014909 -0.5760295182589091 
-0.1568301923496420 -0.5874044003572174 0.5389652486678207 
0.3856936726106467 -0.8209762845788217 0.3022096099869939 
-0.03659058911284766 -0.3409656167434516 0.3143041823809124 
0.07971128696577560 -0.1942604995724390 0.1365804243093754 
0.3151567493361590 -0.1620215684412917 -0.3551471157572584 
0.1790776632902388 0.08554643891068447 -0.3443280757894857 
-0.4031543020674942 0.1850555637259176 0.3374754238046218 
-0.2711476461314225 0.3806957315740193 -0.2488978776746880 
-0.1098985127917675 0.005285234752068166 0.1821968345110321 
0.04683240228391503 -0.08132864739868823 -0.1109347814836305 
-0.1968027553544658 0.1644841836445085 -0.2478384709027841 
0.1771634795015551 -0.1099735035307836 0.1569061494827261 
-0.2245666633952818 0.009835938540723440 0.2808805940422914 
0.1201614567830909 0.4004868718424340 -0.6138391206012177 
-0.2641165021872708 0.1470846624591695 0.09413116013237657 
0.1278462138296622 0.1017692602314960 -0.3654641161890889 
-0.01104043395112014 -0.4526813983047492 0.4640833103364828 
-0.8577979678657246 0.5666587863052774 0.4721344040479602 
0.1947463618037200 -0.09160008069013363 0.1223481574255650 
0.07035463350681766 0.01930306790524234 -0.2979073014164629 
-0.03106576831503807 -0.01768008506999108 -0.0008889551327553527 
0.1262760213971595 -0.5643704480805537 0.2888389778666574 
-0.08433651648718979 -0.4793600134796686 0.3140354032284333 
-0.2000481830119017 -0.2288771135991626 0.4136441060993603 
0.07232508809290009 0.2182312311842142 -0.3575242233002648 
-0.03662623165809995 0.03186840098613554 -0.1003936990488683 
-0.02650673915628583 -0.03360990531881733 0.1418784572950213 
0.1684373888377335 -0.02710177666222207 -0.1905761830326510 
-0.06989507435162026 0.07987776806869512 0.09885714081888068 
0.2776903101487959 -0.07237875962389734 -0.1556311122608039 
0.08263508806434743 -0.7645684901842076 0.9260761313383383 
0.08553600795772540 0.006861800604553791 -0.3008508474129042 
0.02874288148272845 -0.1132565102073083 -0.2165635986150487 
-0.2173399679697436 -0.09484485879614293 0.3027475364769581 
-0.05988930486367811 -0.01397643959581495 0.05310759254400463 
0.05886189620588165 -0.7019360623189986 0.4320503015756086 
-0.007435162205455142 0.3186531841311834 -0.4210559932135910 
0.1207318175878443 -0.05401826785427530 -0.2327391699152128 
0.008175089546894578 -0.5037469908436865 0.5535480911334285 
0.02833911552059099 0.1317407843999395 -0.3115221888042000 
0.03294387189625951 0.1581545992512510 -0.2824841542476984 
-0.1675401541602128 -1.553396909949000 1.402008952762395 
-0.03869179392197919 -0.3687609378039600 0.2511736918348678 
0.1550023885050205 -0.04835387686197332 -0.07669088373408778 
-0.07905845353922221 0.3259095060665442 -0.1696028780101373 
-0.1365020865046202 0.3303364191776214 -0.2029841926916147 
0.08873761038614135 -0.2107597114210819 -0.02374025201192689 
-0.1930405781708223 -0.3007720839150832 0.3547242874626823 
0.2250986842259818 -0.3210358662097805 0.2655784351040348 
-0.3709684645357407 -0.1488976600820953 0.3072529889169973 
0.2174198616701577 -0.008040119005240234 -0.2717074376450924 
0.1140122936361420 -0.1092968339627189 -0.1028349542084530 
0.003367727256499758 0.03693923997992539 -0.06932705097918813 
-0.2060879379389956 -0.1557192944436049 0.2595443581456615 
0.02767087690016347 -0.05121988579243519 -0.01200769322140765 
-0.08882969143816010 0.1632404967694935 0.006628886793383065 
-0.5499813324278897 0.4979582201844021 -0.01609158610505277 
-0.3298206594864525 0.3141401729291599 0.04809279931243975 
0.08481553953092924 -0.01389199309346232 -0.1283594714280756 
-0.1392891007460329 0.3827080492297630 -0.1973036491067387 
0.05187761279302915 -0.05236194734775043 -0.05247069685754977 
0.02173757004629645 -0.06074354135772317 0.09826947895030773 
-0.1065538784553710 0.08962871223680649 -0.03566420927363366 
-0.2003027398555324 -0.2304636889498019 0.8235444691076961 
0.2016557968317291 -0.07940487185317596 -0.08069705348234735 
0.4037135860668960 -0.3640882608489617 -0.1796435214937863 
-0.5608430035600845 0.7236044755813229 -0.07748226791966974 
0.05806841928398027 -0.03607323005163193 -0.02086891169281405 
-0.3577070332236936 0.4769260631251198 -0.03055462175350553 
0.08917871672996429 0.4886754594089955 -0.4813190454042982 
0.1630121405901031 -0.5344413828959528 0.3650794397710280 
0.02211765741212136 -0.005915417783380177 -0.1877856079639351 
0.05284937172515748 -0.03865764698657640 -0.02812312403944968 
-0.2865821623768262 0.3265036221344444 -0.05392029457971298 
0.1370853612746933 -0.2833496709184999 0.1564540130487404 
0.06065418647525926 -0.03272729326471389 -0.03305686046553930 
0.1320638158837693 -0.02310365587209688 -0.09728209114230028 
0.02086752979161108 -0.008189995942055113 -0.01808518621134040 
0.2072283820442174 -0.4320537922570543 0.1933094444532300 
0.07772150002129342 0.1600883428953316 -0.09920289520584814 
-0.01839316530594865 0.1943390558599728 -0.2136440812889535 
0.02458922230004859 -0.005134458678686603 -0.04808799920940628 
0.02458922230004859 -0.005134458678686603 -0.04808799920940628 
-0.3187301248227247 0.4790790967788017 -0.1338961315221633 
-0.5291155468867418 0.6283589611152682 -0.05920978317055149 
0.1344656454222442 -0.04849786441675592 -0.1105662829083675 
0.02674169282613412 -0.04233592399045964 -0.09771787697191445 
0.2752740349552422 -0.2599044136907180 -0.1386515677788336 
0.5053880547398226 -0.3823564547574025 -0.07741949606387548 
0.07320322825399365 0.5630128636174173 -0.4000813109182178 
-0.06540126247152780 -0.1444517136150642 0.1611879759410331 
0.1319555143671954 -0.1730896778424710 0.09986894074999259 
-0.03538280004574523 0.1614737380518619 -0.08506782900791382 
0.01255402674282887 -0.2211436869143094 0.3253405961799431 
0.07093104454935270 -0.03597671842365247 -0.1114158344092690 
0.6493782041378190 -0.2001816277693614 -0.2750219397878845 
0.1987662337698508 -0.3079879951168023 -0.1083934324203326 
0.1452492415456511 -0.9177549307898438 0.6354788117618091 
0.003362750813891285 0.05062626493019522 -0.1358191252913198 
0.1418785092645432 -0.3942475388708452 0.2757104871137007 
0.03348979964873879 -0.3079647543993951 0.2560857094751469 
0.2634752835677606 -0.2806474217385075 -0.01354605352531054 
0.06992991855543610 -0.4713546014305490 0.4203752107279684 
0.04385270656101915 -0.03053232178428849 -0.1012852468366641 
0.5895658203490803 -0.3942545426199908 0.2527994237763830 
0.1938078734316215 -0.09668794147797481 -0.3376678232094978 
-0.1309237831734870 0.2605972458913297 -0.03868937459622870 
0 0 0 
0 0 0 
0 0 0 
0 0 0 
0 0 0 
0 0 0 
0 0 0 
0 0 0 
0 0 0 
0 0 0 
0 0 0 
1.192705444747674 0.6193131274965030 -1.593465835047555 
0 0 0 
0 0 0 
0 0 0 
0 0 0 
0 0 0 
0 0 0 
0 0 0 
0 0 0 
0 0 0 
0 0 0 
0 0 0 
-0.1427122170420017 0.2211848692161010 -0.09224471635318036 
0 0 0 
0 0 0 
0 0 0 
0 0 0 
0 0 0 
0 0 0 
0 0 0 
0 0 0 
0 0 0 
0 0 0 
0 0 0 
0 0 0 
0 0 0 
-0.2529876535830131 0.2772221391589936 -0.004420622086651259 
0 0 0 
0 0 0 
0 0 0 
0 0 0 
0 0 0 
0 0 0 
0 0 0 
0 0 0 
0 0 0 
-0.1246881360096230 0.2629261118070225 -0.09554577725304332 
0 0 0 
0 0 0 
0 0 0 
0 0 0 
0 0 0 
0 0 0 
0 0 0 
0 0 0 
0 0 0 
0 0 0 
0 0 0 
0 0 0 
0 0 0 
0 0 0 
0 0 0 
0.7434292886545240 -0.4514516593640015 -0.5690847742094703 
0 0 0 
0 0 0 
0 0 0 
0 0 0 
0 0 0 
0 0 0 
0 0 0 
0 0 0 
0 0 0 
0 0 0 
0 0 0 
0 0 0 
-0.006414568104600543 0.1956164544278111 -0.3764575023004397 
0 0 0 
0 0 0 
0 0 0 
0 0 0 
0 0 0 
0 0 0 
0 0 0 
0 0 0 
0 0 0 
0 0 0 
0 0 0 
0 0 0 
0 0 0 
0 0 0 
0 0 0 
1.904669808901995 -1.083613776266552 -1.875277998443648 
0 0 0 
0 0 0 
-0.2063356129480688 0.1784039356485067 -0.01137029990265851 
0 0 0 
0 0 0 
-0.4487448280242034 -0.5288907578591653 1.119171917070859 
0 0 0 
0 0 0 
0 0 0 
0 0 0 
0 0 0 
0 0 0 
0 0 0 
0 0 0 
0 0 0 
0 0 0 
0 0 0 
0 0 0 
0 0 0 
0 0 0 
0 0 0 
0 0 0 
0 0 0 
0 0 0 
0 0 0 
-1.117327779464867 1.423875920354725 -0.02852008301411962 
-0.2216388076931920 0.2633940303452004 -0.1252468830869231 
0 0 0 
0 0 0 
0 0 0 
0 0 0 
0 0 0 
0 0 0 
0 0 0 
0 0 0 
0 0 0 
0 0 0 
-0.1601298147820718 0.3596216301577713 -0.04338038811770389 
-0.1671603163465738 0.06360173624520692 -6.931078794134280e-05 
0 0 0 
0 0 0 
0 0 0 
0 0 0 
0 0 0 
0 0 0 
0 0 0 
0 0 0 
0 0 0 
0 0 0 
0 0 0 
0 0 0 
0 0 0 
0 0 0 
0 0 0 
1.342996706598750 -1.055021693629636 -0.7580116411781445 
0 0 0 
0 0 0 
0 0 0 
0.2324885220864515 -0.06352032043597369 -0.03069960007124560 
0 0 0 
0 0 0 
0 0 0 
0 0 0 
0 0 0 
0 0 0 
0 0 0 
0.8183363389587324 -0.07947443929926476 -0.8060103523974836 
0 0 0 
0 0 0 
0 0 0 
0 0 0 
0 0 0 
0 0 0 
0 0 0 
-0.7809501944922850 1.641029539984449 -0.7498202946246084 
0 0 0 
0 0 0 
-0.7340245792890020 0.5380296474658784 0.2275146635935761 
0 0 0 
0 0 0 
0 0 0 
0 0 0 
0 0 0 
0 0 0 
0 0 0 
0 0 0 
0 0 0 
0 0 0 
-0.5161473414815774 -0.03561433651737032 0.3124433932629641 
0 0 0 
0 0 0 
0 0 0 
0 0 0 
-0.2099371168842520 0.5487532470345647 -0.2223730469561263 
0 0 0 
0 0 0 
0 0 0 
0 0 0 
0 0 0 
0 0 0 
0 0 0 
0 0 0 
0 0 0 
0 0 0 
0 0 0 
0 0 0 
-0.5161473414815774 -0.03561433651737032 0.3124433932629641 
0 0 0 
0 0 0 
0 0 0 
0 0 0 
0 0 0 
0 0 0 
0 0 0 
0 0 0 
0 0 0 
0 0 0 
0 0 0 
0 0 0 
0 0 0 
0 0 0 
0 0 0 
0 0 0 
0 0 0 
-0.04567821557005197 0.2552146979196812 -0.1826655503189431 
0 0 0 
0 0 0 
0 0 0 
0 0 0 
0 0 0 
0 0 0 
-0.04567821557005197 0.2552146979196812 -0.1826655503189431 
0 0 0 
0 0 0 
0 0 0 
0 0 0 
-0.3538216628450271 0.5019373399206242 -0.1012912085726835 
0 0 0 
0 0 0 
0 0 0 
-0.3627598389331054 0.2314390690333661 -0.02782360632390928 
0 0 0 
0 0 0 
0 0 0 
0 0 0 
0 0 0 
0 0 0 
0 0 0 
-0.8951000807068813 0.8968608215692853 -0.3372062632298786 
0 0 0 
0 0 0 
0 0 0 
0 0 0 
0 0 0 
0 0 0 
0 0 0 
0 0 0 
0 0 0 
0 0 0 
0 0 0 
0 0 0 
0 0 0 
0 0 0 
0 0 0 
0 0 0 
0 0 0 
0 0 0 
0 0 0 
0 0 0 
-0.02556869489601978 0.06778193878349716 -0.01916910085106361 
0 0 0 
0 0 0 
0 0 0 
0 0 0 
0 0 0 
0.2324885220864515 -0.06352032043597369 -0.03069960007124560 
0 0 0 
0 0 0 
0 0 0 
0 0 0 
0 0 0 
0 0 0 
0 0 0 
0 0 0 
0 0 0 
0 0 0 
0 0 0 
0 0 0 
0 0 0 
0 0 0 
0 0 0 
0 0 0 
1.781505925435655 -1.332792173163568 -1.225883294851190 
0 0 0 
0 0 0 
0 0 0 
-0.02556869489601978 0.06778193878349716 -0.01916910085106361 
0 0 0 
-0.02386376386564919 0.1153399699925925 -0.1040341617416943 
-0.5227652241831332 0.3861815383653741 -0.01279918112939875 
0 0 0 
0 0 0 
-0.004371150952243531 0.003962342856496347 -0.007396911717312367 
0 0 0 
0 0 0 
0 0 0 
0 0 0 
0 0 0 
0 0 0 
0 0 0 
0 0 0 
0 0 0 
0 0 0 
0 0 0 
0 0 0 
0 0 0 
-0.8587785468857637 0.9262744915384670 -0.02026082868576173 
0 0 0 
0 0 0 
0 0 0 
0 0 0 
0 0 0 
-0.3805952526154068 0.5660839686958248 -0.05339744363920251 
0 0 0 
0 0 0 
0 0 0 
-0.3627598389331054 0.2314390690333661 -0.02782360632390928 
0 0 0 
0.3141766932011814 -0.1057028700154417 -0.05638309552638730 
0 0 0 
0 0 0 
-0.08303208023124042 0.1673542173738274 -0.09409273227899005 
0 0 0 
0 0 0 
0 0 0 
0 0 0 
0 0 0 
-0.3192274602403066 0.6823275589871205 -0.4877231368866951 
0 0 0 
0 0 0 
0 0 0 
0 0 0 
0 0 0 
0 0 0 
0 0 0 
0 0 0 
0 0 0 
0 0 0 
-0.2063759783609139 0.2178639526402994 -0.05605139985001818 
0 0 0 
0 0 0 
0 0 0 
0 0 0 
0 0 0 
0 0 0 
0 0 0 
0 0 0 
0 0 0 
0 0 0 
0 0 0 
0 0 0 
0 0 0 
0 0 0 
0 0 0 
0 0 0 
0 0 0 
0 0 0 
0 0 0 
0 0 0 
0 0 0 
0 0 0 
0 0 0 
0 0 0 
2.091518081769882 -1.473954746596520 -1.542582975846016 
0 0 0 
0 0 0 
0 0 0 
0 0 0 
0 0 0 
0 0 0 
-0.1327384000415682 0.4063283251125424 -0.1090792854268518 
0 0 0 
0 0 0 
0 0 0 
0 0 0 
-0.1641691014262393 0.1601817380731009 -0.06679839574286935 
0 0 0 
0 0 0 
0 0 0 
0 0 0 
0 0 0 
0 0 0 
0 0 0 
0 0 0 
0 0 0 
0 0 0 
0 0 0 
0 0 0 
-0.9632803244538684 1.051636833495707 -1.204416690947473 
0 0 0 
0 0 0 
0 0 0 
0 0 0 
0 0 0 
0 0 0 
0 0 0 
-2.081455972975508 -0.3676595560477494 2.476325264680987 
0 0 0 
0 0 0 
0 0 0 
0 0 0 
0 0 0 
0 0 0 
0 0 0 
-1.965004679161113 0.5014979074349888 1.378543638492350 
0 0 0 
0 0 0 
0 0 0 
0 0 0 
0 0 0 
0 0 0 
0 0 0 
0 0 0 
0 0 0 
0 0 0 
0 0 0 
0 0 0 
0 0 0 
0 0 0 
0 0 0 
0 0 0 
0 0 0 
0 0 0 
1.100901828806017 -1.247457746655799 -0.3674780332513982 
0 0 0 
0 0 0 
1.175357412256581 -0.7675009973118736 -1.305411664956555 
0 0 0 
0 0 0 
0 0 0 
0 0 0 
0 0 0 
0 0 0 
0 0 0 
0 0 0 
0 0 0 
0 0 0 
0 0 0 
0 0 0 
0 0 0 
0 0 0 
0 0 0 
0 0 0 
0 0 0 
0 0 0 
0 0 0 
0 0 0 
0 0 0 
0 0 0 
1.162798824469637 -0.7634327464533293 -0.3938347829587936 
0 0 0 
0 0 0 
0 0 0 
0 0 0 
0 0 0 
0 0 0 
0 0 0 
0 0 0 
0 0 0 
1.422261000988314 -1.219780043075703 -0.7318502208137758 
-0.7340245792890020 0.5380296474658784 0.2275146635935761 
-1.792781555739823 2.191391751605317 -0.3216787562101773 
0 0 0 
0 0 0 
0 0 0 
0 0 0 
0 0 0 
0 0 0 
0 0 0 
0 0 0 
-0.006716504601925320 0.003509362253655216 -0.001984293953473745 
0 0 0 
0 0 0 
0 0 0 
0 0 0 
0 0 0 
0 0 0 
0 0 0 
0 0 0 
0 0 0 
0 0 0 
-0.1246881360096230 0.2629261118070225 -0.09554577725304332 
0 0 0 
0 0 0 
0 0 0 
0 0 0 
-0.3192274602403066 0.6823275589871205 -0.4877231368866951 
0 0 0 
-0.1905799493045245 0.2842336766792406 -0.04597615083261176 
0 0 0 
0 0 0 
0 0 0 
0 0 0 
-0.3993993263951270 -0.2736497113757089 0.5454334878027457 
-0.2585492325791037 0.4976014288162579 -0.008259254328357895 
0 0 0 
0 0 0 
0 0 0 
0 0 0 
0 0 0 
0 0 0 
0 0 0 
-0.06918866639056936 0.04135440853866546 -0.0009258634894652982 
0 0 0 
0 0 0 
0.7419363391996399 -0.5796885620941610 -1.199756994911770 
0 0 0 
0 0 0 
0 0 0 
0 0 0 
0 0 0 
0 0 0 
0 0 0 
0 0 0 
0 0 0 
0 0 0 
0 0 0 
0 0 0 
0 0 0 
0 0 0 
0 0 0 
-1.182720912600836 1.880460295226923 -1.228003997238447 
0 0 0 
0 0 0 
0 0 0 
0 0 0 
0.5399318245012925 -0.2070099415535476 -0.2813538546632109 
0 0 0 
0 0 0 
0 0 0 
0 0 0 
0 0 0 
1.449216064442417 -0.9146391167646720 -0.7975176321401686 
0 0 0 
0 0 0 
0 0 0 
0 0 0 
0 0 0 
0 0 0 
-0.01661185791357304 0.01577709686294355 -0.01057241218272524 
0 0 0 
0 0 0 
0 0 0 
0 0 0 
0 0 0 
0 0 0 
0 0 0 
0 0 0 
-0.3993993263951270 -0.2736497113757089 0.5454334878027457 
0 0 0 
0 0 0 
0 0 0 
0 0 0 
0 0 0 
0 0 0 
0 0 0 
0 0 0 
0 0 0 
0 0 0 
0 0 0 
-0.1479043456440138 0.4324974190196288 -0.08445868835179682 
-0.01519397007531763 0.02953075602965060 -0.01706030218474966 
-0.4044590164810560 0.6814239386884172 -0.1574316053808968 
0 0 0 
0 0 0 
0 0 0 
0 0 0 
0 0 0 
0 0 0 
0 0 0 
0 0 0 
0 0 0 
0 0 0 
0 0 0 
-0.2063356129480688 0.1784039356485067 -0.01137029990265851 
0 0 0 
0 0 0 
0 0 0 
0 0 0 
0 0 0 
-0.07975064194887166 0.2913211549989763 -0.2037018495831394 
0 0 0 
0 0 0 
0 0 0 
0 0 0 
0 0 0 
0 0 0 
0 0 0 
0 0 0 
0 0 0 
0 0 0 
-0.1464531196561592 0.1059943379938215 -0.007956842922890053 
0 0 0 
0 0 0 
0 0 0 
0 0 0 
0.4150455721568878 -0.3156726687948324 -0.3329396095830600 
0 0 0 
0 0 0 
1.545801473469347 -0.3518181670130813 -1.229088325537306 
0 0 0 
0 0 0 
0 0 0 
-0.1720090006311388 0.3180772327453639 -0.1020756091738426 
-0.7799589836608515 0.6604644132438544 -0.01321512289207103 
0 0 0 
0 0 0 
0 0 0 
0 0 0 
0 0 0 
0 0 0 
0 0 0 
0 0 0 
0 0 0 
0 0 0 
0 0 0 
0 0 0 
0 0 0 
-1.582583816598236 -0.1830898628597243 2.253446790903255 
0 0 0 
-0.004741141642066253 0.01336594010582626 -0.003615299435874261 
0 0 0 
0 0 0 
0 0 0 
0 0 0 
0 0 0 
0 0 0 
0 0 0 
0 0 0 
0 0 0 
0 0 0 
0 0 0 
0 0 0 
0 0 0 
0 0 0 
0 0 0 
0 0 0 
0 0 0 
0 0 0 
0 0 0 
0 0 0 
0 0 0 
0 0 0 
0.6498165928232228 -0.3479494603328910 -0.4173492286117053 
0 0 0 
0 0 0 
0 0 0 
0 0 0 
0 0 0 
0 0 0 
0 0 0 
-0.2173058995911328 0.3952004398044038 -0.1280354525891914 
-0.4535865291171374 0.8547720877488111 -0.1985185382704346 
-0.7340245792890020 0.5380296474658784 0.2275146635935761 
0 0 0 
0 0 0 
0 0 0 
0 0 0 
0 0 0 
0 0 0 
0 0 0 
0 0 0 
0 0 0 
-3.322001941140774 1.939739260390328 1.375077021577104 
0 0 0 
0 0 0 
0 0 0 
0 0 0 
0 0 0 
0 0 0 
-0.09566400452110180 -0.03953271271324627 0.2955367255054985 
0 0 0 
0 0 0 
-0.3030682522300187 0.4877349709632405 -0.2387558960054221 
0 0 0 
0 0 0 
0 0 0 
0 0 0 
0.6692570807815654 -0.2541747035208173 -0.8107327550322396 
0 0 0 
0 0 0 
0 0 0 
0 0 0 
0 0 0 
0 0 0 
0 0 0 
0 0 0 
0 0 0 
0 0 0 
0 0 0 
0 0 0 
0 0 0 
0 0 0 
0 0 0 
0 0 0 
0 0 0 
0 0 0 
0 0 0 
0 0 0 
0 0 0 
0 0 0 
0 0 0 
0 0 0 
0 0 0 
0 0 0 
-0.1977489153851272 0.1286318771807671 -0.01588494557121914 
0 0 0 
0 0 0 
0 0 0 
0 0 0 
0 0 0 
0 0 0 
0 0 0 
0 0 0 
0 0 0 
0 0 0 
0 0 0 
0 0 0 
0 0 0 
-0.7690129770653666 0.4909353157818360 0.2078457473008795 
-0.5256000319417843 1.836888317514364 -1.553115969209725 
0 0 0 
0 0 0 
0 0 0 
0 0 0 
0 0 0 
0 0 0 
0 0 0 
-0.2229878362744870 0.2336410495032429 -0.06662381203274341 
-1.481527733391672 2.091671288028810 -0.5779322338937125 
0 0 0 
0 0 0 
0.1065764166225711 -0.04967076354035092 -0.03035426594300888 
-0.2572328552933555 0.2989304834197719 -0.1642635438933495 
0 0 0 
0 0 0 
0 0 0 
0 0 0 
0 0 0 
0 0 0 
-0.2571937594777183 0.2742828748784804 -0.0004159417626722756 
0 0 0 
-0.6174241434832413 1.423890754293443 -1.627090421166731 
0 0 0 
0 0 0 
0 0 0 
0 0 0 
0 0 0 
0 0 0 
0 0 0 
0 0 0 
0 0 0 
0 0 0 
0 0 0 
-0.04567821557005197 0.2552146979196812 -0.1826655503189431 
0 0 0 
0 0 0 
0 0 0 
0 0 0 
0 0 0 
0 0 0 
-0.06918866639056936 0.04135440853866546 -0.0009258634894652982 
0 0 0 
0 0 0 
0 0 0 
0 0 0 
0 0 0 
0 0 0 
0 0 0 
0 0 0 
0 0 0 
0 0 0 
-0.07732010033717860 0.2833695491205016 -0.09903006954045487 
0 0 0 
0 0 0 
0 0 0 
0 0 0 
0 0 0 
0 0 0 
0 0 0 
0 0 0 
0 0 0 
0 0 0 
0 0 0 
1.506283006712473 -0.1746705055245611 -1.991085398947733 
0 0 0 
0 0 0 
0 0 0 
0 0 0 
0 0 0 
0 0 0 
0 0 0 
0 0 0 
0 0 0 
0 0 0 
0 0 0 
0 0 0 
0 0 0 
0 0 0 
0 0 0 
0 0 0 
0 0 0 
0 0 0 
0 0 0 
0 0 0 
0 0 0 
0 0 0 
0 0 0 
0 0 0 
0 0 0 
0 0 0 
0 0 0 
0 0 0 
0 0 0 
0 0 0 
0 0 0 
0 0 0 
0 0 0 
0 0 0 
0 0 0 
0 0 0 
0 0 0 
0 0 0 
0 0 0 
0 0 0 
0 0 0 
0 0 0 
0 0 0 
0 0 0 
0 0 0 
0 0 0 
0 0 0 
0 0 0 
0 0 0 
0 0 0 
0 0 0 
0 0 0 
0 0 0 
0 0 0 
0 0 0 
0 0 0 
0 0 0 
0 0 0 
0 0 0 
0 0 0 
0 0 0 
0 0 0 
0 0 0 
0 0 0 
-0.4323593185542580 0.0003910324731008659 0.4501334274424025 
0 0 0 
0 0 0 
0 0 0 
0 0 0 
0 0 0 
0 0 0 
0 0 0 
0 0 0 
0 0 0 
0 0 0 
0 0 0 
0 0 0 
0 0 0 
0 0 0 
0 0 0 
0 0 0 
0 0 0 
0 0 0 
0 0 0 
0 0 0 
0 0 0 
0 0 0 
0 0 0 
0 0 0 
0 0 0 
0 0 0 
0 0 0 
0 0 0 
0 0 0 
0 0 0 
0 0 0 
0 0 0 
-0.06567202921867595 0.1108243833276589 -0.07969756515847874 
0 0 0 
0 0 0 
0 0 0 
0 0 0 
0 0 0 
0 0 0 
0 0 0 
0 0 0 
-0.04078527931883542 0.1689073377607567 -0.2030808778396852 
0 0 0 
0 0 0 
0 0 0 
0 0 0 
0 0 0 
0 0 0 
0 0 0 
0 0 0 
0 0 0 
0 0 0 
0 0 0 
-0.4272282507786650 0.5146670014119329 -0.1907402299337641 
0 0 0 
0 0 0 
0 0 0 
0 0 0 
0 0 0 
0 0 0 
0 0 0 
0 0 0 
0 0 0 
0 0 0 
0 0 0 
0 0 0 
0 0 0 
0 0 0 
0 0 0 
0 0 0 
0 0 0 
0 0 0 
0 0 0 
0 0 0 
0 0 0 
0 0 0 
0 0 0 
0 0 0 
-0.06567202921867595 0.1108243833276589 -0.07969756515847874 
0 0 0 
0 0 0 
0 0 0 
0.5217398524280690 -0.1984255871576495 -0.2497692312932699 
0 0 0 
0 0 0 
0 0 0 
0 0 0 
0 0 0 
0 0 0 
0 0 0 
0 0 0 
0 0 0 
0 0 0 
0 0 0 
0 0 0 
0 0 0 
0 0 0 
0 0 0 
0 0 0 
0 0 0 
0 0 0 
0 0 0 
0 0 0 
0 0 0 
0 0 0 
0 0 0 
0 0 0 
0 0 0 
0 0 0 
0 0 0 
0 0 0 
0 0 0 
0 0 0 
0 0 0 
0 0 0 
0 0 0 
0 0 0 
0 0 0 
0 0 0 
0 0 0 
0 0 0 
0 0 0 
0 0 0 
0 0 0 
0 0 0 
0 0 0 
0 0 0 
0 0 0 
0 0 0 
0 0 0 
0 0 0 
0 0 0 
0 0 0 
0 0 0 
0 0 0 
0 0 0 
0 0 0 
0 0 0 
0 0 0 
0 0 0 
0 0 0 
0 0 0 
0 0 0 
0 0 0 
0 0 0 
0 0 0 
0 0 0 
0 0 0 
0 0 0 
0 0 0 
0 0 0 
0 0 0 
0.004775015108083608 -0.01796842155383457 -0.002755719148463555 
0 0 0 
0 0 0 
0 0 0 
0.3881672279963416 -0.4506646469664047 0.1642378575095898 
0 0 0 
0 0 0 
0 0 0 
0 0 0 
0 0 0 
0 0 0 
0 0 0 
0 0 0 
0 0 0 
0 0 0 
0 0 0 
0 0 0 
0 0 0 
0 0 0 
0 0 0 
0 0 0 
0 0 0 
0 0 0 
0 0 0 
0 0 0 
0 0 0 
0 0 0 
0 0 0 
0 0 0 
0 0 0 
0 0 0 
0 0 0 
0 0 0 
0 0 0 
0 0 0 
0 0 0 
0 0 0 
0 0 0 
0 0 0 
0 0 0 
0 0 0 
0 0 0 
0 0 0 
0 0 0 
0 0 0 
0 0 0 
0 0 0 
0 0 0 
0 0 0 
0 0 0 
0 0 0 
0 0 0 
0 0 0 
0 0 0 
0 0 0 
0 0 0 
0 0 0 
0 0 0 
0 0 0 
0 0 0 
0 0 0 
0 0 0 
0 0 0 
0.3254434841204265 -0.2452353256929576 -0.2591922920313427 
0 0 0 
0 0 0 
0 0 0 
0 0 0 
0 0 0 
0 0 0 
0 0 0 
0 0 0 
0 0 0 
0 0 0 
0 0 0 
0 0 0 
0 0 0 
0 0 0 
0 0 0 
0 0 0 
-0.02891078055438940 0.1416432476843959 -0.1871160835926607 
0 0 0 
0 0 0 
0 0 0 
0 0 0 
0 0 0 
0 0 0 
0 0 0 
0 0 0 
0 0 0 
0.3881672279963416 -0.4506646469664047 0.1642378575095898 
0 0 0 
0 0 0 
0 0 0 
0 0 0 
0 0 0 
0 0 0 
0 0 0 
0 0 0 
0 0 0 
0 0 0 
-0.5725897385282498 0.3752128219900436 0.2546850719501205 
0 0 0 
0 0 0 
0 0 0 
0 0 0 
0 0 0 
0 0 0 
0 0 0 
0 0 0 
0 0 0 
0 0 0 
0 0 0 
0 0 0 
0 0 0 
0 0 0 
0 0 0 
0 0 0 
0 0 0 
0 0 0 
0 0 0 
0 0 0 
0 0 0 
0 0 0 
0 0 0 
0 0 0 
0 0 0 
0 0 0 
0 0 0 
0 0 0 
0 0 0 
0 0 0 
0 0 0 
0 0 0 
0 0 0 
0 0 0 
0 0 0 
-0.7363848829746054 0.7041692047322959 -0.2778999604685011 
0 0 0 
0 0 0 
0 0 0 
0 0 0 
0 0 0 
0 0 0 
0 0 0 
0 0 0 
0 0 0 
0 0 0 
0 0 0 
0 0 0 
0 0 0 
0 0 0 
0 0 0 
0 0 0 
0 0 0 
0 0 0 
0 0 0 
0 0 0 
0 0 0 
0 0 0 
0 0 0 
0 0 0 
-0.9632803244538684 1.051636833495707 -1.204416690947473 
0 0 0 
0 0 0 
0 0 0 
0 0 0 
0 0 0 
0 0 0 
0 0 0 
0 0 0 
0 0 0 
0 0 0 
0 0 0 
0 0 0 
0 0 0 
0 0 0 
0 0 0 
1.157711222126407 -1.132657607757904 0.1069682871538128 
0 0 0 
0 0 0 
0 0 0 
0 0 0 
0 0 0 
0 0 0 
0 0 0 
0 0 0 
0 0 0 
0 0 0 
0 0 0 
0 0 0 
0 0 0 
0 0 0 
0 0 0 
0 0 0 
0 0 0 
0 0 0 
0.5217398524280690 -0.1984255871576495 -0.2497692312932699 
0 0 0 
0 0 0 
0 0 0 
0 0 0 
0 0 0 
0 0 0 
0 0 0 
0 0 0 
0 0 0 
0 0 0 
0 0 0 
0 0 0 
0 0 0 
0 0 0 
0 0 0 
0 0 0 
0 0 0 
0 0 0 
0 0 0 
0 0 0 
0 0 0 
0 0 0 
0 0 0 
0 0 0 
0 0 0 
0 0 0 
0 0 0 
0 0 0 
0 0 0 
0 0 0 
0 0 0 
0 0 0 
0 0 0 
0 0 0 
0 0 0 
0 0 0 
0 0 0 
0.004775015108083608 -0.01796842155383457 -0.002755719148463555 
0 0 0 
0 0 0 
0 0 0 
0 0 0 
0 0 0 
0 0 0 
0 0 0 
0 0 0 
0.004775015108083608 -0.01796842155383457 -0.002755719148463555 
0 0 0 
0 0 0 
0 0 0 
0 0 0 
0 0 0 
0 0 0 
0 0 0 
0 0 0 
0 0 0 
0 0 0 
0 0 0 
0 0 0 
0 0 0 
0 0 0 
0 0 0 
-0.5725897385282498 0.3752128219900436 0.2546850719501205 
0 0 0 
0 0 0 
0 0 0 
0 0 0 
0 0 0 
0 0 0 
0 0 0 
-0.01187449876444602 0.02726409007636078 -0.01596479424702446 
0 0 0 
0 0 0 
0 0 0 
0 0 0 
0 0 0 
0 0 0 
0 0 0 
0 0 0 
0 0 0 
0 0 0 
-1.092579228934720 1.122521942098424 -1.065096662904210 
0 0 0 
0 0 0 
0 0 0 
0 0 0 
0 0 0 
0 0 0 
0 0 0 
0 0 0 
0 0 0 
0 0 0 
0 0 0 
0 0 0 
0 0 0 
0 0 0 
0 0 0 
0.1274549813981066 -0.06226398387123829 -0.1370017200800043 
0 0 0 
0 0 0 
0 0 0 
0 0 0 
0 0 0 
0 0 0 
0 0 0 
0 0 0 
0 0 0 
0 0 0 
-1.061495072965839 0.9433421764473798 -0.006175607470602216 
0 0 0 
0 0 0 
0 0 0 
0 0 0 
0 0 0 
0 0 0 
0 0 0 
0 0 0 
0 0 0 
0 0 0 
0 0 0 
0 0 0 
0 0 0 
0 0 0 
0 0 0 
0 0 0 
0 0 0 
0 0 0 
0 0 0 
0 0 0 
0 0 0 
0 0 0 
0 0 0 
0 0 0 
0 0 0 
0 0 0 
0 0 0 
-0.005480421330253752 0.4041013161926590 -0.6618348276778209 
0 0 0 
0 0 0 
0 0 0 
0 0 0 
0 0 0 
0 0 0 
0 0 0 
0 0 0 
0 0 0 
0 0 0 
0 0 0 
0 0 0 
0 0 0 
0 0 0 
0 0 0 
0 0 0 
0 0 0 
0 0 0 
0 0 0 
0 0 0 
0 0 0 
0 0 0 
0 0 0 
0 0 0 
0 0 0 
0 0 0 
0 0 0 
0 0 0 
0 0 0 
0 0 0 
0 0 0 
0 0 0 
0 0 0 
0 0 0 
0 0 0 
0 0 0 
0 0 0 
0 0 0 
-0.7137543261222876 0.9435844964049788 -0.5631156267892097 
0 0 0 
0 0 0 
0 0 0 
0 0 0 
0.3251101899912334 -0.2391729717150839 -0.2717243529978989 
0 0 0 
0 0 0 
0 0 0 
0 0 0 
0 0 0 
0 0 0 
0 0 0 
0 0 0 
0 0 0 
0 0 0 
0 0 0 
0 0 0 
0 0 0 
0 0 0 
0 0 0 
0 0 0 
0 0 0 
0 0 0 
0 0 0 
0 0 0 
0 0 0 
0 0 0 
0 0 0 
0 0 0 
0 0 0 
0 0 0 
0 0 0 
0 0 0 
0 0 0 
0 0 0 
0 0 0 
0 0 0 
0 0 0 
0 0 0 
0 0 0 
0 0 0 
0 0 0 
0 0 0 
-0.3668336976014406 0.4468047019230087 -0.02142500050730790 
0 0 0 
0 0 0 
0 0 0 
0 0 0 
0 0 0 
0 0 0 
0 0 0 
0 0 0 
0 0 0 
0 0 0 
0 0 0 
0 0 0 
0 0 0 
0 0 0 
0 0 0 
0 0 0 
0 0 0 
0 0 0 
0 0 0 
0.7111087354663429 -1.071827519482390 0.01269660540414102 
0 0 0 
0 0 0 
0 0 0 
0 0 0 
0 0 0 
0 0 0 
0 0 0 
0 0 0 
0 0 0 
0.002931092025336397 -0.009347296822358141 -0.0004374111852193266 
0 0 0 
0 0 0 
0 0 0 
0 0 0 
-0.7363848829746054 0.7041692047322959 -0.2778999604685011 
0 0 0 
0 0 0 
0 0 0 
0 0 0 
0 0 0 
0 0 0 
0 0 0 
0 0 0 
0 0 0 
0 0 0 
0 0 0 
0 0 0 
0 0 0 
0 0 0 
0 0 0 
0 0 0 
0 0 0 
0 0 0 
0 0 0 
0 0 0 
0 0 0 
0 0 0 
0 0 0 
0 0 0 
0 0 0 
0 0 0 
0.002931092025336397 -0.009347296822358141 -0.0004374111852193266 
0 0 0 
0 0 0 
0 0 0 
0 0 0 
0 0 0 
0 0 0 
0 0 0 
0 0 0 
0 0 0 
0 0 0 
0 0 0 
0 0 0 
0 0 0 
-0.7945368365701301 0.1397965356691830 0.4116412685324151 
-1.769850908224028 2.515899782800624 -1.808686662430861 
0 0 0 
0 0 0 
0 0 0 
0 0 0 
0 0 0 
0 0 0 
0 0 0 
0 0 0 
0 0 0 
0 0 0 
0 0 0 
0 0 0 
0.1245238893727702 -0.05291668704888015 -0.1365643088947849 
0 0 0 
0 0 0 
0 0 0 
0 0 0 
0 0 0 
0 0 0 
-0.0003332941291930468 0.006062353977873703 -0.01253206096655620 
0 0 0 
0.004775015108083608 -0.01796842155383457 -0.002755719148463555 
0 0 0 
0 0 0 
0 0 0 
0 0 0 
0 0 0 
0 0 0 
0 0 0 
0 0 0 
0 0 0 
0 0 0 
0 0 0 
0 0 0 
0 0 0 
0 0 0 
0 0 0 
0 0 0 
0 0 0 
0 0 0 
0 0 0 
0 0 0 
0 0 0 
0 0 0 
0 0 0 
0 0 0 
0 0 0 
0 0 0 
0 0 0 
0 0 0 
0 0 0 
-0.03475245675604637 -0.03240311661989265 -0.008315980113752657 
-0.1272468341048451 -0.007893578705340507 0.06455496338172308 
-0.6618575365816618 0.5603040238457965 -0.2237091317327862 
0.3599278574973296 -1.098985169950919 0.8114762813312915 
0 0 0 
0 0 0 
0.5791153623390255 -0.5030762518487075 -0.3854308246328650 
-0.2350843724923619 0.4852453764026607 -0.3328800348126365 
0 0 0 
-0.0002521482197943009 -0.02030424667399024 0.007827521265856370 
0 0 0 
-0.1915059969080228 0.2446125678774492 -0.09997656531647449 
-0.2060378774961979 0.2601818964365683 -0.1285318258740023 
0 0 0 
-0.02720962626625617 -0.2101227335326315 0.02209407976649440 
-0.1103090372616376 0.1072686082038259 -0.04286644605844887 
-0.2308856479210256 0.2896833431013768 -0.01831019476340154 
-0.1119344670384434 0.9447229983396607 -0.8786645135021233 
0 0 0 
0 0 0 
0 0 0 
0 0 0 
0 0 0 
0 0 0 
0 0 0 
0 0 0 
0.9942583193658139 -1.306485942182196 0.5817827118936320 
0 0 0 
0 0 0 
-0.2715671932216306 0.009745832048457338 0.03331369061975834 
-1.323612682893783 1.176758375128478 -0.3875302770580257 
0 0 0 
0 0 0 
0 0 0 
0 0 0 
-0.1253507175026977 0.1954343133436380 -0.2945167907968058 
0 0 0 
0.2695970582689380 0.1391359666753679 -0.3645404499434299 
0 0 0 
-0.01169667045577552 0.2254847464198346 -0.1315519766709805 
-0.4949084380147799 0.6115635420621675 -0.6413735989915605 
0 0 0 
0 0 0 
0 0 0 
0 0 0 
0 0 0 
0 0 0 
