solver_type L2R_LR
nr_class 4
label 1 2 3 4
nr_feature 2097
bias 0.000000000000000
w
0.1086781021254637 -0.02524034724432970 -0.003061170028906446 -0.4027355297920318 
0.2084298251292240 -0.04848034997836912 -0.01158084158859596 -1.047614069514765 
0.1190569287456433 -0.08919589141304785 -0.1817517435341862 0.1983632375202900 
0.06281516207949428 -0.1476368712927978 0.2197973942955420 -1.047838399934413 
0.3023260158795022 -0.1793994875232338 0.05432111773865805 -0.6941431681328754 
0.3541560847939719 -0.06294428117389696 -0.1436028288304813 0.07847267925174918 
-0.08364665987722564 -0.4039296867933634 0.5730362196527878 0.1229144851623393 
0.1049909653676900 -0.3336301654974170 0.1675707071432507 0.1047934412687810 
-0.06491882660133685 0.01308862765765589 -0.1417985122348103 -0.2074393546491459 
-0.7405493489184424 1.026183890542454 -0.7489227970388129 0.2429306514128500 
-0.1915936704436010 -0.08546709352258207 0.2554917121200486 -0.6223154583306765 
-0.04648560312665954 0.1576313379075258 -0.1517396025584125 -0.1990719042164694 
0.03699646602396097 -0.1487368663830463 0.07890767088136690 -0.5151697710257904 
0.4802039704380940 -0.6437598018451175 0.3500898712982621 -0.2650798831768115 
-0.5075433922331403 0.6570718759406567 -0.2449104961734480 -0.3262631029852916 
0.1203706530862409 -0.02167060837988686 -0.3185780584375070 -0.4306360164520580 
0.02525619285290546 0.05289592956976550 -0.2701171433981698 0.4699062701652529 
-0.9461650113297040 0.6308025305782840 -0.1199509337346741 0.4327285130377765 
0.5118235423003411 -0.2349551327709600 -0.1536201193942099 -0.1914297877635784 
0.01433998692467420 -0.4512274482819801 0.6327233086297387 -0.1992922134478616 
0.2278658042145344 -0.5270995935267746 0.2479323276719772 0.1344693022910676 
0.1137690690401635 -0.1188079471381979 0.08426087656300468 -0.02506693609228641 
0.3299986449593874 -0.1964569609023767 -0.3942687542323103 -0.1126325346171482 
0.02360506207560866 -0.02549341008046629 0.03087945976065609 -0.02712263446078006 
-0.2437453632610429 0.6278153256372004 -0.2357927955412807 -0.1447533166872162 
0.4542339434014514 -0.2321253150728964 -0.1086409994216013 -0.3173079591461480 
-0.4415168460807737 -0.2573582399801557 0.1730401892852165 0.2195032012118984 
0.1751553029111689 -0.5919461420476746 0.3142273200246866 -0.2035717206236563 
0.2479184899503305 0.1016075426110615 -0.2468551085116505 -0.2603847192324570 
-0.4754528056997681 0.1028390461644083 0.3073726769994695 -0.1740057938192805 
0.4133607263934083 0.08829058379670897 -0.5560943223114564 -0.1247858433200332 
-0.1498012899831729 0.1585975747411509 0.04146203352186793 -0.2249436462297110 
0.06205720244825265 0.4181066300678505 -0.3261634389238485 -0.4898049420780000 
0.06596386224861402 -0.009188179861415674 0.04894435912875962 -0.1144844899179439 
-0.3675900973659012 -1.116302926266320 1.084062418710215 -0.1068015713541041 
-0.07394081459849063 0.2600250029350177 -0.02408434602420476 -0.2057763392376570 
0.2129949152906404 0.3565452533817429 -0.7380909092176580 -0.1584657309719873 
-0.09768328125207318 0.6896845630162884 -0.7590638096091346 -0.2581914729090932 
0.2430054717099460 0.4529921473708852 -0.6625218366152179 -0.09608883430333460 
0.5074133436677146 0.2792053133727027 -0.4590700484483393 -0.2346007092550040 
0.2541972627849941 -0.1505070295672421 -0.1331981568306658 -0.1054707455195101 
0.3672892400133249 0.3252558675730358 -0.5147338972323654 -0.09298049150589044 
0.03394682919284385 -0.01174923196381285 0.01151353467749919 -0.02556386930106432 
-0.1003120309652945 -0.1287145955607392 0.4420542097631555 -0.2393843544808482 
-0.1937928515196859 -0.3123019695686500 0.5678015544306665 -0.04154688029089922 
0.3901881765812750 1.186100184815943 -1.558548212472187 -0.07279093447291343 
-0.5165142078466095 -0.4722946230703010 0.7478707729238880 -0.04942868101014408 
0.1770859751216883 -0.2789453624208794 0.1435711841673840 -0.1715603611005225 
-0.4416781762277220 0.1900299771102149 0.3398826165759076 -0.2428613518922957 
0.5827215662650825 -0.3400100525857860 -0.09981285994558917 -0.1944037491139781 
0.1546327492942370 -0.1819995197069994 0.1946269932628806 -0.1319496809640250 
0.2819000103664325 -0.3617803714421464 0.1791319319573914 -0.06823219003892897 
0.7007944711118700 -0.4467711494600182 -0.2199356395904802 -0.2867689872020017 
-0.2586165315086325 0.3210911659471597 0.1269760055164680 -0.2955106417218769 
-0.8274849074602834 -0.1359194365031130 0.5232877228045583 -0.05275772504210936 
0.2173645528980679 -0.4804665827219947 0.02735396537118888 -0.05993665807556124 
-0.1119227135635670 -0.3166114125840673 0.3678595167091107 -0.1065875692493722 
-0.6638188019617410 -0.6904366698669758 0.9853500312942327 -0.08677850427071968 
-0.5097527241788214 0.5159569385986649 -0.2993588946960883 -0.09586292357172681 
0.2172518025168898 0.1939009616332093 -0.2711261781395051 -0.06201107427107813 
-0.05478003442224996 0.1236678946183211 -0.006253954183572665 -0.08896471200113176 
-0.3621046544264369 0.4260094846211370 0.2405308545503178 -0.06767665591694927 
0.03432675636633235 -0.4303111639278661 0.3633062313488033 -0.07742963423305965 
-0.01291154424652418 0.9083705105468916 -0.8845014561904924 -0.03143101751586551 
-0.2487274303420604 0.4418290766099897 -0.6063452580689703 -0.05344540152235543 
-0.8498647013727721 -0.2036949567668926 0.7276560142730965 -0.07687905721262266 
-0.1995081402746399 0.5032778228087074 -0.2302349750328330 -0.1188485307638624 
0.6279557369219441 0.1452354335240731 -0.8849579983299628 -0.05832044166243392 
-0.6050848020524174 0.7287647507890117 -0.2205973409201909 -0.06797729455966318 
0.04042468362282400 -0.01903273679159269 0.1226648133584678 -0.01516562895578558 
-0.06793086183987710 -0.1176592512891148 0.2368498771460875 -0.08544702453425826 
0.04238997437552158 0.08074636255207172 -0.1905990608293166 -0.04805290936852965 
-7.409561864389009e-05 0.02965271872876254 -0.2640781443245600 -0.0003528757222849333 
-0.2871891714515375 0.03054098043691575 0.3548831324380237 -0.09045441663940777 
-0.1010054077088406 0.2802360185741835 -0.5250932972955532 0.07151073695619830 
0.7611779954814771 -0.6886316323743442 0.2043507259861405 -0.5224753530255235 
-0.2946964963191590 -0.02408712304591867 0.3650760209687785 -0.06458903240921660 
-0.3954183611333011 0.2234014873141292 0.04490082978103594 -0.08316330630065993 
0.08348969271386074 -0.1250436887214136 -0.3890773192397496 -0.03038389385786502 
-0.2100755491201254 0.5606939094513465 -0.6473682912080200 -0.008221200044826554 
0.02999374116835101 0.2829400668684434 -0.3496433794843282 -0.04637784189029136 
-0.4484971473795680 0.7937142810619563 -0.4188990360710641 -0.1338396887428585 
0.3697548482714852 -0.08056272565043716 -0.06983752305801612 -0.09391814213404985 
0.4789692079430366 -0.6938956060950128 0.1213936728793834 -0.2360688544607894 
-0.2586274065862523 -0.2224978659215462 0.8455748672845301 -0.07260132905031581 
-0.4006282887557088 0.04236582363037848 0.3971045232970513 -0.09565926475914481 
0.6543109254349072 -0.3991325260683463 0.01628904571298017 -0.09150793300180377 
0.03859136246925245 -0.01626660392725929 0.08481785160482806 -0.04472973033656689 
-0.1479588710628568 0.3122152261565061 -0.1645282183572601 -0.09865802140791553 
-0.1391524530714166 -0.3567281227314614 0.3840476223472359 -0.03563223384490603 
-0.2422449809924723 0.3623004173002122 -0.4845885813987336 -0.04168231298248645 
0.4505030164582751 0.06651149305503916 -0.4042414262550297 -0.03238833495101129 
-0.2199477422572416 0.1427534975412269 0.1234772738859347 -0.1590109561312493 
-1.339611162000127 -0.0009129342978706633 0.7118920695875873 0.8446580748863185 
0.07833545614145188 0.06029895426486878 0.2083763891204259 -0.2295534572005691 
0.03093751021745139 -0.1338963342766930 0.1829906405333040 -0.2123595345917131 
-0.2620321966649454 0.3230344117321009 -0.1757056788187333 -0.04243419033103453 
-0.1090705711925709 0.5837173089517463 -0.3659868160408616 -0.03911547250573474 
-0.5738802178640270 0.5788152637521853 0.05261938753443710 -0.1011067690391154 
0.6484769001734051 -0.4307290872302776 -0.2955953012047727 -0.06748028498705248 
-0.2087929193884972 -0.01270680850970250 0.5189413289675979 -0.07420284009698463 
-0.1453074024472381 -0.006702424205579688 0.1162788323908421 -0.05277743024262881 
-0.2563282517756905 0.001594844647430505 0.07410597310342434 -0.02444205602939635 
0.3109670853649095 0.1133108651460813 -0.3795272330238165 -0.02608906061675469 
-1.247925892934213 0.8178299314733216 -0.2642648860426061 0.5327581684668647 
0.5301219087229081 -0.05015186427425859 -0.3280315659229304 -0.2968600893119822 
-0.7600563647051392 0.5904953933941669 -0.3004179799848099 0.7299181789148911 
-0.4457279570486885 0.5568226988122872 -0.3560456320817758 -0.03228612104715194 
-0.2463924739890755 0.1657763358057880 0.09632557076868128 -0.05884400444723396 
0.4867288105447525 -0.3520740717895290 -0.2007183329212779 -0.06817033158922296 
-0.3762306769884478 0.07125939612964860 0.2455306237931714 0.1809000064836754 
0.1221096884927779 -0.1026919036254445 -0.2528569104099583 -0.03208120147882151 
0.1917732245692372 -0.005835798593567898 -0.6161796074426329 0.2333982723972518 
-0.1132224145310664 -0.06398665965319608 0.1304796134786399 -0.02556590239195372 
-0.02180053820651335 0.3754764548990890 -0.4248750271027735 -0.05797192909729956 
0.1950931219757483 -0.4679463305348853 0.09249513935748994 -0.08194203377636660 
0.7110165028888625 0.02408316068825812 -0.3499660074690094 -0.1069540652469222 
-0.1882500644278921 0.1665962711419290 -0.1241111705788371 -0.03599430339800063 
0.3564141568821571 -0.03302556749852398 -0.3372833159975447 -0.02769513359151131 
-0.3692215731244753 0.5550066604234152 -0.3306099822833221 -0.0006815523889098953 
-0.4230228237622966 0.1018037924263292 0.4062185663448287 -0.01216562320027432 
0.2024751685552217 -0.6653842268421010 0.7276225288475989 -0.1162915013685167 
0.1059932151320790 -0.2450008867134846 -0.3584086859025186 0.3642633791719653 
0.4247906243265301 0.07846746600789860 -0.4740882397176504 -0.04205715644014808 
0.2609265207809526 0.05472553566693758 -0.2290844509396482 -0.006755286856209945 
0.09440517625315563 0.1432334261198772 -0.2384966970349439 -0.2952970360371906 
-0.1180322636263697 0.2517389308193460 -0.1569654214727983 0.5904558179599065 
0.1154989559218072 0.06194460072542624 -0.1287763319004776 -0.4247209554896325 
0.05147980198993462 -0.6455621304357112 0.6595726924550958 0.3995486129303785 
0.1695859096232955 0.05921979831004821 0.03675287695969809 -0.4011685858310642 
-0.4617787514989514 0.02045149876616193 0.1418908153064081 0.3007636480426609 
0.08015756224828062 0.2728212829068899 -0.2989760004035541 0.1374423162951070 
-0.01540395273979865 0.2371200317316779 -0.2170593603508825 0.1336749137427504 
0.2111926533897292 -0.03145500706565066 -0.1065242884268284 -0.02816963581041092 
0.03774341830704517 -0.3160018568735007 0.4008986254994741 -0.5191198932612766 
-0.1705722643430532 0.1374568122219512 0.05049006824931598 0.07911832674452710 
-0.5425712119710772 0.09618653690697423 0.3334761765921545 0.2597237289865089 
-0.09659272854660152 0.4740542280060667 -0.3235062925553912 0.08389857839189162 
-0.3183850103572203 0.03354801925840981 0.4996067622169622 -0.4079718214332238 
-0.6798994654961431 0.7127412791711477 -0.1627640730945709 -0.2625263307445493 
-0.002085201041726287 0.03686461048911181 -0.1764435764007146 0.2110761957004985 
-0.1656482646519553 0.2513530742218280 -0.5584816344942991 -0.08259271702561490 
0.04439743967726303 -0.1530825947535731 -0.03851258069406337 -0.07243044256646136 
0.2166932477318329 -0.7846856271958471 0.6635438205583172 -0.4316350601769801 
-0.4533193336403685 0.5268736104937860 -0.2681143067929486 -0.01548763865234684 
-0.01834850917475783 -0.09951015967617195 -0.09956800685051621 -0.2366281366661426 
0.8014179580408624 -0.4939282793618232 -0.1553598456758011 -0.004509306810667015 
-0.02222363717479016 -0.2145033807090734 0.2055720495355023 0.08601685220113711 
-0.2830099871371554 0.2454030925259846 -0.1305338114932904 -0.3368296754363898 
-0.01113417778984489 -0.08905909110140390 -0.07521012821486307 -0.06907861199603273 
-0.02674751418713190 -0.06737968566712478 0.1553495604729374 0.1713221893015421 
0.2469299075863368 0.07110987828601466 -0.4551341773095498 -0.07535283076863610 
0.1075191423652290 0.2734385314542870 -0.2071442952846609 -0.4203041406404587 
0.2274296187433528 -0.1165661763172060 0.008181275393116597 -0.3048227074751131 
0.2897143451607296 0.04560659897027621 -0.2375258088689771 -0.1973909018912502 
-0.003898967926353989 0.01146305359343094 -0.3412830751255520 0.3069478792192544 
0.5601655766898194 0.3782189089290923 -0.8550380043172229 -0.3131491462712589 
-0.3758520698511612 0.1009950532531544 0.3589881670583950 -0.2922584147246643 
-0.1570796392104755 -0.1271508800058355 0.2337390440179086 0.1281136845165661 
0.3773298853712593 0.3403997834787874 -0.7249184619012647 0.3249006769059478 
0.1516532969127937 0.3096630930635316 -0.5462044660378862 0.4255339188571804 
-0.1560845068451147 0.3911339313375370 -0.2331968585076891 0.3902908981366844 
-0.1192502238460425 0.1211699825670136 -0.04863480488896202 -0.1602427928186676 
0.1372985950448864 -0.4905939717380955 0.03586060047493189 0.2917942124926009 
-0.9788086027081930 0.9984033760829640 -0.2921725208107521 0.5800026741534053 
-0.1292545101015280 0.2454690103119300 -0.1539235905491110 0.2946085446946991 
-0.3837559762767487 0.4159735691188963 -0.1985319064998187 -0.1319140664086495 
0.6356346462451653 -0.5422829201539463 -0.03637326135945122 0.2403515515443011 
0.003427750651928861 -0.2692349552240812 0.5132760253413290 -0.2103601953742843 
-0.2097226253797533 0.1247391468027925 0.05716604784168144 0.3323459675859828 
-0.03598705186869360 0.2970118356180753 -0.1805871594983642 -0.07851177731326472 
-0.3705037452958334 0.5025209660168077 0.008623258534887210 -0.001348016330544791 
-0.2953208141535137 -0.08231554067058343 -0.2965728314596201 0.5929715427540169 
-0.4196281155668895 0.2368124026717701 -0.1404290789836649 0.02578670975110500 
-0.01453763077189933 0.1626516458020170 -0.08642077975329816 -0.1261499257190535 
-0.4654272467471061 0.5113695471830197 -0.05197019594528845 -0.3588046275634981 
0.1942166202222125 0.1143533233070087 -0.4072048873133915 -0.2518120348953998 
-0.08655392080005830 -0.02955327732038187 0.07895908805725630 -0.2822414383220138 
0.1761699051829297 -0.08110306931480797 -0.08994106214872738 -0.1381824353063876 
0.1228695706998481 0.1992106813740040 -0.2717415261644528 -0.07652653543403995 
-0.4074341683888728 0.3593128540012151 0.06336477105435682 -0.1967742284671623 
0.4194029962342687 -0.3201179878071661 -0.06463461844247334 -0.1746957386217681 
-0.7529143831580210 0.2800909188576953 0.2132551377785459 -0.1029995086824032 
0.02910992735775923 0.1156085237708841 0.0008214224016053083 -0.1407879787996914 
-0.09369023645292873 -0.1424185939025950 0.2637670154190141 -0.07802227830757026 
-0.3036540100289371 -0.4545379878003648 0.5636686772809986 -0.1653773995123838 
-0.1971555429310690 0.1376558898013666 -0.1456737177745159 -0.1146154108535677 
-0.08427768025969112 -0.1081473263294584 0.2404245364069761 -0.2229353707378243 
-0.4933701560306291 0.6458083715094485 -0.2797545928531919 -0.1763784632799460 
-0.4473962101018730 0.2204912443940371 0.07628773876064315 -0.1417680298827693 
-0.02891072764245908 -0.2389586876686502 0.1918746843441592 -0.06955856233995818 
0.1036321357191874 -0.2123417819365948 -0.1139898911065035 0.4323639550369310 
0.3735502012854862 -0.1208194495356429 0.004968289428675443 -0.2211838130014900 
-0.08753166250849763 0.1355232894300660 -0.09068435928520685 -0.07365887430365982 
0.2931280382948278 0.2691379338727486 -0.5562779203767279 -0.1814843407884696 
0.1318259166583031 -0.01053987361587032 -0.1219491479920635 0.06457144812792773 
-0.05592726147254613 -0.6884146297122671 0.6449910195284012 -0.1487213679017626 
-0.04980005076989399 -0.8853761795630200 0.8138996698608463 -0.1492247049024160 
0.2559094004268855 -0.1414673005798524 -0.3384036350169396 -0.1791226442211880 
-0.04886916514851703 0.2707539114747558 -0.3141256925115861 -0.1139132864103659 
-0.1899899023168588 0.06291613693510437 -0.2283676654847451 0.5207142237157464 
0.1718707008414696 -0.1302137187535247 -0.09241436075173136 0.6555437140923526 
-0.2319308883671864 -0.03800362685778907 0.2734546339686020 -0.09145390298664549 
-0.1781971325930381 0.1532988024528316 0.4248621853914412 -0.1248182993038444 
-0.001279713370449480 0.2444268464105004 -0.1262733361632650 -0.2464058638756811 
0.2822909852013287 0.01437284257656237 -0.1862272863806497 -0.07979563925041491 
0.6472164074054978 -0.2522391062515674 -0.2292698081884839 -0.08127189349251836 
0.4539338386634692 -0.4445483641023258 -0.1403391584802038 -0.1885837938360686 
0.7155109851072666 -0.6242108163881711 -0.1282929481352831 -0.04513122004919515 
0.1491475662401822 -0.3121972432439575 0.2805028913210346 -0.09340280138332298 
-0.1972968084225632 -0.07159659264223203 0.2108610211983777 -0.1013153332466877 
0.4486118952607469 -0.7940017887619750 0.4258871656120349 -0.06404416731887890 
0.1234251663598754 -0.2515828563921825 0.2223366964305832 -0.08070883632301082 
0.1465938555384138 0.3136395982543002 -0.4065183134140676 -0.09779708974244257 
0.2116275492154084 -0.1281108115956592 0.009051572286567670 0.08938237158945422 
0.01865805087739502 -0.4036232246982926 0.1650046176753738 0.6207125413679013 
-0.2313089765127176 -0.09618587953800964 0.5996633680430219 -0.1054716161672826 
-0.2302609630998805 0.04699968605785439 -0.06195776763548411 -0.1789808978066145 
0.2229608466911950 0.08561307145214156 -0.5771054924367521 0.4498921314350481 
0.06237811092688606 0.4271666673904508 -0.4901099789464536 -0.2571590684101114 
0.4108724428467112 -0.4091089514649599 0.1381973072568322 -0.06259440140425422 
0.3944354503100417 -0.4971469205487525 0.1080744593319740 -0.1625325427911460 
-0.1369525217067474 -0.1655880651092368 0.3570890112293893 -0.1322357857924383 
-0.09694621897312641 0.1474486203015601 -0.02682475385946121 -0.1131672905746537 
0.2753096431009910 -0.09844521179678153 0.06187263329112940 -0.1947428714612708 
0.2168727450851326 -0.3626142127671947 0.2082933785845152 -0.07129822430282794 
-0.06813562324606849 0.1459586642339230 -0.1338317832371078 -0.2998087603549410 
-0.2749061511971351 -0.4710542452697344 0.6278644842506744 -0.08508330504436176 
0.3894425151957972 -0.2449980078188360 -0.3941021048234098 -0.1074548593427504 
0.1627933283246448 -0.6210856595527942 0.3442281080963853 -0.07960592208370267 
0.004182895039991165 0.2572521566956215 -0.2623670030768600 -0.1704036046180314 
-0.04045105775837019 0.1621112638421539 -0.1002057057794615 -0.1452100080156945 
0.2327767038477505 0.02691938492579056 0.05619366269175345 -0.09162593792522586 
0.02594331054005074 0.1419074659229545 -0.1852350694534966 -0.1057010140793499 
-0.1257362259700722 0.09517101795181072 -0.06472461202929353 -0.06792029102414919 
0.06656539931947635 -0.4962665230059470 0.3411721459432453 -0.1118378615327985 
0.6076594817135460 -0.7785877550887075 0.3933957403736973 -0.03526548102984482 
0.3014576466575014 0.04923825002418631 -0.4357206640079400 -0.08973978314942480 
0.3057257856019366 0.3363912462701447 -0.7754745932675430 -0.1390602725425982 
0.6009461253810182 0.1774898184872530 -0.3908989489561956 -0.06814198961296807 
0.3312913122262196 -0.6342240468229241 0.1409559632893999 0.1444259308957631 
0.1724337767084586 0.2092644516204454 -0.2452277990348197 -0.1532829632443087 
0.2248692164732063 0.002384989700933217 -0.03696625160336124 -0.06751948290500724 
0.4335855982465355 -0.09203877479891878 -0.1227801106756085 -0.1987884726006209 
0.4253715337513019 -0.2705820752172994 0.05891645566196683 -0.09514966933584460 
-0.1318453136443941 -0.3610332944676257 0.1493341183981889 0.5144548696563993 
0.07136160146229077 0.1809580555116196 -0.2122341878773695 -0.06613152868573324 
-0.1436725426875001 -0.005173154262790844 -0.008598546641396180 -0.1094718788201547 
-0.04978981958661562 0.8612687471117876 -1.118838087128180 0.5072349626937305 
0.4635614789694019 0.2679076479013898 -0.7333902430615861 -0.1238651097767989 
0.1620445083208347 -0.05400094882815242 0.05351462893835435 -0.9613510971507707 
0.2002132626373294 -0.2476589741816365 0.1347578500434876 -0.4605071771704031 
-0.2572032536186714 -0.0009522169895490372 0.2147291002904218 -0.1376073886587387 
0.1867190131269624 0.3640376469045142 -0.4995558868067506 -0.2634552881138473 
-0.4210627308487578 0.1789100284382078 0.04432834165497047 -0.06225678416423213 
-0.04094105850723048 0.4465438254995287 -0.3827513548455417 -0.8784765909933621 
0.04781880198676262 -0.3402265920424757 0.2991834620454981 0.4149798242730490 
0.2257916097403726 -0.4945809007170015 0.4670934609630298 0.05269085442496561 
-0.2506916637493395 0.1775055582735423 0.08525993901795027 0.09327366393806036 
-0.2338047814346320 0.08196367378785979 0.1011210104795306 -0.5640585337430308 
0.05329858836715017 -0.02632780311905461 -0.006686843228073662 0.2303875969762513 
0.05143293461733954 0.02374776463197806 -0.3334078819006823 0.2544326067611641 
0.1506995537885076 -0.2912930410968437 0.09496112705860980 -0.2693010351872586 
-0.2612652329579547 0.4261891264763216 -0.2736403768519166 -0.5329689488050708 
-0.3329722881953277 0.1226045434837519 0.1859122582126616 -0.1529111004516500 
0.09021445124161268 -0.06357960507796740 -0.1088127569481755 0.2714971447467544 
0.008744969905568757 0.1885841365389019 -0.08272262389957472 -0.2485147482289043 
0.1763054168850761 -0.7312358573291099 0.5119447335032953 0.1079272617262534 
0.6567362738183076 -0.3191482512045910 -0.1845986836577763 -0.04699179407666502 
-0.1023308852249490 0.05108368033542900 -0.5386434895365353 -0.2186542224381154 
0.002664310907803528 0.1223096966112001 0.07828593840389858 0.007436977313369956 
0.1602097454854443 -0.5008268299850274 0.3814407422511105 -0.04499654320507380 
0.2684738299897546 -0.03665494984077532 -0.1278315556518450 0.03555025643937997 
-0.4012147335236356 0.2810641202517505 -0.07306288699423338 -0.01170197037694496 
-0.2935800615304489 0.4987985608953967 -0.3907039094960135 -0.3371322846467192 
0.3190491149941830 -0.3538259626563634 0.1193115025768211 0.09908569597303560 
-0.4653386348347599 0.05820347373074720 0.3107252315603389 0.4568899884083714 
0.04060457429404753 -0.05551019612902528 0.06157615138921908 -0.3036894727864709 
-0.2141281910589590 -0.8972593512194919 1.080396427722996 -0.1951400838326171 
0.2572509518134388 0.1824258071878565 -0.1644648675861360 0.3082561856521333 
-0.5341668151166977 0.4604935893256750 -0.3516820884121942 -0.09123956042046169 
0.03234143758592083 -0.3869464044460360 0.2106907838704019 0.5898468669292016 
0.05098713571799188 0.2593379238491341 -0.2594033819218054 -0.1648074201022115 
0.02744179420152075 -1.270510664008220 1.094146743749782 0.1106306022520693 
0.2391680398099977 0.1181819456072416 -0.3561899145569569 0.09280730168537007 
-0.1969235499420062 -0.09616105543369867 0.3501181525445152 -0.08329180644043793 
-0.2787660897336745 0.2135425235360673 -0.1232171123664353 0.4303120834951554 
0.1668480668717224 -0.6059068776422409 0.3024203977557273 0.2806480233474364 
0.07855289914058004 -0.3599040321117448 0.3089533951365315 -0.09578281662322437 
-0.1173452113819732 0.2448357117003075 -0.2445662940743734 -0.3445866734519366 
-0.03515072005359200 0.4120942007401082 -0.1443424965210399 0.09832675919636372 
-0.2097226253797533 0.1247391468027925 0.05716604784168144 0.3323459675859828 
-0.3705037452958334 0.5025209660168077 0.008623258534887210 -0.001348016330544791 
-0.2093284298090859 -0.1755600174309905 0.08959153931604412 -0.1267404498355712 
0.5235140799530629 -0.5735442145667283 -0.04574047893626964 -0.2523374560574924 
0.3218788842745231 -0.4621476899491415 0.5675188340593238 -0.2320940724477564 
0.3765984301234382 0.2048626252564201 -0.4741117365731679 -0.2093849871774937 
-0.1422884848748267 -0.6457523017837659 0.7511503693723730 -0.1555001024113997 
-0.4221292285916626 0.1584845761815486 0.05006794681715256 -0.3723800502017299 
-0.02898074804643408 -0.8865500190411610 0.9256394685021583 -0.2385045261353342 
0.2358323160615368 0.1645181423513823 -0.07441047107219406 -0.3017061268115517 
-0.5846960969810862 0.3971407813938714 0.1755153819027421 0.2651649165820658 
-0.01453763077189933 0.1626516458020170 -0.08642077975329816 -0.1261499257190535 
0.09657831841784857 -0.3178367343958411 0.4062407480472995 -0.1744059210236407 
-0.009474361951779366 -0.6210228714836368 0.6696402668145870 -0.2662568094679781 
0.1573448622613958 0.4701148056125014 -0.5998508206197960 -0.2415786445877978 
0.07712070352144819 -0.1965023602773524 0.08615739408501940 -0.1396545869265433 
0.2355710240132944 -0.3452514868815230 0.08447237997466568 -0.1759144096939691 
0.02408974183691024 0.2213373904824816 -0.02757900521363176 -0.1462995555993391 
0.2072364362326233 -0.07415914172080373 0.05773581395087934 -0.1960125383987327 
-0.2381784561073634 -0.04228732925160982 0.4734956660215288 -0.1859898629827888 
0.1511313546326713 0.2715144999664100 -0.3720009613148237 -0.2446140603433257 
-0.2056896684182423 0.02262643214777630 0.2127850425767361 -0.07596240652811273 
0.2386180560988294 -0.1287666249236491 -0.04060638878324799 -0.1613737263621244 
-0.2523941556347852 0.1130664934480253 0.2341036374930797 -0.1421318419418430 
0.02549210193003036 0.5256402664352328 -0.5455475656524353 0.05598370058926336 
-0.09369023645292873 -0.1424185939025950 0.2637670154190141 -0.07802227830757026 
-0.4093104248780804 0.05141792120021684 0.4162133186676633 -0.2841433147403396 
0.03772347249747383 0.02378700965471212 -0.3227483134308583 0.4307134853397299 
-0.1397213738663184 -0.1402563193692857 0.1019729648109720 -0.1683606181831082 
-0.08753166250849763 0.1355232894300660 -0.09068435928520685 -0.07365887430365982 
0.3996016967392541 -0.2350616129156827 0.01854065452098601 -0.3000965215783615 
-0.3914502850864761 0.2793009842407997 -0.008718660299812017 0.5654223516911037 
0.2923024488722860 -0.1527837918918880 -0.3502293520481082 -0.1835443206358410 
0.3943350465052291 -0.1508622346686882 -0.1724730154262613 -0.1197941232992768 
0.1783548101249485 -0.1354474014724781 -0.09850533018331274 0.6495429321159639 
0.3347834475796183 0.2304937130935601 -0.4634569591437539 -0.1046023735849860 
-0.1869773840202805 0.3291095869585708 -0.2431935517596741 -0.07013716704841570 
0.08714643834353933 -0.07601835863365944 0.2200245692818381 -0.1719084038068245 
0.07388283702298065 0.2461165352458358 -0.2222159041660733 -0.09724342293751377 
-0.7193555815290872 -0.2006337374123757 0.6411295007008561 -0.09729962596708842 
-0.6990554784435137 0.5140294923259502 0.05268164551472607 -0.07926132636631329 
-0.3129070290710919 -0.3183194076706909 0.6235240067227629 -0.1936740801946867 
-0.2600590241518104 -0.07971851916686129 0.2340219413293838 -0.1123162373891520 
0.1937555497361425 -0.08873051374431458 -0.2290283095566991 -0.07631778872656936 
0.3085062053263203 0.1890210400581093 -0.2200249129636820 -0.2745529702438262 
-0.1472416954049555 -0.6263998887453814 0.5844717337451711 -0.1465046974865043 
-0.8784201545405356 0.6457697790753220 0.1499456906749093 -0.1596030708086814 
0.3497453639182328 0.2891409631253318 -0.5369094425343947 -0.08453460219415829 
0.4486118952607469 -0.7940017887619750 0.4258871656120349 -0.06404416731887890 
0.1787391428442813 0.07474029696989772 -0.5651352716261895 0.4411373013677529 
0.3803431733115870 -0.2913777663309850 -0.2936883654107010 -0.1497502882576523 
-0.2819202086977602 -0.5231145947205049 0.5579490496724714 -0.1436373477052075 
-0.1470672854126396 0.1313379682091092 0.1483063348743970 -0.1048884738741332 
-0.1063836215716103 0.1491011007004620 -0.04583463162995104 -0.1977056929618961 
-0.01334782244991514 0.1121488623637581 -0.1519751848501892 -0.09536935764324812 
0.2116275492154084 -0.1281108115956592 0.009051572286567670 0.08938237158945422 
-0.2302609630998805 0.04699968605785439 -0.06195776763548411 -0.1789808978066145 
0.2753527997797388 -0.08973943356371919 -0.09963781070219000 -0.1451463418403750 
-0.05272621216472031 -0.08846203599434284 0.2901846272340340 -0.1422493242954530 
-0.5504314986306357 0.2421065705520317 0.2564049630277364 -0.08851354667401275 
0.06237811092688606 0.4271666673904508 -0.4901099789464536 -0.2571590684101114 
-0.6626871621914973 1.169403535305815 -0.7826039158651529 -0.09425833449966405 
-0.1397201054283349 -0.1814946156167809 0.3594833076968884 -0.1324385134277255 
0.2149704794578458 -0.3633210975003290 0.2089457409754597 -0.07155149505488517 
0.5081569691979748 -0.4974167153957005 0.01156749301691737 -0.04292146861607186 
-0.2221048355955032 0.3186665714324597 0.02459959072999949 -0.1163954895970977 
-0.03447004518828318 -0.2897087086913324 0.3886035022082124 -0.1098909146135014 
0.1104180308967180 -0.1553146943995647 0.2006782527610129 -0.1112037480953673 
-0.7499726688707079 1.017843097320600 -0.6169650495405120 0.03659392008131573 
-0.09084962699454349 0.5230462553655705 -0.4503925323093939 -0.07514744522227700 
0.2517897224958171 0.5159713359622733 -0.5704078951289653 -0.1688514136023856 
-0.005906376021952070 0.08863543620532513 -0.05885664240294374 -0.3285199787621841 
0.4263004990959326 0.007779301893670748 -0.4207527097367922 -0.06138277235881866 
0.05308824098391701 0.3085496814815311 -0.4218543705949001 -0.09872581154655921 
0.2532772503657173 -0.1297162159907242 -0.1460827562186172 -0.07979095995070784 
0.3448150329271863 0.3880697177707910 -0.4839972139428224 -0.2634553175737450 
0.2314373274258881 -0.6395051885251462 0.2690139976924607 0.2935685581606458 
-0.1257362259700722 0.09517101795181072 -0.06472461202929353 -0.06792029102414919 
-0.05328776825766179 1.088125463598825 -1.444108594032398 0.6896824454456134 
0.5201774927191142 -0.6787314360031722 0.1740447953114717 -0.1142524107238599 
0.09078129739332036 0.3409309896649090 -0.4629497288323635 -0.1355372535614144 
0.2151229670290761 0.06311322718968432 -0.1904637971677544 -0.1225629076901025 
-0.6486410383625610 0.8857691021300393 -0.3660950052569562 0.1429493563745397 
0.2184945942647864 -0.7262106543625377 0.6115654786167026 -0.08240441491090575 
-0.07048953802648400 0.08234077228790188 -0.02758413708685963 -0.02236727620218521 
-0.1299246106001249 0.06777224069728110 0.007430340964476153 0.2363413309310726 
-0.1934177924544534 0.1471704050003949 0.1089391598734318 -0.8598771365136038 
-0.3196591385429409 0.1388264278392151 0.1403708268642355 0.3615912026951764 
-0.06325479731341874 0.008009208631816946 -0.04315903924863408 0.3914431978921082 
0.3407946928668943 -0.3672662193621296 0.1316000416258188 -0.5948856328007488 
-0.1703342596733145 -0.1103082420999958 0.2150059203755116 0.1069675297723597 
-0.4385008665820140 0.4775305392310965 -0.1548245871631766 -0.5030873276454046 
0.04272010442727160 0.08909022435360706 -0.06592101349697440 0.3086520544211465 
0.4109447443257824 -0.3305107141779107 -0.1677695647651891 0.3235727851885143 
-0.3279887865629549 0.2775964552200086 0.07571539719619193 -0.04543745119399984 
0.05928325750174366 -0.9654425429995604 0.9730587157880243 -0.03209260518218356 
0.03606382813221350 0.01774799396954955 0.2954227139796989 -0.4685789613194298 
0.2507970535811300 -0.2151648357188545 -0.02721832567258130 -0.2134146615710094 
-0.5105082934727964 0.2042077224892993 0.1244570083667178 0.6618905547055265 
0.2046321272277830 -0.03823675731870818 -0.006945116470496639 -0.1839731227809834 
-0.2433379213604151 -0.06840281599874280 0.2486594954684271 0.5319450263858282 
0.001710269632769298 -0.06648268853437489 -0.1233746114043449 -0.2294546983636535 
0.2834318917622357 -0.5035284718630617 0.2352239768347009 0.2401236058027393 
0.1830969929884654 -0.07687789730780510 -0.04528009417871292 0.02111695327828896 
-0.09335229729136559 -0.1629345879548459 0.5672742324910110 -0.2234087776382005 
-0.2636001321895481 -0.06270848422567912 0.3724216433392190 -0.2787741025091195 
-0.3563222446190884 0.1803759856781388 0.2002009005446899 0.3507473506924281 
-0.1049163549800055 0.2042098091331933 -0.3334160702094697 0.1754549463268784 
-0.002327206634399739 -0.02822263237325579 -0.06264620529368858 0.2906162452776362 
0.3054404457283310 -0.5007526628226809 0.3562292233702575 -0.3062717105477834 
0.02700200300553024 0.2406888456456133 -0.1308455963068333 -0.1144769936712795 
-0.7936116500787215 0.8305000083875307 -0.4019371379817199 -0.3187264261419627 
0.08397795196117935 -0.04982170756455771 0.003056778073075996 -0.03630215537130399 
-0.9636077931456822 1.027097342715628 -0.4574109187606180 0.001571396933239075 
-0.2694329230907231 0.5371215658361329 -0.08785065763382360 -0.1813985906830008 
0.6213902530449448 -0.4663563904722403 -0.3843437721106083 -0.3413168125085734 
0.2449857853293460 0.2554501273949694 -0.3756167071916127 -0.1770792801366189 
-0.4509833756207736 0.7234426723164538 -0.1190883448572280 -0.2194934985421806 
-0.5291199923097800 1.056186753402914 -1.041454532275256 -0.2304693917109823 
-0.1169644362350051 -0.2442517083564856 0.3992938345712137 -0.1519937877350964 
0.3051340279427514 -0.1328819367670706 0.1551170402722575 -0.1204797810975572 
0.04823686527445098 -1.147320468328039 1.041917819476694 -0.3205065826557193 
-0.4997086861758112 0.8206757853589867 -0.5882677717825110 -0.1328030992324298 
-0.7511680478531751 0.8159377668415653 -0.4615066730082069 -0.08899491163423341 
-0.2545287563923733 0.09483952492066022 0.09913209041104756 -0.08696558211956543 
0.03058848421423702 0.7085821081112983 -0.7302473200332015 -0.2187563245673792 
-0.2051803330823393 0.2978235755407397 -0.3102608541121589 0.2556963428485090 
0.2108575285487516 0.3375699412970628 -0.5672993007543815 -0.1939547753667087 
-0.1597162677076359 0.1598885444358379 -0.04567838556893786 -0.1308306900840408 
0.2780490158235708 0.2084546483669903 -0.5051802392264358 -0.1665580418696043 
-0.5316673255178564 0.4502137675719430 -0.2057154798491803 -0.02449525407168353 
0.03394682919284385 -0.01174923196381285 0.01151353467749919 -0.02556386930106432 
-0.3753508189146607 -0.5769955398858888 0.6106384872561600 -0.05562658082761939 
0.2009484024987659 -0.5956959849797346 -0.04414207187920188 0.3606040776732610 
0.09116919306534713 -0.1613198498185270 -0.04585184073279076 0.1334841451826858 
0.1310645672040260 0.1563615001620383 0.04650923555461854 -0.1208339949309828 
-0.1786676390043122 0.4220274944087649 -0.4016418586930786 -0.04706089218107813 
-0.3516370534386877 -0.5530284656411644 0.7203087706041116 -0.1872730750246083 
-0.5070304961215658 0.7415816709960619 -0.4863163654619183 -0.06290447075808288 
-0.1457204338841431 0.1768926207066401 -0.1576280261814624 0.4137632420338116 
0.08985332168494636 -0.2415422692806273 0.3165082744990486 -0.1152376341091271 
0.4940101952422720 -0.5269499478223326 0.2683999346094109 -0.1774041742169711 
-0.3733185284010899 -0.1873932441159436 0.08751870768521580 0.2558191910168236 
-0.1119227135635670 -0.3166114125840673 0.3678595167091107 -0.1065875692493722 
-0.2277061074796295 0.06379452985831513 -0.02778014867595923 -0.06026008490270866 
-0.01371339097018045 0.008849574336685213 -0.4745122169395713 0.4868825963006266 
-0.6719313569213833 0.6798306405437287 -0.4596004715650494 0.1555692433010302 
-0.1314345583753974 -0.1581724672260730 0.1785301392376570 -0.1698295867887607 
-0.3498008929654048 -0.01351712250926880 0.1459946624554187 -0.1093977517034868 
-0.4816134566780287 -0.2193860762502656 0.2863084189753210 -0.06730451974579664 
0.1146190909984627 -1.105388674353228 1.283848648063289 -0.2516436143046351 
0.2952219408805841 -0.06951746768997813 -0.2613415589147363 -0.03075095405211683 
-0.4792498796341274 0.5323264044356272 -0.2245285097900300 -0.1068758787168450 
0.2398491611712714 0.2888460271694110 -0.4284106388530800 -0.1361904804539179 
-0.1557070544559250 0.2896804939539568 -0.1286632298382324 -0.09321120242201420 
0.007238996915660466 -0.2329350476414551 0.3429322987929965 -0.06189707664373673 
0.04042468362282400 -0.01903273679159269 0.1226648133584678 -0.01516562895578558 
-0.3089874186204381 0.1243662474408304 0.05706978494169800 0.6723777033737638 
-0.02147624545892999 -0.2899643264849844 0.6263026688485870 -0.2780834059471920 
-0.4172755897338689 0.05917286977193659 0.06872081029916124 -0.01761910057640083 
0.2877660871010593 -0.4173622035533229 -0.4294561972107400 0.6984778926434226 
0.6547719669660843 0.2808813619857128 -1.010099323966195 -0.1852690473780719 
-0.2145943109896691 0.7141042032403367 -0.3545259814713169 -0.1670468295549141 
-7.409561864389009e-05 0.02965271872876254 -0.2640781443245600 -0.0003528757222849333 
-0.2109293806313823 0.2954411241643293 0.04652639685478078 -0.1224675910254335 
-0.3426692294142041 0.6327775762213043 -0.6172352376041088 -0.02009282087056731 
0.1935095165877915 -0.9349711509402555 0.8732624320280423 -0.03615119170394109 
0.2687154137234208 0.1021986019460192 -0.2897305453271559 -0.05126122895443937 
0.6494451952960189 -0.2026580418697806 -0.1351066668326968 -0.1470470957421761 
-0.1059885296958197 0.02029582210403200 -0.01512679880731425 -0.07916963745748617 
0.09244366216673675 0.03210244001187020 -0.3162461708295241 -0.1103234851752871 
0.1160547241582817 0.3588559030436463 -0.7573741490423106 -0.1198523305976533 
-0.3383492727073372 0.7898160409692504 -0.5823940109743833 -0.06211136862068914 
-0.04602395553681411 0.6601775618822836 -0.6550367927935595 -0.01689740915338723 
-0.2743913393376511 -0.2022751037088107 0.5298255570866084 0.2160801942763258 
-0.1734274988398155 -0.1740276569175078 0.06563866334462881 -0.006045291572116448 
-0.1927384684817844 0.08239851767809035 0.2031882170863125 -0.04702636707075317 
-0.08130275034722488 -0.4549951726216978 0.3384138946784434 -0.1042607840145653 
0.1390790138405992 0.2625281609737086 -0.2559312922586243 -0.04517300835179078 
-0.05967790776649105 -0.5067843352745723 0.6305340398074956 -0.04715202002657730 
-0.6807560389491641 1.086209695728386 -0.6026725207734229 -0.05424302312494089 
0.6119164730656530 -0.4601761966678710 0.01289109987424833 -0.04794143213781690 
0.2427854110982627 -0.3898016120055811 0.1226883780242749 -0.06317788727758261 
0.004742143984603323 -0.2629598908945104 0.1839224818191405 -0.02673462739585069 
0.05640106664380894 0.6765887069688971 -0.8047855524847242 -0.1721050668097908 
0.2007158284064303 -0.1885081466700501 0.04086194965232247 -0.08804956758505860 
-0.09126806351739680 -0.08762876995507330 0.06407344540631443 -0.003891232196042419 
-0.3333527310837235 0.04842984528875877 0.3625193095473948 -0.2263019315184672 
-0.3914349587837581 0.2491858564672890 -0.08753165554715545 0.04099198105623469 
-0.1597619208379341 0.1512135069761809 -0.08164377095841538 -0.01451923011845399 
0.5474707858386642 -0.6676668441439270 0.03946954161392690 -0.1590826516128787 
0.4939400095516887 0.2767311888743284 -0.8197159243626337 -0.09278879558724243 
-0.04463293251901773 0.5691511844155028 -0.3322179595444741 -0.01294213101428113 
-0.1633388367991517 0.2027373930282992 -0.1263908933221172 -0.06698482618536297 
0.03406453075870890 -0.7478720247774133 0.3789296736951820 -0.1009581874644102 
-0.5286508375705333 0.06266004518054609 0.4431728463490178 -0.02014945029040838 
-0.3699416320297068 -0.2057557234182190 0.5132937318587473 -0.02802773778832318 
-0.5135265776616498 0.02973212623578476 0.6447544887898065 -0.09865094832472379 
-0.5870903247535190 0.8823173707348323 -0.1376602834605011 -0.08892890634553147 
0.1373867042815834 -0.5911533598509220 0.1691323659958964 -0.02051933488069254 
0.05195346876333833 -0.4969725692290175 0.5880487392335813 -0.07179187017608904 
-0.1930101556503136 0.8422029246832414 -0.4173744754851225 -0.01683371999607561 
0.3365005055196391 -0.3169625732727115 0.3411689655613902 -0.5282025220944787 
0.1530653974176318 -0.4174782836976601 0.4654531805678256 -0.06229893825333564 
-0.5003878823976483 0.5836226718545484 -0.1450313323493772 -0.05170650719069275 
-0.1410753178231987 0.01969648070372613 0.1072124493453002 -0.05154155669573055 
0.5945242476799907 -0.04270532297378729 -0.4068295954950058 -0.05101552635886937 
0.3719869517577253 -0.3301746116043284 0.08323610107836650 -0.01126504496857237 
-0.4597073362869473 1.126725183627672 -1.136182232919764 -0.3156488700091086 
0 0 0 0 
0 0 0 0 
0 0 0 0 
0 0 0 0 
0 0 0 0 
0 0 0 0 
0 0 0 0 
0 0 0 0 
0 0 0 0 
0 0 0 0 
0 0 0 0 
0 0 0 0 
0 0 0 0 
0 0 0 0 
0 0 0 0 
0 0 0 0 
0 0 0 0 
0 0 0 0 
0 0 0 0 
0 0 0 0 
0 0 0 0 
0 0 0 0 
0 0 0 0 
-1.308243736457777 -1.599353042775380 1.846716299757689 -0.05109891690383403 
0 0 0 0 
0 0 0 0 
0 0 0 0 
0.8701558692789177 -0.2583409716472432 -0.2419101203972345 -0.001724862428846516 
0 0 0 0 
0 0 0 0 
0 0 0 0 
0 0 0 0 
0 0 0 0 
0 0 0 0 
0 0 0 0 
0 0 0 0 
0 0 0 0 
0 0 0 0 
0 0 0 0 
0 0 0 0 
0 0 0 0 
0 0 0 0 
0 0 0 0 
0 0 0 0 
0 0 0 0 
0 0 0 0 
0 0 0 0 
0 0 0 0 
0 0 0 0 
0 0 0 0 
0 0 0 0 
0 0 0 0 
0 0 0 0 
0 0 0 0 
0 0 0 0 
0 0 0 0 
0 0 0 0 
0 0 0 0 
0 0 0 0 
0 0 0 0 
0 0 0 0 
0 0 0 0 
0 0 0 0 
0 0 0 0 
0 0 0 0 
0 0 0 0 
0 0 0 0 
0 0 0 0 
0 0 0 0 
0 0 0 0 
0 0 0 0 
0 0 0 0 
0 0 0 0 
0 0 0 0 
0 0 0 0 
0 0 0 0 
0 0 0 0 
0 0 0 0 
0 0 0 0 
0 0 0 0 
0 0 0 0 
0 0 0 0 
0 0 0 0 
0 0 0 0 
0 0 0 0 
0 0 0 0 
0 0 0 0 
0 0 0 0 
0 0 0 0 
0 0 0 0 
0 0 0 0 
0 0 0 0 
0 0 0 0 
0.5586223705453919 1.765539801426256 -2.274514257740749 -0.2283151836790573 
0 0 0 0 
1.890490461568176 -0.3688558287049206 -1.785270091767053 0.6029880614440497 
0 0 0 0 
0 0 0 0 
0 0 0 0 
0 0 0 0 
0 0 0 0 
0 0 0 0 
0 0 0 0 
0 0 0 0 
0 0 0 0 
0 0 0 0 
0 0 0 0 
0 0 0 0 
0 0 0 0 
0 0 0 0 
0 0 0 0 
0 0 0 0 
0 0 0 0 
0 0 0 0 
0 0 0 0 
0 0 0 0 
0 0 0 0 
0 0 0 0 
0 0 0 0 
0 0 0 0 
0 0 0 0 
0 0 0 0 
0 0 0 0 
0 0 0 0 
0 0 0 0 
0 0 0 0 
0 0 0 0 
0 0 0 0 
0 0 0 0 
0 0 0 0 
0 0 0 0 
0 0 0 0 
0 0 0 0 
0 0 0 0 
0 0 0 0 
0 0 0 0 
0 0 0 0 
0 0 0 0 
0 0 0 0 
0 0 0 0 
0 0 0 0 
0 0 0 0 
0 0 0 0 
0 0 0 0 
0 0 0 0 
0 0 0 0 
0 0 0 0 
0 0 0 0 
0 0 0 0 
0 0 0 0 
0 0 0 0 
0 0 0 0 
0 0 0 0 
0 0 0 0 
0 0 0 0 
0 0 0 0 
0 0 0 0 
0 0 0 0 
0 0 0 0 
0 0 0 0 
0 0 0 0 
0 0 0 0 
0 0 0 0 
0 0 0 0 
0 0 0 0 
0 0 0 0 
0 0 0 0 
0 0 0 0 
0 0 0 0 
0 0 0 0 
0 0 0 0 
0 0 0 0 
1.745712456308328 -0.6749363591457026 -0.8749772059968748 -0.06352943141475460 
0 0 0 0 
0 0 0 0 
0 0 0 0 
0 0 0 0 
0 0 0 0 
0 0 0 0 
0 0 0 0 
0 0 0 0 
0 0 0 0 
0 0 0 0 
0 0 0 0 
0 0 0 0 
0 0 0 0 
0 0 0 0 
0 0 0 0 
0 0 0 0 
0 0 0 0 
0 0 0 0 
0 0 0 0 
0 0 0 0 
0 0 0 0 
0 0 0 0 
0 0 0 0 
0 0 0 0 
0 0 0 0 
0 0 0 0 
0 0 0 0 
0 0 0 0 
0 0 0 0 
0 0 0 0 
0 0 0 0 
0 0 0 0 
0 0 0 0 
0 0 0 0 
0 0 0 0 
0 0 0 0 
0 0 0 0 
0 0 0 0 
0 0 0 0 
0 0 0 0 
0 0 0 0 
0 0 0 0 
0 0 0 0 
0 0 0 0 
0 0 0 0 
0 0 0 0 
0 0 0 0 
0 0 0 0 
0 0 0 0 
0 0 0 0 
0 0 0 0 
0 0 0 0 
0 0 0 0 
0 0 0 0 
0 0 0 0 
0 0 0 0 
0.1186983886284019 -1.961105390460953 0.9799089888700796 1.087213202052482 
0 0 0 0 
0 0 0 0 
0 0 0 0 
0 0 0 0 
0 0 0 0 
0 0 0 0 
0 0 0 0 
0 0 0 0 
0 0 0 0 
0 0 0 0 
0 0 0 0 
0 0 0 0 
0 0 0 0 
0 0 0 0 
0 0 0 0 
0 0 0 0 
0 0 0 0 
0 0 0 0 
0 0 0 0 
0 0 0 0 
0 0 0 0 
0 0 0 0 
0 0 0 0 
0 0 0 0 
0 0 0 0 
0 0 0 0 
0 0 0 0 
0 0 0 0 
0 0 0 0 
0 0 0 0 
0 0 0 0 
0 0 0 0 
0 0 0 0 
0 0 0 0 
0 0 0 0 
0 0 0 0 
0 0 0 0 
0 0 0 0 
0 0 0 0 
0 0 0 0 
0 0 0 0 
0 0 0 0 
0 0 0 0 
0 0 0 0 
0 0 0 0 
0 0 0 0 
-1.817578549348388 -1.657751430317777 2.096876125825259 -0.5941967051220906 
0 0 0 0 
0 0 0 0 
0 0 0 0 
0 0 0 0 
0 0 0 0 
0 0 0 0 
0 0 0 0 
0 0 0 0 
0 0 0 0 
0 0 0 0 
0 0 0 0 
0 0 0 0 
0 0 0 0 
0 0 0 0 
0 0 0 0 
0 0 0 0 
0 0 0 0 
0 0 0 0 
4.616650210687912 -2.772069722915890 -2.875893150426923 -0.002647886807073271 
0 0 0 0 
0 0 0 0 
0 0 0 0 
0 0 0 0 
0 0 0 0 
0 0 0 0 
0 0 0 0 
0 0 0 0 
0 0 0 0 
0 0 0 0 
0 0 0 0 
0 0 0 0 
0 0 0 0 
0 0 0 0 
0 0 0 0 
0 0 0 0 
0 0 0 0 
0 0 0 0 
0 0 0 0 
0 0 0 0 
0 0 0 0 
0 0 0 0 
0 0 0 0 
0 0 0 0 
0 0 0 0 
0 0 0 0 
0 0 0 0 
0 0 0 0 
4.847379452795074 -3.224982583833452 -3.694731907142197 0.4550579172049546 
0 0 0 0 
0 0 0 0 
0 0 0 0 
0 0 0 0 
0 0 0 0 
0 0 0 0 
0 0 0 0 
0 0 0 0 
2.411394716262979 -0.6402890839848443 -1.798693926874301 -0.02358003056235021 
0 0 0 0 
0 0 0 0 
0 0 0 0 
0 0 0 0 
0 0 0 0 
0 0 0 0 
0 0 0 0 
0 0 0 0 
0 0 0 0 
0 0 0 0 
0 0 0 0 
0 0 0 0 
0 0 0 0 
0 0 0 0 
0 0 0 0 
0 0 0 0 
0 0 0 0 
0 0 0 0 
0 0 0 0 
0 0 0 0 
0 0 0 0 
0 0 0 0 
0 0 0 0 
0 0 0 0 
0 0 0 0 
0 0 0 0 
0 0 0 0 
0 0 0 0 
0 0 0 0 
0 0 0 0 
0 0 0 0 
0 0 0 0 
0 0 0 0 
0 0 0 0 
0 0 0 0 
0 0 0 0 
0 0 0 0 
0 0 0 0 
0 0 0 0 
0 0 0 0 
0 0 0 0 
0 0 0 0 
0 0 0 0 
0 0 0 0 
2.028414095327755 0.4965525589898955 -2.221507046145309 -1.006544409384958 
0 0 0 0 
0 0 0 0 
0 0 0 0 
0.1115687999882919 0.3645469703390427 -0.5338824877429134 -0.05811158966776599 
0 0 0 0 
0 0 0 0 
0 0 0 0 
0 0 0 0 
0 0 0 0 
0 0 0 0 
0 0 0 0 
0 0 0 0 
-0.4676788192857447 -0.5575685430144941 -0.3408467175352357 -0.2408334117899443 
0 0 0 0 
0 0 0 0 
0 0 0 0 
0 0 0 0 
0 0 0 0 
0.1115687999882919 0.3645469703390427 -0.5338824877429134 -0.05811158966776599 
0 0 0 0 
0 0 0 0 
0 0 0 0 
0 0 0 0 
0 0 0 0 
0 0 0 0 
0 0 0 0 
0 0 0 0 
0 0 0 0 
0 0 0 0 
0 0 0 0 
0 0 0 0 
0 0 0 0 
0 0 0 0 
0 0 0 0 
0 0 0 0 
0 0 0 0 
0 0 0 0 
0 0 0 0 
0 0 0 0 
0 0 0 0 
0 0 0 0 
0 0 0 0 
0 0 0 0 
0 0 0 0 
0 0 0 0 
0 0 0 0 
0 0 0 0 
0 0 0 0 
0 0 0 0 
0 0 0 0 
0 0 0 0 
0 0 0 0 
-0.2985987869445395 1.321013054125484 -1.114614750261382 -0.2210456836309296 
0 0 0 0 
0 0 0 0 
0 0 0 0 
0 0 0 0 
0 0 0 0 
0 0 0 0 
0 0 0 0 
0 0 0 0 
0 0 0 0 
0 0 0 0 
0 0 0 0 
0 0 0 0 
0 0 0 0 
0 0 0 0 
0 0 0 0 
0 0 0 0 
0 0 0 0 
0 0 0 0 
0 0 0 0 
0 0 0 0 
0 0 0 0 
0 0 0 0 
0 0 0 0 
0 0 0 0 
0 0 0 0 
0 0 0 0 
0 0 0 0 
0 0 0 0 
0 0 0 0 
0 0 0 0 
0 0 0 0 
0 0 0 0 
-0.4410787998778253 -0.02480102007644784 -0.05591189787017247 -0.1505863367104797 
0 0 0 0 
0 0 0 0 
0 0 0 0 
0 0 0 0 
0 0 0 0 
0 0 0 0 
0 0 0 0 
0 0 0 0 
1.054806851892121 0.5819074271905849 -0.7396322611057627 0.2821726133322414 
-0.3149851484158265 -0.4655647779971177 0.6636533905765628 -0.02631344177200387 
0 0 0 0 
0 0 0 0 
0 0 0 0 
0 0 0 0 
0 0 0 0 
0 0 0 0 
0 0 0 0 
0 0 0 0 
0 0 0 0 
0 0 0 0 
0 0 0 0 
0 0 0 0 
1.098418838666001 -0.4377322963965057 -0.4766502847809500 -0.4622457345718520 
0 0 0 0 
0 0 0 0 
0 0 0 0 
0.9570870495637920 -1.085420528531514 0.2582771841114558 0.5895570408976100 
0 0 0 0 
0 0 0 0 
0 0 0 0 
0 0 0 0 
0 0 0 0 
0 0 0 0 
0 0 0 0 
0 0 0 0 
0 0 0 0 
0 0 0 0 
0 0 0 0 
0 0 0 0 
0 0 0 0 
0 0 0 0 
0 0 0 0 
0 0 0 0 
0.1469803561668800 0.1229350991314409 -0.4317526690688311 -0.01131543366761813 
0 0 0 0 
0 0 0 0 
0 0 0 0 
0 0 0 0 
0 0 0 0 
0 0 0 0 
0 0 0 0 
0 0 0 0 
0 0 0 0 
0 0 0 0 
0 0 0 0 
0 0 0 0 
0 0 0 0 
0 0 0 0 
0 0 0 0 
-0.7489979538847071 0.4711283541463779 -0.3587505578541040 0.08280129607699600 
0 0 0 0 
0 0 0 0 
0 0 0 0 
0 0 0 0 
0 0 0 0 
0 0 0 0 
0 0 0 0 
0 0 0 0 
0 0 0 0 
0 0 0 0 
0 0 0 0 
0 0 0 0 
0 0 0 0 
0 0 0 0 
0 0 0 0 
0 0 0 0 
0 0 0 0 
0 0 0 0 
0 0 0 0 
0 0 0 0 
0 0 0 0 
0 0 0 0 
0 0 0 0 
0 0 0 0 
0 0 0 0 
0 0 0 0 
0 0 0 0 
0 0 0 0 
0 0 0 0 
0 0 0 0 
0 0 0 0 
0 0 0 0 
0 0 0 0 
0 0 0 0 
0 0 0 0 
0 0 0 0 
0 0 0 0 
0 0 0 0 
0 0 0 0 
0 0 0 0 
0 0 0 0 
0 0 0 0 
0 0 0 0 
0 0 0 0 
0 0 0 0 
0 0 0 0 
0 0 0 0 
0 0 0 0 
0 0 0 0 
0 0 0 0 
0 0 0 0 
0 0 0 0 
1.361937094956697 -1.207312257420580 -0.4776879162171389 1.293853493107477 
0 0 0 0 
0 0 0 0 
0 0 0 0 
0 0 0 0 
0 0 0 0 
0 0 0 0 
0 0 0 0 
0 0 0 0 
0 0 0 0 
0 0 0 0 
0 0 0 0 
0 0 0 0 
0 0 0 0 
0 0 0 0 
0 0 0 0 
0 0 0 0 
0 0 0 0 
0 0 0 0 
0 0 0 0 
0 0 0 0 
0 0 0 0 
0 0 0 0 
0 0 0 0 
0 0 0 0 
0 0 0 0 
0 0 0 0 
0 0 0 0 
0 0 0 0 
-0.2591177565416399 -0.8617827505932831 -1.247930702475299 2.576382107832832 
0 0 0 0 
0 0 0 0 
0 0 0 0 
0 0 0 0 
0 0 0 0 
0 0 0 0 
0 0 0 0 
0 0 0 0 
0 0 0 0 
0 0 0 0 
0 0 0 0 
0 0 0 0 
0 0 0 0 
0 0 0 0 
0 0 0 0 
0 0 0 0 
0 0 0 0 
0 0 0 0 
0 0 0 0 
0 0 0 0 
0 0 0 0 
0 0 0 0 
0 0 0 0 
0 0 0 0 
0 0 0 0 
0 0 0 0 
0 0 0 0 
0 0 0 0 
0 0 0 0 
0 0 0 0 
0 0 0 0 
0 0 0 0 
0 0 0 0 
0 0 0 0 
0 0 0 0 
0 0 0 0 
0 0 0 0 
0 0 0 0 
0 0 0 0 
0 0 0 0 
0 0 0 0 
0 0 0 0 
0 0 0 0 
0 0 0 0 
0 0 0 0 
0 0 0 0 
0 0 0 0 
5.165295315377280 -3.633263783686093 -3.772848353859624 0.1523807656552615 
0 0 0 0 
0 0 0 0 
0 0 0 0 
0 0 0 0 
0 0 0 0 
0 0 0 0 
0 0 0 0 
0 0 0 0 
0 0 0 0 
0 0 0 0 
0 0 0 0 
0.1469803561668800 0.1229350991314409 -0.4317526690688311 -0.01131543366761813 
0 0 0 0 
0 0 0 0 
0 0 0 0 
0 0 0 0 
0 0 0 0 
0 0 0 0 
-0.5243879776157682 -0.6061208907555216 0.4251419603866192 0.8830546648287956 
0 0 0 0 
0 0 0 0 
-0.7489979538847071 0.4711283541463779 -0.3587505578541040 0.08280129607699600 
0 0 0 0 
0 0 0 0 
0 0 0 0 
0 0 0 0 
0 0 0 0 
0 0 0 0 
0 0 0 0 
0 0 0 0 
0 0 0 0 
0 0 0 0 
0 0 0 0 
0 0 0 0 
0 0 0 0 
0 0 0 0 
0 0 0 0 
0 0 0 0 
0 0 0 0 
0 0 0 0 
0 0 0 0 
0 0 0 0 
0 0 0 0 
0 0 0 0 
0 0 0 0 
0 0 0 0 
0 0 0 0 
0 0 0 0 
0 0 0 0 
0 0 0 0 
0 0 0 0 
0 0 0 0 
0 0 0 0 
-0.7489979538847071 0.4711283541463779 -0.3587505578541040 0.08280129607699600 
0 0 0 0 
0 0 0 0 
0 0 0 0 
0 0 0 0 
0 0 0 0 
0 0 0 0 
0 0 0 0 
0 0 0 0 
0 0 0 0 
0 0 0 0 
0 0 0 0 
0 0 0 0 
0 0 0 0 
0.1469803561668800 0.1229350991314409 -0.4317526690688311 -0.01131543366761813 
0.1469803561668800 0.1229350991314409 -0.4317526690688311 -0.01131543366761813 
0 0 0 0 
0 0 0 0 
0 0 0 0 
0 0 0 0 
0.3065581114490920 3.464644943880483 -3.106392695487054 -0.1474830291892921 
0 0 0 0 
0 0 0 0 
0 0 0 0 
0 0 0 0 
0 0 0 0 
0 0 0 0 
0 0 0 0 
0 0 0 0 
0 0 0 0 
0 0 0 0 
0 0 0 0 
0 0 0 0 
0 0 0 0 
0 0 0 0 
0 0 0 0 
0 0 0 0 
-0.4410787998778253 -0.02480102007644784 -0.05591189787017247 -0.1505863367104797 
0 0 0 0 
0 0 0 0 
0 0 0 0 
0 0 0 0 
0 0 0 0 
0 0 0 0 
0 0 0 0 
0 0 0 0 
0 0 0 0 
0 0 0 0 
0 0 0 0 
0 0 0 0 
0 0 0 0 
0 0 0 0 
0 0 0 0 
0 0 0 0 
0 0 0 0 
0 0 0 0 
0 0 0 0 
0 0 0 0 
0 0 0 0 
0 0 0 0 
0 0 0 0 
0 0 0 0 
0 0 0 0 
0 0 0 0 
0 0 0 0 
0.5518809080266943 -0.7107626968205689 0.4009328492287818 -0.1353361124654746 
0 0 0 0 
0 0 0 0 
0 0 0 0 
0 0 0 0 
0 0 0 0 
0 0 0 0 
0 0 0 0 
0 0 0 0 
0 0 0 0 
0 0 0 0 
0 0 0 0 
0 0 0 0 
0 0 0 0 
-0.7391997939959247 -0.5322875199156307 1.392817772845163 -1.051508148710951 
0 0 0 0 
0 0 0 0 
0 0 0 0 
0 0 0 0 
0 0 0 0 
0 0 0 0 
0 0 0 0 
0 0 0 0 
0 0 0 0 
0 0 0 0 
0 0 0 0 
0 0 0 0 
0 0 0 0 
0 0 0 0 
0 0 0 0 
0 0 0 0 
0 0 0 0 
0 0 0 0 
0 0 0 0 
0 0 0 0 
0 0 0 0 
0 0 0 0 
0 0 0 0 
0 0 0 0 
0 0 0 0 
0 0 0 0 
0 0 0 0 
0 0 0 0 
0 0 0 0 
0 0 0 0 
0 0 0 0 
0 0 0 0 
0 0 0 0 
0 0 0 0 
0 0 0 0 
0 0 0 0 
0 0 0 0 
0 0 0 0 
0 0 0 0 
0 0 0 0 
0 0 0 0 
0 0 0 0 
0 0 0 0 
0 0 0 0 
0 0 0 0 
0 0 0 0 
0 0 0 0 
0 0 0 0 
0 0 0 0 
0 0 0 0 
0 0 0 0 
0 0 0 0 
0 0 0 0 
0 0 0 0 
0 0 0 0 
0 0 0 0 
0 0 0 0 
0 0 0 0 
0 0 0 0 
0 0 0 0 
0 0 0 0 
0 0 0 0 
0 0 0 0 
0 0 0 0 
0 0 0 0 
0 0 0 0 
0 0 0 0 
0 0 0 0 
0 0 0 0 
0 0 0 0 
0 0 0 0 
0 0 0 0 
0 0 0 0 
0 0 0 0 
0 0 0 0 
0.01217657486344221 -0.008986370980832053 -0.1411561111734785 -0.008787918984953790 
0 0 0 0 
0 0 0 0 
0 0 0 0 
0 0 0 0 
0 0 0 0 
0 0 0 0 
0 0 0 0 
0 0 0 0 
0 0 0 0 
0 0 0 0 
0 0 0 0 
0 0 0 0 
0 0 0 0 
0 0 0 0 
0 0 0 0 
0 0 0 0 
0 0 0 0 
0 0 0 0 
0 0 0 0 
0 0 0 0 
0 0 0 0 
0 0 0 0 
0 0 0 0 
0 0 0 0 
0 0 0 0 
0 0 0 0 
0 0 0 0 
0 0 0 0 
0 0 0 0 
0 0 0 0 
0 0 0 0 
0 0 0 0 
0 0 0 0 
0 0 0 0 
0 0 0 0 
0 0 0 0 
0 0 0 0 
0 0 0 0 
0 0 0 0 
0 0 0 0 
0 0 0 0 
0 0 0 0 
0.4064268228696863 -0.9501924236226640 0.3630936522806548 0.1167170305530986 
0 0 0 0 
0 0 0 0 
0 0 0 0 
0 0 0 0 
0 0 0 0 
0 0 0 0 
0 0 0 0 
0 0 0 0 
0 0 0 0 
0 0 0 0 
0 0 0 0 
0 0 0 0 
0 0 0 0 
0 0 0 0 
0 0 0 0 
0 0 0 0 
0 0 0 0 
0 0 0 0 
0 0 0 0 
0 0 0 0 
0 0 0 0 
0 0 0 0 
0 0 0 0 
0 0 0 0 
0 0 0 0 
0 0 0 0 
0 0 0 0 
0 0 0 0 
0 0 0 0 
0 0 0 0 
0 0 0 0 
0 0 0 0 
0 0 0 0 
0 0 0 0 
0 0 0 0 
0 0 0 0 
-0.003828854450112476 0.3640598562826391 -0.4474340155558187 -0.05670040813711438 
0 0 0 0 
0 0 0 0 
0.1706214542446431 -0.08448866695466972 -0.08854185532047514 -0.1609858352861878 
0 0 0 0 
0 0 0 0 
0 0 0 0 
0 0 0 0 
0 0 0 0 
0 0 0 0 
0 0 0 0 
0 0 0 0 
0 0 0 0 
0 0 0 0 
0 0 0 0 
0 0 0 0 
0 0 0 0 
0 0 0 0 
0 0 0 0 
0 0 0 0 
0 0 0 0 
0 0 0 0 
0 0 0 0 
0 0 0 0 
0 0 0 0 
0 0 0 0 
0 0 0 0 
0 0 0 0 
0 0 0 0 
0 0 0 0 
0 0 0 0 
0 0 0 0 
0 0 0 0 
0 0 0 0 
0 0 0 0 
0 0 0 0 
0 0 0 0 
0 0 0 0 
0 0 0 0 
0 0 0 0 
0 0 0 0 
0 0 0 0 
0 0 0 0 
0 0 0 0 
0 0 0 0 
0 0 0 0 
0 0 0 0 
0 0 0 0 
0 0 0 0 
0 0 0 0 
0 0 0 0 
0 0 0 0 
0 0 0 0 
0 0 0 0 
0 0 0 0 
0 0 0 0 
0 0 0 0 
0 0 0 0 
0 0 0 0 
0 0 0 0 
0 0 0 0 
0 0 0 0 
-0.4257467834417622 0.3296065154353183 -0.01131147119207276 -0.1064165706102369 
0 0 0 0 
0 0 0 0 
0 0 0 0 
0.08662325710910496 -0.1916110832461740 0.002381144970530721 0.2715326404039529 
0 0 0 0 
0 0 0 0 
0 0 0 0 
0 0 0 0 
0 0 0 0 
0 0 0 0 
0 0 0 0 
0 0 0 0 
0 0 0 0 
0 0 0 0 
0 0 0 0 
0 0 0 0 
0 0 0 0 
0 0 0 0 
0 0 0 0 
0 0 0 0 
0 0 0 0 
0 0 0 0 
0 0 0 0 
0 0 0 0 
0 0 0 0 
0 0 0 0 
0 0 0 0 
0 0 0 0 
0 0 0 0 
0 0 0 0 
0 0 0 0 
0 0 0 0 
-0.4613727982213987 0.4145933491032905 -0.2187908888703478 -0.09108514095662704 
0 0 0 0 
0 0 0 0 
0 0 0 0 
0 0 0 0 
0 0 0 0 
0 0 0 0 
0 0 0 0 
0 0 0 0 
0 0 0 0 
0 0 0 0 
0 0 0 0 
0 0 0 0 
0 0 0 0 
0 0 0 0 
0 0 0 0 
0 0 0 0 
0 0 0 0 
0 0 0 0 
0 0 0 0 
0 0 0 0 
0 0 0 0 
0 0 0 0 
0 0 0 0 
0 0 0 0 
0 0 0 0 
0 0 0 0 
-0.4613727982213987 0.4145933491032905 -0.2187908888703478 -0.09108514095662704 
0 0 0 0 
0 0 0 0 
-0.09136286364805431 -0.4748562144619797 0.4118727677043432 -0.007260789651305634 
0 0 0 0 
0 0 0 0 
0 0 0 0 
0 0 0 0 
0 0 0 0 
0 0 0 0 
0 0 0 0 
0 0 0 0 
0 0 0 0 
0 0 0 0 
0 0 0 0 
0 0 0 0 
0 0 0 0 
0 0 0 0 
0 0 0 0 
0 0 0 0 
0 0 0 0 
0 0 0 0 
0 0 0 0 
0 0 0 0 
0 0 0 0 
0 0 0 0 
0 0 0 0 
0 0 0 0 
0 0 0 0 
0 0 0 0 
0.08662325710910496 -0.1916110832461740 0.002381144970530721 0.2715326404039529 
0 0 0 0 
0 0 0 0 
0 0 0 0 
0 0 0 0 
0 0 0 0 
0 0 0 0 
0 0 0 0 
0 0 0 0 
0 0 0 0 
0 0 0 0 
-0.4493250903649189 0.4176210751567080 -0.1815195140181551 0.08689261302026863 
0 0 0 0 
0 0 0 0 
0 0 0 0 
0 0 0 0 
0 0 0 0 
0 0 0 0 
0 0 0 0 
0 0 0 0 
0 0 0 0 
0 0 0 0 
0 0 0 0 
0 0 0 0 
0 0 0 0 
0 0 0 0 
0 0 0 0 
0 0 0 0 
0 0 0 0 
0 0 0 0 
0 0 0 0 
0 0 0 0 
0 0 0 0 
0 0 0 0 
0 0 0 0 
0 0 0 0 
0 0 0 0 
0 0 0 0 
0 0 0 0 
0 0 0 0 
0 0 0 0 
0 0 0 0 
0 0 0 0 
0 0 0 0 
0 0 0 0 
0 0 0 0 
0 0 0 0 
-0.3161246561185615 0.3939823858379377 -0.3053873883326659 -0.01040208554184622 
0 0 0 0 
0 0 0 0 
0 0 0 0 
0 0 0 0 
0 0 0 0 
0 0 0 0 
0 0 0 0 
0 0 0 0 
0 0 0 0 
0 0 0 0 
0 0 0 0 
0 0 0 0 
0 0 0 0 
0 0 0 0 
0 0 0 0 
-0.1778799431121935 -0.02109948181781049 0.1003731524770538 -0.02789102511429598 
0 0 0 0 
0 0 0 0 
0 0 0 0 
0 0 0 0 
0 0 0 0 
0 0 0 0 
0 0 0 0 
0 0 0 0 
-0.4676788192857447 -0.5575685430144941 -0.3408467175352357 -0.2408334117899443 
0 0 0 0 
0 0 0 0 
0 0 0 0 
0 0 0 0 
0 0 0 0 
-0.1778799431121935 -0.02109948181781049 0.1003731524770538 -0.02789102511429598 
0 0 0 0 
0 0 0 0 
0 0 0 0 
0 0 0 0 
0 0 0 0 
0 0 0 0 
0 0 0 0 
0 0 0 0 
0 0 0 0 
-0.1528305135192512 0.5361943889928860 -0.4268291376992019 -0.6993095843344375 
0 0 0 0 
0 0 0 0 
0 0 0 0 
0 0 0 0 
0 0 0 0 
0 0 0 0 
0 0 0 0 
0 0 0 0 
0 0 0 0 
0 0 0 0 
0 0 0 0 
0 0 0 0 
0 0 0 0 
0 0 0 0 
0 0 0 0 
0 0 0 0 
0 0 0 0 
0 0 0 0 
0 0 0 0 
0 0 0 0 
0 0 0 0 
-0.03992332132812472 0.4078077354057719 -0.3145803114845490 -0.02441045977632185 
0 0 0 0 
0 0 0 0 
0 0 0 0 
0 0 0 0 
0 0 0 0 
0 0 0 0 
0 0 0 0 
0 0 0 0 
0 0 0 0 
0 0 0 0 
0 0 0 0 
0 0 0 0 
0 0 0 0 
0 0 0 0 
0 0 0 0 
0 0 0 0 
0 0 0 0 
0 0 0 0 
0 0 0 0 
0 0 0 0 
0 0 0 0 
0 0 0 0 
0 0 0 0 
0 0 0 0 
0 0 0 0 
0 0 0 0 
0 0 0 0 
0 0 0 0 
0 0 0 0 
0 0 0 0 
0 0 0 0 
0 0 0 0 
0 0 0 0 
0.1706214542446431 -0.08448866695466972 -0.08854185532047514 -0.1609858352861878 
-0.1274765151948611 -0.01825486870816315 -0.09179079881958646 -0.1080037046072467 
0 0 0 0 
0 0 0 0 
0 0 0 0 
0 0 0 0 
0 0 0 0 
0 0 0 0 
0 0 0 0 
0 0 0 0 
-0.4257467834417622 0.3296065154353183 -0.01131147119207276 -0.1064165706102369 
0 0 0 0 
0 0 0 0 
0 0 0 0 
0 0 0 0 
0 0 0 0 
0 0 0 0 
0 0 0 0 
0 0 0 0 
0 0 0 0 
0 0 0 0 
0 0 0 0 
0 0 0 0 
0 0 0 0 
0 0 0 0 
0 0 0 0 
-0.4493250903649189 0.4176210751567080 -0.1815195140181551 0.08689261302026863 
0 0 0 0 
0 0 0 0 
0 0 0 0 
0 0 0 0 
0 0 0 0 
0 0 0 0 
0 0 0 0 
0 0 0 0 
0 0 0 0 
0 0 0 0 
0 0 0 0 
0 0 0 0 
0 0 0 0 
0.01217657486344221 -0.008986370980832053 -0.1411561111734785 -0.008787918984953790 
0 0 0 0 
0 0 0 0 
0 0 0 0 
0 0 0 0 
-0.4312860774966436 -0.2681514694747521 0.2047787429203000 0.6594101113625730 
0 0 0 0 
0 0 0 0 
0 0 0 0 
0 0 0 0 
0 0 0 0 
0 0 0 0 
0 0 0 0 
0 0 0 0 
0 0 0 0 
0 0 0 0 
0 0 0 0 
0 0 0 0 
0 0 0 0 
0 0 0 0 
0 0 0 0 
-0.2756021164459083 0.07882882781533727 0.07289438672383251 -0.3963038528217610 
0 0 0 0 
0 0 0 0 
0 0 0 0 
0 0 0 0 
0 0 0 0 
0 0 0 0 
0 0 0 0 
0 0 0 0 
0 0 0 0 
0 0 0 0 
-0.4535839046497618 0.9845667838376712 -0.7314454945588470 -0.005540063759016348 
0 0 0 0 
0 0 0 0 
0 0 0 0 
0 0 0 0 
0 0 0 0 
0 0 0 0 
0 0 0 0 
0 0 0 0 
0 0 0 0 
0 0 0 0 
0 0 0 0 
0 0 0 0 
0 0 0 0 
0 0 0 0 
0 0 0 0 
0 0 0 0 
0 0 0 0 
0 0 0 0 
0 0 0 0 
0 0 0 0 
0 0 0 0 
0 0 0 0 
0 0 0 0 
0 0 0 0 
0 0 0 0 
0 0 0 0 
0 0 0 0 
0 0 0 0 
0 0 0 0 
0 0 0 0 
0 0 0 0 
0 0 0 0 
0 0 0 0 
0 0 0 0 
0 0 0 0 
0 0 0 0 
0 0 0 0 
0 0 0 0 
0 0 0 0 
0 0 0 0 
0 0 0 0 
0 0 0 0 
0 0 0 0 
0 0 0 0 
0 0 0 0 
0 0 0 0 
0 0 0 0 
0 0 0 0 
0 0 0 0 
0 0 0 0 
0 0 0 0 
0 0 0 0 
0 0 0 0 
0 0 0 0 
0 0 0 0 
0 0 0 0 
0 0 0 0 
0 0 0 0 
0 0 0 0 
0 0 0 0 
0 0 0 0 
0 0 0 0 
0 0 0 0 
0 0 0 0 
0 0 0 0 
0.01217657486344221 -0.008986370980832053 -0.1411561111734785 -0.008787918984953790 
-0.3436955742811099 -0.4847386837687917 1.073604115536374 0.4660146256166943 
0 0 0 0 
0 0 0 0 
0 0 0 0 
0 0 0 0 
-0.09136286364805431 -0.4748562144619797 0.4118727677043432 -0.007260789651305634 
0 0 0 0 
0 0 0 0 
0 0 0 0 
0 0 0 0 
0 0 0 0 
0 0 0 0 
0 0 0 0 
0 0 0 0 
0 0 0 0 
0 0 0 0 
0 0 0 0 
0.1706214542446431 -0.08448866695466972 -0.08854185532047514 -0.1609858352861878 
0 0 0 0 
0 0 0 0 
0 0 0 0 
0 0 0 0 
0 0 0 0 
0 0 0 0 
0 0 0 0 
0 0 0 0 
0 0 0 0 
0 0 0 0 
0 0 0 0 
0 0 0 0 
0 0 0 0 
0 0 0 0 
0 0 0 0 
0 0 0 0 
0 0 0 0 
0 0 0 0 
0 0 0 0 
0 0 0 0 
0 0 0 0 
0 0 0 0 
0 0 0 0 
0 0 0 0 
0 0 0 0 
0 0 0 0 
0 0 0 0 
0 0 0 0 
0 0 0 0 
0 0 0 0 
0 0 0 0 
0 0 0 0 
0 0 0 0 
0 0 0 0 
0 0 0 0 
1.052218904488272 -0.7949297172841194 -0.1242920803599929 -0.2286045653811692 
0 0 0 0 
0 0 0 0 
0 0 0 0 
0 0 0 0 
0 0 0 0 
0 0 0 0 
0 0 0 0 
0 0 0 0 
0 0 0 0 
0 0 0 0 
0.07678679363274590 0.3546507752323568 -0.5703440841310680 -0.3214033856120684 
0 0 0 0 
0 0 0 0 
0 0 0 0 
0 0 0 0 
0 0 0 0 
0 0 0 0 
0 0 0 0 
0 0 0 0 
0 0 0 0 
0.01221241866049717 0.3029971319282536 -0.2576384498396296 -0.3133616751738731 
0 0 0 0 
0 0 0 0 
0 0 0 0 
0 0 0 0 
-0.3161246561185615 0.3939823858379377 -0.3053873883326659 -0.01040208554184622 
0 0 0 0 
0 0 0 0 
0 0 0 0 
0 0 0 0 
0 0 0 0 
0 0 0 0 
0 0 0 0 
0 0 0 0 
0 0 0 0 
0 0 0 0 
0 0 0 0 
0 0 0 0 
0 0 0 0 
0 0 0 0 
0 0 0 0 
0 0 0 0 
0 0 0 0 
0 0 0 0 
0 0 0 0 
0 0 0 0 
0 0 0 0 
0 0 0 0 
0 0 0 0 
0 0 0 0 
0 0 0 0 
0 0 0 0 
0.4735852168818944 -0.1115962171750368 -0.03884756096928146 -0.2222765342172461 
0 0 0 0 
0 0 0 0 
0 0 0 0 
0 0 0 0 
0 0 0 0 
0 0 0 0 
0 0 0 0 
0 0 0 0 
0 0 0 0 
0 0 0 0 
0 0 0 0 
0 0 0 0 
0 0 0 0 
-0.1512573974888306 0.2943538427966383 -0.09586573928089659 0.1196119234803630 
-1.650343746475657 0.3137891599598792 -1.012053656497199 1.925432663755864 
0 0 0 0 
0 0 0 0 
0 0 0 0 
0 0 0 0 
0 0 0 0 
0 0 0 0 
0 0 0 0 
0 0 0 0 
-0.6716116618821322 0.2577830657094318 0.1006229675378096 -0.01255668830593748 
0 0 0 0 
0.01217657486344221 -0.008986370980832053 -0.1411561111734785 -0.008787918984953790 
0 0 0 0 
-0.2878145351064051 -0.2241683041129170 0.3305328365634631 -0.08294217764788779 
0 0 0 0 
0 0 0 0 
0 0 0 0 
0 0 0 0 
0 0 0 0 
0 0 0 0 
0 0 0 0 
0 0 0 0 
-0.1673998365229858 0.3895528666976086 -0.4063711103041353 -0.1324141643835685 
0 0 0 0 
0 0 0 0 
0 0 0 0 
0 0 0 0 
0 0 0 0 
0 0 0 0 
0 0 0 0 
0 0 0 0 
0 0 0 0 
0 0 0 0 
0 0 0 0 
0 0 0 0 
0 0 0 0 
0 0 0 0 
0 0 0 0 
0 0 0 0 
0 0 0 0 
0 0 0 0 
0 0 0 0 
0 0 0 0 
0 0 0 0 
0 0 0 0 
0 0 0 0 
0 0 0 0 
0 0 0 0 
0 0 0 0 
0 0 0 0 
0 0 0 0 
0 0 0 0 
0.2942514475319542 -0.2842863733110637 -0.05003035212201529 -0.01323836516190600 
-0.1269107735541221 -0.2780972103863131 0.2189257676937694 -0.4032608078188473 
-0.5682368829003454 -0.2102654310717917 0.5775965841807381 -0.2837670719150148 
-0.8200204530024365 0.5662453187851465 -0.4243942142991110 0.1588939216506644 
0.01533531011588993 -0.01180739004374276 -0.007143360558772749 -0.003349607386263057 
0 0 0 0 
0 0 0 0 
-0.5672382508635375 0.2938318438878960 -0.3554642849436193 0.5489639666791244 
0 0 0 0 
0 0 0 0 
0 0 0 0 
1.987973671517500 -1.033178523964745 -0.7251001239046457 -0.1066147734007928 
-0.3776613339315807 0.1253452912982297 0.3487557070819216 -0.1456368618471684 
0 0 0 0 
0 0 0 0 
0 0 0 0 
0 0 0 0 
-0.01092010666657518 -0.009642441519276118 0.02597720721449003 -0.006062177751555545 
0 0 0 0 
0 0 0 0 
0 0 0 0 
0 0 0 0 
0 0 0 0 
0 0 0 0 
0.5938576742267501 0.2340125371271019 0.5459134030409676 -2.441394374645489 
-0.03874176704786344 0.5451862078516709 -0.1441569317776796 -0.1033084075378453 
-0.6926638006568171 -0.7080302810015625 -0.1957023343202683 1.024005040819962 
0.5071527334121875 -0.1481335924328292 -0.2441529794124726 -0.01026864215368551 
0 0 0 0 
0 0 0 0 
-0.1061673056644839 -0.4726813670225216 -0.2857397679316997 0.8122746337034767 
0 0 0 0 
0 0 0 0 
0 0 0 0 
0 0 0 0 
0 0 0 0 
0 0 0 0 
-0.7311163535555540 -0.007922047536160784 -0.01700810713374817 0.4778583380237413 
0 0 0 0 
0 0 0 0 
0 0 0 0 
0 0 0 0 
0 0 0 0 
0 0 0 0 
0 0 0 0 
0 0 0 0 
0 0 0 0 
