solver_type L2R_LR
nr_class 46
label 21 15 30 37 29 22 19 23 14 20 28 1 24 2 16 7 4 5 6 25 26 9 17 38 43 11 3 12 18 27 32 31 13 45 41 8 42 36 46 10 40 35 47 34 33 44
nr_feature 3747
bias 0.000000000000000
w
0.4082839663804040 -0.6486254697478800 -0.1147812329005816 -0.3841746124607661 0.1649081478259590 0.3540428996251391 0.7744503419534807 -0.8166059665462695 -0.03453597362340327 -0.3210186407370267 0.4557235547778354 0.4202183772549190 -0.06568289979304065 -0.2878940134944640 -0.2479032790708280 0.04385912370328399 0.1705234137968119 -0.1457075616641642 0.2601450007045049 0.06039061476949027 -0.4189298723143429 -0.5902321601218280 -0.4880947166696432 -0.6457459272290774 -0.3671223760435456 0.3633034123547201 0.01255478901761328 -0.3004598531547196 -0.6727890536469463 -0.3264006058904856 -0.7113461059506450 0.1221115760944467 -0.3994667307456973 -0.5331722342252736 -0.04258503720803798 -0.2535473478870026 -0.2825643272545563 -0.3659667686635956 -0.2927611086114366 -0.3870503220745805 -0.4323500579569987 -0.4256940461511380 -0.2756126756573268 -0.5236985973496956 0.04970293216432181 -0.4223615716928295 
0.09492404238740085 -0.5563842874350968 -0.1531683933942118 -0.4751458651791444 0.5797991809814074 -0.1201430794123510 -0.7891264116873794 0.06390745098472750 0.1436741791761087 -0.2968467201358401 -0.1339788891791316 0.5352400576249094 0.2558851260243352 -0.3360473788034555 0.01701109392527747 -0.1162957678624286 0.07608844578579382 0.1870418671721298 0.2773724237362189 0.07522358789318111 -0.3306504900115566 0.1760088200853856 -0.5509096153755254 -0.4694880483879655 -0.1397122140352468 0.1146617805088122 0.2182077157015884 -0.2700425259614870 -0.4858768547512324 -0.3412700410260331 -0.4234122265048191 0.4045742771672272 -0.3571262682392705 -0.3312259909634625 -0.3355605121196491 -0.2433346180744350 -0.2451549685234464 0.04257217311508282 -0.07245956593937193 -0.3381640976095783 0.3472602555743114 -0.3896689645337613 0.1024203682288781 -0.3523632004966247 -0.3845137125125000 0.4283274121392791 
0.4445961497835435 -4.280587986266182e-06 -0.3448914194152872 0.1218356008315943 -0.09090742983849401 -0.3650623907699934 -0.7084083881560083 0.1280012480660582 0.4353165669522002 -1.076027299372516 0.05931991477493883 0.2266715963623819 -0.07848484662099156 0.7736023780140557 0.1223701389017934 -0.3842931316687194 -0.2392323958775384 -0.4631126104837623 -0.5575641338661366 0.4340230957437551 -0.1678206799449151 0.7578909424963168 -0.1472130241028111 -0.3738079689263981 0.3207776832905789 -0.04996293609488887 0.7409263000244632 -0.3690084880968200 -0.1879040285904282 0.5852753531009780 0.2087097142633429 -0.4256713796945033 -0.1244299740715915 0.1451539782650345 0.3902706402779153 -0.4070268515339849 0.6390342471773510 0.3207517932605649 0.4440556535317878 0.08113056519328538 0.06362400407629043 -0.4507717523405365 -0.3190252011510126 -0.4044107400701255 0.1061768961373133 -0.4576467773892352 
0.4670327688972907 -0.4405552095006475 0.6936469541145097 0.3120290157668049 0.02795518060779588 -0.3062025885317553 -0.4389249688146781 -0.4014367893803394 -0.2102467592429281 0.8655260459311448 -0.7196788992724484 -0.4752592002404044 -0.1048092648825891 -0.03712061787359972 -0.8468601515664284 -0.2797670227453202 -0.2855183206618480 0.05459404105891046 -0.1808608823619263 -0.3467005981777924 0.03568654517486437 -0.4089400563860166 -0.3021886794019934 -0.3005055606129805 -0.5379181942831385 0.5078371879496235 -0.2485475072666502 -0.1983802927923597 -0.1927759796978744 -0.3048419101247603 -0.3599572112812391 -0.2483378655175225 -0.06836644460756597 -0.4221828097971053 -0.01194033572326343 -0.2427137482430045 -0.2073867647116577 -0.2904799751393435 -0.3806559980742151 -0.4501949919919372 -0.1816680926110487 -0.4592930862466911 -0.2025801027866658 -0.2418799715391410 -0.2084215075226230 -0.2153458437589408 
-0.3589719036157650 0.2104372174193359 0.09621658939426025 -0.06447567317921488 0.5713420260702160 -0.3088071020448260 -0.3304466518682538 -0.3125722100693797 -0.09634945385144855 0.2308311938056852 0.05820484456261954 -0.03194745888504815 -0.2733571160315976 0.3366579820776838 -0.1877115634331304 -0.2773350704985858 0.3646115979173890 -0.05707990668816488 0.3731888067191868 -0.4199126667403771 -0.2203594338452586 0.04975091260453450 -0.4177446854264587 -0.4465273603332323 -0.3163006460977875 0.04680218474666829 0.3664503608636973 -0.2328540519219275 -0.7865051788019212 0.1478524841442510 -0.5444754519772448 -0.5915250835976661 -0.4303221903222739 -0.3757125998086789 0.07315541844755039 -0.1102910710816336 -0.08289131868529835 0.4400224747783582 0.1638271878252290 -0.2424522179645874 -0.3488198465086302 -0.4004759756831344 -0.1717400155388893 -0.2805807605990024 -0.3289543601972158 -0.2916249751667002 
0.3804581452625230 -0.7171535813906079 0.1829581438244368 0.3483594358758958 -0.02965544954815204 -0.09034354323494873 0.07175153979916954 -0.09726190694806107 0.01008537276414982 -0.05985159499587164 0.08826853344402345 -0.1343345270026277 -0.02202906263620925 -0.3198183156972508 0.06251178529476001 -0.5144377369826899 -0.2055579524705384 0.2116590165036232 -0.1596708889560198 -0.03099718930942351 -0.2640212941042187 -0.5362878046224625 0.07562554959344346 0.002006998256175677 0.2749432286340284 -0.3398372953754920 -0.3823732118813910 -0.1949322009603786 0.4884358144115905 -0.4099455522974291 -0.3705968380843892 -0.3251648214727906 -0.3969427352555294 -0.2601141643011142 -0.1217621553984782 -0.3060579171752516 -0.2903197317105538 0.1896562251877703 -0.01210807432147715 -0.3313758249544591 -0.3369150729302355 -0.05843957524477417 -0.2755019490843145 -0.2705302896705428 -0.2368072527490882 -0.2213217006901365 
-0.4501562228708892 0.1282420499022845 -0.3195820679597611 0.2842951402067860 0.1400572075228327 -0.2056801455667394 0.4114326175268918 0.02009990883574551 -0.2544331818891935 0.1501564040777957 -0.01493614163764265 -0.1897244401122595 0.2559236754226856 0.1131255084124090 -0.2371608189819381 -0.3326605701172136 0.1552609810270989 -0.3093551036594185 0.1548596009928409 -0.2724972357138381 -0.1112006933288983 -0.6892653179515068 -0.4405423405856372 0.06637284093186264 -0.03440145815071247 0.02370590001049160 -0.6110177163417202 -0.1452957959178528 0.2313821277477288 0.2060649698509532 -0.3808357175567104 -0.2410870322267060 -0.4247431976042592 0.1063050055089879 0.06046927483048375 -0.2132667322709405 -0.2678507201174848 0.1238350817102568 -0.2770223522995257 -0.08316310260538360 0.2048846813403944 -0.3466303514476840 -0.2004278675464361 -0.2401281394353719 -0.1913762107301929 0.3388673908290519 
-0.1461561064249154 -0.4091615133503731 -0.4698479047712878 -0.1114107864416782 -0.3020252069179442 -0.6979359673399077 -0.06582251460579120 0.08296358599026318 0.2853816607413000 -0.03995060372374949 -0.5185494219385007 0.7133381907945490 0.2940347224211275 0.5853412812340806 0.1185179405172665 -0.02210634266536350 -0.3462085991671181 0.04106254659213589 0.3115789540360138 -0.3317685155525731 0.1645366297210148 -0.1074612910527354 -0.2885985266204843 0.3928831528184731 -0.2543170533336767 0.05895024294955785 -0.2942058911135846 -0.1184716906985572 0.005894268005105292 0.07232694038191659 -0.2403866989167709 -0.4557447935125039 -0.5761411836749415 -0.1388373298740954 0.1177831970539047 -0.2019005039884354 0.1167188058637461 0.2740364643260632 0.05849163017501528 0.4547319357160665 -0.1430802116898685 0.09958489476274960 -0.1439489254747554 -0.1790531862360388 -0.1425927754573826 -0.1432239219655890 
-0.3463108839741931 -0.1717530948713946 0.5369947243174604 0.9272670605619038 0.5336979513945707 -0.4018658350187710 -0.1118146403836626 0.01299295439435865 -0.05231057962818678 -0.2405769736944089 -0.3719912452941847 -0.1305920102764180 -0.8117953771110040 -0.3582877649608978 0.1435289477215334 -0.2757161275924428 0.7243449211016341 -0.2164158487031790 0.1107328726880418 -0.2332565680662645 -0.1438322228941529 0.2735464316873721 -0.1292859145308469 0.02749383022738213 0.1105779352615098 0.4262287049463917 0.1545694389167524 -0.1068851459438491 -0.1452086795988197 0.2904588002519539 -0.1992271488455643 -0.3514929341570068 -0.6106934538423069 -0.1366498695770919 0.03697924869937168 -0.1568709401444474 0.1610589397928949 -0.06466691569078734 0.08232107313425674 -0.4618592069380962 -0.1626757250492086 0.05842522988783969 -0.1269730489345068 -0.1111881963611802 -0.1310246715896498 -0.1450608601085760 
0.4783558210742210 -0.5021129430660951 -0.03841781842131109 -0.3940423694093834 -0.6524303520268786 0.03737606461488074 0.3581176986136319 -0.3316351661559821 -0.2225918428891576 -0.6763640409403133 0.03342180918258204 -0.3961019344800631 0.1314522690836609 -0.3179351913720510 0.1524164004315400 0.6820553069374690 -0.3355032057067462 -0.1875893382686732 0.2150940379878976 0.09810418847461119 0.08245872873837784 0.3667366158116054 -0.2497284819909132 0.009651520556636725 -0.2179163225709637 -0.01837624336548216 0.2805863730759096 -0.1051778428260116 -0.4222767111124570 -0.1372493311090207 -0.1651412013669384 0.5074240175730450 -0.1016305909435678 -0.2298877802492976 0.3311876050460600 -0.1946337112733026 -0.2965757092223901 0.3403303534821899 0.2221227103684660 0.1085364534445560 -0.1050328355006970 -0.2657416553973179 0.07820855385778620 -0.1373512400149067 -0.1666086308069630 -0.1220075801906616 
-1.237944806931631 2.598603179548202 -1.737537573465459 -0.07593999816341648 -0.3322258969561242 -0.1653692851100577 -0.2404008486730545 -0.06714663516634597 -0.1695552857513607 -0.03911624035038722 -0.7349564333824354 -0.1381991364969164 -1.232212073245640 0.5151876666053518 -0.2106097324056775 -0.08640498129436379 -0.6938597169441768 -0.2108039752172091 -1.420334992790677 -0.7727931245951247 -0.1389177134945304 -0.7096815222982977 -0.3318901663542808 -0.07236348353764521 -0.1840728419424937 -0.1614344379363869 -0.3961180173697806 -0.09572704144087744 -0.5786004502113374 -1.325432381105337 -0.2333778550773877 -0.2279788136566089 -0.3227373522817089 -0.07968018063766362 0.01674752875370076 -0.1762634840818384 -0.3073961737062223 -0.2613980459357960 -0.1061519377175159 -0.2273509310442291 -0.3891935288053819 -0.1667004168294853 0.2661197370834306 -0.2614413558168464 -0.1099696973051773 -0.09019214668116474 
-1.223111011692442 2.669458724783079 -1.483288917180163 -0.07151961809976583 -0.1465766314822543 -0.1622001673688323 -0.1629747109848777 -0.06717538933310484 -0.1663620974530077 -0.03637160694465662 -0.7345864980789076 -0.1012426552669611 -1.480826021134708 -0.2681539504590442 -0.2205600855595401 -0.08087055120258153 -0.7088950285939963 -0.09185897178499326 -1.539027051774575 -0.7064953773333127 -0.1310341243558639 -0.6888693940621756 -0.3259545351027514 -0.06855039166465741 -0.07690457295227493 -0.1578366393357781 -0.3971112032608613 -0.09622901412385201 -0.5902661639578429 -0.4293998043582456 -0.2044242402643045 -0.2263726551048989 -0.3211507409468646 -0.07503557970320282 -0.05017933181304086 -0.1764110966415478 -0.2850774676518926 -0.2065998786885011 -0.1073458505533696 -0.2251816340050027 -0.3601746710181119 -0.1630894126658259 -0.1446555714442683 -0.2620071184706030 -0.1074196563644419 -0.08756585906871912 
0.4776402867246906 -0.2413380676243911 0.06781635524706345 -0.2779555811932345 0.3668272252801352 0.4778087499201575 -0.4145102018811522 -0.09030147789361054 0.3312819841850679 -0.2553113798529233 0.01139462126822333 -0.3221550919783730 -0.2014384771066659 -0.4351962999344012 0.1493150288590929 -0.3405858380384573 0.1572833443074342 -0.1473993711494814 -0.07748361145007070 -0.07382943612809181 0.2754330358447957 -0.3636392854782576 -0.3252893526613477 -0.1503577423146086 0.4730114364670316 -0.8710106802653995 -0.2547610190940345 -0.1746433155695764 -0.3282918671828363 -0.1828708663735604 -0.2166264139262508 -0.1296766431037268 -0.5999420788672206 -0.3110100190064504 -0.05822509562715802 -0.2482735410067622 0.1347069989742749 0.2213907223239214 -0.4180474370457298 1.093847643207087 -0.1923790102487326 -0.3358658180832086 0.08321220145064885 -0.2080013247324942 -0.1593154521331136 -0.1459305582273946 
0.1643431479240803 0.5885574499584230 0.1565392600371893 0.06989772156894791 -0.3490327997787945 0.06006963872822467 0.09338650365636351 -0.3629568180591751 -0.2310347679377154 -0.1163603147657840 0.1040498421707628 -0.1302691379447259 -0.2619234799240239 -0.02895039599605126 -0.02690016207665835 0.6002677910106381 -0.05103828210686803 0.3912904263194049 0.5100217357169519 -0.03847427175339523 0.06229694029073950 0.2910455933018447 -0.09230982170085374 0.1884556993482011 0.4440620088245278 -0.1235948171366144 -0.5624958129825106 -0.04959673289029760 0.5210128653608067 -0.1142401799404765 -0.3821080572240475 -0.09310824900615007 -0.3387691836210300 -0.1023070929457340 0.04918132316432688 -0.08386814069227089 -0.1610345108099241 -0.1536869432313948 0.4631885808546821 -0.1918407847081481 -0.02321343036922107 -0.1305431069753807 0.1485374876422566 -0.06750710926953139 -0.07909581116296993 -0.08812247054731505 
0.1833656082397278 -0.2561895070119630 -0.2132464435252213 -0.3072325998567050 0.02499093168951024 -0.3612471834864985 -0.1753830620915134 -0.4272162053454288 0.2065048933900712 0.2536008556392927 -0.07260519186404737 0.7975685485021455 0.06564834512828957 0.6855014914962502 -0.3790124239402842 -0.6491409846845873 0.4173482896355263 -0.02245771875034690 0.4306393791352367 -0.4284827707385686 -0.04049262672095912 -0.6863705543040357 -0.1451742066377653 -0.1228625803494403 -0.4996337020809932 0.1564046795716284 -0.5680526925302744 -0.07725703362786587 -0.3536172927176556 0.004327462926942562 -0.3216840775983196 -0.3170138689677788 -0.1609539871542235 -0.1521106906644503 -0.07668188068713111 -0.07755153492510103 0.2432628895790454 -0.3755157954504224 -0.2181386298443205 0.3180894501568004 0.2469803769681172 -0.1793252541119631 -0.1633645961807573 -0.09099854463065683 -0.1159904994993132 -0.08561952421043652 
-0.3988069943221192 0.2229326914051629 -0.1872182803916727 -0.1664443285018663 -0.1654719301875964 0.4943209617414599 0.5947944367015540 -0.04594541587993719 -0.05580854410649283 0.2532738674457095 -0.07497712697957233 -0.2380841993027861 0.3312313564999375 0.3957760349915422 0.0006153074946220506 -0.1361207345364273 0.8149074255710440 -0.03540259128094615 -0.4974629398222072 -0.2180016727704009 -0.05574514959016405 -0.3014587995933300 -0.05903192524751874 -0.06673298756620201 -0.2944342374649940 -0.2022297263483036 -0.04675188999459928 -0.01681458757521090 -0.3596515711688550 -0.1288758626034317 -0.07925878974611740 -0.05511816116161574 -0.1330742876123789 -0.05624364421844619 -0.03493203597254911 -0.02548106788334900 -0.04060014791977137 0.2192233702576946 -0.03401867661403270 -0.07188044508170060 0.03315517562964544 -0.06261621050427119 -0.02985941941210878 -0.08946783662892273 -0.05070372343777801 -0.04121985469673597 
-0.5054391107672391 -0.2123581272269760 0.4055270478554521 0.1057577704402622 -0.2541863225590934 -0.1605483760497458 0.3685171317171472 -0.09719892358892700 -0.1949904587784143 0.05313926744538801 -0.2388520519498206 0.4284702222588709 -0.4415609241359191 0.3138568662080370 -0.1830692665272243 -0.5435170858188775 0.3280837475245119 -0.1520309247494674 0.2066432418388261 -0.2463300801226503 -0.02149532534349070 -0.4559636683357409 -0.06201879132492115 -0.1408847735608201 -0.4783823994491738 -0.1156392814602445 -0.05321454605593377 -0.03296367593192889 -0.1387770913610562 0.008551984219910224 -0.08649606805814383 -0.1380919847554933 -0.09546537924753341 -0.05278178164250207 -0.1659624190114812 0.1600541877625686 -0.1122207490499233 -0.1335872519908019 -0.1299825728594780 -0.08624527667470970 0.2351602564888133 -0.09631786204596939 -0.06159283045227002 -0.04924680871817467 -0.08445734527094496 -0.06228968086853660 
0.1730178837557549 -0.2784378808542524 0.03707676119489619 -0.6385314064040412 0.2083610554470907 0.02106362023138016 0.5018497603215795 0.2085544098977114 -0.2381623200021908 0.1634817306263782 -0.4116741972458587 -0.3917088737218169 -0.1624211211144761 -0.09428337350783486 -0.3353273012349310 0.7091938608251878 -0.9432144479316859 -0.1418925190070365 0.02129362853084198 -0.4081392717155392 0.1364548956056185 0.05183832574007682 -0.1955157418073130 -0.2361228172451867 -0.4742341892079783 -0.2912615537811356 -0.05363066425541836 -0.1233398466670070 0.3787680278663277 -0.1208390994982724 -0.2318797562641209 0.1132445345125464 -0.1494828715612668 -0.1535518933661221 -0.06205503754603456 -0.2203315488156611 -0.1805705588327212 -0.03201210613380503 -0.1274131776955046 0.4264402712854531 -0.1337377746216232 -0.05478830429661120 -0.1496484503464229 -0.1343728788481936 -0.1252118826118105 -0.09792190809651238 
-0.2891614214553033 -0.09021996008332693 -0.6954182684073837 -0.1088252142901584 0.4823061520422399 -0.1430068811338144 -0.9446084061888862 -0.09620806481515688 -0.2114530906206525 -0.09417569904741277 -0.2269454824875170 -0.1560659044527302 0.06662428693510535 -0.6218870517790751 -0.1698686561131099 -0.08306203200759275 0.1311541645746073 -0.2869491314406320 -0.3142668962402445 1.304797394596788 -0.2374738348793082 0.05656071270427147 -0.1223401498557526 -0.3238969460758120 0.2750500611340830 -0.2287648094442207 -0.2618896611755011 -0.09111446231676874 -0.1366352406025532 0.4094238400015048 -0.6526876266676418 -0.07951858466943909 -0.09355828691818482 -0.1068684894097822 0.05943742469911190 -0.1010315878988269 1.151627243481697 -0.1994947906661985 -0.08232396970698264 -0.1078390562949477 -0.4232340998514549 -0.2429844484598119 -0.1864180296353607 -0.09761832466839152 -0.1893452302961299 -0.1564753979392674 
-0.3603241093944343 0.4994282359081672 0.2357289134993561 -0.1585799490778391 0.1769223550821691 -0.09937509397535928 0.4598683394924591 0.5528806470256913 -0.1416941530974618 -0.2039903670958669 -0.3657602067825885 0.1765899670520526 -0.06604524877586833 0.4311519022678551 0.2987846810637060 -0.2691410138427266 0.9268305942399129 -0.06022522481971025 0.01574264224393364 0.2333851810471437 0.08483904580049120 -0.2596047675030611 -0.1829950460466875 -0.08916768547808607 -0.2226431672205728 -0.3211173474273478 0.3527728739118604 -0.09678635345704618 -0.9463757444095697 -0.2480316561535484 -0.1563899956804368 0.2254331217672371 0.7684891990460470 1.064147433886140 -0.07152752860012249 -0.1060980306190152 -0.1759082690934126 -0.2381016467317001 -0.2449907207568305 0.3558511331173480 -0.03321987451987957 -0.1565050736628016 -0.08470310281075928 -0.09877989184980422 -0.09638594345680568 -0.05684575704785097 
-0.2666627853351758 0.1994540866088069 0.03587738095608637 0.4497039083635975 -0.06170536602851105 -0.2360357038546793 -0.04589070249256933 -0.6221184268523672 -0.03388634362830040 -0.2475593300630133 0.1937952046728363 0.7189416085954061 0.6885766062292291 -0.3031969988612396 -0.4145973254203158 -1.212139164320990 -0.5257994803792037 0.02411520256242425 -0.2353901128271230 -0.01320860048286437 -0.02871491470941280 0.01807533016578566 -0.1479304620924149 -0.1049349163908324 0.1392125583424264 0.5474915685087756 -0.1224110683139216 -0.02772740670260751 -0.04251872828326211 -0.3549146006747301 -0.07709293433888731 0.06194174908931964 0.3132776852483837 -0.04920381102742823 -0.06454880436894535 -0.04300889375923705 -0.05834394227490664 -0.1576542903713057 -0.08214857949687403 -0.08643484769020715 -0.1528495108989514 -0.07213260970900366 0.2795093326056000 -0.08215057099750485 -0.04615576252639582 -0.06193045174543958 
0.8080447223820283 -0.01459504379096860 0.1482229330502445 -0.1546005462016744 0.06070457785667024 -0.1431597550231684 -0.1954833951389823 -0.02054324594132806 -0.1493926165516227 -0.07198034125804740 -0.04407934161630647 0.3476060440095165 -0.5136713966924473 -0.05270206151093704 -0.1276258249169177 -0.1588723222991076 -0.4739647930932435 -0.03578594138077219 -0.4710462830998667 -0.1757590214097189 0.02311338999589373 -0.03724576613233288 -0.06049933648512862 0.4742640861884358 -0.07911077516982650 0.4678891305711183 0.3520765249421700 -0.02387975493869102 0.4296064656605323 -0.1937327416140219 -0.03417886293830464 -0.09198241731721672 0.1311794045489750 -0.01318732991236484 0.1495127840082289 0.1356566279425037 -0.02324056931151905 -0.07222423158477609 0.1712050904641485 0.02653251331969567 -0.03523769624255991 -0.03674075869434802 -0.01877997904896769 -0.03897173598701467 -0.02186799129107695 -0.01285359100029902 
0.05144756677717605 -0.1909164519051101 -0.3876730255540447 -0.2899615166212203 0.3387394094593842 -0.07297424163770300 0.1786684351888421 -0.1396002556554065 0.3558564009650971 -0.1950493484899772 -0.1239319057374801 0.2654335735182216 0.2387124144628308 0.2592255397307993 0.1797472275578787 -0.01563177492241574 0.3885652726963812 -0.06083018295682373 0.1129346169603805 -0.2929791249357500 0.01346029550748875 -0.1735495054912802 -0.06690502511767817 -0.07310651833741438 -0.2064721315042975 0.1459952126738968 0.2035647896996140 -0.03645410313952538 0.4936127027929892 -0.3536291860074580 -0.05549769668572712 0.07344144766991917 -0.004045174114367604 -0.06533960988809275 0.1805646232170937 -0.07706718688397407 -0.08087306199977823 -0.09763815154035496 -0.1258377455376030 -0.2883399360311325 0.03357390417152359 -0.1131702453851932 -0.04120383656245525 -0.05645619543030661 -0.04324533332819841 -0.03907159624674882 
-0.5653302403513626 0.1755572205112944 0.007133564775743112 -0.7940754774807197 -0.2156835203409776 -0.3463513123015677 -0.1585223135734181 0.1357145637751847 0.02516211597512797 0.1300765670718710 0.1204333863232431 0.09782635543623201 0.1257440098262128 0.2729791403306693 -0.2567698646691062 0.5731178967082210 0.2458359936966906 -0.08315949121018684 -0.1611803134586721 -0.1994260874985349 0.03879528591611905 0.1867477719339110 -0.07087286025867360 -0.02538888488335537 0.005424877318401823 0.09273598960811676 0.1868090890630935 -0.03889178825749504 0.2309937317469416 -0.1507978129457038 -0.09214884234637659 -0.06170770409083821 -0.2049012073165296 0.3794743660980791 -0.07880073738847072 -0.05444527425719076 -0.05379017813748069 -0.1200345265669407 -0.06301638553959968 -0.09904540155288438 -0.09353058726107670 -0.08011294890849315 -0.03170904388479880 -0.05838091846916348 -0.04218453155133964 -0.06230941994426181 
-0.04070054942717280 -0.4248402441519035 0.2203662673663313 -0.1433869841821146 -0.2095701916647450 -0.1540513661387481 -0.2989543033067142 -0.4069841673600665 1.240254510818806 -1.161013515474664 -0.08263091219866875 -0.1669544184841517 -0.6336433272086179 -0.1961296413093024 0.1332813048593116 -0.1194666216364577 0.4508917000362723 -0.1275875238572496 -0.09248452104983154 0.1913055387359959 -0.09111829221344360 -0.2696867756571963 -0.1228989426620958 -0.1441449223730333 -0.2444980411401861 -0.3154090594423055 -0.01265652012902778 -0.1277425004134783 -0.2685017155366676 -0.3012139763862947 -0.1310555217969619 -0.6765164353435903 -0.2969980140670145 0.6458505813343056 -0.1737920149863412 -0.1106672129454862 -0.2121152781969556 -0.1673410906435665 -0.3285533413054642 -0.1937386376797852 0.1185633379280260 -0.2290074119432004 -0.1256072578070868 -0.1183475163439621 -0.1454710908062032 -0.1192142254056621 
0.4339277265640416 0.3090250868630930 -0.02093132215904088 -0.1430522212133812 -0.09149972494240778 -0.2152259367109973 -0.3486667200601054 -0.3108983366491260 -0.02927726985509045 -0.2302411608169397 0.1931413258420860 0.1674940114430127 0.2301364534811776 0.004797020986933846 0.3062843473366196 -0.3441027069706931 -0.1155721521927324 -0.09233649602844772 -0.1664273233534646 -0.2805707154162218 -0.1309216580739143 -0.3942559634787426 -0.09301036098329771 -0.05829407055389790 -0.1321433825099785 -0.1233636872022925 -0.1136170483408047 -0.07063963078504573 -0.4125561875663070 0.2541593239205530 -0.1200823345051147 0.1057496021070393 0.3765951460443869 -0.1157132494266202 0.05042596421798634 -0.07214792060729760 -0.1257555487055601 -0.2513313781416296 0.03626730708712684 0.1166463496913036 -0.1110716294736187 -0.1021983912393038 -0.1016190708444158 -0.07628935114759457 -0.07782382339331792 -0.08085378470485807 
-0.1882575769269948 -0.1189540234192326 -0.1917497114750661 -0.07300227050426251 0.6173499567120253 -0.07405003795874016 1.262075019051677 -0.04621402628424670 -0.1306451207695724 -0.06995726058623884 -0.1891936365448053 -0.1646755647154216 -0.1557904676245034 -1.127407097494078 -0.1702983960444513 -0.1099699080532892 -0.07280978366539675 1.517292810688438 -0.1436546888070088 -0.6298664674876390 -0.4264955299540753 -1.210810777339408 -0.1232049922154189 -0.3168180202504339 -0.8275557481011794 -0.08173993450211256 -0.6850568446302964 -0.04022735854080444 -0.09369764247265615 -0.4444036974787987 -0.4057118324016362 -0.06015517706301386 -0.1183704346254790 -0.06419461035687457 -0.5023382470463087 -0.04268258909268852 -0.2810494575301891 -0.5651247399284258 -0.05161857679825846 -0.06541264100060372 -0.3534734292857611 -0.1911330679120689 -0.1807472011918902 -0.07820773802618616 -0.1321740610994593 -0.1127504176400009 
0.1796564415265050 0.05375618589219788 -0.4523439377380021 -0.3136376621351925 -0.09478805893398351 0.09660996823576332 -0.06134560411035205 -0.3023771238616199 -0.1185100915325048 0.07244610050664754 0.1480181504709747 0.2411238778024537 -0.4432599324212233 0.2136836461973009 -0.2238752980657515 -0.3060241051224062 0.1766327549200437 0.2248262826438134 0.4476465067633419 -0.3882442192369986 -0.01738106438913420 -0.1350371873635682 -0.03476515283677234 -0.04573161666014314 0.5063704418477235 -0.07821836588280884 0.005036223933623844 -0.01666308636861566 -0.2022155100388008 -0.03020831628080855 0.6041237605499443 -0.06797294430014411 0.08440318968633295 -0.03136881256595158 0.001773863477323135 -0.02490532182320443 -0.05520458592594254 -0.1785007226726094 0.5166237032883696 -0.06632585050969483 -0.07395192822965073 -0.04630557972112016 -0.03462632586268950 -0.02076373114594911 -0.03097769949506020 -0.02256742911323819 
-1.020132221178715 2.201596835776297 -0.3224578100898888 -0.02337566932011795 -0.3437387848853871 -0.06430745158670860 -0.3162509230129960 -0.02022374546719943 -0.04778729626548953 -0.01453751743462920 -0.3736191598377336 -0.01951567107083211 -0.9744925857859680 0.5901294957650769 -0.05108609983648232 -0.02714990027939939 0.07934958027625108 -0.02151214620999231 -0.8908151633360523 -0.4392596913703183 -0.02320562502637034 -0.3285825386502816 -0.07699068715603101 -0.02258704230618049 -0.1918378215426413 -0.03647339338637663 0.1820866556336851 -0.03075054382418164 -0.2436203317408532 0.1193506414201925 -0.1283536640679561 -0.09094313062463603 -0.06388526801426707 -0.02270035153253529 -0.02297431917031042 -0.03383474321018297 -0.1731130964400061 -0.2595734019921857 -0.04148410936022652 -0.07961671916377021 0.5321648458355088 -0.03596681877117262 -0.05709458173944890 -0.1050159795769964 -0.02875820385334507 -0.02970635800467125 
-0.08637924224639314 -0.08239784306457774 -0.1107442955606512 -0.09099137199832445 -0.3982123434184306 -0.09935055834975313 0.4004576451887730 -0.08970198885715404 -0.1008361882950787 -0.09377580706432699 -0.1046662278547660 -0.05102303085329148 -0.08231168805235130 -0.3237585834255590 -0.08885013680958542 -0.07620974915920252 -0.05118655002893616 -0.1719870060125285 -0.1004844375553676 -0.2683372638486669 -0.08273480631338001 -0.3298495931016567 -0.1237796894146741 -0.2126490265851169 -0.3667285382844095 -0.04955190018473901 -0.1811217477819206 -0.09284945261325395 -0.09080560417782438 -0.2128119391744417 -0.1963661139600905 -0.04423195798479929 -0.07574940406897865 -0.1079156988246314 -0.1382597433622848 -0.07123428884628903 -0.2291350482698903 -0.2447171433357235 -0.06965298502939614 -0.06738611246806393 -0.2028565662759646 -0.1639680074454722 -0.1504653650377676 -0.1202355861284841 -0.1748323364397494 -0.1905563766658533 
0.1780950490102096 -0.4635439741526877 0.3518556964837551 -0.03474089820082927 -0.5919143506545331 -0.04326431919032911 -0.2006690375650580 -0.04289406868881836 -0.04378158207035387 -0.04059902202305567 -0.1558492924895012 -0.09301577004645423 0.5037358914406219 -0.2208199866589297 -0.04134536771094899 -0.02689250356864618 -0.06399456799936210 0.06589650968880581 0.02969787860077162 0.1867602202502491 0.1115696804110668 -0.6572795256656813 -0.02630227540148911 -0.04089477253205551 0.3005702656703566 -0.08598156104226190 -0.4424982472390310 -0.02109988294137597 -0.03203318095248527 -0.3535081566982480 1.134528184184977 -0.1463462496004414 -0.02088782355200597 -0.03144984731837619 0.06416553596773637 -0.03939693480579486 -0.1966703873636474 0.06281748530723912 -0.02210823073539097 -0.03294473405113449 0.4325006477250842 -0.05668494093611367 -0.04195577016976341 -0.02326538104213120 -0.04362541926135900 -0.04197519278582764 
0.6669514889576038 -0.2341851006241310 0.04455415475673914 0.01914243206732415 -0.3098237146380758 -0.08901883419028390 -0.02908446478415179 -0.07679983746166227 -0.2474663592598677 -0.4021385567007632 -0.1359463292220128 0.2969942068616693 -0.004166021447249024 -0.2253177887958613 0.2966430508850626 -0.2564207977486216 -0.2855133113861766 -0.04539125684274589 -0.6121729248288836 0.1257245605905543 -0.006327124721469647 -0.1431849579179644 -0.05352316793856320 -0.03754118702199343 0.8370489968315434 -0.1546719619560996 0.2095255234902254 -0.04276780378801996 -0.1792311868560421 -0.1718330011578911 -0.07029831574234047 0.1302710545481143 -0.1007299114343822 -0.04724883942237927 -0.06106491431630917 -0.03491861567469225 -0.06792167308736342 -0.1689490790893512 -0.07032345297502256 0.2174457345632048 -0.09252731328808389 -0.06172340404310557 -0.05035626093617801 -0.04632833671721963 -0.04852955573670417 -0.04641230223970387 
-0.1387430214729232 0.2150633528658089 0.3380738980563874 0.1759127098677859 -0.03368644310028365 -0.09298919395105579 -0.4938769198777449 -0.04465539539314027 -0.06812480738865742 -0.06742531310705625 0.8181292839406664 -0.2571184404301552 -0.5528017124942598 -0.7916545215831680 0.1163676906915622 -0.05071660402324061 -0.1244201969619312 -0.1126993343525890 -0.04117405687924880 0.5269719707338496 -0.2170288744218940 -0.1542890012717788 -0.03535636773904912 -0.06328589600112869 -0.3685854693713115 -0.1323242254136237 0.03875684545168796 -0.03510860874152957 -0.06753992047432286 -0.3808809576581373 -0.2196763632262368 -0.04447177113646341 -0.06333906607431508 -0.04429155125384371 0.2288515247394761 -0.05781079232019874 -0.2145682596452349 0.06322789442129423 -0.04408610934182004 -0.04935966220805751 -0.1837173309379943 -0.1002326128990622 -0.06728607770510040 -0.03884558653194457 -0.07380278772339328 -0.06969531849211860 
-0.03551493103845225 0.3985592563391797 -0.4805383100082113 0.2728841867055799 -0.1197767130370471 0.5628561780153264 0.1881282852086563 -0.07104204189184056 -0.1807632236620808 0.06979917133524156 -0.1112381128801418 -0.7789360881104337 0.07112042706264221 -0.2136008705507428 0.09805891889068880 0.2921287754352165 0.7939790189115863 -0.04770325337628690 -0.2988984832810674 -0.2155021439938231 -0.1193709042796172 -0.2200063852734979 -0.07945009727882645 -0.05875981955826001 -0.2446442210404861 -0.1832706526517532 -0.3252079519749430 -0.03313264675086818 -0.3195789124799593 -0.09473769901875276 0.2987914834097467 -0.1596600881395974 -0.08996302259184616 -0.06022273193233534 0.1292843036844247 -0.05272998450689706 -0.05457860864503460 -0.1457398206118254 -0.05900489504355654 -0.07340575610798487 -0.09132068044842129 -0.07324868561076545 -0.03879820493527796 -0.04455484063287244 -0.07381398709233425 -0.03824654310403528 
-0.002951304784021955 -0.004738896086903839 -0.008801758413881387 -0.002531708668358890 -0.01415647877168098 -0.01027129555266758 0.006659111764840269 -0.007591921676160923 -0.008698969310262483 -0.008122280619127741 -0.004488383256192551 -0.006726099543128273 -0.007162789503801144 -0.01340258442584117 -0.006731443971429718 -0.004621176564373998 -0.006576088315791833 -0.01099018813936731 -0.01641358810008136 -0.006746858985311559 -0.002941425300664223 -0.009789463029746492 -0.004244201094220152 -0.008701026913005129 -0.008670823415483553 -0.003236772508768831 -0.006189908572994663 -0.004943594849051209 -0.005691663517717736 -0.005945668330929504 -0.005859201490159192 -0.002905379724732664 -0.001971109485654899 -0.007281882673225209 -0.007139350871419124 -0.005941389882573314 -0.004603672202875541 -0.006683794306486766 -0.003702348949278071 -0.004572115101499632 -0.01392053302810799 -0.007733302944055893 -0.007649792934302699 -0.006599839955117258 -0.008535313707738782 -0.009747785218314507 
-0.2007849087151267 -0.2162329307781315 0.1360375071988487 0.4131441571002147 -0.4102131530650712 -0.04560901949476152 -0.2077992148373428 0.4718096727467298 -0.2068531672340638 0.06684153162499495 -0.1717794862720770 -0.4196151056628237 -0.5713764079197146 -0.6472846554236742 -0.1311165661545976 -0.04749840420556165 0.2837484702769723 -0.05337138835343480 0.01432872241335766 0.5632310791125393 0.4139650310688481 -0.04643224412380280 -0.03598597914223743 -0.03158429383123130 -0.01687678327806062 -0.3099389105505431 -0.3167330658805387 -0.02722544954450033 0.1285983212444496 -0.2109583068532168 -0.1280308987117297 -0.09155572285149963 -0.1205503625604475 -0.05534946647407076 -0.1047579562095421 -0.05096824349375136 -0.1679811561907812 -0.1900365869241397 -0.03836867348214480 -0.04340789246786123 -0.1758956516995091 -0.06594806137685073 -0.05304845737283642 -0.03207226203330919 -0.04437532461884840 -0.04585736423784662 
-0.4235366302509602 0.04167297060767199 0.8960080161135594 0.5453608556331515 -0.2077166445090585 -0.1460100527871446 0.4764510114457250 -0.08127700111873185 0.4772506979004875 0.03633931284431817 -0.1814505125882414 -0.4012954832719453 -0.05553229883061989 -0.03685522167470856 -0.4236219236172261 -0.04570689556321678 0.1268979096205841 -0.02720959962783191 -0.3037240722103829 -0.3436759481804524 0.1086221248723902 -0.09563471827047770 -0.04449046607193499 0.1852873370528493 0.9445724050664995 -0.1793004011772172 -0.1433860219436715 -0.01654910993084860 -0.2418333686571302 0.1124703231055796 -0.1196597878337114 0.3634962943691559 -0.04684782228741477 -0.03146919377428628 0.03067069526589134 -0.02645689736287129 0.3227555527517633 0.2466242969963414 0.3157713158268282 0.2111915453994318 0.4298675053449665 0.08958040708401296 -0.06306736438706718 -0.02369225078431858 -0.03567524594649513 -0.02626631657478254 
0.3097652244325589 -0.1664803150153047 -0.1584190626671927 -0.6411656565411727 -0.03452726659304065 -0.2432085950526129 -0.1223742356984776 -0.4268907898924407 0.2651052806405130 0.03871934763887237 0.2077542449594817 0.5479792123921331 -0.3972244735160538 0.01443127495517359 -0.2701979037206680 0.2950786358032908 -0.2869682912001609 -0.03345251628170349 0.05834811275044283 -0.01771201075967897 -6.804071489703361e-05 0.2304349831086157 -0.05074536088043267 -0.0007184512544613990 -0.05287004598675874 0.4141706421836976 0.1932783816158759 -0.02406904573190443 0.1960859293932259 -0.06384781798287305 -0.03147064142317620 -0.1673526040012813 -0.07439044019225258 0.3970929954172998 -0.02727046348333312 -0.02452019448721007 -0.03008613861394369 -0.05107412246943109 -0.02837642152563262 -0.04714888064352430 -0.03330241440706205 -0.04640422014377828 -0.01930777787375807 -0.02781605744625109 -0.02025194535989013 -0.03529878350153689 
-0.06077552757872684 -0.04777933352752838 -0.08827448349270300 -0.01832217732019055 -0.2147342041548343 -0.04190551090402020 0.2586078880740105 -0.01247815569109997 -0.04878487006200597 -0.03797157263580331 -0.07656889353265174 -0.07762344137308934 -0.06070132971307831 -0.1288312293061136 -0.07163199156772027 -0.03561678227976283 -0.03205177456017853 -0.05000559015858522 0.08000677875409556 -0.1319828886221388 -0.02137571922219854 -0.3728435767561726 -0.05111033751495699 -0.06090891384319343 -0.2980505555208244 -0.03102368752035358 -0.1645845975265034 -0.01540379352015548 -0.02457167059420317 -0.09520698208057762 -0.07590549975421021 -0.01696125941933676 -0.04355071915918420 -0.03134813867117579 -0.05843644578362412 -0.02075238162417479 -0.06692937826939008 -0.1118687185946534 -0.01528045768881868 -0.03324500382165532 -0.06423019054649380 -0.04036809875937574 -0.03312611265261362 -0.03048881076092701 -0.07137326062205472 -0.04418146896962359 
-0.1039372332937504 -0.5385513595232346 0.4688257467737406 -0.1579801550267276 -0.1711808347445172 -0.04530450310982037 0.05604249954652207 0.1786922892208279 0.003506590942875337 -0.1138425705380348 -0.3628744597190505 -0.2411166618620534 -0.3384303131627412 0.1745821288074142 -0.4718481292400394 -0.04004412815881100 -0.3761256798407631 -0.03907456287911668 -0.6531451287638752 0.2437794739777449 0.1377457562781596 0.09076332763578956 -0.1739520158306845 -0.03443092194621223 -0.09868304901518694 0.3019879414852547 0.4808783912685101 -0.03754416823711283 0.4266260455139245 0.09759965955208749 -0.04973578010150216 0.6060205392449101 -0.1151150642820815 -0.1422737150763115 -0.06296447319042972 -0.05441217170698415 -0.04255270486783384 -0.07780338748689860 -0.1458955083824916 0.5341624246706828 -0.04756449640568990 -0.05524570755796477 -0.05243120163767331 -0.06010049485175052 -0.03191150470393775 -0.03173434134804419 
-0.08926649468841684 -0.07995207640025724 -0.2421571077148828 -0.03837393896831556 -0.7044987478413360 -0.05359268332379918 0.8808971113940635 -0.02163366061839118 -0.09190128710032199 -0.04673017765098767 -0.1203410773079545 -0.06665874962940621 -0.09603889230413205 -0.2381013703722188 -0.1091084616431600 -0.07733157842681787 -0.04247367580711435 -0.09345056035107177 0.07571767089599231 -0.4125575237184280 -0.03482476983069027 -0.3898378335548492 -0.07271905759000424 -0.1046116763848702 -0.1192421706888696 -0.04868740266917630 -0.3545975214420604 -0.01753637790988894 -0.04255090161891138 -0.1710517654613781 -0.1296735154652804 -0.01906176447714003 -0.06744118867362009 -0.03812304269045831 -0.08255090114962939 -0.02047527350671267 -0.1600227124531413 -0.1971315100701214 -0.02327485786668244 -0.03347470204699460 -0.08356400462056285 -0.08893664868577317 -0.05303306081525543 -0.03193925035819749 -0.08131459581490538 -0.05108674485982020 
-0.1060480916270943 0.3224404477702658 0.03975914640175386 -0.1927307137433339 -0.1256931106407370 0.2191222346004782 -0.1516652055547947 -0.01994958376671315 -0.1048255853810281 -0.1211814781048012 -0.2416027204259818 -0.08058099469936182 0.1412737863507312 0.4730137968165368 -0.08391516987327709 0.07130342022791983 -0.1295719041482367 -0.03939345319612937 -0.1561467029608144 -0.09838777016159674 -0.03887671013084881 -0.1310641320211616 -0.01932587886048534 -0.05595152638943429 0.01390176151192424 -0.06471506474640498 0.005918674672538538 -0.008714738789448659 0.5930858902980916 -0.1263343773590551 -0.08557709974771296 0.1588530530366291 -0.09115009091122457 -0.01797269616301107 0.04965288878991700 -0.01536994595228180 -0.04253600569067515 0.08054304993532713 -0.04375188090328903 -0.03966220984012053 0.7184016192779403 -0.02527142332434312 0.3205554751543581 -0.01460430016725804 -0.02074382519247569 -0.01635371147744013 
0.4057345156010395 -0.06823231184359610 0.05007484639883807 -0.2801363021802328 -0.2880813118412356 -0.2236197776255595 -0.1656058933868175 0.4081286199567643 -0.004629299591092002 0.1757816837248729 0.2216549063235053 0.3663439754639604 0.1106921197213634 0.7030527067956391 -0.7195168480245338 -0.1438169700059938 -0.01079893351171465 -0.04992973049737549 -0.6027892448445676 -0.2176057723707492 -0.1587189030885471 -0.09757793161513660 -0.06321862471079120 -0.002818476452591783 -0.2666504526335743 -0.4002144209637488 0.8098020274571126 -0.02603641317357705 -0.1631383492090142 -0.1587969274006364 -0.03007904945347925 -0.1423086803221224 0.2051499953172658 -0.03065682824258488 -0.06544857143376907 -0.02502275310816012 -0.03659851289369903 -0.1135213859509076 -0.1114326225478382 -0.05115617757567877 -0.02905580586012908 -0.05580528978110285 -0.04059095632319990 -0.02955127661374200 -0.02930445988198781 -0.02637433416517763 
0.6274451648465397 -0.2173050874033672 -1.014925347661878 0.3572005813546469 -0.2649264323130705 -0.1622084904657532 -0.3181357182756122 -0.1671298811200273 0.3931000716050433 -0.1006923474911615 0.06578554484797920 -0.1829658040528936 0.1793746556009962 0.2517382758898024 -0.3790340537786900 -0.2330643260870327 0.6617852021536528 -0.02268359360087822 -0.04793753322681454 -0.2004543338451244 -0.07454683206098998 -0.1473190025369037 -0.05165410823982897 -0.04337859175483814 -0.1489565357814317 0.2791749125773076 -0.1906797710263261 -0.06579303047043651 -0.4395909188728728 -0.1539657063535022 -0.08233845714687865 0.04982212797980187 -0.1419041996594585 -0.1055970825942118 -0.08159399796339690 -0.05234072027937405 -0.07884439534372017 0.1360340463186988 -0.1638487927266577 -0.2338336011722886 0.5150423672776662 0.04824596764689140 -0.06632938229487208 -0.06430039759274926 -0.06506391279852951 -0.05918466119620946 
-0.06116629521633333 -0.2423418157125696 0.4538503163526700 -0.2651070705104267 -0.3962252100525308 -0.05425957415784997 -0.5855015551792062 -0.03925475228029136 -0.04301512552375252 -0.02448374592967727 -0.1009729168355863 0.2175877934944002 0.2212313084393124 -0.6587056841905604 -0.03102063923720471 -0.05405350832327312 -0.09797287979988537 -0.05661996261412267 -0.6513064206354987 0.8958852732425803 -0.02845665370797867 -0.2363226808186858 -0.03160816634394907 -0.02604809950675827 -0.2683936898211753 -0.07342732521766034 0.9013766865278742 -0.02230034813817703 -0.03714734351863668 -0.2245399555810245 -0.1124803064995685 -0.03118477391870568 -0.02038246093230699 -0.02694662832177920 -0.08662366197753656 -0.03683958280914898 -0.1496442684811341 -0.1346756492991025 -0.02506000566427732 -0.02972357485941176 -0.1499682165352203 -0.04622758954877434 -0.03813396825980371 -0.02944761084851640 -0.04298883434055936 -0.04014467259689793 
-0.2879545140378053 -0.2256962853880652 0.1372668247382706 -0.1259317706702040 -0.1333340705831733 -0.02196490977773992 -0.2239879038300794 0.2078669616183239 0.4380312607627195 -0.07294109359594905 -0.009520198961038014 0.05608907902115912 -0.3733488797964126 -0.07315533728900470 0.06247699997094179 -0.02802667562807954 -0.3108898339429930 -0.03171326638430131 0.3185114179622175 0.2297735040226232 -0.6090400723879591 -0.1335217929157566 -0.08715632332595183 -0.02229323277124851 0.2325840278250147 0.2268919433944705 -0.04168931184607656 -0.01256738592399388 -0.1216656646960764 -0.1670057513875101 -0.01913234839171418 -0.2382874054751639 -0.06510718921256486 -0.03523542858121474 -0.04762013965718966 -0.02146797724028944 -0.02509455531522221 -0.1300147844069040 -0.06177058786383394 0.1663004301449740 -0.03667244350847519 -0.02438500959413617 -0.02521703332744434 -0.02528414298091210 -0.02057677383831538 -0.01771030208209264 
-0.1332761351396946 0.07862171582377900 -0.3917875989336557 -0.1789380110832490 0.03594696106126956 -0.4451643525162962 -0.1274882614509086 -0.1232890100334415 -0.2431043768181125 0.1071426739196946 -0.3734624486732231 0.1397540803436848 0.2702803983876578 -0.1360077003053382 -0.1306867969156649 0.2577968456188676 0.1474503510470253 -0.07414735529337048 -0.4620471983044866 -0.1947400175162039 -0.2294248780399337 -0.1508538433336441 -0.07627558732627764 -0.1351206801117322 -0.1330565767178285 0.2884241251096416 0.4829010348112973 -0.05939004690112429 -0.1143002979947651 -0.1557782043642317 -0.07514904393755872 -0.009136541621645303 -0.1178150640119112 -0.07311208029193864 -0.1165186855353426 -0.08284648534026924 -0.07863607999977938 -0.1121448019047103 -0.09112344492263236 -0.09173825271346820 -0.1297580257170914 0.1937267027359997 -0.08702553995802258 -0.05961640348006812 -0.07949778635333817 -0.05936715136097230 
0.6730548805337899 0.4016127596450879 0.1254355844839591 0.5791750441991819 -0.2129429654264652 -0.03680096934365747 -0.07444665127667548 -0.03163720763988273 -0.08297450413497962 0.06439593063212187 -0.01802850153766436 -0.7810352786251754 0.09188192720881427 -0.08246256962117277 -0.1164913376889492 -0.06303825626534379 -0.2877448719118921 -0.02998087126648691 -0.09046420428156121 -0.1172874406536733 0.4333515691466258 -0.05644483088640155 -0.07626298367533686 -0.03327526557786956 0.1069663527104771 -0.06347846955402923 -0.7951246199113875 -0.02167814947755237 -0.3217566801630022 -0.3368850588196807 -0.04533012806429070 -0.4101743976127504 -0.09640199399491187 -0.05901107185666637 -0.1737021617740598 -0.05156901001041903 -0.04778561315728727 -0.03454442099502225 -0.07394121739124894 -0.05854067199631312 -0.03507278661291444 -0.03388944393137693 -0.03355420930116254 -0.04737502456090818 -0.02589345422989207 -0.02127544558211417 
0.7158049641935986 -0.2740549093172536 0.2091662278588244 0.01148926853663830 -0.6232282226518469 -0.01069987198625186 -0.1800142567444654 -0.01919794273882890 -0.07446060941066493 -0.0005276140645141571 -0.03356062978538776 -0.2144476503886364 0.04816556740270581 0.7727254685169979 -0.1163794059654852 -0.01239469362863043 0.09564288168701246 -0.01393885456969082 -0.4087932876286013 -0.1982579933156488 -0.1163597586301070 -0.2722552546807180 -0.02732831606381286 -0.03175378074776604 -0.03581901181893551 0.2771575555852230 0.5907102332422188 -0.02562882220818780 -0.001655933524734008 -0.1869187591706290 -0.1063238511626832 0.02961163180569571 -0.07478252235219021 -0.02417971741471827 0.1533596413033173 -0.02653190881273152 -0.03479456071126057 0.1301144962666519 -0.1028800519690349 -0.05628735002373169 0.5990390110396833 -0.04544833552777174 0.3113109545265352 -0.02626603185427688 -0.02171920891474371 -0.03774671467387492 
-0.3537836099191608 -0.1916210169191147 -0.2000722539872361 -0.05534572169906884 -0.07335624911328300 -0.03665220353690239 -0.03481482454626671 -0.1486118933249357 -0.5440141908454054 1.609271790947223 -0.09603334758018377 -0.07852701725584695 -0.1706429334605933 -0.03143292373620761 -0.8690038766959140 -0.03827684169138403 -0.4559162486162814 -0.03529547400206545 0.1698361205891222 -0.04058232245886431 -0.04297517355155794 -0.04477541543502071 -0.01825454794341054 -0.02555547053766302 -0.04864119875523736 -0.4589014096060212 -0.2505667909302206 -0.02880656945512702 -0.1263499474070614 -0.03088131008864601 -0.02229899544185857 1.098826535654085 -0.1429734189438969 -0.07789554921588578 -0.04655667875288278 -0.03114231457733378 -0.02696505529320053 -0.04599191601752957 -0.09746203883727580 -0.1133221399209919 -0.03417115678318408 -0.05961881260742967 -0.03125510299990525 -0.02513536640461558 -0.02558409792992520 -0.02498673060792881 
-0.5788715818939142 0.06226094950437870 0.3370586389744794 -0.2772724805436470 -0.1880928090227703 -0.03596807018403254 -0.2362048459100050 -0.02094920260496268 0.04359825458421737 -0.2889330187049854 0.4269837196250312 0.4104070096990157 0.7738016533916668 -0.1019825839840965 -0.1436184573409102 -0.09047311082757130 -0.4296007079327736 -0.01899251463172642 -0.4757431293485064 0.6680311008877395 -0.06403489832489198 -0.05141275704308083 -0.05628214526648582 -0.04732467191632091 -0.02877527407599081 0.1284666623868227 0.002737610351356196 -0.009774077282934958 0.03271022229042771 0.2246347139814084 -0.04648173430389989 0.02157523892499927 0.2901616795384923 -0.02064571881311621 0.08820692986893679 -0.01944229231571127 -0.02283758168011449 -0.05331903210836762 -0.05826855600215163 -0.06509576128276491 -0.03502445223267844 -0.02916981743141810 -0.02144346807806923 -0.02876310588490334 -0.01735990436887564 -0.02283809037535836 
-0.09683928970406740 -0.07939232616784705 -0.09325735525878619 -0.02951946219341925 -0.4575782402682749 -0.04809720014755276 1.484286052480149 -0.01155221724466086 -0.07486568271910230 -0.05146257570118514 -0.09563441649110534 -0.1071368338976918 -0.06449889741751072 -0.3344459468181070 -0.1073790545583217 -0.04891194866037875 -0.03987500209203543 -0.07644141951869772 -0.2484612839443788 -0.4887609044223888 -0.03283458263902222 -0.1112291667314330 -0.04093665616455726 -0.08187233855361407 -0.3902438493520701 -0.02818844773048011 0.1084688948799271 -0.01393614509774647 -0.02896049717029067 -0.1185111800010664 -0.1425576249110334 -0.01619395390154712 -0.04096106769634295 -0.02132235471598415 -0.1000606510175711 -0.02125766525319119 -0.07062848727625100 -0.2451170604732454 -0.01618291575948835 -0.03279756091153107 -0.07888506314577352 -0.05694029998758566 -0.03364766269344002 -0.02537002324790246 -0.06134213951561430 -0.03211569097523993 
-0.1354192937708407 0.1047063519559080 0.07215268691677136 -0.004719956215760712 0.1766795542104684 -0.05624771988616011 -0.2680155337281489 -0.04551888266273720 0.09678802944287039 -0.1606987589534343 0.6311104412386779 0.1221680467396631 -0.2203794065455400 -0.06468599138492936 -0.03777402620827541 -0.08365574735572416 -0.4191961296589986 0.01060447248242463 -0.1699685766567934 -0.2284695776538193 0.008065778334825798 0.2409050253165774 -0.02142502725011242 -0.01500772009778175 -0.3963929146616532 -0.8056963529468237 0.4652859641193516 -0.01217016425667210 -0.1166801698900743 -0.1634402772309531 -0.03202165638845964 0.4252018115747281 0.2272328494751680 -0.04756306729513733 -0.05151643622451136 -0.01376128830048169 -0.01906644545766488 -0.07604305350833106 0.1035850718746782 0.1982729740138346 -0.02727886253137357 -0.02414143126295618 -0.02414326340402501 -0.01716456970509081 -0.02402128881215579 -0.01885269890828534 
-0.3917026123570766 0.5056212806181837 -0.1513116518554668 -0.3478384190973907 0.1162622783831934 0.7963809508530867 0.2579067015391181 -0.06411454042524761 -0.1163605520272055 -0.1341524466587633 -0.1683884280171342 -0.5795473567761018 0.1958790292818757 -0.8261931217522924 0.1726543219739192 -0.1234052173719253 -0.1648763985614545 0.1626983062997440 0.5305577186133053 -0.2326668750828264 0.07780053204485765 -0.4347263199266054 -0.03912508358549058 -0.03934490523531118 0.2745924862976124 0.04688416517691899 -0.2838054813901809 -0.03081184178109976 -0.1300539742605469 -0.1881066908537056 0.6571863886774363 0.1496744570168529 -0.04707445394336420 -0.06346384522147354 0.1195592046689795 -0.03793227080425122 -0.05494840057713100 0.3131328846803895 -0.05628047129871794 -0.04062713488348822 -0.09181167471565722 0.07147247690611148 -0.03134796386683068 -0.04101206882210683 -0.04754759222673376 0.4411006538521990 
0.6754964265936286 -0.1453879224982941 -0.7190735661186161 0.2800769550406000 0.02392412551180578 -0.3714518595816317 -0.1743300041521418 -0.02732748365437723 0.3228643439607821 -0.1812583447770200 -0.1658683642792882 -0.04393949306592795 0.7281867839955102 -0.03890137204216473 -0.2173288773680378 -0.06271784579730476 0.2062636492141390 -0.04959424924121138 -0.3011845690479686 -0.1314720549069439 0.06567112288337877 -0.07004748779121842 -0.05178485688632130 -0.02266651321634166 0.1154319921868679 -0.01303538235108512 -0.2826711181185431 -0.02365257783633564 -0.1377470085853709 -0.06480192348244118 -0.04565825206313661 -0.1827143254296187 -0.1345386770982318 -0.02963357612358278 -0.09099162288763689 -0.03942853917777078 -0.03624989866124569 -0.08722377983740424 -0.06792083141261354 -0.08361058220360648 -0.03265348897461682 -0.03832530059674649 -0.04725325070691970 -0.02741148930366278 -0.04028227423829381 -0.02476040836267940 
-0.3310031656548605 -0.05854273849120290 -0.08811941226461008 0.1457890568869169 -0.1234014099565257 -0.02160831262046237 -0.09808363814912856 0.5780445538020196 -0.07172973391025282 -0.3340145255942330 0.2314898860024808 -0.2347791384543524 0.5714593778527304 -0.06828938249885363 -0.3423537848901098 0.3253797791259857 -0.08861441654606324 -0.01432204930844833 -0.4139316516987399 -0.1684653893352021 -0.03266124860739878 -0.03500940438452350 -0.04326443473455668 -0.01733609434890397 -0.1928464224873684 0.5425972886002788 0.1667290883418399 -0.01106014805992184 0.2995897778115705 1.017842690923559 -0.01798248549450116 -0.02616616920148129 -0.1754546690292523 -0.02663064244981849 0.07961311940573591 -0.02415900015142202 -0.02265584864942999 -0.03524068845873884 -0.03701570802606902 0.2291356593343672 -0.03713670330280648 -0.02848198176528751 -0.02274906874773854 -0.03119984969099174 -0.02531590304463074 -0.01468267946919253 
-0.4352473448358120 -0.2509318411518505 0.2062086638099656 -0.6542501755519265 -0.1409413130679009 -0.06797364944175216 -0.1320290515398570 -0.07549556068915009 0.1363882655790577 -0.1303099570678870 0.01736725480566449 0.7243759848316569 -0.2449396145980526 0.2546703005972124 -0.2039424143933167 -0.1200514578054532 0.1201838058639392 -0.02295361669863283 0.3323668311085792 0.02540318608347670 0.02301568329369845 -0.07496371237209697 -0.07285421098949958 -0.02766029758624172 -0.09925271034878382 0.2180116665793159 0.2260578025488207 -0.05306979110394406 -0.6205857963289311 -0.2216535032561339 -0.02889295643335614 -0.01217683076157466 0.4394655215280104 -0.1311269280148870 -0.06747272144899918 -0.05980373505175872 -0.04529467300242661 -0.08520623532177733 -0.1544204916958412 -0.2834971828679708 -0.03257988919884699 -0.05412557283269927 -0.03909934157077602 -0.04303217761424133 -0.04128521959921758 -0.03029784922286714 
-0.08455498015974344 -0.1555055190600915 0.2007365208588967 0.02532820047600901 1.601808626057119e-05 -0.02821530888896222 -0.08344231124551973 0.2780047958345295 0.01312711081600082 0.1838482490900600 -0.3555146986989034 -0.1398517113010022 -0.2851969578983570 0.07579541435344225 -0.3899773151806807 0.05549662849776960 0.6328290864537728 -0.02460138998912925 0.4476721343602485 0.002054581759447538 0.07267727279055333 -0.08425008252639230 -0.04010028215311096 -0.02475169333551546 -0.02902929055662331 0.05066213021989025 -0.008595940043278585 -0.01433427851547395 -0.3577338227690839 -0.03136168221553206 -0.02831217597514260 -0.1164283615184635 -0.04360607264948814 0.4264342383895091 -0.03020667513211340 -0.01274799999846898 -0.02278698779901033 -0.03718934673366080 -0.01835374072811397 -0.02208691593518171 -0.02317603599993001 -0.02921618624895377 -0.01114854491047609 -0.02560029874419214 -0.01123655503095277 -0.02512035384730754 
0.1421696283041881 -0.1511522589903225 0.07524727136136854 -0.2291219790774823 -0.01662625727869994 -0.04187222522477792 -0.5633461176125006 0.2261861309064966 -0.09490014650192269 -0.03000743401725805 -0.07649753323032822 0.09370685295540052 -0.3521710481803012 -0.4500947442581068 -0.3223263103678895 -0.02241713810887607 0.7647316826682751 0.04382669242186783 -0.4109500691825874 -0.4063045643482536 -0.07508889961616749 1.175145308756042 -0.02090135151750285 -0.03663577604350102 -0.2354689162676134 0.007613734169532961 0.2876370801110711 -0.006765202216644933 -0.2452632835603907 -0.1452967576818042 0.4060729747625201 -0.1620160619926592 -0.04588896214135707 -0.02282607083325025 -0.06682742822937073 -0.01568076747230193 -0.03665973635697608 0.08271822762050879 -0.04461067948068476 -0.06328039705425963 0.6008275426780993 -0.02286252320615599 -0.03629591146515599 -0.01728259885612725 -0.01534343903793993 -0.01073226660656041 
-0.2143105786883380 -0.008620497641766600 -0.5418176095103233 -0.4278594607314750 -0.03378995246210532 -0.06780690496179673 -0.04784235755281617 -0.008044932537270084 -0.03898654658684192 -0.02156947105383583 -0.0005845996677989046 0.07179239889293781 0.1324286561214980 0.08121217293990300 0.2065664727822161 0.2130780740435971 -0.1086601573032439 -0.02700662424823364 -0.1504960330090346 -0.02391685507383268 -0.009155781073982946 -0.07259106162771373 -0.006055008779357539 -0.02645092541985770 -0.02703970245017448 -0.04417212851428047 -0.08292707796969992 -0.004300378246277771 0.4708385742071367 -0.04306385787376662 -0.01155105262336748 -0.01225082171965065 -0.004454790503557931 -0.005559238805824021 -0.01711736943344818 -0.01546172931161491 -0.002611634089277848 -0.01376708079126754 -0.01256281169452041 -0.005371476215468059 -0.02461334826395959 -0.006705978036273101 -0.003608344707904517 -0.005485999841070612 -0.003486141824450403 -0.006537231396620493 
-0.04078609502558511 -0.03248654970993720 -0.05293599589337360 -0.01841679909955984 -0.4140021651722443 -0.03038274195762186 0.4395837446377708 -0.01222136334891390 -0.04646832834768162 -0.01983718394491094 -0.01219874063827712 -0.02063786024099409 -0.02504448332897168 -0.2594861348018018 -0.04256419365882371 -0.03257931306055012 -0.01441362785073548 0.05314716330347862 -0.07175977881760981 -0.2183964283273578 -0.007960027422016512 -0.01368105605568228 -0.01504433731002359 -0.1059070056424825 -0.1470652152013297 -0.01772431145564610 -0.1936765458485342 -0.008443942678326400 -0.01999840033731785 -0.07957809934833396 -0.08900576250955743 -0.01035326414700957 -0.004534953518002425 -0.01288074531578037 -0.04869874491164386 -0.007768184484539013 -0.05395973542548863 -0.2262420989865942 -0.01439903923105770 -0.01716655141222066 -0.06667616253861304 -0.05203751191030760 -0.03476054360865056 -0.01049057048977273 -0.02911163760488966 -0.02479632798320047 
0.2655862478753260 0.3620330410840503 -0.1148926608816970 -0.6041521557562531 0.5740989776480482 -0.06264565722336216 -0.2134106090507074 -0.1683417503852152 0.1602011266604559 0.2079497258951745 -0.1203187388975370 0.5287091832610005 0.5636760045681835 -0.2367963515560090 -0.2493137581740481 0.03479564194869498 0.1900267130388388 -0.03441834318667799 -0.02888818925402639 0.008905007278133283 -0.07022595945770935 -0.1163773875216566 -0.02528895049694171 -0.01262044014809106 -0.2395759189309371 -0.03696326986627634 -0.5350104566556071 -0.01391336389035208 -0.04442369270618735 1.089525359633752 -0.02316282549817829 -0.07682436637550857 -0.04763542298490813 -0.02461018914008548 -0.06036721579494302 -0.01746095692436214 -0.02633654371202562 -0.09648246112150903 -0.07209441857048003 -0.05625102837843657 -0.04273718941635716 -0.02301123002009995 -0.02262721454578140 -0.01592110425846903 -0.02130791758960303 -0.01448051479853494 
0.09708622766201686 0.3400787873925334 0.1617062085581286 0.6869968455851369 -0.4708407792618589 -0.06421418123309551 0.3412145013495309 -0.04818443483132429 -0.02671748844709162 0.2219393291349707 0.06511033183070083 -0.5726732443610856 -0.1508254430321991 -0.4209544832260745 -0.3122652433659366 -0.1354795058797897 -0.1170865200516764 -0.007958156105549853 -0.5150089239840933 -0.3167399242088837 -0.01417475761474870 -0.4319663413209324 -0.1093561854450524 -0.03237540037498203 0.1852589187966619 0.1572574884737057 0.3358046945526399 -0.02004555302997799 -0.1980184437551518 -0.05068731513992925 -0.07674969390469162 0.1358990035835114 -0.1108674969335043 -0.04560709196634084 -0.04833365037734356 0.2015616950021183 0.4405466030818474 -0.1896198778159093 -0.01639633596262091 -0.07597561176059744 -0.04444229904036707 -0.06457566693887339 -0.03827729955750642 -0.02793431911683614 -0.03582621707562904 -0.02611146701427935 
-0.07808890467004953 -0.09163945123216410 0.3881102070094695 -0.02174990697724925 0.9239233796760754 -0.01979028845491561 -0.4070165434426873 -0.009346064371840837 -0.04350605113164648 -0.01653604274214075 -0.06772611212057388 -0.05984669076673958 -0.05959272793670541 0.1917912470467668 -0.05463197817546163 -0.01596341438310916 -0.01853888462206584 0.5196249214075341 -0.06196056059276619 -0.2314442242134800 -0.01231857351699864 0.7806653636370426 -0.01503296203246711 -0.02013664486956243 -0.3045165761008338 -0.02018937057043946 -0.6581484174456056 -0.007567367802930356 -0.03001447170171754 -0.1463938831671093 -0.1381774516653216 -0.007638096341714143 -0.01803246828359658 -0.01468517609896465 -0.05613636256348392 -0.008494188876515117 -0.1049003877074954 -0.2412116056072221 -0.01291025980099556 -0.02108486818187691 -0.07355274020894778 -0.03248366424602045 -0.04682993522328807 -0.008665458118784086 -0.02147195209238620 -0.02770257099924885 
-0.2368586649345776 -0.02568965522165221 -0.06281630893131684 -0.007798019240446203 0.1912521473588757 -0.01706889054677657 0.5220023934112523 -0.003924644579183037 -0.02023834301668639 -0.008361959514524283 -0.01153205561819491 -0.04640566992633573 -0.06349641261144755 -0.1746347842999244 -0.01725884948014406 -0.008600408557431390 -0.02006311853206894 0.3796016033264941 0.4198816632016736 -0.1875357077382011 -0.004872248283576783 -0.02529853350742210 -0.003192665492725754 -0.03128517736068916 -0.09749238402670647 -0.008359392523866185 -0.1531124677589917 -0.001546829544851463 -0.008744750799933050 -0.02651557211525898 -0.04453990483711075 -0.003383584194027455 -0.004107144708337525 -0.004695224950124730 -0.02616354130945983 -0.002043859856466758 -0.02308080489256243 -0.09228962496373151 -0.004035379431011680 -0.01359673143852574 -0.09721057169191677 -0.01001357103370162 -0.02688451285626415 -0.002558833956004788 -0.008690158713786925 -0.005689003317504488 
0.04594952565275369 0.1401447219143039 -0.1254023596703969 -0.1772165977098404 0.5243836410917784 -0.01844783794193142 0.03896075089735045 -0.01816882290076338 -0.09750757345452053 -0.08407832640734436 -0.1346018145018963 0.09834559124903336 -0.07937976952028891 -0.02630565023130843 -0.08770246041646560 -0.03172773818771520 -0.1023334405816393 -0.008735740939915535 0.04686385397157677 -0.06613779375838316 -0.01382338416522170 -0.1641230157802688 -0.01929445072221018 -0.01067748079303795 -0.03515745450383344 -0.01438876014640615 -0.003408263208749235 -0.005453255465874511 0.07591782679158418 -0.1584405414851725 -0.009150774655211543 0.2494916898908921 -0.02728451145970476 -0.01450471314315230 -0.01093451010555965 -0.01238818750563777 -0.01847819370507266 -0.04725780896542518 -0.008338666087547094 -0.01593679898268057 -0.01009890276002250 -0.01235057294360404 -0.008979859712289830 -0.009510558409188631 -0.005800311674016085 -0.01680949369894830 
0.2034043236474648 0.1753187545940182 -0.08076480085826572 0.1183918104234676 0.07154408332671774 -0.01481932302917639 0.07241231903877249 -0.02413375510794875 0.1415227261434074 -0.01062852610738621 -0.03469954016262472 -0.06205389767807844 -0.2125910059573748 -0.02406637886057288 -0.1889541993684854 -0.02455896491541830 -0.007017501654235839 -0.009494117755502853 0.0008251879108566664 -0.03813734402335884 -0.01227303563343167 -0.02703014126181876 -0.004024175653071015 -0.009651439870983112 -0.01596614988530512 -0.1256865650560359 0.1176446304903560 -0.004659984619995445 0.07708113610391462 -0.04511304049830584 -0.004141160833399427 -0.01956979697554989 -0.01309416895985251 -0.01968473065074042 -0.005913803378210898 -0.01113268741538993 -0.01215173105981356 -0.008552880601277908 -0.006231522359004536 -0.01485576737449120 -0.01030079758724614 -0.01151785479001781 -0.004567650839473999 -0.006513042089874009 -0.004186058458004256 -0.01583225342440027 
-0.08348664383766564 0.08300693907685550 -0.02185972284387781 0.1214017978852549 -0.2102666973288377 0.0006562874916547709 -0.2846973945466323 -0.09587007611671479 0.3098743565011308 -0.1648345504908641 0.2843053680040678 0.2782650210921962 -0.4253334043190223 -0.07215986546456030 -0.03503061525315136 -0.3109996429062042 0.08569709338718762 -0.03239228446637453 0.4750096151899169 -0.1760933393632908 0.3827466764651533 0.2260760854209902 -0.02670966316238844 -0.02292525790349565 0.4022839056735637 0.2594525953734206 -0.01494670795683906 -0.02015940888350350 -0.2408526932419884 -0.06060645068905481 -0.02958349048969471 -0.1481355444122953 -0.08049596955475720 -0.05735113499922760 -0.06052531922379797 -0.02590346241093357 -0.02482899735882471 0.4180999857747829 -0.08441637267182826 -0.03631592794619456 -0.02773137003781289 -0.03865910634009147 -0.02742659980115252 -0.01814598907114853 -0.02419064649854975 -0.02060390017349857 
-0.3717140357023012 0.3438025488990429 -1.112535818362417 0.1104966926843301 0.5585071619072864 -0.03963319942041618 -0.1450419567627762 0.3191148161272099 0.4681669013458298 0.1058616783463550 0.1021042576670894 -0.09552308315706566 0.2001179119837785 -0.07245527599199199 -0.9136029355889750 -0.07779530490006983 0.9195224559199238 -0.01869548499168332 0.3150311467064997 0.5958725723349594 -0.07595492490389612 -0.1588576286821076 -0.04873009424166244 -0.01993980644278388 -0.1769539441881424 -0.3150050025561074 0.5740110969682448 -0.02013684124300694 0.3653081063275578 -0.3283019720914348 -0.02259001652624828 -0.1866154864883909 -0.05460792264223009 -0.04807014392657286 -0.01879661713629743 -0.02137856402747636 -0.02808268227585239 -0.05457011378115811 -0.1190282655995997 0.1999392191732018 -0.03176712250517984 -0.03475911825612395 -0.02127719486106652 -0.03259016394824101 -0.01874969071591611 -0.02144132922695326 
-0.1588041083586525 0.03613557986113485 -0.3859525383893238 0.4109041688111065 -0.1232813948207769 -0.2923481468014803 -0.1625957062860780 -0.02448559454019217 0.01778780322624094 0.03126557988696861 -0.05954620494454368 -0.2748384205475432 0.2021329131176887 -0.1192287286856940 -0.1750396214058012 -0.1839721502786216 -0.08930616217990732 -0.01382026341563314 -0.1898195001767668 -0.2242092880681628 -0.03280984636239974 -0.2077088460236241 -0.03504376847519952 -0.01834931339940690 -0.1611807760244736 -0.07622309106318890 0.5486508607412989 -0.01444448060018836 -0.1233478647460833 0.1827687329486674 0.6617107069957013 0.04590850624571934 -0.03702352150491042 -0.05131059409054668 -0.07491882194026044 -0.02109041366356918 -0.06555317148938636 -0.07992031111390843 -0.03708594808186964 -0.04286125110235247 -0.04102553709664381 -0.03431557985180631 -0.02902616917536505 -0.01522947145637777 -0.02781262385847493 -0.01851104475724398 
-0.02014507417980930 -0.02816618589571302 -0.04362140491680366 -0.01439331657571308 -0.1906615842663230 -0.04123857970050091 0.2255965122038708 -0.02908946883228054 -0.04080604631937011 -0.03365689928955284 -0.01928790409783408 -0.02323821621583470 -0.03312757058288665 -0.1075944848128072 -0.06239299819075068 -0.03000073342029281 -0.02693308559466191 -0.04696490835610250 -0.05177476218180534 -0.07333084825557157 -0.01403674074193951 -0.1568544004473944 -0.02617475494320740 -0.04008668814732251 -0.1215322033035808 -0.02103437522431828 -0.09692161423609803 -0.01965472329053504 -0.02774885009317731 -0.06541191935782320 -0.04703344199990157 -0.01377681877472144 -0.01101940994521925 -0.03687732675669941 -0.03357093708962214 -0.02057517368478835 -0.03691598418211978 -0.07727371965537083 -0.01910199197078782 -0.01771994566978435 -0.06603892605078289 -0.04920767343644152 -0.04166205343674745 -0.03280002348474337 -0.04834638458116399 -0.05507680936815219 
-0.2399903093724567 -0.2094403546542132 0.5286831108934198 -0.1734815724432346 -0.2588654923964330 -0.03005252321768333 0.3375853984071218 -0.01864223354286614 -0.09401230045011533 -0.08724704442518798 0.08389665446668183 0.09229865500480944 0.2053416504234658 -0.1823557521003685 0.02101887552228777 -0.02653400878317022 -0.03258878199894051 0.07295990746821228 -0.2784001527018087 0.05148242685344584 -0.04830851569635464 0.04885300379486185 -0.02830807711012420 -0.03920518224625624 -0.1120459327129123 -0.02790253386660630 -0.2893745582772377 -0.01161038870150194 -0.01238937766264202 -0.1089185929617514 -0.06679086421215255 -0.2737001731692824 0.3821614424541968 -0.01179317384240728 0.009269658029935781 -0.01398172813441794 -0.02891558846654549 -0.08518438253862161 -0.03927047146026493 -0.07406826624766417 -0.08849226329840287 -0.03313188284755445 -0.03177743151769479 -0.01699071616155645 -0.02253962077269019 -0.01816097221395963 
-0.1220695035895813 -0.1024835861851115 -0.03111699180365474 -0.4656038344007470 -0.2838403517349847 0.3633095734852021 0.4280618266398768 -0.02008703889624785 -0.05447330375799633 -0.004731463907254421 -0.1038771351265085 0.5401895629371266 -0.3188537244429196 0.1105467093172557 0.05748638505404066 -0.1079578916214705 -0.1915752353311873 -0.01885510538273080 0.6920503845671258 -0.09001104215157580 0.04532899271144035 -0.2011464112597553 -0.01691153492217277 -0.01877442100108814 -0.1777040415179921 -0.04739960887044602 -0.2439999944441904 -0.009807094429640553 0.1061057799794705 0.4438093934633642 -0.02755286381535305 -0.03527901848268616 -0.04964153750043939 -0.01326634394241067 -0.05238227932320937 -0.009290625522497974 -0.04810787310007923 -0.2481579259994078 -0.02882033556619780 -0.02069356713964342 -0.05387555993150744 -0.02347506553372386 -0.01658999750678036 -0.01343097973501066 -0.01061142502606086 -0.01856764399696546 
-0.008126814454397113 -0.2726889269938406 -0.5601182542274323 -0.1857078384147000 -0.3287154170510087 0.1680731122217432 0.2493609156630943 -0.1167994736939452 -0.06842051830756601 0.2376107543390866 -0.2032175555922835 0.2383817403601301 0.1555845158462706 -0.1615923649172690 -0.2322086612358376 0.04458822217186192 0.1684028972503635 -0.03967677887323602 0.3479304439094064 0.01622071590388726 -0.4636888921969823 -0.08817986479156412 -0.04212366543304218 -0.06935736063512668 -0.1944043162224260 0.5335891459644603 0.006536368189309381 -0.03310442157826896 0.6017854632013075 -0.07096305346395354 -0.05884028342301688 -0.2288101462680043 -0.1079066012426752 -0.03687177617789406 -0.3944061034651994 -0.04506903270866121 -0.06221273376907929 0.1714295022289789 -0.07626436249030896 -0.06117961532447035 -0.06279249332783425 0.1089878275100081 -0.04303681632413120 -0.03010065878885642 -0.03625214538235393 -0.03737091021589099 
0.1477542331031077 0.8920038345135817 -0.4896964053178347 -0.1951976906351341 -0.4636007253275361 -0.04457254395024725 -0.3114003350453330 -0.02583577153157621 -0.06631607779740038 -0.02272749205125904 -0.09651176972968173 0.05905374796601499 -0.4758311287560711 0.01180188924028797 -0.08410582822837451 -0.05199262978764491 -0.1965631423519198 -0.08219945890308006 -0.03233026276738366 0.5679440880159848 -0.05706805245759639 0.3655156441895744 -0.03195887472931382 -0.1010577929216786 -0.4219043687496769 -0.03548063413054027 0.007368100197186721 -0.01519178097129532 -0.04024672506529943 -0.2153131646802883 0.5631294751982975 -0.02525442226886575 -0.02544723116948453 -0.02643335135717843 0.08076712024294708 -0.01776835540019714 -0.1159171999501323 -0.1892385200087890 -0.02560064767567634 0.2348351814418490 -0.09004211265875870 -0.09843663458673094 0.3701673248937025 -0.01916260301111756 -0.05611238333861948 -0.03582370941452184 
0.3636721493942874 -0.3890527350158266 -0.2049749433422023 -0.01087180730106747 -0.06168257915971739 -0.01469891663744622 -0.03571806966026488 -0.01574000963159394 -0.04586325328659637 -0.04893637543877029 -0.1881755594200890 -0.01500137749365368 -0.1339754957447124 -0.01219436044523235 0.2304026723900285 -0.01638927859160127 -0.1449661515974224 -0.01006370574267765 0.7057438731485130 -0.05016012648317385 -0.02133778062064895 -0.03186545879985182 -0.09542398194188763 -0.01214740947817200 -0.02553137738831189 -0.1194126838775147 -0.4298964372548058 -0.01157220948259729 -0.2352997116037216 -0.1931370703516116 -0.009213149527612647 -0.05244820121065549 -0.04317797770226327 -0.01412847723543637 -0.004097800504158616 -0.01786907978765389 -0.01366207044422827 -0.03204736910263565 -0.03693741450333438 -0.04844256972185975 -0.01531477550471761 -0.01487629171411654 -0.01561052653828448 -0.04722905111825802 -0.01159152715247626 -0.01419706717430828 
-0.05970134242388241 -0.02999802068904362 0.1664388209941791 0.6382946785651853 0.2835235069913402 -0.03803622867868350 0.2418214653310724 -0.007284065379067792 -0.02157231206355235 -0.007473866685601728 -0.02001383390615010 -0.3692284061429085 -0.04808723342295732 -0.1807422588548037 -0.02265825902988652 -0.03009685482694437 -0.01831642739494490 -0.03534838178840866 -0.3623770152464987 -0.02937341533226750 -0.03630859790296485 -0.09177126596711699 -0.006532028573410844 -0.01834614685998622 -0.1983678856738496 -0.01256753800225838 -0.04276838283249339 -0.002116678379012077 -0.008895862746818316 -0.06751575379472038 0.6598962398925444 -0.01713844167435659 -0.01109274297803468 -0.006177028870892099 0.1657021287806035 -0.006751959021956171 -0.04327690712456251 -0.1081487217953319 -0.005458958426595210 -0.01132970585200965 -0.02094855884249146 -0.01759778977515877 -0.01501637287280540 -0.004298086606246381 -0.01013115276232357 -0.006833147913386403 
-0.1346773776226434 -0.01272709334847970 0.2806141137266001 0.8919351469841502 -0.09518566160359085 0.1520153663775702 -0.2751280152700418 -0.03050617245387367 -0.08140465887438343 0.07835027572298600 -0.1396119325077371 -0.7809828363704466 0.1639340470891088 -0.08331167677785811 0.1528691054634001 -0.2929590329663661 0.001445123639133270 -0.01405331063779862 -0.1746127905400220 -0.05752185043103714 -0.09134310241660788 -0.07095645100395444 -0.02232089324964051 -0.03218713744911555 -0.1783130752471781 -0.08362876128328729 0.4319490397666748 -0.03382147438692859 -0.2390186213128739 -0.07043940742475902 -0.03975545601831064 -0.07938863487949888 -0.05456095295337220 -0.01805225637657284 0.1137881069088534 -0.02180062716646710 -0.02450684504663021 -0.1763732583790145 -0.03099034113674241 -0.03535730334556635 -0.08624693735460934 -0.02838628310808142 -0.03661277681954418 -0.02016564535095670 -0.01707456608493332 -0.02066328195221816 
-0.2808158676556893 -0.1133532779703241 -0.4806232597070822 0.1335114866449924 -0.1061227106764728 0.2291234550047039 0.2328538436853367 -0.005040821713560434 -0.02081784588448140 -0.01557454172688353 -0.02040463076042152 -0.4573839568396231 -0.4128782046025117 -0.1231430454772999 -0.01470662742518086 0.2024085317033666 -0.04302617154844132 0.01965328873708590 0.6625668650767709 -0.04216827428527241 -0.009514783934671572 -0.06746461028581316 -0.007754052784311138 -0.02756761934176729 -0.06193323189609637 -0.01348580578709362 -0.07454146530076840 -0.005229839141295057 -0.01342848330927604 -0.03815222135595482 -0.01971316775510598 -0.01903039528314229 -0.008958244735051822 -0.006639937098802146 -0.04504195099062280 -0.008428784901146713 -0.007908596674215783 -0.03487924107160101 -0.01069897249838664 -0.03101243713868664 -0.02574543922083842 -0.006622341789596625 -0.01965503772684050 -0.005247498345855665 -0.006131361853088053 -0.006955310528847777 
0.1266187265856950 0.1565604728461582 -0.1791540794736389 -0.4610100344789445 0.8066206194892145 0.3804067705132058 -0.7295925503823207 -0.02767741301900702 0.05196731530099467 0.04059087854074236 0.2775553800755624 0.3199390348859116 -0.1753898405161141 -0.03589492210966169 -0.2623775198400344 -0.05571862746583525 0.5712310210611627 0.008796407858583390 -0.5241055315570458 0.3113839784787869 0.05036736225753098 -0.03870105301074835 -0.02479904674221904 -0.01389254335930325 -0.08229515732899909 -0.1222162040148945 -0.1202257738958050 -0.009715388400012636 -0.4028745191528279 -0.06337411076052216 0.4507343147413754 -0.08892143386286190 -0.2354270245443066 -0.04565912953944271 -0.02580266154394924 -0.01482791479329894 -0.01776346392850332 -0.08698450565311630 0.3243259078716160 0.04583551047469961 -0.02127676767145072 -0.03202382557415265 -0.01223769302083516 -0.007900456847798310 -0.009042473072427610 -0.009000754315556483 
-0.1999054418261370 -0.08922834615279539 -0.04775834183183811 0.2087617275609894 -0.06658690187950413 -0.03525199373012583 -0.09366533536217449 -0.06147200397224182 0.2227214206314108 -0.08253190186183246 0.3168832144190882 -0.2431884048874171 0.2513780332341258 -0.06249867667308032 -0.06524914704630966 -0.06065599512273681 -0.3217682156764428 -0.02298414591775229 -0.1202721130472868 -0.1256925803715080 0.06561860214820886 -0.08622122733698638 -0.03947084906290028 -0.05699332784754689 -0.1054314668048946 -0.3393740768712384 0.1693025725532614 -0.01771257734183925 -0.1738457796948668 -0.08189362120109580 -0.02730299024724903 -0.02040276737923819 -0.09031137933520610 -0.03351308590336560 0.03316435671386285 -0.03730756415843232 -0.01976559909976145 -0.09524494515518711 0.3887099519113607 -0.08009271249241032 0.07758689044711789 -0.05015074173489019 -0.01606798143017084 -0.02133814216906808 -0.02204958793019874 -0.01361068131775972 
-0.004894014078365091 -0.007697005190007975 -0.01406761484598140 -0.004567414428360552 -0.02556247195044983 -0.01589832795455646 0.01322269415210615 -0.01137311315945927 -0.01365557251785050 -0.01310273549461406 -0.007690627400741112 -0.01003742265684571 -0.01180139974362485 -0.02425125232131308 -0.01105656338636393 -0.007812659897878318 -0.01209028379394432 -0.01878879343545348 -0.02400394664938796 -0.01211458952479047 -0.005137242260448195 -0.01804228708152242 -0.007151320552784631 -0.01484731635172155 -0.01485966864902360 -0.005207083050877429 -0.01266597201315604 -0.007572780775610050 -0.008783781236568077 -0.01057102530239967 -0.01017844992885942 -0.005251684618923288 -0.003340897286924523 -0.01219260743355745 -0.01224822289304111 -0.009940423623805561 -0.007703333947548356 -0.01261195572622906 -0.005756054329027992 -0.006587205256985714 -0.02654256220137529 -0.01368443462729165 -0.01231958488191495 -0.01076553652026840 -0.01468851550333305 -0.01610703846055765 
-0.06286223424437015 -0.02429747123550737 -0.05061711323673365 -0.03440575736281462 0.1242420039006844 -0.03373414323751887 -0.03796509827492942 -0.01710285308578562 -0.04153444716839400 -0.02842895603532285 -0.02368295048860319 -0.02127470779367337 -0.03561227288180247 -0.08900293602245117 -0.05904097784695091 -0.04471198831570919 -0.01786651886407244 -0.006845579622439858 -0.04554153508504501 -0.1975569705501515 -0.01078706632340824 -0.1043853325779072 -0.03168821844610893 -0.04298915606986123 -0.1758185241481303 -0.03427534101883009 0.1836862714443259 -0.01013755345074117 -0.02290562862596804 -0.07406801854880074 -0.05703054760667484 -0.01558181204141334 -0.02852725235503600 -0.02689882621098362 -0.02820095184158570 -0.01193022752666702 -0.04217173427102193 -0.1483230720266627 -0.01205210170585152 -0.01999543269665016 -0.05438108143197634 -0.03909117794642654 -0.02386788514572505 -0.02036955978344218 -0.03959532990330661 -0.02781184865039123 
-0.02115385677336454 -0.01795408840090478 -0.02540340858154940 -0.01673074527379669 -0.1646199086409468 -0.03488076945330349 0.1458749522544983 -0.01913796711494659 -0.03909130352336970 -0.02612007887962778 -0.05269828293226687 -0.01816741120135126 -0.02421923415186599 -0.07856810175743728 -0.02746045088178103 -0.02847977933233354 -0.01629535032395049 -0.05235257152279434 -0.03741056643043254 -0.1460698115990892 -0.04449072300473971 -0.09306246363925619 -0.03772257064853110 -0.05484693289790346 -0.1334517173171711 -0.01314500006165821 -0.04027484192623805 -0.02578862522670351 -0.03233611418504762 -0.05247327992848399 -0.05058546511039284 -0.01019797199744765 -0.02863079570309188 -0.02749639324612475 -0.04441498157065887 -0.02010637345922900 -0.1111187734316579 -0.05900144281305866 -0.01563474625175506 -0.01496645033265217 -0.04389668161082635 -0.05836215735583634 -0.03668544821537303 -0.03055402514915478 -0.04757224037336687 -0.03702653060280807 
0.08500079886802728 0.09180047599061829 0.1959615293796760 -0.02065981163136299 -0.5540919598801937 0.1748740204869273 -0.1354790781521260 -0.01894187320954500 -0.05721979713324341 0.2070630820844655 -0.05019843746350772 -0.2419832731884026 -0.4702360601733114 -0.1221636110339024 0.07659990670156133 0.3388313653066954 0.2383973541931097 0.02617165015968168 -0.1133294996718075 -0.5528361185126359 -0.05247098591396407 0.7340704565638628 -0.01046402836929069 -0.02039503829325033 -0.2142856087578893 -0.07460901663818885 -0.1886052568812333 -0.01086331078636900 -0.01782756572246598 0.4566414654344775 -0.05933438322762078 -0.08356055602068863 -0.01508384282738215 -0.01134956879564267 0.1571741463955423 -0.01949223989182027 -0.04932075851521141 -0.06646248713195026 -0.06816941955035662 -0.02964513270753918 -0.04471914847725599 -0.03728321789258461 0.2849282366849560 -0.008998507866891924 -0.02940316348439322 -0.01830242119341148 
-0.4888131924269621 -0.09212235408280771 0.7097397981572381 -0.2420055107908787 -0.02813624794028749 -0.1688162597789542 -0.06623902107877656 -0.5803747476576595 -0.02738770119178483 0.1258671612261162 -0.2659903133503163 0.1788901660967543 -0.09936614904860204 0.09495636461585637 0.002094575510632871 0.1438090411125600 -0.1749416441458615 -0.02472890998267458 -0.02153803029302346 0.006341813322583139 -0.02138586261007942 0.2527635739701183 -0.03744112261361432 -0.01451098598348759 -0.02297053723519884 0.5017988445300640 0.1427504508788052 -0.01081852617433150 0.1511371914613984 -0.01160183288034136 -0.02331585581045106 -0.02375763981129745 -0.01899187638690194 -0.03997764654364611 -0.01319849163303866 -0.008752487789426217 -0.02259295732023041 -0.03035806578520851 -0.01058689728117385 -0.01206213641224123 -0.01781504887111637 -0.01883371342595508 -0.01027127857562668 -0.01382611990072240 -0.009526845285758754 -0.01952190148435127 
-0.03752284805339931 -0.01798034642546351 -0.03498526495391422 -0.008791800137404238 -0.1898643055133522 -0.02669481628956793 0.3638341679408029 -0.01096434639911023 -0.02864184412501983 -0.01837415274975351 -0.01865309074357497 -0.02310949411637295 -0.02469739666247202 -0.07435319917146657 -0.04876054061159604 -0.02858328835652834 -0.01508395529996594 -0.02552915530832600 -0.04606247282718975 -0.1750119005576090 -0.007299680531176746 -0.1157146280424299 -0.02396165855043638 -0.02383611669456641 -0.1393042035430474 -0.03904941799624959 -0.1277155748355216 -0.005984144502511617 -0.01645160489078094 0.1241391453884553 -0.03865374606238180 -0.01136911707187727 -0.02123933002905429 -0.01954149217914296 -0.01996429912710078 -0.007871735247158732 -0.03096622168353868 -0.08803520650104307 -0.006089643634323291 -0.01601475280609854 -0.03140140043282200 -0.02338846279660935 -0.01542853042805568 -0.01223307303787178 -0.02916635380708199 -0.01782703735379157 
-0.1734658503660707 0.8524025621695377 -0.1755689675185945 1.031641125284754 -0.02169295925668135 -0.06510429334874315 -0.02829583177155733 -0.02821658944527499 0.001962353292388809 -0.1072105741302589 -0.03750877808517537 -0.5127345088706898 -0.1318189048618942 -0.01513019770013536 0.1054734567132567 -0.2681380462537248 -0.0003517465635141034 -0.009995406023390952 0.03004886534353702 -0.02427829327539294 -0.02299812082925368 -0.01436184036652801 -0.009976049286176285 -0.006618898868268957 -0.03410945872732367 -0.1012130729901097 -0.1022482128439074 -0.007459842733276391 -0.05311563948729317 -0.01975563318474886 -0.007179772946670286 0.1515093217128746 -0.02507601370699595 -0.01776723748934950 -0.01487370101696477 -0.01130595797610448 -0.007209241500788203 -0.02265935201167085 -0.03858666650943901 -0.03110409992277797 -0.02241688415433614 -0.02462368084057179 -0.009380420052214726 -0.007187313509732840 -0.009460022113745825 -0.01062948678161109 
-0.06799021525723448 -0.2638694847575542 -0.05462953009017196 -0.3597174635554493 0.3149656688536873 -0.2553189697912507 0.01829260572177173 -0.01302558135099823 -0.05069710016969155 -0.03058101312976890 -0.1025434959219356 0.1047084233708122 -0.02084773605418284 0.8619086267953697 -0.03339469075208221 -0.07751943833349667 -0.05963422445210282 -0.02024267251467271 -0.03300974818559434 -0.2985651208381490 -0.01908988079768294 0.8306046714313939 -0.02518115974914754 -0.01793559339177958 -0.3258693071217571 -0.03655144349088217 -0.3424322562014382 -0.01145354996775616 -0.01753527745872039 -0.08239066992919186 -0.1611603767236547 -0.01495271912827513 -0.04793082626622760 -0.01228025348224713 -0.04699352825986201 -0.01532989445445822 -0.03602906095203372 -0.2324964094752309 -0.02311509536017608 -0.03650570758898602 -0.1076061754085696 -0.02990856370262216 -0.02571801934999047 -0.01568260834395242 -0.01987656811529286 -0.02287246231126506 
-0.2026915939931034 -0.1552425695451968 -0.1429368231687512 -0.6255196191757608 0.7855521942257330 -0.01606951090710128 -0.2640749925988547 -0.006502140639602817 -0.08604293932848882 0.2089537191684920 -0.03297390517655530 0.6261714616769929 -0.2030395689346800 -0.1235001747714787 -0.1856070305768378 0.02520009698469162 -0.03588053374588718 0.1012258434970878 0.7492128125189238 -0.03903804944502860 -0.01566223803885420 -0.2259512337931601 -0.006173215462871104 -0.01023770373101158 -0.1126439309321779 -0.03390868072376089 0.03408643119851885 -0.004041241552525257 -0.01306197574960460 -0.03580235888260687 0.4113623771050480 -0.05935387938762779 -0.01369672063394706 -0.007031674960954462 -0.04113509168283296 -0.005820653352108268 -0.03886589630278546 -0.1854977807260836 -0.01960346017866661 -0.01275344173358067 -0.02591658240452289 -0.01772898649553462 0.4030740925502804 -0.004530824069380548 -0.01058514839883859 -0.005501618791218996 
-0.06982570710141998 -0.07072803137250211 -0.08219293106742843 0.6242618243024254 -0.04545501056124267 -0.1642942027291472 -0.06049366540569071 -0.009264276255863018 -0.04762300908880946 -0.1141968888822033 -0.02716934637159051 -0.3533477196309983 -0.03857831067296417 -0.02066267729761718 0.04752891743151241 -0.2272294500772155 -0.08554025858616653 -0.01793453487691906 -0.09104801855957304 -0.08425536640792394 -0.01297989373320607 -0.02468446039963579 -0.008421639849613369 -0.007082704365796780 -0.02121756895392877 -0.05166244295734628 0.08560053043460258 -0.006441651805626888 -0.009670163221191320 -0.01735991873604901 -0.01994356148914872 -0.01949025319961585 -0.01328273885045797 -0.006793257409387340 -0.01993490118952787 -0.01120401368173885 -0.007851857091186893 -0.02978439630102137 -0.01137090688017341 -0.02193824012249522 -0.01508865659218930 -0.01017604727995801 -0.01338627694188069 -0.007078570628339786 -0.01141723829426603 -0.007456432611401500 
-0.007622442014129550 -0.01147432628260936 -0.01998189039667382 -0.008713447673823722 -0.09741760515705017 -0.02246041743374351 0.1038081041368761 -0.01672847125004124 -0.01995507873320804 -0.01959579752648024 -0.01118229923086742 -0.01193519875812344 -0.01732465305052547 -0.03854942072211101 -0.01590719431481020 -0.01215217999879006 -0.01710146148993912 -0.02805828923595209 -0.03152833359642961 -0.01953083709136074 -0.008384815220978553 -0.08164849649361011 -0.009627525894646615 -0.02098366322823878 -0.04845952918358498 -0.01058615265053892 -0.03700419607769413 -0.01058779248407784 -0.01319644001638202 -0.02338265678053484 -0.01536805859383818 -0.008231265628721928 -0.004459122821573496 -0.01954134224445821 -0.01842539615806068 -0.01246152193052393 -0.01253737009704400 -0.02954229533104142 -0.009334472017895001 -0.008979175929979029 -0.03891676071515668 -0.02251194731001349 -0.02102755275833619 -0.01502023576540559 -0.02198827623425387 -0.02678097212261954 
-0.5487930957927827 -0.2089863514418827 -0.4951977272170922 -0.02123286449290122 -0.03521080285611969 -0.03025471411248952 -0.02486171717711871 -0.1802595204343122 -0.04822736413452805 -0.2220313461373493 -0.1487066646317125 -0.05966656603785517 0.6102892678326668 -0.03142208553617777 0.06360571575038917 -0.01337672173820793 0.3302352003838260 -0.03466281464912763 0.8906438544570168 -0.05380278085750106 -0.08163628755735405 -0.04980403846992637 -0.03606808318627325 -0.01990050222378123 -0.05332085465343350 -0.1980807189997011 -0.2469520693751321 -0.04349694505038878 -0.09015001793230251 -0.05712159619672826 -0.02976977693369769 -0.2518801204871181 -0.09020272713625709 -0.07263391575229408 -0.04311597486482611 -0.02620652606546533 -0.06385508643594788 -0.03207052373738496 -0.08243005799508349 -0.07199922363360942 -0.02938050489388499 -0.04729588363067150 -0.03266582613374091 -0.04207891591269931 -0.03321981416730678 -0.02543262063943877 
-0.04258553604658912 -0.02363026432016218 -0.03911125855791818 -0.03954508650197364 -0.1626019465546007 -0.02618287504919158 0.3084484921672173 -0.02196049591049984 -0.05222284824863935 0.08103010570479495 -0.03124307029944277 -0.02423256316048119 -0.03599972557339819 -0.09743376480113314 -0.05858835347222336 -0.03890803791403068 -0.02043244635487874 -0.04295664344041468 -0.06232905549735664 -0.1300203148103190 -0.02089525268262191 -0.2035466763408524 -0.03079331145969528 -0.05958893923067639 -0.1208254250693855 -0.03339153983832820 -0.1044307864525809 -0.01856568295123872 -0.02665648123753809 -0.1578516181802885 -0.05325970233358455 -0.04724887331664353 -0.03079474414465486 -0.02777452585684688 -0.04185224408789796 -0.01659177404345765 -0.05761955946059736 -0.09231275003881244 -0.01689717729337865 -0.02007356015536744 -0.07671076316139452 -0.05003844147806463 -0.03303393061779406 -0.02577367578147727 -0.04067215225599899 -0.03304588008358735 
-0.2261296753447531 -0.02326390622148237 0.1754700368257655 -0.1706483842070928 -0.05217671701741190 -0.04704167251200866 -0.03823277903188158 -0.1436862194293203 -0.3828136337944632 -0.5345057420908169 0.3188503110660871 0.1689997978470494 0.3062311180748540 -0.01768735037624346 0.9456329150606729 -0.03782115302517128 -0.08926169644375026 -0.03462502844486295 -0.6145539697078067 -0.05974423177290834 0.1457799765827482 -0.06734398796118442 -0.02773523613240454 -0.01605743386100359 -0.09329080049565218 -0.3957510347035942 -0.3691010097753598 -0.02517420987851173 -0.05825291585876984 -0.1002407844089372 -0.01858811041225062 0.7311728114364717 -0.05133087771321020 -0.05589256285670959 -0.07157223098097212 -0.02091193704056382 -0.03103710800213733 -0.03558470381533648 -0.09086916635475774 -0.03896263114536890 -0.01331947615396230 -0.04755611778981976 -0.02303114099628740 -0.02230311531642271 -0.03146824026084014 -0.01715693702191158 
-0.04815602424227006 -0.03094391798883832 -0.05342352456516562 -0.3880596968295226 -0.05424748608378026 -0.4048772209419694 -0.1907275016306813 -0.04297508981667061 -0.06215416577427611 -0.03035565674927426 -0.03561226872987669 -0.6890495964285177 -0.04989185799120852 -0.05671276113514429 -0.03671313449214651 1.254002212348558 -0.03666892633270567 -0.06059331534244467 -0.04661143407869219 -0.05776678200053319 -0.03703786553976114 -0.1055763814567098 -0.03543669058503079 -0.06266616323438068 0.2914723397367190 -0.06386052429035077 -0.04898628688667276 -0.02486467634039270 -0.03192340326469213 -0.03514227088151133 -0.03283169133225687 -0.03648212231484071 -0.03246772772540629 -0.02276901912257468 -0.06469615518881128 -0.03053804866114783 -0.03565018898181328 -0.06857679582665730 -0.08397212089285120 -0.03537042877209629 -0.03958465294135728 -0.04883895826732890 -0.02762693455094598 -0.02643448777907551 -0.03650417399790114 -0.01865553732921558 
0.2942163722684428 -0.2715491477588249 -0.9608111642236181 -0.1551840264848454 -0.05084288022415919 -0.01621386702536622 0.2702906687898327 -0.05339236792500211 0.2041276353428083 -0.1229848638924102 -0.2181692670948447 -0.05436157767688793 0.2643040510054263 -0.04959137482117562 0.3745874688809029 -0.02219193768315971 -0.03241804648683459 -0.01824194887674628 0.5361799163724852 -0.1069598904494244 -0.1277803524675433 -0.04513345083110272 -0.01881915680701073 -0.01571625871772569 -0.02737106054373226 -0.3282741176870211 -0.4572067364408128 -0.02210035929475110 -0.3092988531744363 -0.1068592433163606 -0.01677505336027077 -0.1605880767995915 0.2120407594372583 -0.01404715560719918 -0.01335924831876764 -0.02711469410328870 -0.03685220310443874 -0.01894451757972565 -0.02171088240276780 -0.08858797121630778 -0.01817502723336988 0.1057193240028897 -0.008694669385243487 -0.01864732915520649 -0.009378683327745514 -0.01176111805546521 
0.3278706438751664 -0.09249177117210480 -0.2647657341471988 0.1241926022846408 -0.1795705918945837 -0.03024130841512960 -0.09882283346252609 -0.01932406350867529 -0.03673033702657282 -0.02756180554784365 -0.09488678639220460 -0.2317854850230541 0.07376671429418741 -0.09884466010018389 -0.05315518199072257 -0.03388205858158477 -0.08814851176525801 -0.03172578875071737 0.07651850154478437 -0.1457110848294962 -0.01678743618260383 -0.1356480209227447 -0.03092856510321529 -0.03856880890341902 0.4156275188372525 -0.03608515352969992 -0.2051321561030204 -0.01343709481232819 -0.03103532504814275 -0.06435548438429353 -0.04752839630201732 -0.02439237390417513 0.3403355560875795 -0.02814591736755737 -0.02760154631500158 -0.01442443643069946 -0.03643828552940688 0.3225532802217926 -0.03138440077697508 -0.02123164539837704 -0.04336696877820627 -0.04168217697956730 -0.02579256457068260 -0.02228703430815841 -0.03851990090699512 -0.02870831840850201 
0.1063733708974870 0.1207269174379474 -0.07159729255660588 -0.1766924875032018 0.02649566656452028 0.4295428763390378 0.3628871122842731 -0.008339068353331133 -0.02617689330986640 0.1140719326578218 -0.06106302756130938 -0.1543847740938074 -0.08509444998323547 -0.2384798266792501 -0.04053578626576108 -0.02381277572428239 -0.05525962869757506 0.2078445700642130 -0.08758834820995211 -0.3228820404802739 -0.01660671575918656 -0.3043553173954796 -0.01125754409067765 -0.09016250644817540 -0.3258933092245709 -0.02681116683314872 -0.07020543107679622 -0.002886020968787683 -0.02771854661101616 -0.2177988718624569 -0.07320395688503331 -0.02421396109001044 -0.01227649204669981 -0.01061974384339343 0.08804612219038734 -0.004624339307265238 0.4359243967870551 0.8442147267244571 -0.05626224351392940 -0.01282563949589933 -0.05124913847314754 -0.04028045473280492 -0.02482952911706847 -0.006943155445829768 -0.01795706559841685 -0.01444765894144209 
-0.6176484459474147 -0.2580623690412063 0.8661534357741042 -0.01313259402246282 0.01313351629420025 -0.01404423176108476 -0.04907220430265231 -0.004706211809547230 -0.02723209567329555 -0.01838473496061798 -0.1091680867734941 -0.04805664675916262 -0.7368788225728645 -0.01866838044018432 -0.04146099262634494 -0.01543846258107123 -0.06851923491699574 0.02856423343738616 1.279890275502973 -0.06259923867831575 -0.01344392090257255 -0.08550285419782441 -0.02786051807143181 -0.03007021125836636 -0.04451703473409532 -0.007639381512495918 -0.2724196298854216 -0.006848754773570037 -0.05177449030713940 -0.1021493287838341 -0.02224216977220098 -0.01071103497218981 -0.02782483800059024 -0.008691050219712112 -0.02484603697656271 -0.01109074320312826 -0.02763248577978762 -0.06073546600255759 -0.01970605939521157 -0.01836986899280935 -0.02787742387312310 -0.01829748313031203 -0.01201000970217812 -0.01518334090534501 -0.01959324159933082 -0.01084027192927274 
-0.3854801799438967 -0.08604109050657437 -0.1855657153682287 -0.01496324597470877 -0.07086929154742203 -0.03050419899157030 0.2947913753754946 -0.02221221878991558 -0.05675329740959256 -0.03508420548564622 -0.08604620676846775 -0.04631051739448275 -0.5696340587400801 -0.1281269335950835 -0.07913561365731830 -0.04479558837375977 -0.09682181783470611 -0.03964864086579332 1.433931967434150 -0.1069051003383962 -0.01997969665590893 -0.1460515512577939 -0.03603529326982134 -0.05029879590480779 -0.1704341492154444 -0.02374577393774441 -0.2130313694822521 -0.01697932879044128 0.1487093303667824 -0.09458582926158544 -0.05709227524074566 -0.1685123900491658 -0.03701583741389938 -0.02982498642714276 -0.03549935051719056 -0.02003381472617213 -0.04913700149148903 -0.08280471166713427 -0.03574470885181860 -0.03520140045096017 -0.05351373109111015 -0.05400417878544872 -0.03795943825585096 -0.03109033378515015 -0.05301432268089185 -0.04530931353296950 
-0.3002343225538152 -0.1214568336816768 -0.1712529900907495 0.4011771934033248 -0.1942032887344828 0.1665002280633578 0.4446091916825824 -0.03279207636515918 -0.4763839713304170 -0.09193791089261802 -0.03929429980465581 -0.2349958865712838 0.2633164725809525 0.6708494968666902 0.5565992597932772 -0.2287192093756524 -0.1560002672471098 -0.003201229518072224 0.2598637420440502 -0.1835874246580158 -0.02902848540515811 -0.2060460138735737 -0.01641539547975079 -0.01105284415774401 -0.2455495171137612 0.2987700641980814 -0.3464053859478546 -0.01191916235800895 0.1385571404944866 -0.06331555650326430 -0.06544541162765348 -0.06447354087443478 -0.03946983291026136 -0.01642874896683695 -0.05043004933844673 -0.01332807928756625 -0.02277153938509187 -0.1243289674054437 -0.03159258557007841 -0.04901673321786899 -0.02684407441030574 -0.03243760026198046 -0.02866346749098062 -0.01594409655343751 -0.02641041176488306 -0.01810820055397542 
-0.2026201419616526 -0.3174481580328067 0.4789789751417628 0.3904014896992876 0.3400637941326778 -0.03506466140528664 0.6670727854397336 -0.02943720430932937 -0.04909414275951291 0.2075515233080211 -0.1514653586782004 -0.1017884545066922 0.08775170276470990 -0.1148804026160248 -0.2668474022191285 -0.2128162755443848 -0.05516288913173405 -0.03502057743805676 -0.3578520521352224 -0.1240703168004373 -0.01497647916830934 -0.3131659790324390 -0.02352827382179169 -0.03135974315954597 -0.1127577412915956 -0.1041865842970032 0.1371906005870852 -0.01178268742593828 -0.02824370147249638 -0.07107613826843977 -0.08220850195606730 -0.01778110325008816 -0.01722438056059767 -0.02554562309579666 -0.02277942652997790 -0.01505520946881566 -0.04000636841597226 -0.08156817240051316 -0.02013132768975371 -0.02087559509113784 -0.02841359016797839 -0.03555020771505815 -0.02546486995277628 -0.01917790486137392 -0.02360159384033519 -0.02184075547167125 
0.3950197344045348 -0.002498785702226100 -0.01864757837013929 0.3936316294068913 -0.07101537480849090 0.09249416557984458 -0.001456018001733773 -0.02013565151044347 -0.1099112622740742 -0.1024555153381396 -0.06124734950064872 -0.3473092484903981 -0.2993662433236749 -0.07765644693737674 -0.02968903578472282 0.2086076943255019 -0.01008899791452325 -0.01707974975596501 -0.4072681362892550 -0.1254651087216945 -0.03458510014033731 -0.1358382840990311 -0.01166186595621071 -0.01501785166011755 -0.1670551140501331 -0.06732459622963807 -0.3136013235951963 -0.005877271257394185 -0.1219965982690157 0.1135150080337851 -0.02994283785339194 0.2408679229982391 -0.07132990330762044 -0.01351046369460981 -0.02258068880277940 -0.01728396044870881 -0.03943180664701530 -0.08610363543062842 0.4002524095776181 -0.02984939719549304 -0.03435384242202078 -0.01953798350889596 0.3573099495997228 -0.01009683257671524 0.7664742504806885 -0.01015838627484740 
0.5276631825593402 -0.09986344927963309 0.5653775790710468 -0.004404152569385081 -0.03661730301726782 -0.01451136350283492 0.02024390416529071 -0.02501304686030288 -0.05055324381465291 0.1708270096652925 -0.1055023044796459 -0.005467052599532713 -0.4771997057538656 -0.006604428318071094 0.06770300335401694 -0.01050178206928486 -0.06444785487795646 0.02546109217455209 -0.3225932805022291 -0.04180856815472435 -0.007212853364354039 -0.05712676596430561 -0.01757201622143629 -0.02549443009356249 -0.03034481507177878 -0.1177064458893429 0.02329715844122283 -0.003164211638025451 -0.01808364161341650 -0.007069144018200203 -0.005217304959510051 0.02124055669218834 -0.005205361391311819 -0.002938457031026370 -0.01196129368633311 -0.01086386886286210 -0.004289884403479660 -0.007439538916289686 -0.009822482873708105 -0.006918784615934411 -0.007723780029547831 -0.006957392406028694 -0.003005733950914294 -0.01214526784721079 -0.002684199943106982 -0.002310086483936272 
-0.03289938370296670 -0.02563538009499559 -0.03248173962803322 -0.4162623318686257 0.1182439177823749 -0.04035424634282649 0.2704125284513379 -0.02446419889575040 -0.2313710497727273 -0.03350681252800461 -0.03004059070813147 0.2842111755131044 -0.02745753230483270 -0.4432817559669697 -0.05050435154922425 -0.02616837195144511 -0.02755516985071335 -0.01060242008132698 -0.04920842590003925 -0.08745939959317013 0.09972443300679393 -0.1841906540406269 -0.01423752395281342 -0.02962977688714526 -0.2487537310973116 -0.1627256053786414 -0.1564494958328144 -0.01290779939749424 -0.01826509183369658 -0.04328353460790879 -0.04406872835096971 0.4898798393398489 -0.01147053592287746 -0.02409633030400434 -0.03551869900103007 -0.01551692254078124 -0.01992437742448366 -0.06336292193046188 -0.01238579864051314 -0.01310549450515372 0.5810331133308289 -0.03640929270646649 -0.03139984141821313 -0.02221994160985500 -0.03187765193207560 -0.03996561283923814 
