solver_type L2R_LR
nr_class 6
label 1 2 3 4 5 6
nr_feature 2097
bias 0.000000000000000
w
0.8647760683898723 -0.2123676973690544 -0.5347297455177252 -0.3695344537632701 -0.6903955390545080 -0.1828852306782775 
0.1909920753486958 0.4096981412091744 -0.4986352633528812 -0.2593551405748361 -0.4324887497487134 -1.016413406942281 
0.3249621633575064 -0.3513045242022608 -0.6701420526135184 0.1017048766959783 0.2698903622920867 -0.1471763883414464 
-0.02221543742800543 0.02560596015417570 -0.4167271247592640 -0.4058314095020230 0.1047161232258434 -0.01645015050232490 
0.2223184153524286 0.3502695662061577 0.1620034886491542 0.8323614442208750 -1.007782836640033 -0.5296799273349942 
0.7924725478206592 -0.4226002923432693 -0.5055433560919025 -0.2129398858067084 0.04023707591904666 -0.2925571343164240 
0.4785235456911124 -0.2999400266985981 -0.1570638777430526 -0.2725364060965073 -0.5981750083267847 -0.1935309582799188 
-0.01879295416136965 0.04704703423697444 0.6074044785011890 -0.9823144776370000 0.01876260556656375 0.2564992660516204 
-0.3771260185216605 0.2802394043076248 -0.1871945442691773 0.2424988314584872 -0.5152506117474831 -0.1819572036730188 
-0.02534832425992264 0.8453142587683936 -0.8301305549668901 -0.6267101723229711 -0.6424589187202738 -0.3771244479843509 
-0.4181013044081310 0.5616911330490169 -0.3631264608644612 -0.4734711524469802 -0.2966416356200355 -0.2682796512732906 
0.2573041849860511 -0.02371596982636039 0.4625705875383983 0.2683056054378515 -0.4569806260316884 -0.2993089579527885 
0.4424532078837191 -0.3845635687816658 -1.078547888431935 0.2707939312023904 -0.4579788787745238 -0.1082774051260940 
-1.027319086994324 1.284613531488893 -0.6416247812501623 -0.7254181618496265 -0.7171735241034463 0.4165369522915303 
0.3882830006950523 0.2229890966369048 -0.3964509513580915 -0.5148998398697964 -0.6254413321794032 -0.1416514515099538 
-0.2324450342743530 -0.2228274691241375 0.1646634903250591 0.3657693840305142 -0.1793523693436770 -0.3297664659012182 
0.3354858140719484 -0.4268081406600866 -0.3557552332726771 0.03365977169737212 -0.5517776799091422 -0.1212207989908641 
0.3414433771502983 -1.095130603132207 -0.1976423306574024 0.3310546329468736 -0.1143045776433932 -0.1051950835380999 
-0.04651420060678513 -0.3776484062721018 0.2746004342786950 -0.4255013539879550 0.4566843031947883 -0.2350177180650042 
0.1286828425072434 -0.2080456736797230 -0.3300335153681331 -0.3583794443139441 -0.4262538351737928 -0.09863775689144653 
0.1997113623220619 -0.08969579256968124 -0.1459088319586927 -0.7684886660985496 0.7621651827292380 -0.1392408395528558 
-0.2418901810317796 0.1973404785249728 -0.3020018686252893 -0.1610272786126507 -0.02259716743507060 -0.1910446795047185 
0.1607552576108593 -0.09825386678646142 -0.2633191964734284 -0.4959757713095456 0.03954936762796557 -0.1255738518312127 
0.2950813872814448 -0.3031228489808927 -0.5458326552078031 0.01202222121105168 -0.2893436809947014 -0.09978245821760613 
0.5759491863621673 -0.5830629759879280 -0.2870349931743093 -0.4415880177732774 -0.4408382130288887 -0.09168503490930258 
0.4882937914468774 -0.3888799939338505 0.6117087121075016 -0.3911436552491621 -0.4526531670127409 -0.08926057570904053 
0.6224160303977926 -0.6809051913085297 -0.1793946402408726 -0.2517022235223554 -0.2362736458562937 -0.06034047435681504 
0.2055687487437568 -0.2029384812455824 0.3385325667894306 -0.3221624288746243 0.1245404246240724 0.2620395754705577 
-0.1806654347373998 0.1662177421139442 -0.3253552338478143 0.5400719533091063 -0.4633631027831614 -0.1204234765151677 
-0.7160431080211752 0.9547030205594289 -0.1498646553218981 -0.5269264300066386 -0.1750249154149915 -0.07076058656689511 
-0.4628189341816817 0.3439426001279567 0.5683034496706670 -0.3363410255103120 0.4745065545528976 0.2518972071997792 
-0.2218631413650091 0.4669162181630827 -0.3702453653247400 0.1619901621259708 -1.027165452255265 -0.2758098004111896 
0.2032390891158955 -0.2434577391867353 0.1057804526371941 0.2361516059561594 -0.2191415943553419 -0.1530882438555077 
-0.6808625394683376 0.5216477716695007 0.6569000271117158 -0.4410837583343434 -0.1012503591707599 0.1359183343764781 
-0.4345561163457926 0.2268277285081536 -0.2185493047139471 0.5564799744857310 -0.5725417813424812 -0.1011649930455330 
1.694624245061222 -1.892160079840240 -0.1950007911359906 -0.5071321621938917 -0.4657706947634968 -0.07236844618620407 
-0.04816663402762641 0.2356164444973164 -0.5100162424689556 0.3336413291129523 -0.5526397979357331 -0.1766941032594254 
-0.04081351791036784 -0.05936351492851493 0.06142597514037539 -0.2733434103534906 1.033103949394216 -0.2327286949676719 
0.4030277990479899 0.05588913574980751 -0.4027201462145593 -0.3269531648862650 -0.7711903493510257 -0.2200054451148648 
0.05526776538371789 0.03755776721144231 -0.1877748116438377 -0.1398435637362614 -0.3377050993045598 -0.06213534865719086 
0.9051683568242568 -0.4394615556268131 -0.6454278428814711 -0.6496061782036325 -0.4884269642314769 -0.2766261180423594 
-1.249190414938254 0.5898538510257039 1.004481592015146 0.3084009660525106 -0.3147730420356120 -0.1646632520145113 
0.5451558689920011 -0.8108673733700968 -0.1191743491526487 -0.1596606082182422 -0.1437037630704153 -0.04962483842417548 
-0.9512173944593868 0.6488365939130330 -0.2291386000381745 0.3885360267910625 -0.09982890037097794 -0.05099508664528827 
-0.9388663799176682 1.220927683565728 -0.2474345490452684 -0.5269496757758425 -0.3566819430782399 -0.08073697500262192 
1.119226667795094 -1.293893824361267 -0.2145283097791194 0.07402052898038691 -0.3229402226105438 -0.07921445238379653 
-0.3678393686288824 0.4275939008948945 -0.2379498380622377 -0.2502786384810050 -0.4330378514003750 -0.1148362811711445 
-0.5573302185878075 0.5425622130394331 -0.1018098024307925 -0.1681084269496928 -0.1493866655814063 -0.03694531583962275 
-0.5025189225140863 0.4485566343769434 -0.2593079509830881 0.2037914849169721 -0.3564928280197943 -0.1058970316283177 
0.03123117575045902 0.2799401743763624 0.2904040481521937 -0.4874464517788015 -0.09331390916008883 0.4004430317860134 
-0.04759822821510748 0.08029038407577360 -0.3541135093581065 -0.3286587394692208 -0.3179010894287316 -0.05153133480038064 
0.005646097911328249 0.008811746722971482 0.3006439156866090 -0.2763936742345743 0.09071745555196882 -0.1212650363447433 
-0.2938055909559257 0.1514416243810854 -0.08479244138573168 0.04831012869275283 -0.07245741605980900 -0.08833626291416294 
-0.3159762017392512 0.5981928100380686 0.1195671218504814 -0.3971620675354575 0.2910910081556079 -0.1167323309786514 
-0.3420268312017101 0.05847700920907356 -0.1231882073568013 -0.01379565666560537 -0.06603479390057165 -0.06014754556943722 
-0.6982841407371540 0.7565988463277555 -0.1801470166452635 -0.1952874704377145 -0.2944818921587281 -0.04948860542995250 
-0.04070684780805910 -1.078728632641426 0.2595537285945777 0.8299421710348541 0.7413760278378263 -0.2036599313193410 
-0.2544800950080802 0.3230307886199437 -0.1825978007908594 -0.007154350123580058 -0.09665505501347935 -0.2513776725064150 
-0.8559570825607071 0.2002495187559457 -0.4520936490485669 0.1161725498325827 1.332171765946624 0.4223364739210661 
-0.1865776090361838 0.4005492117775845 0.3807998530177306 -0.1509968519053984 -0.1347076270225440 -0.09453154013176919 
0.2470606955196837 -0.4883745605821106 0.5257329563515966 -0.3165085771888221 0.5621183677000926 -0.05015129707242819 
0.1640858896133815 -0.02935242544464312 -0.1045704313599712 -0.1500940093369411 -0.1449033323092673 -0.04096180878863669 
-0.06775842545430508 0.4249469906546865 -0.2509740556226980 -0.3676892030406962 0.1836140618383028 -0.07367524381538450 
-0.08373003572028301 0.1031070131846792 -0.1209491577759050 0.09550590942917009 -0.2956165035673473 -0.006098743467844091 
-0.6700822871718930 0.6818496316960284 -0.2525723848306921 -0.3044648456764920 0.1758624419823428 -0.07641248083568061 
-0.03426863153081121 -0.2459415423927232 -0.09891727025703223 0.4522427227479511 -0.2522528735213162 -0.04568659443295774 
-0.2744525825165984 0.2791608201333235 -0.05569040807106716 -0.08014915662144959 -0.1509799665892638 -0.02791417853152134 
0.03943397482105079 -0.1221203800933934 -0.1163703795708304 -0.1328510934057629 -0.1594058663105668 -0.03008143143558500 
0.07323179772366710 0.1941062431443935 0.03128663261580419 -0.2164107691440230 0.1913575473808143 -0.1012528873305761 
0.1240193564763513 0.1517742008812643 -0.3283659065541252 -0.1496152540332395 -0.3789444101624459 -0.05497681376057684 
-0.4589876635245694 0.2887554141617384 0.6129551707841995 0.4011507299206036 0.3073524932128384 -0.05936282346754030 
-0.5985812748496141 0.6990537520561292 -0.1567128309179353 -0.2036328872699537 -0.2781114223508204 -0.04905037366393029 
0.3608515670500967 0.03643762201720606 -0.1056993579859906 -0.3865770349277252 0.1260470763342003 -0.04112230730885735 
-0.4410491535869050 0.1865615035471436 -0.3227990089937924 -0.05592592589447907 0.1512833285495380 -0.05402009119674479 
-0.08720203065796227 0.6493779383608258 -0.2139355531835886 -0.8677972499247065 -0.3395831081054101 -0.1248486465488139 
0.5816667039783946 -0.3979004706441733 -0.1297652803509998 -0.2402585127930526 -0.3296073441903950 -0.05651633517804561 
-0.3552136074134358 0.3325235335548101 0.1782949610804642 0.2992348261084958 -0.6824191000817769 0.3892732122838494 
0.1457721264744776 -0.8161550194378047 -0.5459967489405080 0.4916389698738428 -0.04660284568178243 -0.2195448646524573 
-0.1543757631114361 0.2439458810993634 0.06439388934270392 0.2345846394746192 -0.7642629989847842 -0.1057772822596746 
1.373087348096622 -1.407325947949919 -0.4399880008399412 -0.3461173649784803 -0.4081272937267373 -0.1503842792433432 
0.1342226415911495 -0.5457353949902283 -0.02777664012923074 -0.1430778508792830 0.3253803744123843 -0.04501359739352595 
-0.3541107176156295 0.3431218615610169 -0.1951711683870729 -0.1464998696383704 -0.2380536552014134 -0.02823157786082956 
0.1956171805055776 0.2581252721282080 -0.2147983901323148 -0.6360554351278371 -0.4610149045289484 -0.03929773866016176 
0.1762122788305655 -0.2406901358011619 -0.09217885849116748 -0.1218854417025623 -0.1575106681847930 -0.06170816420958501 
0.001754253913274307 -0.2400389596229957 -0.2409388476765225 0.4880971305524752 -0.4674980396521626 -0.1019679728387306 
0.3478022871960401 0.08917726557905949 -0.3659282175667892 -0.6819422458966945 -0.4707525627207140 -0.08753929429351852 
-0.3248219405601219 0.6465160959012967 0.3251775967856205 -0.4661261634678546 0.07656947789716129 -0.04568506991178330 
-0.6094907093470002 0.6192278739165697 -0.1190394076377706 -0.5026434744573170 -0.03116670618950022 -0.03856847136964941 
-0.4104535268313845 0.7718018781845043 -0.5786625704177655 0.2351910041543888 -0.5302230141986619 -0.06152217528245388 
0.02982912695769460 0.1648522717557161 -0.1160954678697476 -0.1924715176100945 -0.1778886302049843 -0.04401543853758516 
-0.2749362380132347 -0.06602724651534940 -0.03508769967778609 -0.01613129973332786 0.4011122457814663 -0.04604010196886162 
-0.08645361157387062 0.1453467356268411 -0.09024031579515884 -0.1759941102361896 -0.1703395634103671 -0.03132341383984453 
0.8263337093735240 -0.5040196520256741 -0.1569556102641328 -0.2148125810527238 -0.7503290099263006 -0.1152054521513648 
-1.190244047739467 0.7119389045032264 -0.2764084276078718 0.5897084235735701 0.3838673196537607 -0.1409525657371775 
-0.2743080002680962 0.4350307771570098 -0.2050178546855694 -0.2266480271906005 -0.1960260942959914 -0.04426057591744784 
-0.5814328302942375 0.4609784551035913 -0.01783460367325030 -0.1119635945811842 -0.1821940439161948 -0.03618493265147399 
-0.4874183832383561 0.5319473302197900 -0.04926080280629541 -0.08287324165634052 -0.1607639193552896 -0.03802905614285002 
0.2557970549326154 -0.4305253303072407 -0.1465495688789327 0.07952623106130523 -0.1134123128831788 -0.03822382591450697 
-0.5643852936008771 0.2677804516899671 -0.1741160336788601 0.06897103119759497 -0.3108572741176121 -0.02373375553282496 
0.5474327826762690 0.4420210125176683 -0.5582871625183957 -0.6860739668329372 -0.1562691992942124 -0.07057942229840078 
-0.6268780989152551 0.6681598761636518 -0.2499621408422482 0.1068790724522725 -0.4267033496272221 -0.04899963884665278 
0.5499486828045254 -0.5056827284392729 0.5743885346576674 -0.4048962190190455 0.1323777758665589 -0.1073012249292975 
0.2603735974195294 -0.2613203971133563 -0.2137896453864391 0.08954134302190903 -0.1860245521022751 -0.02292664415280105 
-0.4938040543060275 0.6146857491122900 -0.06934639561724610 -0.1419572586153806 -0.1296982284236523 -0.05198942970311180 
-0.9641061960260395 1.449695836246393 -0.2105339618722301 0.3050656054713142 -0.8558731160637841 -0.03023444058263678 
-0.3933057933455863 0.7365573287824322 -0.04730526533315051 -0.1476954887703418 -0.2598050067184360 -0.03922956191153416 
-0.02048844887023565 0.03903074835138603 -0.07343537689645714 -0.1035267107757755 -0.08147610149939352 -0.03408673635497696 
0.3957307830605931 -0.2759223601388295 -0.2510300843302653 -0.07132211096520615 -0.1409023628955933 -0.07754581045664500 
-0.5666625478828882 0.4329943727901960 -0.1301744268483374 -0.2786143593752625 0.01833234548038714 -0.03139363166310363 
0.4501873189513662 -1.007478178477550 -0.2679089601812259 -0.09918855702213418 0.2003887249618070 -0.1666156773896068 
0.6017891501768359 -0.1597918034589470 -0.06407574349876857 -0.2137977391367948 -0.6614969052844715 -0.09216704123138543 
-0.4927878168780404 -0.1194513654539101 0.1618503701538139 -0.5644190669277963 1.422460366977032 -0.09443235843037234 
0.4323495966859554 -0.2902571294241383 -0.2881191041029306 -0.5917174560007846 0.2842019028399473 -0.03797969915913515 
0.2893586406275238 0.08547774876936311 0.1241067075616166 -0.07433868876729884 0.08574893939583256 -0.09241948905614498 
-0.2128616119320661 -0.3566740206997363 -0.02808849292148536 0.6458209283960515 0.4970692217798283 -0.02456910586285839 
-0.7292054864764567 0.5681086847409266 -0.004535017151313027 -0.1123604764989118 -0.05940612163364883 -0.03231180143005453 
0.2731910870984620 -0.4419934909658803 -0.1873195621952863 -0.1271756177337591 -0.2782795883982754 -0.04219795243168431 
0.06684675360122129 -0.1900657185421411 -0.01149082567336384 0.06503244654215216 0.7476315665499869 -0.09152011242786007 
0.1955205628186224 -0.07640920250534616 -0.1229783791802038 -0.1055823681887060 -0.1321793248356636 -0.03494090717716921 
-0.8882033594723129 -0.5513957399003900 -0.2121239936123865 0.2279708303773106 0.5473677666975666 -0.1092512340965774 
-0.6310048571537151 1.772864603608285 -0.2950511013402127 -0.6396224924805115 -0.4055895249820327 -0.05032715979780875 
-0.9373313724244534 0.8295971346839132 -0.06196455431054908 -0.1875656462867790 -0.06511002942101991 -0.01845753348619858 
0.2646344092493547 -0.09471648340002509 -0.04566325439113735 -0.2849639464721603 -0.1803898970316698 -0.02870912011937480 
-0.3173044938008414 -0.07401672109119767 -0.3738631420338391 0.2498750260636794 0.6502595783162202 -0.2104759175379764 
-0.1959076776614188 0.5227697467089596 -0.3281508502337138 -0.2138847859498895 -0.2930159415201004 -0.05133692866165485 
-0.05484164394012855 -0.04769508965372927 0.4848510364689806 -0.5211828030290120 -0.06404632427819802 -0.5467383397909470 
-0.08298749696725748 0.3863222215603679 0.06078084997048359 -0.4091721308210863 -0.5049394957098720 -0.3799614948912719 
-0.4233099124344597 -0.04691933299170772 0.06289405662960270 0.2274971359915805 0.2191329731382801 -0.3862698236075315 
-0.3335070414712599 -1.680405604852461 0.04631773149186961 0.8847053183631769 -0.4026559862655559 0.1474416272767888 
-0.1884000348630277 -0.04074818500448724 0.3398264597346888 -0.03706311238284257 0.01136951668437847 0.01299169361292458 
0.2619345190038794 0.007744509169319322 -0.5396604956215503 0.1820071907147095 -0.2580498824246508 -0.6204334520852907 
0.2633429636407271 -0.8964495367151724 -0.4743320642356720 0.7960280937987275 0.5167865370352792 -0.2880450519703253 
0.1233169296172348 -0.08518531212967659 -0.4813917521443967 -0.2849740291179200 0.4202844942779436 -0.1882661176888975 
-1.426400323143986 -1.126639861578911 0.8666227448800188 -1.086464271237197 -0.5131765469444634 -0.3614679893699964 
-1.564830041117959 0.06784787035986228 2.275937500127093 -0.8991183074904047 -0.9546198274923405 -0.3190243198757522 
-0.006803305541916133 0.05191283213066416 -0.2757321592134843 -0.1716260494194039 0.08370457891725325 -0.2277848657280119 
-1.296002399657246 -1.268997539856530 -1.773037611787106 -0.8580028202560191 1.689342574560885 -0.3747623639054429 
-0.5271915456930415 -0.9287056866879279 -2.056331942252630 1.460563138896418 -2.952487944733907 -0.2425928762730448 
0.05276518396849546 -0.1559554933980257 -0.1073126107059687 -0.003297850946521626 -0.01767037199831165 0.1407473226416016 
0.3130452192450689 -0.4571203177772917 -0.4308946392492852 0.1547439133886477 0.04029080396677401 -0.1580053067612558 
0.05325081642795378 0.06994989097324472 1.199163055024328 -0.07935059688125538 -0.5760935015621105 -0.04983741376825483 
-0.02218572866940772 -0.3322479414282361 0.2859934051472617 0.2176404473184928 0.09043272095426434 0.07431796932860636 
0.1281112809664028 0.2131436023514146 -0.3583400153243261 -0.5852425385136926 0.1283287107290243 -0.6491330529975345 
-0.7611796522352960 0.1041494215804274 0.3300178910415390 -0.2558763594431236 0.4342520155397622 -0.3211873280571412 
-0.3438629472878212 -1.223828794831815 -0.7201933057255424 -1.237400845542981 1.501620072126343 -0.2081385646021694 
-0.3783850238737097 0.4400723010422502 -0.1608407829772988 0.3282184069645600 -1.502811335009180 -0.2726943854502210 
0.6327759831310433 0.04811081411832285 -0.05781492502442648 -0.7178116891284821 -0.4420064211683335 -0.3327164353804594 
-0.4380016164601659 -0.6820402198721025 -0.05036468438744542 0.3720330355944210 -0.6463539694529090 -0.1892988382552976 
-0.4285423428500088 0.3983586942953151 -0.6337232581708742 0.4162445817103289 -0.2929847399768879 -0.2749965693772273 
-0.1191055274487914 0.08320694169529395 -0.3128227145066551 0.6415309725071583 -0.3941644942233799 0.3863822103419247 
-1.387899063562549 -0.9768933830983625 -1.240878999813784 -0.08953920684787145 1.579350118369594 -0.2488195464795080 
-0.5791094177392890 0.4838167906848302 -0.02432774895583162 0.1910559106722778 0.07768034652721816 0.3017932775159053 
0.8364232158203633 -0.5982094378812357 -0.5223733322121803 0.6572858351437803 -1.068018795462610 -0.2144166649638811 
-0.4078120412082374 0.6560886150544665 -0.4764274713598423 -1.034476158291417 0.5707821124110418 -0.1287287382318239 
-0.3453528997566776 -0.02082572363812726 -0.4920271176174419 0.4351800386308704 0.3158188935965905 0.5590837020453733 
-0.2095029525888089 -0.03621801200671614 0.8225824015937362 -0.3316354208521394 -1.228320054748614 -0.1250033796551961 
0.2347704761761375 -0.01332319858521710 -0.4129980821637343 0.4599791865064913 -0.7064213486188828 -0.09439329969195898 
-0.04264290579938788 -0.3310317475793754 -0.03891810673879318 0.5856974930704643 -0.07782069801853995 -0.1430162539950285 
-0.06862738333410160 0.03193428130586503 -0.1482558769805706 -0.1343754153300999 -0.3882903453696757 -0.05380290994893664 
0.7429154275116753 -0.5009500882278225 -0.3372435326630032 -0.6436958109659325 0.2299924979567453 -0.1057657228288679 
0.7624435049031887 0.04351987029560563 -0.1122093648101625 -0.7922115392547750 -1.305824130286397 0.6075433075330339 
-0.07987845953860980 0.3869029038631501 -0.03143278750263021 -0.2412505174875474 -0.04428556050894657 -0.1097008213193838 
-1.041183202323338 1.433064042010543 -0.4159697267209604 -0.5880568618503446 -0.2625602038109354 -0.1260096101271014 
0.8001090776980792 -0.9376407429764653 -0.4280677393072180 0.3586197360163518 -0.03664656903594401 -0.04184976940518291 
-0.1121816530287962 0.2118395690419440 -0.2255847184210662 0.4542074817126195 -0.05823391561339313 -0.06142097124430981 
-0.6051947952916368 0.1243594384420384 0.7948199530818504 -0.4985388464359267 0.4380904427729354 -0.1100866082523624 
-0.1725596372148822 -0.09881891553028957 0.5555431166726540 0.1548399245947150 0.1913918806023378 1.143919888121025 
0.1318075567664784 0.3232782993873103 -0.3887547567304865 -0.1632322077386936 -0.2856989122181212 -0.07164775781212325 
0.4089234386980510 -0.01127388512156363 -0.2338900149107044 -0.8732168369075392 -0.09168722809918359 -0.07903831858374048 
-0.6034244990906509 0.1258683372226263 -0.2875231132388812 0.1900466186506542 0.7565761211804902 -0.1204677541413367 
0.5322517359664225 -0.5358483367922118 0.2901253394119903 0.1498624697750466 -0.3289491173347120 -0.1499453745146501 
-0.4203857110034254 0.2464223214533261 0.3692359709099079 -0.1624386856571440 -0.1673411890859010 -0.09182853972145943 
-0.2208742852010321 -0.3498089332697189 -0.4626475527760114 -1.063892613761168 1.644424010763301 -0.01139249258571492 
-1.600588624656012 0.7601226741493516 -0.5720972151696488 0.3288026335355012 0.2211338052098157 -0.2842692812702668 
2.267023230397657 -1.284903578452197 -0.4382045340622629 -0.7530094681432780 -1.356901681976586 -0.2304429002707652 
0.8195993154837888 -0.9650032944600003 -0.3381508245818838 -0.1795891341419368 0.3876287892327320 -0.09903867781562375 
0.1447229386826381 -0.7848429841850986 -0.5422541247662496 -0.2655725193824317 0.8215017093584198 -0.07684548904462190 
0.2342616506648001 -0.7467942274214155 1.167326300875765 -0.1577340569419755 -0.1732629557818589 -0.07466534229852138 
-0.8219940056113709 -1.230727914027304 -0.4065361707977415 2.106971484343431 -1.429382752760012 -0.07398604062455820 
-0.08276557294750979 0.03825767374920844 -0.09790153009750767 0.1917385893213769 -0.3117604667884740 -0.03657000249869356 
0.1069200034442473 -0.6409859081014014 0.4079612680559910 0.3811183622232207 -0.01140129350492014 0.6490976818804090 
0.3940660793929218 0.3620306813124453 -0.1018357068310498 -0.6837561416644399 -0.6081881472986034 -0.03430209277138109 
0.9117284952631016 -0.8693031549367237 -0.04749293156389339 -0.4675467235919074 0.8334064105130502 -0.05702013255561936 
-0.3394988832603904 -0.9983316065784267 0.8043045423553956 0.5559185868432390 0.4710006519830969 -0.04566587630431571 
-0.8663701470931121 0.9145976823899459 -0.07180561585840034 -0.03450746567645743 -0.1365487262754175 -0.04628675537251824 
-0.7463669327168450 -0.4017801274326577 -0.4735600126743326 -0.1779571948607827 1.116657371626302 -0.04085865609599242 
0.3426852676156355 0.4157248208186569 -0.4767739620489610 -0.8834432417240525 -0.6155524241462498 -0.1694356804320776 
-0.2556590225278308 0.1399463791431078 0.1997001439193054 0.1607422026231798 -0.04614124949055554 -0.1518444306025998 
-0.6998283991132188 0.2905938363647247 1.008192688585279 -0.09228208916566005 -0.1775350804914159 -0.09225256933123009 
0.1890703823142024 -0.2227816367374292 -0.2379643989926711 0.3736993855885343 0.2550128520557860 -0.04442673179005019 
-0.4210789218937265 0.2057771298134219 -0.3359686200987804 0.3141800016722672 -0.003108267859861227 -0.1284291491046073 
-0.09682558469988264 -0.03989635002046047 -0.003336025598890965 0.5746497318174623 -0.8203479462239059 -0.006838233964962832 
-0.4489362109732421 -0.4051857179929451 0.2344447099559835 -0.6130611242367072 0.5880830999437499 -0.08199366680658770 
0.3937461414584378 -0.1788764538615779 -0.1119316967193265 -0.3572142337065328 -0.3101851750691564 -0.06621106282336887 
0.4054170608798748 0.09021009701655613 -0.2690961904548676 0.1808609808710363 -0.3914503118134993 -0.01309749743758460 
-0.3577704362006783 0.3441536104724584 -0.06596831518666704 -0.2779014740150497 -0.1712357519105714 -0.03314740582800577 
-0.02634932843532625 -0.02329838454081567 0.3937036883632376 -0.2148212046310284 -0.2236786775754284 -0.001183977126146692 
-0.03340125043647946 0.3097966828808382 -0.2211893322134851 -0.2248008887168679 -0.1684282823506046 -0.01942589113552159 
1.137100552057872 -0.7091225785744217 -0.07147190591959963 -0.1289535244622728 -0.3739843440832873 -0.03697539521611005 
-0.1711298178173293 0.5459460112421041 -0.09400215387884069 -0.08665221524340913 -0.3560148811594771 -0.05550001143616241 
0.03727623494870028 0.1110707815021992 0.02480426433664561 -0.2059596330524166 -0.2083904130465415 -0.03969850179436150 
0.1828793602023740 0.2573344772202447 -0.4603658478708022 -0.2200587646543875 -0.07988891215559155 -0.08100558737427901 
-0.03653625362704996 -0.3484417552309760 -0.1303102554780712 0.5094057942148257 -0.4483776586742107 -0.03959840140208539 
-0.7837764069649843 0.7143206415722112 -0.1259241477978574 -0.3317380527397412 0.6141176700375317 -0.02097584237497464 
-0.1906741429637399 -0.4952273858025107 -0.02637646610178839 0.2387434974590733 0.4712129797891390 -0.04983421844390649 
-0.03755522324633162 -0.09575490882596585 -0.1350413401992152 0.3947855658037930 -0.1348746630468621 -0.03545165678088163 
-1.176499926865837 0.6329162043477772 -0.1198277062744406 0.2937530553393588 -0.08152511615765509 -0.02513907607223670 
0.9872581509191062 -0.8534557248891482 0.6702089270856605 -0.9323127995782892 -0.01361491813599308 -0.08896233324079661 
2.803130712751077 -1.753426998564502 -0.6433405771502659 -1.165356314730404 -1.155643633829754 -0.3647416956853263 
-0.5938215733843410 -0.5989573906846358 -0.3681989704864150 -0.8945794719061143 1.795706579549492 -0.04988380410259476 
0.1571598642596642 0.3294008174280291 -0.2090253426691383 -0.3655437758990640 -0.3005952500247063 -0.06266286408605850 
0.09086211447207763 -0.9706930980463796 0.1585255034701705 -0.2139450842288858 0.7208589186228380 -0.09655511567417319 
0.2529365405762336 -0.06898901690385768 -0.3274330730939376 0.01437268705051019 0.1815488610627353 -0.03993123742354449 
0.04747214211808383 0.03092887972700946 0.8385433727428211 -0.4043953811363119 -0.3306912072547176 -0.1236631834157940 
-0.4628074027986094 0.5943068344016295 -0.07522583583663227 -0.1007885341681742 -0.1711806948547927 -0.01683017162369302 
0.07265411192717833 -0.1267556738433056 -0.04543332789424426 -0.1827771738080466 -0.07709466667716382 -0.03922916356972200 
-0.2750992729914606 -0.3528443200109293 -0.3461934745263228 0.5970378824078298 0.2464458951664217 -0.02809118737910628 
-0.07862254239904905 -0.03418834617169433 -0.2125536004346603 0.8071635547531688 -0.8454925216235043 -0.005048217141659397 
-0.4646069154483556 0.1765368005400284 -0.08274623168970816 -0.2503872480524686 -0.2885813349611777 0.7845377084762425 
-0.01122856624495948 -0.02624037930209901 -0.1286128099846397 0.4336634776501513 -0.01134030079261816 -0.002702829514068915 
-0.009043824129715397 0.1040544788552030 -0.2152300481798864 -0.1973481484100083 -0.2119491470786762 -0.03379892066303947 
-0.2896566341344233 0.3407878237308790 0.04992455138861400 -0.4538864486922380 0.7204761119296481 -0.05336714826438879 
-0.01914530360209403 -0.01737892370301867 0.4230013860770003 -0.1936142055092365 -0.3232421897194465 -0.0007249077863947122 
-0.9123988436104694 -0.8426703010481018 -0.2013654405003605 0.1918087948077428 0.1269409873955846 -0.1457730661999867 
-0.4545330865954053 0.4368257619291077 -0.1402422622164761 -0.2828146051650678 0.3976545575042066 -0.04558451682419764 
-0.8656277673266538 1.103295592013967 -0.2068355633245397 -0.5113453980623656 0.04132868297884473 -0.06282998838822904 
0.001925262253827352 -0.2611918126763493 -0.06130597643166906 -0.1276200042895777 -0.09284706660863405 -0.03100184036536758 
-0.4844946970638191 0.4215300924885999 -0.04733495326161499 -0.5369045191695329 0.5100243907558384 -0.01374421891351023 
-0.01790349723241129 -0.01517014368950428 -1.365645713279773 -0.1880492351900726 1.499495983386124 -0.0006042936380098839 
-0.005746363650284463 -0.03818912948346265 -1.839017507620918 1.573164246361341 1.112900626796899 -0.002084785320810163 
-0.02822839670806894 -0.3501319995274926 -0.1496819064155590 -0.2251072179871853 0.3961354002652769 -0.1124543836733185 
2.100878916876550 -2.148553427331169 -0.03422184030339506 -0.2252438862595687 -0.1621235287889554 -0.02986897076364569 
-0.7904136195869798 0.5735759947892173 -0.2081855954501338 0.6659772193641309 -0.5961922809996899 -0.04576117975312338 
0.3626837250464104 -0.07012026160069128 -0.1674278771724360 -0.3135885464942864 -0.3220267510276988 -0.03232012902619828 
-0.4644716848357730 -0.02601701248638823 -0.08045328198735585 0.01919961580596088 0.3765965672593414 -0.07351966908583021 
-0.2411566050408644 0.4110926596773649 -0.1600009509913298 -0.1459208880257326 -0.2027155536533251 -0.03036934596475807 
-0.8350622603922968 0.7846095981103147 -0.1393247287089435 0.3728000765394292 -0.3574547183596167 -0.03551031473526151 
-0.06037902543246486 0.2298969363942556 0.2180731538402959 0.01809602818479604 0.3895216150061635 -0.09571621235730657 
-0.3942493145499955 0.3033343739410714 -0.09607636242238884 -0.8398300021897172 0.4338569536820064 -0.04415715100794534 
-0.5845685025027880 -0.02782340124526171 -0.3376739418061037 0.7674719217778738 0.4682861524775465 0.5209871613618800 
-0.3330413391004506 0.2216583777949651 -0.02164881291819185 -0.1990019907810117 -0.007395380484343008 -0.002157595351034908 
-0.1584506691819847 0.1924067753173474 -0.3160536756519435 0.3217953949189127 -0.3478677704649023 -0.03305567175002868 
-0.005863915674857893 -0.03358622515048675 0.3219741693138821 -0.1793438464341849 -0.3596155331475315 -0.001965356725247201 
0.9150379104055838 -0.009374352175283396 -0.3479027118795948 -0.9403426546419548 -0.04834190080518348 -0.05629046622270286 
-0.2408642480100026 0.2360769311285178 -0.02215415888933519 -0.06491469467063937 0.01666133816472143 -0.007974883768950540 
0.2301690857109617 -0.2698814643049030 -0.03525349107534622 -0.2352906580783831 0.3417855088394903 -0.02212787485018376 
-0.05549287543692076 0.3861166886210088 -0.3560290910505119 0.1127402238888047 -0.1231900982446228 -0.02041043925178898 
-0.6684439554911655 -0.1947475644778231 -0.2451513023520176 0.8137390420418740 0.1976322861041031 -0.1744826493792822 
-0.007346022930615708 -0.04185283748071268 -0.1947794615224787 -0.1796879732005833 0.4652958668160872 -0.001895784568013244 
0.7368011681546496 -0.8970231377119378 0.03858770702391800 -0.2493791608347723 -0.06308244269220228 -0.02887753207962837 
0.4186112509777709 -0.2919600411985500 0.06867934516331159 -0.1472158558741851 -0.6034792051180526 -0.5063061245544460 
0.1359467832481959 0.06585840879328796 -0.8787040139570380 -0.2367111032160450 -0.07335099280484798 -1.180543703086495 
0.5474504737299188 -0.5869530287507794 -0.03268361236263559 0.2858400327477881 -0.1389713634747985 0.1204810846008205 
-0.08458974663400098 -0.2573520403960555 -0.5509204459573334 0.3395438443069044 0.6450582118544580 0.4391322381618221 
0.06573204711872034 0.1292441341433865 0.02361188953793109 -0.3305769991469572 -0.2170935252983765 -0.5439430485575821 
-0.005567916473829397 -0.1173373773900720 0.6492041117480163 0.1035595598953835 -0.1012472400345737 -0.4892940577985823 
-0.7780346181374745 0.8218050992453042 -0.8867693644124468 0.3223623775494554 -0.07439265554966998 0.3800984558241116 
-0.8340800418053901 0.1966103538237130 -0.4619812441980231 0.7382815772019810 0.3245364900769940 -0.1861296891964314 
-1.941618473170511 -1.557932302258322 3.161569604086413 -1.025281777950268 -0.2962763978341380 -0.4302483095148630 
-0.6496493599045973 -0.2066269643996387 1.899014325193750 -1.950962925261811 0.5173274057188995 -0.4004219191020905 
0.1621882763517187 0.1393970421122156 0.2671844081250603 -0.2463856226875807 -0.5333736305021436 -0.9960924026001564 
-1.790393732284088 -1.128093851263900 -1.741080180437448 -1.196225069194871 3.429166217683951 -0.3992793517593372 
-2.166752719068751 -2.270093955399696 -2.163423324642019 3.662288174101146 -2.345468215653930 -0.3530861532969287 
-0.1630914103756327 0.1619268412259858 -1.457077410479062 0.2572184910873406 0.2363825914502030 -0.5891675212121799 
0.6768130905431881 -0.5673737545969344 -0.2735161293907198 -0.3648862439652638 -0.1063533970344475 -0.2458816887007377 
-0.4509628049569762 0.7972543036383121 -0.5607128500501214 -0.05150728836146423 0.1684410899473719 -0.5842479918109555 
1.431628507628012 -0.6466107109607094 -1.530279566113205 -0.7038480090081974 -0.9966947947784602 -0.9710266860560858 
-0.3517129329805769 0.3027968370536834 -1.378987709980339 0.3101241683060969 0.2992116021166861 0.07206112105310836 
0.2033098643315723 -0.1857496082548733 -0.006549288808051394 -0.01761556333626977 -0.07811970028983120 0.1921754790789363 
-0.8573661915371410 -0.003584351212858456 1.684497966112239 -0.4452999326915788 -0.1020199462268649 -0.3376093676016190 
0.1053200129995428 -0.2104575018570667 0.09555513136288030 -0.1713256974619616 -0.1678125616703210 -0.4238967795422630 
-1.941269809256274 -2.114511367069780 -0.3648963104535203 3.641814267955566 -2.208795829400625 -0.3551721331798332 
-1.106010300090007 -1.845400178807776 -0.8243654145232672 -0.6915677617862684 2.851821255406791 -0.2732467918744042 
-0.3695517892087519 0.9387682372236150 -0.8275164926228032 -0.8025062145509996 -0.1571420634551793 -0.4854881369832603 
-0.2572367901552579 0.01387829349130575 -0.2503933036949102 -0.1720430451472859 0.7826872303351274 0.1459418971241406 
-0.4783791691208612 -0.8109113750171585 -0.09140022423823418 0.6983750395526869 -0.6554252255447438 -0.1951461882176237 
-1.472510305224823 -0.6926244181978116 -0.5327232048355264 -1.885851125750718 2.481626136209423 -0.2836749473978275 
0.4628638782253004 0.2667879149295893 -0.3145245373822730 -0.4478238758061665 -0.1651047304514818 -0.1488972186135370 
-0.1784627721465301 0.6218315333961106 0.1364949155740028 -0.6643451367827286 -0.2957461159829341 -0.1999723918685214 
-0.2550433115544127 -0.1003486854860074 0.6227894950241738 -0.4519853192986973 0.4681017255700629 -0.1405201357096676 
-1.588986734257034 -2.027876356424953 0.5019895687355787 1.203143806911133 1.164702948133143 -0.3605234881543104 
-1.307776158353879 1.177658571198577 -0.1785340186298872 0.07313355833216205 -0.2759665227793668 -0.03808720755533075 
-0.1136936418432074 -0.4146274565898312 1.106092983764721 -0.2870347983516776 -1.185314312706245 -0.1189898462883644 
-0.5186342058795652 0.1927739745846888 -0.3653712286190299 0.1138367120768884 0.7926250723629513 -0.1696400728685883 
-0.8554539831550692 0.9308739464426966 -0.3223207489592685 -0.04674843869609751 0.3128324774718415 -0.1043552343571022 
-0.1382685717991920 -0.2700558885841832 0.7367887309423745 0.2614450592235370 0.1211584007844803 -0.1194182251912492 
-1.843795322722118 -1.508051479348089 -0.5352123972112180 1.430030843659372 0.8718485136545537 -0.3244829396876932 
0.1518595580948872 -0.5898583126011692 -0.7505471050533202 -0.03103423939757709 -0.4008606394932009 -0.06143784690592367 
0.2733778252966068 -0.1689438750651765 -0.3853945716329075 -0.03642752825251148 -0.3839453871560897 -0.1070424558744151 
0.1241294080503175 0.08389186372165049 0.4648768370287374 -0.6023962642134564 -0.5583243506927423 0.4632903237745665 
-0.8522311851383749 -0.1108546812669767 -0.5036235398791895 -0.2167563629692463 0.3469499877970345 -0.2271190418997207 
0.3396770125480029 -0.1048222698407350 0.5316344499697200 -0.7810977760829024 -0.1458312417246290 -0.1950231490378025 
-0.8454078605605979 0.09728551403253843 -0.5350651128392712 1.607737773268600 -1.994198773090078 -0.1099062584083142 
-0.4801109310084181 0.4188625054626158 -0.1230643648552604 -0.1538466122605192 -0.3868713055068331 -0.08774512360965504 
0.08620980584065127 -0.05303409089322612 -0.2330170859690760 0.1623187708192737 -0.09243722150833744 -0.1297630873065015 
-0.05610883964183079 0.7476208797823903 -0.2579138502162653 -0.5106173103810382 -0.2168127137363513 0.6333694560637765 
0.4548212610249936 0.4880264337905269 -0.04820417575887070 -0.4955348504712092 -0.7186817975605633 -0.05327483019274578 
-0.2035656209449258 -0.2245923883907871 0.8797695661083665 0.5119373858070788 -0.7039107418059876 -0.04829782254015989 
0.8191172608514449 -1.242311702867378 -0.2839215566240171 -0.09029512940853440 0.5448301061244689 -0.08425059407904381 
-1.125673220104033 0.6025302977099282 -0.1667463639509843 0.4408045064978844 -0.4076722173420152 -0.04614835082029389 
-0.4842382694468594 -0.04725457209881506 0.3003854270987951 -0.2912918591868456 0.6415258484653125 -0.03049539642332976 
-1.665599482906571 0.4910861296031655 -0.6193903669286126 -0.06654593487734689 0.8647359387698185 -0.06900703631703141 
0.4856283852644669 -0.4557138691479386 0.4631913547412492 -0.5484158084812502 -0.03622755642165178 -0.03724943170134479 
-0.06431530611745824 -0.3559974825808896 -0.4871097041775181 -0.3292432397411733 0.8544855672278750 -0.05463136471470451 
-0.2208742852010321 -0.3498089332697189 -0.4626475527760114 -1.063892613761168 1.644424010763301 -0.01139249258571492 
0.6332239170453411 -0.4253348316510847 0.2975851715394414 -0.03201446462726341 0.1347977821596517 -0.09506472851053276 
-0.1297438561929668 0.002133525475116814 0.005373823501775470 0.8559560275295611 -0.4222834179959769 -0.09885482778689243 
-0.5893342533286451 -0.9007633392009318 1.762287292301334 0.2616557979734526 -0.4747125048824687 -0.1198662711248953 
0.9464809036356420 -0.4358959946148213 -0.1583070787732807 -0.6943121378164072 -0.4908188389947192 0.7265006736927584 
-0.7819954045170487 -0.03889561894987365 -0.03876901211451383 1.158414167001813 -0.3262984411758525 -0.03368235260305044 
-0.06360197414473794 -0.1683176309679490 0.1087924265206675 -0.1306213478567734 0.3838187450644710 -0.07438625108906372 
-0.1658370600827377 0.4074958620584309 -0.4093444168522000 0.2860310878586839 0.07880603128077293 -0.1622379160139877 
0.1029612953311811 0.1260386467523733 -0.08746965890569218 -0.5568901862550805 0.1201724817837496 -0.05299229525772898 
-0.4289701943735925 0.7939192745442950 -0.2637849226759255 -0.4560585048642685 0.2394143362635483 -0.09630328368002353 
0.2259355124267516 -0.02117538218959439 0.2512967773709241 -0.05728289888928942 -0.5789803759092306 -0.1303799762577466 
1.384906193695073 -1.359861741880005 0.02745441322483324 -0.7154565318747999 0.2322054953201497 -0.05444807626267723 
-0.1383515897726918 -0.07365551176881010 -0.004709233483426135 0.6006191525542309 -0.8249973358196195 -0.009578917670005330 
0.8288116729127503 -0.5466054288448970 -0.4991054302012893 0.1232568983608492 -0.2233258058235508 -0.2234340594669453 
-0.4911271077589248 -0.4451587278125206 0.2323534159312662 -0.4813886876834757 0.5635310392202877 -0.08226219538076704 
0.4311379273995316 0.08636739005324860 -0.2854497514055790 0.1326589825332186 -0.4238199285073250 -0.02188484802523141 
0.05410705310863070 0.7372049005350684 -0.1630248684289136 -0.4006686127469732 -0.5453802714838218 -0.07177270126840758 
-0.02634932843532625 -0.02329838454081567 0.3937036883632376 -0.2148212046310284 -0.2236786775754284 -0.001183977126146692 
-0.06318214758095266 0.1203160132756417 0.3812613020626038 0.2453705524070811 -0.1714231172574723 0.5226557717639977 
0.05258954686955534 0.6475985501124863 0.4198178382677333 -0.4236402277403762 -0.7081763868196155 -0.08816614891587626 
0.2689268372999278 0.02945481824564169 -0.1027676149448868 0.05463619077871314 -0.2175811586659642 -0.06981578764414195 
-1.972395354588813 -1.392801284391746 0.2269056776540792 1.254750362929428 1.361560766701517 -0.1231604294519081 
-0.9776258459123027 0.5566157893513046 -0.1307412391656627 0.06619530426212367 -0.3304847370158195 -0.05162397597733014 
-1.180349468854264 0.7916424016677786 -0.2081030881641710 0.8350799562714561 -0.6160168986378088 -0.05302113279426799 
-0.1221122832248479 -0.6386198812500933 0.4858083837164733 -0.1362874023093431 0.6436698105869670 -0.07524155746952077 
-0.03653625362704996 -0.3484417552309760 -0.1303102554780712 0.5094057942148257 -0.4483776586742107 -0.03959840140208539 
-0.03755522324633162 -0.09575490882596585 -0.1350413401992152 0.3947855658037930 -0.1348746630468621 -0.03545165678088163 
0.3745920257315714 -0.2693699251416636 0.3782139248319296 -0.3470240809565748 0.09464477435199511 -0.08843890282472644 
-1.033676852542742 0.2965548742609254 -0.1015194307296250 -0.3392291786495574 0.2868882095025430 -0.05976069313109289 
-0.7304752837341528 0.8534772058183993 -0.03928992924764448 -0.2010808201638841 -0.09912457167447725 -0.03053860009535836 
-0.7302798505727119 0.5998710545219326 -0.06122804380776728 0.6279005083251971 -0.3238415672606738 -0.009648791248762894 
-1.122518403614512 -0.6719182191675691 -0.3552606539043095 0.05693285914410536 1.227543291845879 -0.05042658102302348 
0.2063197687499591 0.2375972281289326 0.2623377566539383 0.02417209351574300 -0.6307696382819966 -0.04472226889954946 
0.09175763240589042 0.4131033938208818 0.3927270035704238 -0.09426488803429260 -0.3277980449908141 -0.05138999852823779 
-0.4863115315097165 0.7909707950882664 -0.08616895558343894 -0.3678026096135859 0.01831830167014613 -0.02670744585977137 
-0.06296118326879796 -0.01392678307456410 -0.05401027217536130 0.09319439061693181 0.3491051526364902 -0.01789200129637921 
-0.01122856624495948 -0.02624037930209901 -0.1286128099846397 0.4336634776501513 -0.01134030079261816 -0.002702829514068915 
-0.01914530360209403 -0.01737892370301867 0.4230013860770003 -0.1936142055092365 -0.3232421897194465 -0.0007249077863947122 
-0.07862254239904905 -0.03418834617169433 -0.2125536004346603 0.8071635547531688 -0.8454925216235043 -0.005048217141659397 
0.06957303857135150 -0.2627442540902134 -0.1143965488508573 -0.3155967196008665 0.1285117061369175 0.7799385364527379 
0.1893453924421511 0.4866006652489180 -0.3071628835113877 -0.4151065434920741 -0.7446658837004451 -0.09741770655929091 
0.08967443957352714 -0.1417592227610074 -0.3267334785653702 -0.05500931822954359 0.2764630407786853 -0.01084273277347941 
-0.01790349723241129 -0.01517014368950428 -1.365645713279773 -0.1880492351900726 1.499495983386124 -0.0006042936380098839 
0.7777104925972823 -0.7246574529326985 -0.02428402129950421 -0.1453673111740192 -0.1061292287291043 -0.02729698004011729 
-0.005746363650284463 -0.03818912948346265 -1.839017507620918 1.573164246361341 1.112900626796899 -0.002084785320810163 
1.581011510673591 -0.6124446976168143 -0.4902977241904560 -0.7616411472921751 -0.3977907437013092 -0.07599949208120340 
0.7022783000847573 -0.4298563217136555 -0.07429340210518973 -0.3640249713786014 -0.1289678244870406 -0.02412449155005216 
-0.3141087842014500 0.8431489610136480 -0.2310685932214363 -0.3770033619137240 0.02452411734646529 -0.03188239656942856 
-0.06479217700504382 -0.07436088153639417 -0.2354667373514689 0.4170111165194766 -0.5573829291802220 -0.07976964957567383 
-0.3565698404030295 1.374161917720897 -0.1311784816057779 -0.6961990068775747 -0.5944435144523030 -0.05189004056843718 
0.3742814082167084 -1.124161548612147 0.5656509036211597 -0.1845144175880623 0.4091832951731381 -0.02581554997185206 
0.05280128881498334 -0.08735301779812239 0.5773339240331987 -0.3839039234147246 -0.2289569758174789 -0.05746650246400775 
0.3282801768489266 0.2148867761363688 -0.1183317424519964 -0.4065468205445550 -0.4944514113287747 -0.05235961118076635 
0.9141237187905460 -0.2159387689280097 0.2913072102090437 0.05121126334431121 -0.6949097227559504 -0.1036215458736332 
-0.07625124444590277 0.06530402126145812 -0.04350940989259704 -0.1649726772783684 -0.05122546498474240 -0.03609131403970563 
-0.3330413391004506 0.2216583777949651 -0.02164881291819185 -0.1990019907810117 -0.007395380484343008 -0.002157595351034908 
0.1176648620123324 -0.2974822027133788 -0.3565841763628813 0.4628016644291535 0.2902210058373318 -0.04455133265963318 
-0.005863915674857893 -0.03358622515048675 0.3219741693138821 -0.1793438464341849 -0.3596155331475315 -0.001965356725247201 
-0.4377481121099089 0.7482046625345017 -0.1444461340209527 -0.1845344652755041 -0.2928191837682233 -0.02877616982782600 
-0.03822305889151312 0.2990287652578677 -0.1553210918820157 -0.1172988147763506 -0.05745670172406731 -0.006062231650290539 
1.754529564254468 -1.338278476426207 -0.02248396177709835 -0.3819621188836171 -0.1784368087098053 -0.01073333701838820 
1.133738747011044 -1.072263043370016 -0.1120830875652387 -0.1190824273532025 -0.1273909126940403 -0.02057016582707446 
-1.040274299309017 0.4213723402266358 1.021866954413504 0.6151234205945826 -0.9071606403841275 -0.07232417071783227 
-0.007346022930615708 -0.04185283748071268 -0.1947794615224787 -0.1796879732005833 0.4652958668160872 -0.001895784568013244 
0.3867188294568971 -0.7333760165871300 -0.08894883009880744 0.3059841138328104 0.01588703318306920 -0.01860238572797173 
-0.004114449622727585 -0.03566715399832793 0.4297329673864320 -0.2368889396718980 -0.4893042825263648 -0.001691792919087768 
-0.4943095758689147 0.4377280568574107 -0.05802982736341437 -0.08851533552525295 -0.1419752073588168 -0.007355708685414000 
0.2357488171412761 -0.3421479911935364 -0.02864013335177568 -0.09796021108941477 -0.1474105976025099 -0.01845973768999949 
-0.2896713381069545 0.2939555625727232 -0.0007254580229668614 -0.002054212289835500 -0.02446250607663033 -0.001359615852801282 
-0.1541957097019926 0.1907086268352036 -0.3158392098425971 0.3228744941933524 -0.3442668509247872 -0.03300911433774723 
-0.09191835362654369 0.08060825484659422 -0.1945742161509193 -0.1435624154714246 -0.4150516682855271 -0.01271751548632424 
-0.6328058954967272 0.2196847869936061 1.121778696026230 -0.03011797897530072 0.2072192559406829 0.05154701009131867 
-0.3437236965982758 -0.1534518896442850 -0.05374416913337550 0.2709292676087763 -0.01098720293798238 -0.3084727894635412 
-0.1273744008738568 -0.1243685349624579 0.3469513769363514 0.09713300236669317 -0.04866917690490523 0.1113539387274804 
0.3102595666995756 0.04955561109673838 -0.5871759140522653 0.1278883079742820 -0.7775394593708626 0.03717255665176970 
-1.191491525762481 -0.2377587539979513 0.6729762893633445 -0.5746603596589647 1.135382198066428 0.08355403135504516 
0.6802806487231368 -0.5073235763733999 -0.5289292447823385 0.1303661747490643 0.3118594215068735 -0.4845501477800631 
0.02096551249179981 0.02777453790715523 -0.07469482885548208 -0.5638116907513413 0.5079908002224600 0.3481676356905580 
0.4176146847267283 -0.2443162133610997 -0.3220002123140943 0.2708677523394034 -0.1468461302002923 -0.1245916661240186 
0.5394161946928775 0.3935730771334738 -0.03203895259804608 -1.024114691332593 -0.5945223587775934 -0.7984891328770949 
0.2044961023741185 0.1474355831689573 0.08808935739033513 0.1311754408454817 -0.6578264078215553 -0.6891121387734974 
0.1530267703498414 0.003615594705521590 -0.5435568045621167 -0.4081288262201895 -0.1016459204343777 -0.2833585790064515 
-0.7517445368071455 0.4726095174588752 -0.3568286567929124 0.05961647018459891 0.01016960595228877 -0.2938539727312657 
0.3533568624830783 0.5386784319739564 -1.088788788860288 -0.4030193543941602 -1.155848858843524 -0.1153066306274122 
-0.9246544404476985 1.686160040578750 -0.4105302780714562 -0.8498564061546195 -0.9464456870718647 -0.1392717637077733 
-0.2381634633853176 0.06110074497608887 -0.5873388621560419 -0.5046566053292048 -0.3942686222188552 -0.4329355350604667 
-0.9741895786380653 0.6312059450671937 -0.4565451711596303 0.09703561561378576 0.4749985932261164 -0.1382902647301142 
-0.2114089731076974 0.5668107510674514 0.3287466495948437 -0.04297216319530584 -0.3684726049303964 -0.3161829959882782 
0.1169419361389965 -0.2510598803998796 0.1247734763697539 0.4962081350588082 0.04236542502169845 -0.2733623173811345 
-0.1190186828198933 0.4882687877107573 -0.3398672400908475 -0.6058557629079082 -0.4395007035047057 -0.1089197749306546 
0.1850639889403331 -0.2367066459370418 -0.08717726917041985 0.6225982046695476 -0.4171364101072181 0.3487318802295936 
0.6260897799114138 -0.4284128404169764 -0.3350009774189151 -0.3679364748401868 -0.4320739771654475 -0.1045497562586153 
0.2420945250524033 -0.8468909737032234 0.2616421411423253 0.05985990113739174 -0.1412808483326054 0.9896936202735208 
0.2013757034760138 -0.06001798112441504 -0.1430915309425897 -0.09644625557134046 -0.1014796227156610 -0.1365867429106937 
-0.1755055753780482 0.1254774231859179 -0.3017585185575759 -0.1605079696336092 -0.01148364624854183 -0.1905631288053367 
0.1824295605277078 0.3261868042367571 -0.5885178187094360 -0.6934150675056899 -0.4542596231432087 0.1349226188807171 
0.1207408580873439 0.2236563165413486 -0.2945001329275037 -0.1164150598458544 -0.5666352582363099 -0.1296988946515413 
0.1070638592105855 -0.1203643509873296 -0.2461287126962203 -0.4133557539232767 0.1965182457832224 -0.1197447874159386 
-0.05057830678400059 0.2474570704341472 -0.2764609086532670 -0.4023379631297491 -0.4121849627478111 -0.08762938957664779 
-0.6176409196101380 0.01018024735981856 1.060530237259737 -0.1655628328144214 -0.07041309768343676 -0.3925813945566404 
0.2405215699356717 -0.1722353715569944 0.5988704816387596 -0.4098424175258623 -0.4627648519531553 -0.09208154272307190 
0.3501310132631071 -0.4913575644437333 -0.1697794098978503 -0.2063263380393635 -0.1840217201664119 -0.05302798697661406 
0.2010451772973184 -1.227353790714120 0.1988402534442101 0.4572278202208721 0.3214433909167099 0.2289166854225176 
0.4511887326153006 -0.7495090698916199 0.7393852636641821 -0.7197571047112981 0.1553348757698604 -0.1902811281481912 
-0.9208393591863414 0.9641016758154555 -0.1415807354789785 -0.3312414356148265 -0.1331947174728532 -0.06946605236598805 
0.9865270804009834 -0.7788313861499198 -0.2362397313193206 -0.1054164153844259 -0.2702604136897798 0.1425706395131896 
0.5855164836523188 -0.1068597592224172 -0.3558754057720264 -0.1541851160852018 -0.8274379389706389 -0.2703528148302719 
-0.1927096402185969 0.4477022840340676 -0.5401247956697130 0.1981746770189840 -0.6123024968617709 -0.1803756311040693 
0.6145014328997200 -0.5008630914837022 -0.2388597638732472 -0.4209413964413273 -0.5249810927860163 -0.07613904513312910 
-0.4804597363946921 0.8229675919368914 -0.4070389096195739 -0.4187849220839858 -0.6077531175937373 -0.2282528201682378 
-0.7509855081427449 -0.1922593646345019 0.4661682031949135 -0.3813975805342570 1.070942037530943 -0.1243804904071713 
0.8124004540298088 -1.183423407755300 -0.1153114423497980 -0.1431599357633151 -0.1234862302646910 -0.04827623114357060 
-0.9372843676489213 0.6699825972133657 -0.2285642867796202 0.4019161358501607 -0.1054575118304469 -0.05008441472101828 
-1.105077716865856 1.480387174568745 -0.4041044241757880 -0.01764486102792922 0.3024746197146500 -0.1008592376595794 
1.054421087037032 -1.015927758085332 -0.1586346096620135 0.01935907534061304 -0.3261069647329102 -0.06467523831636149 
0.3433473908459672 -0.2503440211551575 -0.4717367564885516 0.1683181828389670 -0.3242896847419731 0.3135283130673890 
-0.1919877260874056 0.7114530862518296 -0.5967158677267308 -0.5241950579582135 -0.5040922177831776 -0.2629475235658245 
0.6196839654848944 -0.7841253321365513 -0.2438671135378753 -0.01102055093546906 -0.4248992875138192 -0.07633348856389036 
0.02139587852082170 0.2506186034342012 -0.2272404253806790 -0.3348920944274625 -0.3282107636421319 -0.07408386278684208 
-0.4567869021323957 -0.3458298339448093 0.2302653947493555 0.1579853123752271 0.4659231728827598 0.5559620140010977 
-0.4355595223858495 0.5317057989746601 -0.2357814096168462 -0.2440514785836333 -0.4217131353816052 -0.1120603828821149 
-0.07836034896893541 0.05494773462956340 -0.1554904269528245 -0.4667898351781983 -0.2079062963897801 -0.05116273796487481 
-0.2120876197234896 -0.08433555346468685 -0.08100234376820700 -0.1240752879096933 -0.1058090800912483 -0.03518930805679425 
-0.1404264066573722 -0.006040422176282511 -0.2562210904611356 0.2409080680952242 -0.3374919747546871 -0.09758260326654383 
0.05919432949130762 -0.1290421166687184 -0.3470562667812213 -0.2844408250434586 -0.2850068520420813 -0.05024778316141210 
-0.5203241572158388 0.4366145075325862 0.9091053656235368 0.1284809634193479 -0.05217065306318385 -0.2562173699674671 
-0.3069412956313124 0.8515413470345681 -0.2166108250102201 -0.1558851832405183 -0.1982103499374718 -0.2868306529368842 
-0.2576738982387438 0.5959312953822740 -0.1067366672727067 -0.3617147385659306 -0.2134131361842508 -0.05659153931374313 
0.9714851679319778 -0.7276164445574971 -0.3429372016075029 0.3082914167306726 -0.2405515633021899 -0.07144003785194804 
-0.9678009873733009 0.9792603005009848 -0.1029780365390898 -0.1617038678965055 -0.1044976820870121 -0.04641380819500753 
-0.1031796129071918 0.6999610219458415 0.6299177407210406 -0.6075722218954210 -0.09601304436462478 -0.1498610138555488 
0.2470606955196837 -0.4883745605821106 0.5257329563515966 -0.3165085771888221 0.5621183677000926 -0.05015129707242819 
-0.3670900415463826 0.4279318864938191 -0.1013809062737046 -0.1226031914293852 -0.1259057039980871 -0.04002307221096295 
-0.06775842545430508 0.4249469906546865 -0.2509740556226980 -0.3676892030406962 0.1836140618383028 -0.07367524381538450 
-1.575386463524028 1.467653900838123 -0.2210002402390258 -0.1622809253326286 -0.3935185460659735 -0.05762677832456109 
-0.01588705842435081 -0.7935320098038313 -0.7112733539860910 0.8334317358024524 0.3571235036094781 -0.2022957677362832 
-0.9610982772599969 0.3907546987892462 0.2740365289440970 -0.4080805955802587 0.8828731343275227 -0.05622805755330394 
-0.3994701773886220 0.3619347364190838 0.7591749286900541 -0.4104460960128920 -0.1325120944651166 -0.07135236909275920 
-0.2744525825165984 0.2791608201333235 -0.05569040807106716 -0.08014915662144959 -0.1509799665892638 -0.02791417853152134 
-0.4143049757762194 0.2416584278543278 -0.2369346093492241 -0.2262829251359355 0.2544632850150180 -0.07314810940853336 
-1.466080168627846 0.8111019724879861 0.003279713387901295 0.4083665283868874 0.2760151966099995 -0.1226873599765701 
-0.7820060285915253 -0.07692702753777356 -1.034858222182013 0.6340853375210286 0.9589371548406662 -0.05350177590341011 
0.3803263977452616 -0.7490136488092761 -0.1048070022796868 0.2646808511257106 0.2382152519268020 -0.02870206081256051 
1.102156693797824 -0.5243731846159587 -0.1277162165813836 -1.077172075727525 -0.1284305456475314 -0.1180280284292535 
-0.6115687951394871 0.8595123721141270 -0.1813209771042615 -0.2094523721992573 -0.4494618661956303 -0.04537194939781864 
0.06969965536420544 -0.1617165664062892 -0.1117431178288255 -0.1114302763246731 -0.1566039171152580 -0.02888785202115706 
-0.5472437859248328 0.7857496553945917 -0.2380464207145287 -0.5221934431243319 -0.4943722336065687 -0.04686449812072479 
-0.1078231938760940 -0.1026919869567673 0.1080503484077352 -0.1222075903637567 -0.6087600429496745 0.3766701922049466 
-0.02358354708421128 -0.2997900891542002 -0.2558003465673956 0.1501764117053005 0.2659154929992612 -0.04562926904495072 
-0.02498004452081643 -0.1047234496308495 0.6293392237463958 0.4499172262061906 0.3389898165311792 -0.05579024509182806 
-0.5185527530870668 1.251184343529822 0.1486325807896822 -1.852856005336951 0.8122421897195716 -0.1267141903764474 
-0.5455805749411727 0.3620427327982994 -0.3196976372508511 -0.03078281200450438 0.1606548279095851 -0.05002954230777763 
-0.09976694417168172 -0.1273625705667895 -0.1555743914883876 0.8337166085368290 -0.1592415686432581 -0.02763110012177488 
0.2667488905582190 0.03256018579864573 -0.3312884433837589 -0.4517870661414469 -0.5205738550713586 -0.07941122281597657 
0.4722689762412459 0.005489399952791929 -0.1965712423309995 -0.8487580760200575 -0.1184233834038058 -0.1210184351099299 
0.3512473522763530 -0.1778534129107060 -0.09411762197392430 -0.1953401998538246 -0.2738705082594432 -0.03468838037606685 
1.532387811567469 -1.134943531234832 -0.4891510807983538 -0.4072420189473683 -0.5048180126423466 -0.1668150990893270 
0.1762122788305655 -0.2406901358011619 -0.09217885849116748 -0.1218854417025623 -0.1575106681847930 -0.06170816420958501 
0.7581241221884593 -1.242167335178167 -0.2710787967132172 0.7814533397537636 -0.6193814312389990 -0.1409741690224309 
-0.5697929162091181 0.4172440296558226 -0.1901587301525771 -0.2614425424070227 0.2438606544253809 -0.1073001734102461 
-0.6094907093470002 0.6192278739165697 -0.1190394076377706 -0.5026434744573170 -0.03116670618950022 -0.03856847136964941 
0.3682377066955078 -0.05483406879743139 -0.02332990369807856 -0.2999219290957002 -0.2895342644450145 -0.04406654365597608 
-0.8323337867759089 1.244508884070940 -0.1552768059022515 -0.4074838738638326 -0.5255287955450529 -0.06084720075506114 
0.02982912695769460 0.1648522717557161 -0.1160954678697476 -0.1924715176100945 -0.1778886302049843 -0.04401543853758516 
-0.2022371000627906 -0.3467831380806264 0.3781826031664261 -0.2064380524600462 0.7170156107605623 -0.03818164258733357 
-0.2749362380132347 -0.06602724651534940 -0.03508769967778609 -0.01613129973332786 0.4011122457814663 -0.04604010196886162 
-0.08645361157387062 0.1453467356268411 -0.09024031579515884 -0.1759941102361896 -0.1703395634103671 -0.03132341383984453 
-0.2846405759264225 0.05478858349937571 -0.2813489127342605 0.5862277914371602 0.3622182309483629 -0.1411622280417793 
0.3853582381275992 0.1466612747536222 -0.4884394615666755 -0.2657079584937572 -0.02819958101538838 -0.1071372022148547 
0.8217437589522684 -0.3356948340216642 -0.2171720289110933 -0.3393682892773549 -0.3268760469900981 -0.09414900935091888 
-0.5091147491192024 -0.01400862910058921 -0.07816405023818027 -0.1243897451982631 -0.2945217713033602 0.8273229993919760 
-0.6785830394574434 0.4824332835427558 -0.1476645237645309 -0.07379177750848306 -0.1580143406404825 -0.02050528583856965 
-0.5814328302942375 0.4609784551035913 -0.01783460367325030 -0.1119635945811842 -0.1821940439161948 -0.03618493265147399 
0.4507286980810462 -0.1503373607330138 -0.4240638347665317 -0.3100824437864400 0.5011594028481694 -0.04796648078439102 
-0.1756644534122427 0.2466080525912404 -0.2029146780805936 -0.2059975571465488 -0.1871803226908860 -0.04041377854340494 
0.2557970549326154 -0.4305253303072407 -0.1465495688789327 0.07952623106130523 -0.1134123128831788 -0.03822382591450697 
-0.6268780989152551 0.6681598761636518 -0.2499621408422482 0.1068790724522725 -0.4267033496272221 -0.04899963884665278 
0.2603735974195294 -0.2613203971133563 -0.2137896453864391 0.08954134302190903 -0.1860245521022751 -0.02292664415280105 
-0.5741483223070354 -0.3055801746556743 -1.211232215303575 0.4673485466435611 1.544981852085970 -0.09232862960815522 
-0.02048844887023565 0.03903074835138603 -0.07343537689645714 -0.1035267107757755 -0.08147610149939352 -0.03408673635497696 
0.3957307830605931 -0.2759223601388295 -0.2510300843302653 -0.07132211096520615 -0.1409023628955933 -0.07754581045664500 
-0.5666625478828882 0.4329943727901960 -0.1301744268483374 -0.2786143593752625 0.01833234548038714 -0.03139363166310363 
-0.03612957923680637 0.1335390593311684 -0.03920205375857508 -0.1014258068349152 -0.1913649658876924 -0.03839075418017904 
0.1735023292866660 -0.6945679165851110 -0.2312791207482444 0.4130246763330168 0.03581255291561152 -0.06617724981021156 
-0.3526220568148579 0.6026871274648713 -0.06372510631227461 -0.1407876506591484 -0.2771187606819680 -0.05106639922284428 
-0.8256162602481333 0.6771222580634530 -0.3334865207550884 -0.1645432878555559 -0.07204843208005110 -0.08482093955061362 
-0.2128616119320661 -0.3566740206997363 -0.02808849292148536 0.6458209283960515 0.4970692217798283 -0.02456910586285839 
0.6240912980767841 -0.07619290572104286 -0.2743192566290579 -0.3990744741602258 -0.4651420973219864 -0.03257275432203339 
-0.1012400904632422 0.3335660949016800 0.1286498821611554 -0.01615337789409634 0.1930516357393844 -0.09060836572656822 
-0.1236600534351246 0.4355125872013045 -0.3424886326150285 -0.007346962717772602 -0.4316684366798604 -0.2122854666029321 
0.1955205628186224 -0.07640920250534616 -0.1229783791802038 -0.1055823681887060 -0.1321793248356636 -0.03494090717716921 
-0.9373313724244534 0.8295971346839132 -0.06196455431054908 -0.1875656462867790 -0.06511002942101991 -0.01845753348619858 
0.1907443897847284 -0.1704826339613347 -0.1099189108474393 -0.2512297873494185 -0.09012072235273122 -0.02813992618781400 
0.2646344092493547 -0.09471648340002509 -0.04566325439113735 -0.2849639464721603 -0.1803898970316698 -0.02870912011937480 
0.5672803512203096 0.03327784517543269 -0.1976307127244157 -0.5086673472364184 -0.3024393924026462 -0.03626346885098557 
1.410439252235440 -1.331413122888763 -0.2515102534015495 -0.03631406522794180 -0.3617535314405281 -0.08156611124986958 
0 0 0 0 0 0 
0 0 0 0 0 0 
0 0 0 0 0 0 
0 0 0 0 0 0 
0 0 0 0 0 0 
0 0 0 0 0 0 
0 0 0 0 0 0 
0 0 0 0 0 0 
0 0 0 0 0 0 
0 0 0 0 0 0 
0 0 0 0 0 0 
0 0 0 0 0 0 
0 0 0 0 0 0 
0 0 0 0 0 0 
0 0 0 0 0 0 
0 0 0 0 0 0 
0 0 0 0 0 0 
0 0 0 0 0 0 
0 0 0 0 0 0 
0 0 0 0 0 0 
0 0 0 0 0 0 
0 0 0 0 0 0 
0 0 0 0 0 0 
0 0 0 0 0 0 
0.07293986349240651 -0.04043495343152094 -0.01769366426743322 -0.1027690279067549 -0.01189206616304820 -0.01085118466401902 
0 0 0 0 0 0 
0 0 0 0 0 0 
0 0 0 0 0 0 
0 0 0 0 0 0 
0 0 0 0 0 0 
0 0 0 0 0 0 
0 0 0 0 0 0 
0 0 0 0 0 0 
0 0 0 0 0 0 
0 0 0 0 0 0 
0 0 0 0 0 0 
0 0 0 0 0 0 
0 0 0 0 0 0 
0 0 0 0 0 0 
0 0 0 0 0 0 
0 0 0 0 0 0 
0 0 0 0 0 0 
0 0 0 0 0 0 
0 0 0 0 0 0 
0 0 0 0 0 0 
0 0 0 0 0 0 
0 0 0 0 0 0 
0 0 0 0 0 0 
0 0 0 0 0 0 
0 0 0 0 0 0 
0 0 0 0 0 0 
0 0 0 0 0 0 
0 0 0 0 0 0 
0 0 0 0 0 0 
0 0 0 0 0 0 
0 0 0 0 0 0 
0 0 0 0 0 0 
0 0 0 0 0 0 
0 0 0 0 0 0 
0 0 0 0 0 0 
0 0 0 0 0 0 
0 0 0 0 0 0 
0 0 0 0 0 0 
0 0 0 0 0 0 
0 0 0 0 0 0 
0 0 0 0 0 0 
0 0 0 0 0 0 
0 0 0 0 0 0 
0 0 0 0 0 0 
0 0 0 0 0 0 
0 0 0 0 0 0 
0 0 0 0 0 0 
0 0 0 0 0 0 
0 0 0 0 0 0 
0 0 0 0 0 0 
0 0 0 0 0 0 
0 0 0 0 0 0 
0 0 0 0 0 0 
0 0 0 0 0 0 
0 0 0 0 0 0 
0 0 0 0 0 0 
0 0 0 0 0 0 
0 0 0 0 0 0 
0 0 0 0 0 0 
0 0 0 0 0 0 
0 0 0 0 0 0 
0 0 0 0 0 0 
0 0 0 0 0 0 
0 0 0 0 0 0 
0 0 0 0 0 0 
0 0 0 0 0 0 
0 0 0 0 0 0 
0 0 0 0 0 0 
0 0 0 0 0 0 
0 0 0 0 0 0 
0 0 0 0 0 0 
0 0 0 0 0 0 
0 0 0 0 0 0 
0 0 0 0 0 0 
0 0 0 0 0 0 
0 0 0 0 0 0 
0 0 0 0 0 0 
0 0 0 0 0 0 
0 0 0 0 0 0 
0 0 0 0 0 0 
0 0 0 0 0 0 
0 0 0 0 0 0 
0 0 0 0 0 0 
0 0 0 0 0 0 
-0.6001609278820494 0.5544292956385112 -0.06620136999809780 -0.1162305402276232 -0.1795196706845003 -0.04705489396254878 
0 0 0 0 0 0 
0 0 0 0 0 0 
0 0 0 0 0 0 
0 0 0 0 0 0 
0 0 0 0 0 0 
0 0 0 0 0 0 
0 0 0 0 0 0 
0 0 0 0 0 0 
0 0 0 0 0 0 
0 0 0 0 0 0 
0 0 0 0 0 0 
0 0 0 0 0 0 
0 0 0 0 0 0 
0 0 0 0 0 0 
0 0 0 0 0 0 
0 0 0 0 0 0 
0 0 0 0 0 0 
0 0 0 0 0 0 
0 0 0 0 0 0 
0 0 0 0 0 0 
0 0 0 0 0 0 
0 0 0 0 0 0 
0 0 0 0 0 0 
0 0 0 0 0 0 
0 0 0 0 0 0 
0 0 0 0 0 0 
0 0 0 0 0 0 
0 0 0 0 0 0 
0 0 0 0 0 0 
0 0 0 0 0 0 
0 0 0 0 0 0 
0 0 0 0 0 0 
0 0 0 0 0 0 
0 0 0 0 0 0 
0 0 0 0 0 0 
0 0 0 0 0 0 
0 0 0 0 0 0 
0 0 0 0 0 0 
0 0 0 0 0 0 
0 0 0 0 0 0 
0 0 0 0 0 0 
0 0 0 0 0 0 
0 0 0 0 0 0 
0 0 0 0 0 0 
0 0 0 0 0 0 
-0.5272210643896430 0.5139943422069903 -0.08389503426553101 -0.2189995681343781 -0.1914117368475485 -0.05790607862656780 
0 0 0 0 0 0 
0 0 0 0 0 0 
0 0 0 0 0 0 
0 0 0 0 0 0 
0 0 0 0 0 0 
0 0 0 0 0 0 
0 0 0 0 0 0 
0 0 0 0 0 0 
0 0 0 0 0 0 
0 0 0 0 0 0 
0 0 0 0 0 0 
0 0 0 0 0 0 
0 0 0 0 0 0 
0 0 0 0 0 0 
0 0 0 0 0 0 
0 0 0 0 0 0 
0 0 0 0 0 0 
0 0 0 0 0 0 
0 0 0 0 0 0 
0 0 0 0 0 0 
0 0 0 0 0 0 
0 0 0 0 0 0 
0 0 0 0 0 0 
0 0 0 0 0 0 
0 0 0 0 0 0 
0 0 0 0 0 0 
0 0 0 0 0 0 
0 0 0 0 0 0 
0 0 0 0 0 0 
0 0 0 0 0 0 
0 0 0 0 0 0 
0 0 0 0 0 0 
0 0 0 0 0 0 
0 0 0 0 0 0 
0 0 0 0 0 0 
0 0 0 0 0 0 
0 0 0 0 0 0 
0 0 0 0 0 0 
0 0 0 0 0 0 
0 0 0 0 0 0 
0 0 0 0 0 0 
0 0 0 0 0 0 
0 0 0 0 0 0 
0 0 0 0 0 0 
0 0 0 0 0 0 
0 0 0 0 0 0 
0 0 0 0 0 0 
0 0 0 0 0 0 
0 0 0 0 0 0 
0 0 0 0 0 0 
0 0 0 0 0 0 
0 0 0 0 0 0 
0 0 0 0 0 0 
0 0 0 0 0 0 
0 0 0 0 0 0 
0 0 0 0 0 0 
0 0 0 0 0 0 
0 0 0 0 0 0 
0 0 0 0 0 0 
0 0 0 0 0 0 
0 0 0 0 0 0 
0 0 0 0 0 0 
0 0 0 0 0 0 
0 0 0 0 0 0 
0 0 0 0 0 0 
0 0 0 0 0 0 
0 0 0 0 0 0 
0 0 0 0 0 0 
0 0 0 0 0 0 
0 0 0 0 0 0 
0 0 0 0 0 0 
0 0 0 0 0 0 
0 0 0 0 0 0 
0 0 0 0 0 0 
0 0 0 0 0 0 
0 0 0 0 0 0 
0 0 0 0 0 0 
0 0 0 0 0 0 
0 0 0 0 0 0 
0 0 0 0 0 0 
0 0 0 0 0 0 
0 0 0 0 0 0 
0 0 0 0 0 0 
0 0 0 0 0 0 
0 0 0 0 0 0 
0 0 0 0 0 0 
0 0 0 0 0 0 
0 0 0 0 0 0 
0 0 0 0 0 0 
0 0 0 0 0 0 
0 0 0 0 0 0 
0 0 0 0 0 0 
0 0 0 0 0 0 
0 0 0 0 0 0 
0 0 0 0 0 0 
0 0 0 0 0 0 
0 0 0 0 0 0 
0 0 0 0 0 0 
0 0 0 0 0 0 
0 0 0 0 0 0 
0 0 0 0 0 0 
0 0 0 0 0 0 
0 0 0 0 0 0 
0 0 0 0 0 0 
0 0 0 0 0 0 
0 0 0 0 0 0 
0 0 0 0 0 0 
0 0 0 0 0 0 
0 0 0 0 0 0 
0 0 0 0 0 0 
0 0 0 0 0 0 
0 0 0 0 0 0 
0 0 0 0 0 0 
0 0 0 0 0 0 
0 0 0 0 0 0 
0 0 0 0 0 0 
0 0 0 0 0 0 
0 0 0 0 0 0 
0 0 0 0 0 0 
0 0 0 0 0 0 
0 0 0 0 0 0 
0 0 0 0 0 0 
0 0 0 0 0 0 
0 0 0 0 0 0 
0 0 0 0 0 0 
0 0 0 0 0 0 
0 0 0 0 0 0 
0 0 0 0 0 0 
0 0 0 0 0 0 
0 0 0 0 0 0 
0 0 0 0 0 0 
0 0 0 0 0 0 
0 0 0 0 0 0 
0 0 0 0 0 0 
0 0 0 0 0 0 
0 0 0 0 0 0 
0 0 0 0 0 0 
0 0 0 0 0 0 
0 0 0 0 0 0 
0 0 0 0 0 0 
0 0 0 0 0 0 
0 0 0 0 0 0 
0 0 0 0 0 0 
0 0 0 0 0 0 
0 0 0 0 0 0 
0 0 0 0 0 0 
0 0 0 0 0 0 
0 0 0 0 0 0 
0 0 0 0 0 0 
0 0 0 0 0 0 
0 0 0 0 0 0 
0 0 0 0 0 0 
0 0 0 0 0 0 
0 0 0 0 0 0 
0 0 0 0 0 0 
0 0 0 0 0 0 
0 0 0 0 0 0 
0 0 0 0 0 0 
0 0 0 0 0 0 
0 0 0 0 0 0 
0 0 0 0 0 0 
0 0 0 0 0 0 
0 0 0 0 0 0 
0 0 0 0 0 0 
0 0 0 0 0 0 
0 0 0 0 0 0 
0 0 0 0 0 0 
0 0 0 0 0 0 
0 0 0 0 0 0 
0 0 0 0 0 0 
0 0 0 0 0 0 
0 0 0 0 0 0 
0 0 0 0 0 0 
0 0 0 0 0 0 
0 0 0 0 0 0 
0 0 0 0 0 0 
0 0 0 0 0 0 
0 0 0 0 0 0 
0 0 0 0 0 0 
0 0 0 0 0 0 
0 0 0 0 0 0 
0 0 0 0 0 0 
0 0 0 0 0 0 
0 0 0 0 0 0 
0 0 0 0 0 0 
0 0 0 0 0 0 
0 0 0 0 0 0 
0 0 0 0 0 0 
0 0 0 0 0 0 
0 0 0 0 0 0 
0 0 0 0 0 0 
0 0 0 0 0 0 
0 0 0 0 0 0 
0 0 0 0 0 0 
0 0 0 0 0 0 
0 0 0 0 0 0 
0 0 0 0 0 0 
0 0 0 0 0 0 
0 0 0 0 0 0 
0 0 0 0 0 0 
0 0 0 0 0 0 
0 0 0 0 0 0 
0 0 0 0 0 0 
0 0 0 0 0 0 
0 0 0 0 0 0 
0 0 0 0 0 0 
0 0 0 0 0 0 
0 0 0 0 0 0 
0 0 0 0 0 0 
0 0 0 0 0 0 
0 0 0 0 0 0 
0 0 0 0 0 0 
0 0 0 0 0 0 
0 0 0 0 0 0 
0 0 0 0 0 0 
0 0 0 0 0 0 
0 0 0 0 0 0 
0 0 0 0 0 0 
0 0 0 0 0 0 
0 0 0 0 0 0 
-0.1645850008673055 0.3303868385888309 -0.08913700640003953 -0.1772757727856871 -0.1288451602996409 -0.01770424275229164 
0 0 0 0 0 0 
0 0 0 0 0 0 
0 0 0 0 0 0 
0 0 0 0 0 0 
0 0 0 0 0 0 
0 0 0 0 0 0 
0 0 0 0 0 0 
0 0 0 0 0 0 
0 0 0 0 0 0 
0 0 0 0 0 0 
0 0 0 0 0 0 
0 0 0 0 0 0 
0 0 0 0 0 0 
0 0 0 0 0 0 
-0.2970115608056423 -0.4950024906561485 -0.6120916399858911 -0.5388246786338067 -0.3609844176678780 -0.7126315543098770 
0 0 0 0 0 0 
0 0 0 0 0 0 
0 0 0 0 0 0 
0 0 0 0 0 0 
0 0 0 0 0 0 
0 0 0 0 0 0 
0 0 0 0 0 0 
0 0 0 0 0 0 
0 0 0 0 0 0 
0 0 0 0 0 0 
0 0 0 0 0 0 
0 0 0 0 0 0 
0 0 0 0 0 0 
0 0 0 0 0 0 
0 0 0 0 0 0 
0 0 0 0 0 0 
0 0 0 0 0 0 
0 0 0 0 0 0 
0 0 0 0 0 0 
0 0 0 0 0 0 
0 0 0 0 0 0 
0 0 0 0 0 0 
0 0 0 0 0 0 
0 0 0 0 0 0 
0 0 0 0 0 0 
0 0 0 0 0 0 
0 0 0 0 0 0 
0 0 0 0 0 0 
0 0 0 0 0 0 
0 0 0 0 0 0 
0 0 0 0 0 0 
0 0 0 0 0 0 
0 0 0 0 0 0 
0 0 0 0 0 0 
0 0 0 0 0 0 
0 0 0 0 0 0 
0 0 0 0 0 0 
0 0 0 0 0 0 
0 0 0 0 0 0 
0 0 0 0 0 0 
0 0 0 0 0 0 
0 0 0 0 0 0 
0 0 0 0 0 0 
0 0 0 0 0 0 
0 0 0 0 0 0 
0 0 0 0 0 0 
0 0 0 0 0 0 
0 0 0 0 0 0 
0 0 0 0 0 0 
0 0 0 0 0 0 
0 0 0 0 0 0 
0 0 0 0 0 0 
0 0 0 0 0 0 
0 0 0 0 0 0 
0 0 0 0 0 0 
0 0 0 0 0 0 
0 0 0 0 0 0 
0 0 0 0 0 0 
0 0 0 0 0 0 
0 0 0 0 0 0 
0 0 0 0 0 0 
0 0 0 0 0 0 
0 0 0 0 0 0 
0 0 0 0 0 0 
0 0 0 0 0 0 
0 0 0 0 0 0 
0 0 0 0 0 0 
0 0 0 0 0 0 
0 0 0 0 0 0 
0 0 0 0 0 0 
0 0 0 0 0 0 
0 0 0 0 0 0 
-0.1645850008673055 0.3303868385888309 -0.08913700640003953 -0.1772757727856871 -0.1288451602996409 -0.01770424275229164 
0 0 0 0 0 0 
0 0 0 0 0 0 
0 0 0 0 0 0 
0 0 0 0 0 0 
0 0 0 0 0 0 
0 0 0 0 0 0 
0 0 0 0 0 0 
0 0 0 0 0 0 
0 0 0 0 0 0 
0 0 0 0 0 0 
0 0 0 0 0 0 
0 0 0 0 0 0 
0 0 0 0 0 0 
0 0 0 0 0 0 
-0.1645850008673055 0.3303868385888309 -0.08913700640003953 -0.1772757727856871 -0.1288451602996409 -0.01770424275229164 
0 0 0 0 0 0 
0 0 0 0 0 0 
0 0 0 0 0 0 
0 0 0 0 0 0 
0 0 0 0 0 0 
0 0 0 0 0 0 
0 0 0 0 0 0 
0 0 0 0 0 0 
0 0 0 0 0 0 
0 0 0 0 0 0 
0 0 0 0 0 0 
0 0 0 0 0 0 
0 0 0 0 0 0 
0 0 0 0 0 0 
0 0 0 0 0 0 
0 0 0 0 0 0 
0 0 0 0 0 0 
0 0 0 0 0 0 
0 0 0 0 0 0 
0 0 0 0 0 0 
0 0 0 0 0 0 
0 0 0 0 0 0 
0 0 0 0 0 0 
0 0 0 0 0 0 
0 0 0 0 0 0 
0 0 0 0 0 0 
0 0 0 0 0 0 
0 0 0 0 0 0 
-0.3546880781377817 0.1237083884214053 -0.1089093417271426 -0.2678228276163140 -0.2631330889407628 -0.08972617599298283 
0 0 0 0 0 0 
0 0 0 0 0 0 
0 0 0 0 0 0 
0 0 0 0 0 0 
0 0 0 0 0 0 
0 0 0 0 0 0 
0 0 0 0 0 0 
0 0 0 0 0 0 
0 0 0 0 0 0 
0 0 0 0 0 0 
0 0 0 0 0 0 
0 0 0 0 0 0 
0 0 0 0 0 0 
0 0 0 0 0 0 
0 0 0 0 0 0 
-0.09046344190218257 -0.1637597031501039 -0.05785604053597451 -0.09021135501071023 -0.1559858799803042 0.7013452013762674 
0 0 0 0 0 0 
0 0 0 0 0 0 
0 0 0 0 0 0 
0 0 0 0 0 0 
0 0 0 0 0 0 
0 0 0 0 0 0 
0 0 0 0 0 0 
0 0 0 0 0 0 
0 0 0 0 0 0 
0 0 0 0 0 0 
0 0 0 0 0 0 
0 0 0 0 0 0 
0 0 0 0 0 0 
0 0 0 0 0 0 
0 0 0 0 0 0 
0 0 0 0 0 0 
0 0 0 0 0 0 
0 0 0 0 0 0 
0 0 0 0 0 0 
0 0 0 0 0 0 
0 0 0 0 0 0 
0 0 0 0 0 0 
0 0 0 0 0 0 
0 0 0 0 0 0 
0 0 0 0 0 0 
0 0 0 0 0 0 
0 0 0 0 0 0 
0 0 0 0 0 0 
0 0 0 0 0 0 
0 0 0 0 0 0 
0 0 0 0 0 0 
0 0 0 0 0 0 
0 0 0 0 0 0 
0 0 0 0 0 0 
0 0 0 0 0 0 
0 0 0 0 0 0 
0 0 0 0 0 0 
0 0 0 0 0 0 
0 0 0 0 0 0 
0 0 0 0 0 0 
0 0 0 0 0 0 
0 0 0 0 0 0 
0 0 0 0 0 0 
0 0 0 0 0 0 
0 0 0 0 0 0 
0 0 0 0 0 0 
0 0 0 0 0 0 
0 0 0 0 0 0 
0 0 0 0 0 0 
0 0 0 0 0 0 
0 0 0 0 0 0 
0 0 0 0 0 0 
0 0 0 0 0 0 
0 0 0 0 0 0 
0 0 0 0 0 0 
0 0 0 0 0 0 
0 0 0 0 0 0 
0 0 0 0 0 0 
0 0 0 0 0 0 
0 0 0 0 0 0 
0 0 0 0 0 0 
0 0 0 0 0 0 
0 0 0 0 0 0 
0 0 0 0 0 0 
0 0 0 0 0 0 
0 0 0 0 0 0 
0 0 0 0 0 0 
0 0 0 0 0 0 
0 0 0 0 0 0 
0 0 0 0 0 0 
0 0 0 0 0 0 
0 0 0 0 0 0 
0 0 0 0 0 0 
0 0 0 0 0 0 
0 0 0 0 0 0 
0 0 0 0 0 0 
0 0 0 0 0 0 
0 0 0 0 0 0 
0 0 0 0 0 0 
0 0 0 0 0 0 
0 0 0 0 0 0 
0 0 0 0 0 0 
0 0 0 0 0 0 
0 0 0 0 0 0 
0 0 0 0 0 0 
0 0 0 0 0 0 
0 0 0 0 0 0 
0 0 0 0 0 0 
0 0 0 0 0 0 
0 0 0 0 0 0 
0 0 0 0 0 0 
0 0 0 0 0 0 
0 0 0 0 0 0 
0 0 0 0 0 0 
0 0 0 0 0 0 
0 0 0 0 0 0 
0 0 0 0 0 0 
0 0 0 0 0 0 
0 0 0 0 0 0 
0 0 0 0 0 0 
0 0 0 0 0 0 
0 0 0 0 0 0 
0 0 0 0 0 0 
0 0 0 0 0 0 
0 0 0 0 0 0 
0 0 0 0 0 0 
0 0 0 0 0 0 
0 0 0 0 0 0 
0 0 0 0 0 0 
0 0 0 0 0 0 
0 0 0 0 0 0 
0 0 0 0 0 0 
0 0 0 0 0 0 
0 0 0 0 0 0 
0 0 0 0 0 0 
0 0 0 0 0 0 
0 0 0 0 0 0 
0 0 0 0 0 0 
0 0 0 0 0 0 
0 0 0 0 0 0 
0 0 0 0 0 0 
0 0 0 0 0 0 
0 0 0 0 0 0 
0 0 0 0 0 0 
0 0 0 0 0 0 
0 0 0 0 0 0 
0 0 0 0 0 0 
0 0 0 0 0 0 
0 0 0 0 0 0 
0 0 0 0 0 0 
0 0 0 0 0 0 
0 0 0 0 0 0 
0 0 0 0 0 0 
0 0 0 0 0 0 
0 0 0 0 0 0 
0 0 0 0 0 0 
0 0 0 0 0 0 
0 0 0 0 0 0 
0 0 0 0 0 0 
0 0 0 0 0 0 
0 0 0 0 0 0 
0.1725329862518617 -0.3902859537855847 -0.02501430746161161 -0.04882325948193593 -0.07172135209321422 -0.03182009736641503 
0 0 0 0 0 0 
0 0 0 0 0 0 
0 0 0 0 0 0 
0 0 0 0 0 0 
0 0 0 0 0 0 
0 0 0 0 0 0 
0 0 0 0 0 0 
0 0 0 0 0 0 
0 0 0 0 0 0 
-0.09046344190218257 -0.1637597031501039 -0.05785604053597451 -0.09021135501071023 -0.1559858799803042 0.7013452013762674 
0 0 0 0 0 0 
0 0 0 0 0 0 
0 0 0 0 0 0 
0 0 0 0 0 0 
0 0 0 0 0 0 
0 0 0 0 0 0 
0 0 0 0 0 0 
0 0 0 0 0 0 
0 0 0 0 0 0 
0 0 0 0 0 0 
0 0 0 0 0 0 
0 0 0 0 0 0 
0 0 0 0 0 0 
0 0 0 0 0 0 
0 0 0 0 0 0 
0 0 0 0 0 0 
0 0 0 0 0 0 
0 0 0 0 0 0 
0 0 0 0 0 0 
0 0 0 0 0 0 
0 0 0 0 0 0 
0 0 0 0 0 0 
0 0 0 0 0 0 
0 0 0 0 0 0 
0 0 0 0 0 0 
0 0 0 0 0 0 
0 0 0 0 0 0 
0 0 0 0 0 0 
0 0 0 0 0 0 
0 0 0 0 0 0 
0 0 0 0 0 0 
-0.09046344190218257 -0.1637597031501039 -0.05785604053597451 -0.09021135501071023 -0.1559858799803042 0.7013452013762674 
0 0 0 0 0 0 
0 0 0 0 0 0 
0 0 0 0 0 0 
0 0 0 0 0 0 
0 0 0 0 0 0 
0 0 0 0 0 0 
0 0 0 0 0 0 
0 0 0 0 0 0 
0 0 0 0 0 0 
0 0 0 0 0 0 
0 0 0 0 0 0 
0 0 0 0 0 0 
0 0 0 0 0 0 
0.1725329862518617 -0.3902859537855847 -0.02501430746161161 -0.04882325948193593 -0.07172135209321422 -0.03182009736641503 
-0.4366169600536826 0.09630092409761812 -0.02192679109283300 -0.02964451761773048 -0.03088301796809161 -0.03099548811442006 
0 0 0 0 0 0 
0 0 0 0 0 0 
0 0 0 0 0 0 
0 0 0 0 0 0 
0 0 0 0 0 0 
0 0 0 0 0 0 
0 0 0 0 0 0 
0 0 0 0 0 0 
0.2222615181996424 -0.9490977176663595 -0.4140452918587332 -0.09372607823176508 0.03099383157248795 -0.6052011355646031 
0 0 0 0 0 0 
0 0 0 0 0 0 
0 0 0 0 0 0 
0 0 0 0 0 0 
0 0 0 0 0 0 
0 0 0 0 0 0 
0 0 0 0 0 0 
0 0 0 0 0 0 
0 0 0 0 0 0 
0 0 0 0 0 0 
0 0 0 0 0 0 
0 0 0 0 0 0 
-0.1645850008673055 0.3303868385888309 -0.08913700640003953 -0.1772757727856871 -0.1288451602996409 -0.01770424275229164 
0 0 0 0 0 0 
0 0 0 0 0 0 
0 0 0 0 0 0 
0 0 0 0 0 0 
0 0 0 0 0 0 
0 0 0 0 0 0 
0 0 0 0 0 0 
0 0 0 0 0 0 
0 0 0 0 0 0 
0 0 0 0 0 0 
0 0 0 0 0 0 
0 0 0 0 0 0 
0 0 0 0 0 0 
0 0 0 0 0 0 
0 0 0 0 0 0 
0 0 0 0 0 0 
0 0 0 0 0 0 
0 0 0 0 0 0 
0 0 0 0 0 0 
0 0 0 0 0 0 
0 0 0 0 0 0 
0 0 0 0 0 0 
0 0 0 0 0 0 
0 0 0 0 0 0 
0 0 0 0 0 0 
0 0 0 0 0 0 
0 0 0 0 0 0 
0 0 0 0 0 0 
0 0 0 0 0 0 
0 0 0 0 0 0 
0 0 0 0 0 0 
0 0 0 0 0 0 
0 0 0 0 0 0 
0 0 0 0 0 0 
0 0 0 0 0 0 
0 0 0 0 0 0 
0 0 0 0 0 0 
0 0 0 0 0 0 
0 0 0 0 0 0 
0 0 0 0 0 0 
0 0 0 0 0 0 
0 0 0 0 0 0 
0 0 0 0 0 0 
0 0 0 0 0 0 
0 0 0 0 0 0 
0 0 0 0 0 0 
0 0 0 0 0 0 
0 0 0 0 0 0 
0 0 0 0 0 0 
0 0 0 0 0 0 
0 0 0 0 0 0 
0 0 0 0 0 0 
0 0 0 0 0 0 
0 0 0 0 0 0 
0 0 0 0 0 0 
0 0 0 0 0 0 
0 0 0 0 0 0 
0 0 0 0 0 0 
0 0 0 0 0 0 
0 0 0 0 0 0 
0 0 0 0 0 0 
0 0 0 0 0 0 
0 0 0 0 0 0 
0 0 0 0 0 0 
0 0 0 0 0 0 
0 0 0 0 0 0 
0 0 0 0 0 0 
0 0 0 0 0 0 
0 0 0 0 0 0 
0 0 0 0 0 0 
0 0 0 0 0 0 
0 0 0 0 0 0 
0 0 0 0 0 0 
0 0 0 0 0 0 
0 0 0 0 0 0 
0 0 0 0 0 0 
0 0 0 0 0 0 
0 0 0 0 0 0 
0 0 0 0 0 0 
0 0 0 0 0 0 
0 0 0 0 0 0 
0 0 0 0 0 0 
0 0 0 0 0 0 
0 0 0 0 0 0 
0 0 0 0 0 0 
0 0 0 0 0 0 
0 0 0 0 0 0 
0 0 0 0 0 0 
0 0 0 0 0 0 
0 0 0 0 0 0 
0 0 0 0 0 0 
0 0 0 0 0 0 
0 0 0 0 0 0 
0 0 0 0 0 0 
0 0 0 0 0 0 
0 0 0 0 0 0 
0 0 0 0 0 0 
0 0 0 0 0 0 
0 0 0 0 0 0 
0 0 0 0 0 0 
0 0 0 0 0 0 
0 0 0 0 0 0 
0 0 0 0 0 0 
0 0 0 0 0 0 
0 0 0 0 0 0 
0 0 0 0 0 0 
0 0 0 0 0 0 
0 0 0 0 0 0 
0 0 0 0 0 0 
0 0 0 0 0 0 
0 0 0 0 0 0 
0 0 0 0 0 0 
0 0 0 0 0 0 
0 0 0 0 0 0 
0 0 0 0 0 0 
0 0 0 0 0 0 
0 0 0 0 0 0 
0 0 0 0 0 0 
0 0 0 0 0 0 
0 0 0 0 0 0 
0 0 0 0 0 0 
0 0 0 0 0 0 
0 0 0 0 0 0 
0 0 0 0 0 0 
0 0 0 0 0 0 
0 0 0 0 0 0 
0 0 0 0 0 0 
0 0 0 0 0 0 
0 0 0 0 0 0 
0 0 0 0 0 0 
0 0 0 0 0 0 
0 0 0 0 0 0 
0 0 0 0 0 0 
0 0 0 0 0 0 
0 0 0 0 0 0 
0 0 0 0 0 0 
0 0 0 0 0 0 
0 0 0 0 0 0 
0 0 0 0 0 0 
0 0 0 0 0 0 
0 0 0 0 0 0 
0 0 0 0 0 0 
0 0 0 0 0 0 
0 0 0 0 0 0 
0 0 0 0 0 0 
0 0 0 0 0 0 
0 0 0 0 0 0 
0 0 0 0 0 0 
0 0 0 0 0 0 
0 0 0 0 0 0 
0 0 0 0 0 0 
0 0 0 0 0 0 
0 0 0 0 0 0 
0 0 0 0 0 0 
0 0 0 0 0 0 
0 0 0 0 0 0 
0 0 0 0 0 0 
0 0 0 0 0 0 
0 0 0 0 0 0 
0 0 0 0 0 0 
0 0 0 0 0 0 
0 0 0 0 0 0 
0 0 0 0 0 0 
0 0 0 0 0 0 
0 0 0 0 0 0 
0 0 0 0 0 0 
0 0 0 0 0 0 
0 0 0 0 0 0 
0 0 0 0 0 0 
0 0 0 0 0 0 
0 0 0 0 0 0 
0 0 0 0 0 0 
0 0 0 0 0 0 
0 0 0 0 0 0 
0 0 0 0 0 0 
0 0 0 0 0 0 
0 0 0 0 0 0 
0 0 0 0 0 0 
0 0 0 0 0 0 
0 0 0 0 0 0 
0 0 0 0 0 0 
0 0 0 0 0 0 
0 0 0 0 0 0 
0 0 0 0 0 0 
0 0 0 0 0 0 
0 0 0 0 0 0 
0 0 0 0 0 0 
0 0 0 0 0 0 
0 0 0 0 0 0 
0 0 0 0 0 0 
0 0 0 0 0 0 
0 0 0 0 0 0 
0 0 0 0 0 0 
0 0 0 0 0 0 
0 0 0 0 0 0 
0 0 0 0 0 0 
0 0 0 0 0 0 
0 0 0 0 0 0 
0 0 0 0 0 0 
0 0 0 0 0 0 
0 0 0 0 0 0 
0 0 0 0 0 0 
0 0 0 0 0 0 
0 0 0 0 0 0 
0 0 0 0 0 0 
0 0 0 0 0 0 
0 0 0 0 0 0 
0 0 0 0 0 0 
0 0 0 0 0 0 
0 0 0 0 0 0 
0 0 0 0 0 0 
0 0 0 0 0 0 
0 0 0 0 0 0 
0 0 0 0 0 0 
0 0 0 0 0 0 
0 0 0 0 0 0 
0 0 0 0 0 0 
0 0 0 0 0 0 
0 0 0 0 0 0 
0 0 0 0 0 0 
0 0 0 0 0 0 
0 0 0 0 0 0 
0 0 0 0 0 0 
0 0 0 0 0 0 
0 0 0 0 0 0 
0 0 0 0 0 0 
0 0 0 0 0 0 
0 0 0 0 0 0 
0 0 0 0 0 0 
0 0 0 0 0 0 
0 0 0 0 0 0 
0 0 0 0 0 0 
0 0 0 0 0 0 
0 0 0 0 0 0 
0 0 0 0 0 0 
0 0 0 0 0 0 
0 0 0 0 0 0 
0 0 0 0 0 0 
0 0 0 0 0 0 
0 0 0 0 0 0 
0 0 0 0 0 0 
0 0 0 0 0 0 
0 0 0 0 0 0 
0 0 0 0 0 0 
0 0 0 0 0 0 
0 0 0 0 0 0 
0 0 0 0 0 0 
0 0 0 0 0 0 
0 0 0 0 0 0 
0 0 0 0 0 0 
0 0 0 0 0 0 
0 0 0 0 0 0 
0 0 0 0 0 0 
0 0 0 0 0 0 
0 0 0 0 0 0 
0 0 0 0 0 0 
0 0 0 0 0 0 
0 0 0 0 0 0 
0 0 0 0 0 0 
-0.002223189001998859 -0.002926190591086805 0.008231962783794964 -0.01025175851725253 -0.05090763345162315 -0.002279818942913553 
0 0 0 0 0 0 
0 0 0 0 0 0 
0 0 0 0 0 0 
0 0 0 0 0 0 
0 0 0 0 0 0 
0 0 0 0 0 0 
0 0 0 0 0 0 
0 0 0 0 0 0 
0 0 0 0 0 0 
0 0 0 0 0 0 
0 0 0 0 0 0 
0 0 0 0 0 0 
0 0 0 0 0 0 
0 0 0 0 0 0 
0 0 0 0 0 0 
0 0 0 0 0 0 
0 0 0 0 0 0 
0 0 0 0 0 0 
0 0 0 0 0 0 
0 0 0 0 0 0 
0 0 0 0 0 0 
0 0 0 0 0 0 
0 0 0 0 0 0 
0 0 0 0 0 0 
0 0 0 0 0 0 
0 0 0 0 0 0 
0 0 0 0 0 0 
0 0 0 0 0 0 
0 0 0 0 0 0 
0 0 0 0 0 0 
0 0 0 0 0 0 
0 0 0 0 0 0 
0 0 0 0 0 0 
0 0 0 0 0 0 
0 0 0 0 0 0 
0 0 0 0 0 0 
0 0 0 0 0 0 
0 0 0 0 0 0 
0 0 0 0 0 0 
0 0 0 0 0 0 
0 0 0 0 0 0 
0 0 0 0 0 0 
0 0 0 0 0 0 
0 0 0 0 0 0 
0 0 0 0 0 0 
0 0 0 0 0 0 
0 0 0 0 0 0 
0 0 0 0 0 0 
0 0 0 0 0 0 
0 0 0 0 0 0 
0 0 0 0 0 0 
0 0 0 0 0 0 
0 0 0 0 0 0 
0 0 0 0 0 0 
0 0 0 0 0 0 
0 0 0 0 0 0 
0 0 0 0 0 0 
0 0 0 0 0 0 
0 0 0 0 0 0 
0 0 0 0 0 0 
0 0 0 0 0 0 
0 0 0 0 0 0 
0 0 0 0 0 0 
0 0 0 0 0 0 
0 0 0 0 0 0 
0 0 0 0 0 0 
0 0 0 0 0 0 
0 0 0 0 0 0 
0 0 0 0 0 0 
0 0 0 0 0 0 
0 0 0 0 0 0 
0 0 0 0 0 0 
0 0 0 0 0 0 
0 0 0 0 0 0 
0 0 0 0 0 0 
0 0 0 0 0 0 
0 0 0 0 0 0 
0 0 0 0 0 0 
0 0 0 0 0 0 
0 0 0 0 0 0 
0 0 0 0 0 0 
0 0 0 0 0 0 
0 0 0 0 0 0 
0 0 0 0 0 0 
0 0 0 0 0 0 
0 0 0 0 0 0 
0 0 0 0 0 0 
0 0 0 0 0 0 
0 0 0 0 0 0 
0 0 0 0 0 0 
0 0 0 0 0 0 
0 0 0 0 0 0 
0 0 0 0 0 0 
0 0 0 0 0 0 
0 0 0 0 0 0 
0 0 0 0 0 0 
0 0 0 0 0 0 
0 0 0 0 0 0 
0 0 0 0 0 0 
0 0 0 0 0 0 
0 0 0 0 0 0 
0 0 0 0 0 0 
0 0 0 0 0 0 
0 0 0 0 0 0 
0 0 0 0 0 0 
0 0 0 0 0 0 
0 0 0 0 0 0 
0 0 0 0 0 0 
0 0 0 0 0 0 
0 0 0 0 0 0 
0 0 0 0 0 0 
0.7167247778224863 -0.6487706093807621 -0.07044043097793995 -0.3651902313338572 -0.3075786822074841 -0.08036590698004106 
0 0 0 0 0 0 
0 0 0 0 0 0 
0 0 0 0 0 0 
0 0 0 0 0 0 
0 0 0 0 0 0 
0 0 0 0 0 0 
0 0 0 0 0 0 
0 0 0 0 0 0 
0 0 0 0 0 0 
0 0 0 0 0 0 
0 0 0 0 0 0 
0 0 0 0 0 0 
0 0 0 0 0 0 
0 0 0 0 0 0 
0 0 0 0 0 0 
0 0 0 0 0 0 
0 0 0 0 0 0 
0 0 0 0 0 0 
0 0 0 0 0 0 
0 0 0 0 0 0 
0 0 0 0 0 0 
0 0 0 0 0 0 
0 0 0 0 0 0 
0 0 0 0 0 0 
0 0 0 0 0 0 
0 0 0 0 0 0 
0 0 0 0 0 0 
0 0 0 0 0 0 
0 0 0 0 0 0 
0 0 0 0 0 0 
0 0 0 0 0 0 
0 0 0 0 0 0 
0 0 0 0 0 0 
0 0 0 0 0 0 
0 0 0 0 0 0 
0 0 0 0 0 0 
0 0 0 0 0 0 
0 0 0 0 0 0 
0 0 0 0 0 0 
0 0 0 0 0 0 
0 0 0 0 0 0 
0 0 0 0 0 0 
0 0 0 0 0 0 
0 0 0 0 0 0 
0 0 0 0 0 0 
0 0 0 0 0 0 
0 0 0 0 0 0 
0 0 0 0 0 0 
0 0 0 0 0 0 
-0.2970115608056423 -0.4950024906561485 -0.6120916399858911 -0.5388246786338067 -0.3609844176678780 -0.7126315543098770 
0 0 0 0 0 0 
0 0 0 0 0 0 
0 0 0 0 0 0 
0 0 0 0 0 0 
0 0 0 0 0 0 
0 0 0 0 0 0 
0 0 0 0 0 0 
0 0 0 0 0 0 
0 0 0 0 0 0 
0 0 0 0 0 0 
0 0 0 0 0 0 
0 0 0 0 0 0 
0 0 0 0 0 0 
0 0 0 0 0 0 
0 0 0 0 0 0 
0 0 0 0 0 0 
0 0 0 0 0 0 
0 0 0 0 0 0 
0 0 0 0 0 0 
0 0 0 0 0 0 
0 0 0 0 0 0 
0 0 0 0 0 0 
0 0 0 0 0 0 
0 0 0 0 0 0 
0 0 0 0 0 0 
0 0 0 0 0 0 
0 0 0 0 0 0 
0 0 0 0 0 0 
0 0 0 0 0 0 
0 0 0 0 0 0 
0 0 0 0 0 0 
0 0 0 0 0 0 
0 0 0 0 0 0 
0 0 0 0 0 0 
0 0 0 0 0 0 
0 0 0 0 0 0 
0 0 0 0 0 0 
0 0 0 0 0 0 
0 0 0 0 0 0 
0 0 0 0 0 0 
0 0 0 0 0 0 
0 0 0 0 0 0 
0 0 0 0 0 0 
0 0 0 0 0 0 
0 0 0 0 0 0 
0 0 0 0 0 0 
0 0 0 0 0 0 
0 0 0 0 0 0 
0 0 0 0 0 0 
0 0 0 0 0 0 
0 0 0 0 0 0 
0 0 0 0 0 0 
0 0 0 0 0 0 
0 0 0 0 0 0 
0 0 0 0 0 0 
0 0 0 0 0 0 
0 0 0 0 0 0 
0 0 0 0 0 0 
0 0 0 0 0 0 
0 0 0 0 0 0 
0 0 0 0 0 0 
0 0 0 0 0 0 
0 0 0 0 0 0 
0 0 0 0 0 0 
0 0 0 0 0 0 
0 0 0 0 0 0 
0 0 0 0 0 0 
0 0 0 0 0 0 
0 0 0 0 0 0 
0 0 0 0 0 0 
0 0 0 0 0 0 
0 0 0 0 0 0 
-0.002223189001998859 -0.002926190591086805 0.008231962783794964 -0.01025175851725253 -0.05090763345162315 -0.002279818942913553 
0 0 0 0 0 0 
0 0 0 0 0 0 
0 0 0 0 0 0 
0 0 0 0 0 0 
0 0 0 0 0 0 
0 0 0 0 0 0 
0 0 0 0 0 0 
0 0 0 0 0 0 
-0.002223189001998859 -0.002926190591086805 0.008231962783794964 -0.01025175851725253 -0.05090763345162315 -0.002279818942913553 
0 0 0 0 0 0 
0 0 0 0 0 0 
0 0 0 0 0 0 
0 0 0 0 0 0 
0 0 0 0 0 0 
0 0 0 0 0 0 
0 0 0 0 0 0 
0 0 0 0 0 0 
0 0 0 0 0 0 
0 0 0 0 0 0 
0 0 0 0 0 0 
0 0 0 0 0 0 
0 0 0 0 0 0 
0 0 0 0 0 0 
0 0 0 0 0 0 
0 0 0 0 0 0 
0 0 0 0 0 0 
0 0 0 0 0 0 
0 0 0 0 0 0 
0 0 0 0 0 0 
0 0 0 0 0 0 
0 0 0 0 0 0 
0 0 0 0 0 0 
0 0 0 0 0 0 
0 0 0 0 0 0 
0 0 0 0 0 0 
0 0 0 0 0 0 
0 0 0 0 0 0 
0 0 0 0 0 0 
0 0 0 0 0 0 
0 0 0 0 0 0 
0 0 0 0 0 0 
0 0 0 0 0 0 
0 0 0 0 0 0 
-0.5140699862963595 -0.1758739088824287 -0.1925660688624575 0.2130538657920795 0.1915122144475396 -0.04896313869255230 
0 0 0 0 0 0 
0 0 0 0 0 0 
0 0 0 0 0 0 
0 0 0 0 0 0 
0 0 0 0 0 0 
0 0 0 0 0 0 
0 0 0 0 0 0 
0 0 0 0 0 0 
0 0 0 0 0 0 
0 0 0 0 0 0 
0 0 0 0 0 0 
0 0 0 0 0 0 
0 0 0 0 0 0 
0 0 0 0 0 0 
0 0 0 0 0 0 
0.4960939190161923 -0.7205009572290636 -0.1375017995309603 -0.4967584491704050 -0.3286283922827814 0.5735806257569382 
0 0 0 0 0 0 
0 0 0 0 0 0 
0 0 0 0 0 0 
0 0 0 0 0 0 
0 0 0 0 0 0 
0 0 0 0 0 0 
0 0 0 0 0 0 
0 0 0 0 0 0 
0 0 0 0 0 0 
0 0 0 0 0 0 
0 0 0 0 0 0 
0 0 0 0 0 0 
0 0 0 0 0 0 
0 0 0 0 0 0 
0 0 0 0 0 0 
0 0 0 0 0 0 
0 0 0 0 0 0 
0 0 0 0 0 0 
0 0 0 0 0 0 
0 0 0 0 0 0 
0 0 0 0 0 0 
0 0 0 0 0 0 
0 0 0 0 0 0 
0 0 0 0 0 0 
0 0 0 0 0 0 
0 0 0 0 0 0 
0 0 0 0 0 0 
0 0 0 0 0 0 
0 0 0 0 0 0 
0 0 0 0 0 0 
0 0 0 0 0 0 
0 0 0 0 0 0 
0 0 0 0 0 0 
0 0 0 0 0 0 
0 0 0 0 0 0 
0 0 0 0 0 0 
0 0 0 0 0 0 
0 0 0 0 0 0 
0 0 0 0 0 0 
0 0 0 0 0 0 
0 0 0 0 0 0 
0 0 0 0 0 0 
0 0 0 0 0 0 
0 0 0 0 0 0 
0 0 0 0 0 0 
0 0 0 0 0 0 
0 0 0 0 0 0 
0 0 0 0 0 0 
0 0 0 0 0 0 
0 0 0 0 0 0 
0 0 0 0 0 0 
0 0 0 0 0 0 
0 0 0 0 0 0 
0 0 0 0 0 0 
0 0 0 0 0 0 
0 0 0 0 0 0 
0 0 0 0 0 0 
0 0 0 0 0 0 
0 0 0 0 0 0 
0 0 0 0 0 0 
0 0 0 0 0 0 
0 0 0 0 0 0 
0 0 0 0 0 0 
0 0 0 0 0 0 
0 0 0 0 0 0 
0 0 0 0 0 0 
0 0 0 0 0 0 
0 0 0 0 0 0 
0 0 0 0 0 0 
0 0 0 0 0 0 
0 0 0 0 0 0 
0 0 0 0 0 0 
0 0 0 0 0 0 
0 0 0 0 0 0 
0 0 0 0 0 0 
0 0 0 0 0 0 
0 0 0 0 0 0 
0 0 0 0 0 0 
0 0 0 0 0 0 
0 0 0 0 0 0 
0 0 0 0 0 0 
0 0 0 0 0 0 
0 0 0 0 0 0 
0 0 0 0 0 0 
0 0 0 0 0 0 
0 0 0 0 0 0 
0 0 0 0 0 0 
0 0 0 0 0 0 
0 0 0 0 0 0 
0 0 0 0 0 0 
0 0 0 0 0 0 
0 0 0 0 0 0 
0 0 0 0 0 0 
0 0 0 0 0 0 
0 0 0 0 0 0 
0 0 0 0 0 0 
0 0 0 0 0 0 
0 0 0 0 0 0 
0 0 0 0 0 0 
0 0 0 0 0 0 
0 0 0 0 0 0 
0 0 0 0 0 0 
0 0 0 0 0 0 
0 0 0 0 0 0 
0 0 0 0 0 0 
0 0 0 0 0 0 
0 0 0 0 0 0 
0 0 0 0 0 0 
0 0 0 0 0 0 
0 0 0 0 0 0 
0 0 0 0 0 0 
0 0 0 0 0 0 
0 0 0 0 0 0 
0 0 0 0 0 0 
0 0 0 0 0 0 
0 0 0 0 0 0 
0 0 0 0 0 0 
0 0 0 0 0 0 
0 0 0 0 0 0 
0 0 0 0 0 0 
0 0 0 0 0 0 
0 0 0 0 0 0 
0 0 0 0 0 0 
0 0 0 0 0 0 
0 0 0 0 0 0 
0 0 0 0 0 0 
0 0 0 0 0 0 
0 0 0 0 0 0 
0 0 0 0 0 0 
0 0 0 0 0 0 
0 0 0 0 0 0 
0 0 0 0 0 0 
0 0 0 0 0 0 
0 0 0 0 0 0 
0 0 0 0 0 0 
0 0 0 0 0 0 
0 0 0 0 0 0 
0 0 0 0 0 0 
0 0 0 0 0 0 
0 0 0 0 0 0 
0 0 0 0 0 0 
-0.5140699862963595 -0.1758739088824287 -0.1925660688624575 0.2130538657920795 0.1915122144475396 -0.04896313869255230 
0 0 0 0 0 0 
0 0 0 0 0 0 
0 0 0 0 0 0 
0 0 0 0 0 0 
0 0 0 0 0 0 
0 0 0 0 0 0 
0 0 0 0 0 0 
0 0 0 0 0 0 
0 0 0 0 0 0 
-0.2203721668153856 -0.07165274173333094 -0.05254594673222231 -0.1013233513850744 -0.09750667205156519 0.6542290830554987 
0 0 0 0 0 0 
0 0 0 0 0 0 
0 0 0 0 0 0 
0 0 0 0 0 0 
0 0 0 0 0 0 
0 0 0 0 0 0 
0 0 0 0 0 0 
0 0 0 0 0 0 
0 0 0 0 0 0 
0 0 0 0 0 0 
0 0 0 0 0 0 
0 0 0 0 0 0 
0 0 0 0 0 0 
0 0 0 0 0 0 
0 0 0 0 0 0 
0 0 0 0 0 0 
0 0 0 0 0 0 
0 0 0 0 0 0 
0 0 0 0 0 0 
0 0 0 0 0 0 
0 0 0 0 0 0 
0 0 0 0 0 0 
0 0 0 0 0 0 
0 0 0 0 0 0 
0 0 0 0 0 0 
0 0 0 0 0 0 
0 0 0 0 0 0 
0 0 0 0 0 0 
0 0 0 0 0 0 
0 0 0 0 0 0 
0 0 0 0 0 0 
-0.2203721668153856 -0.07165274173333094 -0.05254594673222231 -0.1013233513850744 -0.09750667205156519 0.6542290830554987 
0 0 0 0 0 0 
0 0 0 0 0 0 
0 0 0 0 0 0 
0 0 0 0 0 0 
0 0 0 0 0 0 
0 0 0 0 0 0 
0 0 0 0 0 0 
0 0 0 0 0 0 
0 0 0 0 0 0 
0 0 0 0 0 0 
0 0 0 0 0 0 
0 0 0 0 0 0 
0 0 0 0 0 0 
-0.5140699862963595 -0.1758739088824287 -0.1925660688624575 0.2130538657920795 0.1915122144475396 -0.04896313869255230 
-0.0007792590568287281 -0.0004637997029892944 -0.04258947372014441 -0.05123735704572997 0.001260903239477489 -0.0005357230814104119 
0 0 0 0 0 0 
0 0 0 0 0 0 
0 0 0 0 0 0 
0 0 0 0 0 0 
0 0 0 0 0 0 
0 0 0 0 0 0 
0 0 0 0 0 0 
0.7167247778224863 -0.6487706093807621 -0.07044043097793995 -0.3651902313338572 -0.3075786822074841 -0.08036590698004106 
-0.4971844713388012 0.3326458243131478 -0.3428016811084986 -0.3461916881233252 -0.2704672784324974 -0.5807401393758466 
0 0 0 0 0 0 
0 0 0 0 0 0 
0 0 0 0 0 0 
-0.0002586919909084471 -7.760611497048124e-05 -0.01451542182079799 -0.03024486645147348 0.07645696197626796 -0.0002825503185193110 
0 0 0 0 0 0 
0 0 0 0 0 0 
0 0 0 0 0 0 
0 0 0 0 0 0 
0 0 0 0 0 0 
0 0 0 0 0 0 
0 0 0 0 0 0 
0 0 0 0 0 0 
-0.002223189001998859 -0.002926190591086805 0.008231962783794964 -0.01025175851725253 -0.05090763345162315 -0.002279818942913553 
0 0 0 0 0 0 
0 0 0 0 0 0 
0 0 0 0 0 0 
0 0 0 0 0 0 
0 0 0 0 0 0 
0 0 0 0 0 0 
0 0 0 0 0 0 
0 0 0 0 0 0 
0 0 0 0 0 0 
0 0 0 0 0 0 
0 0 0 0 0 0 
0 0 0 0 0 0 
0 0 0 0 0 0 
0 0 0 0 0 0 
0 0 0 0 0 0 
0 0 0 0 0 0 
0 0 0 0 0 0 
0 0 0 0 0 0 
0 0 0 0 0 0 
0 0 0 0 0 0 
0 0 0 0 0 0 
0 0 0 0 0 0 
0 0 0 0 0 0 
0 0 0 0 0 0 
0 0 0 0 0 0 
0 0 0 0 0 0 
0 0 0 0 0 0 
0 0 0 0 0 0 
0 0 0 0 0 0 
0 0 0 0 0 0 
0 0 0 0 0 0 
-0.1119557872579520 0.3922296329236013 -0.4022278390745614 -0.06096881242297863 -0.2507811710380203 -0.4481537717083745 
-0.4196112828393140 0.4769007596256084 -0.5378672999448678 0.1536108677894973 -0.1105809126024052 -0.5463783587031406 
-0.0003483191124385128 -0.001274998020996733 0.02101582898800658 -0.01405932585115692 -0.04596371177624996 -0.0001625590481202090 
0 0 0 0 0 0 
-0.03321704830444897 -0.1200692915633669 -0.3744315981521012 -0.07719561628826119 0.3463178529840745 -0.02791104640660102 
0.3254120055402774 -0.8260837300675943 0.2278537624300235 -0.3554391568582426 -0.2273273392398009 -0.2599912515175592 
0 0 0 0 0 0 
0 0 0 0 0 0 
0 0 0 0 0 0 
-0.06002410457106632 -0.02991815706167786 -0.02065362803179190 0.05295086561044650 0.3632088247051896 -0.01273815390396039 
-0.2936399859400753 -0.1316953101760548 0.4707877538941290 -0.1948117739488750 -0.2787636705695623 0.5988967415181190 
0 0 0 0 0 0 
-0.01083637307169499 -0.02160630146579273 0.008986947761298719 0.008180598742593064 -0.1091287781154430 -0.01285678531339776 
0 0 0 0 0 0 
0.3072093347514865 -0.2334850948507031 -0.005555567855780692 -0.05109232540611680 -0.04796551201639405 -0.003336369226910105 
0 0 0 0 0 0 
0 0 0 0 0 0 
0 0 0 0 0 0 
0 0 0 0 0 0 
0 0 0 0 0 0 
0 0 0 0 0 0 
0 0 0 0 0 0 
0 0 0 0 0 0 
0.9394790864444834 -0.5550012280151759 -0.5696403639965599 -0.3054938949215469 -0.5018185999029755 -1.249013571521723 
-0.3648396143443988 0.5053218439689209 -0.2692655750559960 -0.008173167143371237 -0.3175782959054143 -0.01833507290063439 
0 0 0 0 0 0 
0 0 0 0 0 0 
0 0 0 0 0 0 
-0.4509092711991802 0.08578732169450928 -0.7369865769255122 0.2520975121481575 0.5263066101115325 -0.1009844357001593 
0 0 0 0 0 0 
0 0 0 0 0 0 
-0.001487821367052842 -0.0005795787507817392 -0.04510410363344505 -0.1067631259988975 0.3099589892312931 -0.0002801133126454580 
0 0 0 0 0 0 
-0.09046344190218257 -0.1637597031501039 -0.05785604053597451 -0.09021135501071023 -0.1559858799803042 0.7013452013762674 
0 0 0 0 0 0 
-0.3287904984368119 -0.3667711464034194 1.066761020161864 -0.2802806477072513 -0.2218672412230439 -0.04536356225114931 
0 0 0 0 0 0 
0 0 0 0 0 0 
0 0 0 0 0 0 
0 0 0 0 0 0 
0 0 0 0 0 0 
0 0 0 0 0 0 
0 0 0 0 0 0 
0 0 0 0 0 0 
0 0 0 0 0 0 
