solver_type L2R_LR
nr_class 1
label 1
nr_feature 2093
bias 0.000000000000000
w
0.08501110965902463 
0.1015871954049371 
0.05763427303590311 
0.06526145283122750 
0.05346613078018950 
0.04594888712917281 
0.03619396411980232 
0.04470438657066688 
0.03530575892619019 
0.03399057650719155 
0.04464480762573175 
0.02423965908216481 
0.02549476661711633 
0.02149262182050710 
0.01740948575382584 
0.01630500748712674 
0.02177408242882641 
0.04043590251220079 
0.02133901470486790 
0.02912853897638744 
0.009872380316992311 
0.007944943299052532 
0.01709942925349316 
0.01359094104668957 
0.01219814654212336 
0.02138062311746757 
0.007602400246375402 
0.009931411446661835 
0.01336274583738974 
0.01134829677638066 
0.01291864365815408 
0.005695526651735360 
0.001931102910883350 
0.01919704856875667 
0.002250171583065718 
0.004452148473724567 
0.006301605155767716 
0.003894342640816759 
0.008898271925644187 
0.01209445797049983 
0.001931102910883350 
0.007276088543503602 
0.003283710250407777 
0.004965089483888293 
0.003533146405083359 
0.002250171583065718 
0.009899865116204273 
0.002879145054465213 
0.006683919168687784 
0.006941606816925044 
0.006183836795228651 
0.005463392165825032 
0.002250171583065718 
0.006371336373031705 
0.005479262972937269 
0.005088624049383122 
0.006951952647250863 
0.002389511070248259 
0.01217615192749667 
0.004401942892012026 
0.003283710250407777 
0.001449278357643744 
0.002591152271734831 
0.005479262972937269 
0.004593740476553484 
0.002250171583065718 
0.004711696304870795 
0.005153620937526697 
0.008383788591986093 
0.004452148473724567 
0.009925980344430953 
0.002359776090374013 
0.008383788591986093 
0.001496089804913483 
0.001496089804913483 
0.002250171583065718 
0.006521674231680776 
0.003030720773019485 
0.004562441577002604 
0.004085110082141542 
0.004265419933311172 
0.007320078109981394 
0.004650347419898260 
0.003030720773019485 
0.006583361992946815 
0.002250171583065718 
0.005186775353269496 
0.002389511070248259 
0.002250171583065718 
0.002250171583065718 
0.001347930616126624 
0.009551723252224077 
0.001591685380154667 
0.005479262972937269 
0.003176990059928947 
0.003045780642044805 
0.001919308841843488 
0.001919187899307139 
0.001914664185639581 
0.005178203450425755 
0.003030720773019485 
0.002283921805894700 
0.003030720773019485 
0.007649693533138554 
0.004562441577002604 
0.001903524029064674 
0.003783237911795061 
0.006474889474131009 
0.005479262972937269 
0.003176990059928947 
0.004562441577002604 
0.003030720773019485 
0.002250171583065718 
0.001903524029064674 
0.002283921805894700 
0.009925980344430953 
0.004415200141897790 
0.004452148473724567 
0.004562441577002604 
0.003322034575601715 
0.0008303826883519627 
0.001914664185639581 
0.001784691855451772 
0.006521674231680776 
0.003449198601797767 
0.2825811806103627 
0.2052062535735964 
0.1968187233206540 
0.1643136014349632 
0.1044564103506696 
0.07264590900064521 
0.06963912176450320 
0.03020015308164728 
0.02613179806564971 
0.02359211279971218 
0.02790316824677682 
0.01968572384124175 
0.03007978758841998 
0.02923563802285571 
0.02668238579073068 
0.06486271642150246 
0.02383473016838882 
0.01841276453233222 
0.02046813804876750 
0.04871802785270000 
0.02599315058735533 
0.04359638836556187 
0.03634771246194930 
0.01121406670266641 
0.01950835508316916 
0.01427393619044668 
0.02102048522538055 
0.01254533227293647 
0.01376249756121579 
0.01883293007925571 
0.02188038600884848 
0.009324055668759526 
0.01547051889048345 
0.009453457160037393 
0.01468152332861088 
0.003510873279461806 
0.006940165741971595 
0.009239547070011723 
0.02800922439923852 
0.007529636284304311 
0.006315773606025162 
0.01732140988742835 
0.01271374464725239 
0.02813797395863489 
0.007242698545883201 
0.006318627582745610 
0.005722255871045161 
0.01256559697490861 
0.01180959231944068 
0.01583922378608802 
0.007698710767669295 
0.005007150974247152 
0.006280540146963208 
0.006072576018504916 
0.008464477824157875 
0.006072576018504916 
0.01031350845612856 
0.01729258274865420 
0.006659291910690706 
0.007718759905377791 
0.006220842415025242 
0.007011808874920657 
0.004137834719908950 
0.008851880826938640 
0.005502674932726632 
0.005887540760183818 
0.004511455116517460 
0.007804477591468952 
0.004998227624809857 
0.002369668968785712 
0.005726815103373585 
0.003774314705920000 
0.004432631229563524 
0.006611280293028911 
0.01415713680681014 
0.002865548006338001 
0.01558024724949558 
0.006861737386579333 
0.003360967590903880 
0.007402175781180453 
0.004901252341696485 
0.005168611407491647 
0.006497264505618158 
0.01288253270422801 
0.009570487170779454 
0.002324064967298174 
0.001382072377106196 
0.009793676481728129 
0.009306195957099486 
0.004283948035510962 
0.002139933919354672 
0.008496668252931322 
0.006072576018504916 
0.003548780891179737 
0.006217509396628769 
0.007348777738286437 
0.003514980875576836 
0.002043169216218475 
0.006072576018504916 
0.007578277532648672 
0.006093768681976992 
0.002788890842412209 
0.001379986596706832 
0.003903823397781563 
0.01886895017710961 
0.01181408740064555 
0.003283710250407777 
0.002127880683957956 
0.005497909462904279 
0.003962478058061963 
0.006986719111027219 
0.006072576018504916 
0.003283710250407777 
0.003842522063191239 
0.003788856432241796 
0.009051879798809760 
0.001903524029064674 
0.002641840756322862 
0.004659394654718447 
0.001591685380154667 
0.004401942892012026 
0.001785283139766524 
0.002107292320393198 
0.005315953095958139 
0.004497743548171219 
0.2655450786743095 
0.2053165466768745 
0.1925350608682282 
0.1430102787507759 
0.1071538074125619 
0.07264590900064521 
0.06885991809929565 
0.06000725981051160 
0.03020015308164728 
0.03950946801501382 
0.02613179806564971 
0.02359211279971218 
0.05537290063309269 
0.01968572384124175 
0.02923563802285571 
0.03007978758841998 
0.02668238579073068 
0.06853162512257877 
0.04730839393765800 
0.05099139463611545 
0.02046813804876750 
0.01881646694904181 
0.02599315058735533 
0.01427393619044668 
0.01950835508316916 
0.01254533227293647 
0.01281706923656129 
0.01376249756121579 
0.01727277136371174 
0.03825747379115624 
0.02188038600884848 
0.009324055668759526 
0.01195330991846132 
0.01547051889048345 
0.009453457160037393 
0.006940165741971595 
0.009239547070011723 
0.01297445824273058 
0.02387594474160102 
0.02789893129596048 
0.006315773606025162 
0.007529636284304311 
0.02813797395863489 
0.007242698545883201 
0.005722255871045161 
0.006318627582745610 
0.01256559697490861 
0.01583922378608802 
0.009503319878185120 
0.007698710767669295 
0.005007150974247152 
0.006072576018504916 
0.008464477824157875 
0.006280540146963208 
0.006072576018504916 
0.01031350845612856 
0.009873869134806472 
0.007718759905377791 
0.006220842415025242 
0.005168611407491647 
0.004137834719908950 
0.01286926141370378 
0.007602400246375402 
0.005502674932726632 
0.007967094292837963 
0.003875607186049367 
0.004511455116517460 
0.007804477591468952 
0.004998227624809857 
0.002369668968785712 
0.005726815103373585 
0.004432631229563524 
0.003774314705920000 
0.006611280293028911 
0.007602400246375402 
0.006861737386579333 
0.002865548006338001 
0.01871022197214290 
0.003360967590903880 
0.01699153156265525 
0.007402175781180453 
0.004901252341696485 
0.004727887069025958 
0.01078211275056116 
0.006355672502789241 
0.004126802846185062 
0.006567959021043941 
0.009570487170779454 
0.006072576018504916 
0.002324064967298174 
0.001382072377106196 
0.009793676481728129 
0.01288388400018517 
0.01049002709255746 
0.004283948035510962 
0.008496668252931322 
0.002139933919354672 
0.006072576018504916 
0.006217509396628769 
0.01089756478897837 
0.01035079888300088 
0.003548780891179737 
0.007348777738286437 
0.008864723637845356 
0.008796806387012338 
0.002043169216218475 
0.006428159488306122 
0.006093768681976992 
0.01886895017710961 
0.003514980875576836 
0.003903823397781563 
0.001379986596706832 
0.004401942892012026 
0.003283710250407777 
0.003283710250407777 
0.005497909462904279 
0.002127880683957956 
0.003962478058061963 
0.006072576018504916 
0.003842522063191239 
0.003788856432241796 
0.002641840756322862 
0.009051879798809760 
0.001591685380154667 
0.004659394654718447 
0.2400200345865040 
0.1763179521190952 
0.1043282833416123 
0.06163271301615289 
0.06429396483501373 
0.05602783913990344 
0.06700946544369064 
0.03607962035749596 
0.06001202703029329 
0.05349712641503671 
0.02554447267840573 
0.04810371404830456 
0.01040276400065977 
0.01618204178701024 
0.03034765816020981 
0.02561923924937092 
0.01504513261366314 
0.01691999095786851 
0.007593162350022088 
0.01919287336968252 
0.02646491834927263 
0.01200035707662745 
0.01633365465580112 
0.01734057630349113 
0.05209880066564634 
0.008546478616966745 
0.009938072150108893 
0.005421645608074870 
0.01068501753472139 
0.01366505451383170 
0.009228191916515104 
0.009872380316992311 
0.008879809857851008 
0.02793359933021070 
0.01363218236327135 
0.01448404783909779 
0.009355324046101806 
0.005999526949233800 
0.01152806386346196 
0.01902376425039337 
0.004305161480934027 
0.008460219102680240 
0.009513546794248795 
0.006841659543972826 
0.009931411446661835 
0.003491439611004805 
0.01291864365815408 
0.002389511070248259 
0.01057161400624828 
0.003966455740790379 
0.004401942892012026 
0.005631589493482542 
0.003283710250407777 
0.003357855975693960 
0.003266224902019506 
0.004452148473724567 
0.01030297649129323 
0.01208618176094426 
0.005661165103956251 
0.006132377383845858 
0.006577488927739645 
0.003391738072043140 
0.01388556269770789 
0.003966455740790379 
0.002250171583065718 
0.009053120924327666 
0.005395900452788494 
0.004749287160622272 
0.01806989383389576 
0.008729940227281633 
0.002250171583065718 
0.005762118458577510 
0.005479262972937269 
0.01172100513345142 
0.01214139605180817 
0.006951952647250863 
0.005795081853689202 
0.005088624049383122 
0.01217615192749667 
0.002446604202770806 
0.002250171583065718 
0.006961867887936513 
0.003030720773019485 
0.008383788591986093 
0.004452148473724567 
0.001382072377106196 
0.003445355068669642 
0.009925980344430953 
0.005818058440949030 
0.008383788591986093 
0.003325442717325784 
0.002250171583065718 
0.001837353251087693 
0.01289211035711900 
0.002250171583065718 
0.006521674231680776 
0.004720436719269753 
0.003030720773019485 
0.004562441577002604 
0.004085110082141542 
0.001580900513825705 
0.007233149849511253 
0.002250171583065718 
0.005684674389936097 
0.002973253956048364 
0.006583361992946815 
0.002389511070248259 
0.006929629643160932 
0.002389511070248259 
0.002250171583065718 
0.002250171583065718 
0.002946446959580811 
0.001497072677359017 
0.005479262972937269 
0.001919308841843488 
0.003176990059928947 
0.001998392528860220 
0.003783237911795061 
0.005153620937526697 
0.01248400905497318 
0.003030720773019485 
0.005178203450425755 
0.003030720773019485 
0.006583361992946815 
0.003030720773019485 
0 
0 
0 
0 
0 
0 
0 
0 
0 
0 
0 
0 
0 
0 
0 
0 
0 
0 
0 
0 
0 
0 
0 
0.2281846918293250 
0 
0 
0 
0 
0 
0 
0 
0 
0 
0 
0 
0 
0 
0 
0 
0 
0 
0 
0 
0 
0 
0 
0 
0 
0 
0 
0 
0 
0 
0 
0 
0 
0 
0 
0 
0 
0 
0 
0 
0 
0 
0 
0 
0 
0 
0 
0 
0 
0 
0 
0 
0 
0 
0 
0 
0 
0 
0 
0 
0 
0 
0 
0 
0 
0 
0 
0 
0 
0 
0 
0 
0 
0 
0 
0 
0 
0 
0 
0 
0 
0 
0 
0 
0 
0 
0 
0 
0 
0 
0 
0 
0 
0 
0 
0 
0 
0 
0 
0 
0 
0 
0 
0 
0 
0 
0 
0 
0 
0 
0 
0 
0 
0 
0 
0 
0 
0 
0 
0 
0 
0 
0 
0 
0 
0 
0 
0 
0 
0 
0 
0 
0 
0 
0 
0 
0 
0 
0 
0 
0 
0 
0 
0 
0 
0 
0 
0 
0 
0 
0 
0 
0 
0 
0 
0 
0 
0 
0 
0 
0 
0 
0 
0 
0 
0 
0 
0 
0 
0 
0 
0 
0 
0 
0 
0 
0 
0 
0 
0 
0 
0 
0 
0 
0 
0 
0 
0 
0 
0 
0 
0 
0 
0 
0 
0 
0 
0 
0 
0 
0 
0 
0 
0 
0 
0 
0.3321085504534709 
0 
0 
0 
0 
0 
0 
0 
0 
0 
0 
0 
0 
0 
0 
0 
0 
0 
0 
0 
0 
0 
0 
0 
0 
0 
0 
0 
0 
0 
0 
0 
0 
0 
0 
0 
0 
0 
0 
0 
0 
0 
0 
0 
0 
0 
0 
0 
0 
0 
0 
0 
0 
0 
0 
0 
0 
0 
0 
0 
0 
0 
0 
0 
0 
0 
0 
0 
0 
0 
0 
0 
0 
0 
0 
0 
0 
0 
0 
0 
0 
0 
0 
0 
0 
0 
0 
0 
0 
0 
0 
0 
0 
0 
0 
0 
0 
0 
0 
0 
0 
0 
0 
0 
0 
0 
0 
0 
0 
0 
0 
0 
0 
0 
0 
0 
0 
0 
0 
0 
0 
0 
0 
0 
0 
0 
0 
0 
0 
0 
0 
0 
0 
0 
0 
0 
0 
0 
0 
0 
0 
0 
0 
0 
0 
0 
0 
0 
0 
0.03040392765578586 
0 
0 
0 
0 
0 
0 
0 
0 
0 
0 
0 
0 
0.8150137022214480 
0 
0 
0 
0 
0 
0 
0 
0 
0 
0 
0 
0 
0 
0 
0 
0 
0 
0 
0 
0 
0 
0 
0 
0 
0 
0 
0 
0 
0 
0 
0 
0 
0 
0 
0 
0 
0 
0 
0 
0 
0 
0 
0 
0 
0 
0 
0 
0 
0 
0 
0 
0 
0 
0 
0 
0 
0 
0 
0 
0 
0 
0 
0 
0 
0 
0 
0 
0 
0 
0 
0 
0 
0.8150137022214480 
0 
0 
0 
0 
0 
0 
0 
0 
0.1039238586241459 
0 
0 
0 
0 
0 
0 
0 
0 
0 
0 
0 
0 
0 
0 
0 
0 
0 
0 
0 
0 
0 
0 
0 
0 
0 
0 
0 
0 
0 
0 
0 
0 
0 
0 
0 
0 
0 
0 
0 
0 
0 
0 
0 
0 
0 
0 
0 
0 
0 
0 
0 
0 
0 
0 
0 
0 
0 
0 
0 
0 
0 
0 
0 
0 
0 
0 
0 
0 
0 
0 
0 
0 
0 
0 
0 
0 
0 
0 
0 
0 
0 
0 
0 
0 
0 
0 
0 
0 
0 
0 
0 
0 
0 
0 
0 
0 
0 
0 
0 
0 
0 
0 
0 
0 
0 
0 
0 
0 
0 
0 
0 
0 
0 
0 
0 
0 
0 
0 
0 
0 
0 
0 
0 
0 
0 
0 
0 
0 
0 
0 
0 
0 
0 
0 
0 
0 
0 
0 
0 
0 
0 
0 
0 
0 
0 
0 
0 
0 
0 
0 
0 
0 
0 
0 
0 
0 
0 
0 
0 
0 
0 
0 
0 
0 
0 
0 
0 
0 
0 
0 
0 
0 
0 
0 
0 
0 
0 
0 
0 
0 
0 
0 
0 
0 
0 
0 
0 
0 
0 
0 
0 
0 
0 
0 
0 
0 
0 
0 
0 
0 
0 
0 
0 
0 
0 
0 
0 
0 
0 
0 
0 
0 
0 
0 
0 
0 
0 
0 
0 
0 
0 
0 
0 
0 
0 
0 
0 
0 
0 
0 
0 
0 
0 
0 
0 
0 
0 
0 
0 
0 
0 
0 
0 
0 
0 
0 
0 
0 
0 
0 
0 
0 
0 
0 
0 
0 
0 
0 
0 
0 
0 
0 
0 
0 
0 
0 
0 
0 
0 
0 
0 
0.8150137022214480 
0 
0 
0 
0 
0 
0 
0 
0 
0 
0 
0 
0 
0 
0 
0 
0 
0 
0 
0 
0 
0 
0 
0 
0 
0 
0 
0 
0 
0 
0 
0 
0 
0 
0 
0 
0 
0 
0 
0 
0 
0 
0.005394071449471310 
0 
0 
0.03563323416730942 
0 
0 
0 
0 
0 
0 
0 
0 
0 
0 
0 
0 
0 
0 
0 
0 
0 
0 
0 
0 
0 
0 
0 
0 
0 
0 
0 
0 
0 
0 
0 
0 
0 
0 
0 
0 
0 
0 
0 
0 
0 
0 
0 
0 
0 
0 
0 
0 
0 
0 
0 
0 
0 
0 
0 
0 
0 
0 
0 
0 
0.03030749503180998 
0 
0 
0 
0 
0 
0 
0 
0 
0 
0 
0 
0 
0 
0 
0 
0 
0 
0 
0 
0 
0 
0 
0 
0 
0 
0 
0 
0 
0 
0 
0 
0 
0 
0 
0 
0 
0 
0 
0 
0 
0 
0 
0 
0 
0 
0 
0 
0 
0 
0 
0 
0 
0 
0 
0 
0 
0 
0 
0 
0 
0 
0 
0 
0 
0 
0 
0 
0 
0 
0 
0 
0 
0 
0 
0 
0 
0 
0 
0 
0 
0 
0 
0 
0 
0 
0 
0 
0 
0 
0.001382072377106196 
0 
0.01527321471973137 
0 
0 
0 
0 
0 
0 
0 
0 
0 
0 
0 
0 
0 
0 
0 
0 
0 
0 
0 
0 
0 
0 
0 
0 
0 
0 
0 
0 
0 
0 
0 
0 
0 
0 
0 
0 
0 
0 
0 
0 
0 
0 
0 
0 
0 
0.1327565857275731 
0 
0 
0 
0 
0 
0 
0 
0 
0 
0 
0 
0 
0 
0 
0 
0.04484317189713973 
0 
0 
0 
0.005675234602953474 
0 
0 
0.001847564124317680 
0 
0 
0 
0 
0.01024716563971764 
0 
0 
0 
0 
0 
0 
0 
0 
0 
0 
0 
0 
0 
0 
0 
0 
0 
0 
0 
0 
0 
0 
0 
0 
0 
0 
0 
0 
0 
0 
0 
0 
0 
0 
0 
0 
0 
0 
0 
0 
0 
0 
0 
0.01607494578557999 
0 
0 
0 
0 
0 
0 
0 
0 
0 
0.01180714429699318 
0 
0 
0 
0 
0 
0 
0 
0 
0 
0 
0 
0 
0 
0 
0 
0 
0 
0 
0 
0 
0 
0 
0 
0.005675234602953474 
0 
0 
0 
0 
0 
0 
0 
0 
0 
0 
0.005675234602953474 
0 
0 
0 
0 
0 
0 
0 
0 
0 
0 
0.1464244511645806 
0 
0 
0 
0 
0 
0 
0 
0 
0 
0 
0 
0 
0 
0 
0 
0 
0 
0 
0 
0 
0 
0 
0 
0 
0 
0 
0 
0 
0 
0 
0 
0 
0 
0 
0 
0 
0.007117407284991553 
0 
0 
0 
0 
0 
0 
0 
0 
0 
0 
0 
0 
0.8150137022214480 
0 
0 
0 
0 
0 
0 
0 
0 
0 
0 
0 
0 
0 
0 
0 
0 
0 
0 
0 
0 
0 
0 
0 
0 
0 
0 
0 
0 
0 
0 
0 
0 
0 
0 
0 
0 
0 
0.03667460689852398 
0 
0 
0 
0 
0 
0 
0 
0 
0 
0 
0 
0 
0 
0 
0 
0 
0 
0 
0 
0 
0 
0 
0 
0 
0 
0 
0 
0 
0 
0 
0 
0 
0 
0 
0.1310774949860515 
0 
0 
0 
0 
0 
0 
0 
0 
0.04484317189713973 
0 
0 
0 
0 
0 
0 
0 
0 
0 
0 
0 
0 
0 
0 
0 
0.005675234602953474 
0 
0 
0 
0 
0 
0 
0 
0 
0 
0 
0 
0 
0 
0 
0 
0 
0 
0 
0.1368511828383755 
0 
0 
0 
0 
0 
0 
0 
0 
0 
0 
0 
0 
0 
0 
0 
0.2480316261092056 
0 
0 
0 
0 
0.009743132354779678 
0 
0 
0 
0 
0 
0 
0 
0 
0 
0 
0 
0 
0.001491354165630985 
0 
0 
0 
0 
0 
0 
0 
0 
0 
0 
0 
0 
0 
0 
0 
0 
0 
0 
0 
0 
0 
0 
0 
0 
0 
0 
0 
0 
0 
0 
0 
0 
0 
0 
0 
0 
0.03030749503180998 
0 
0 
0 
0 
0 
0 
0 
0 
0 
0 
0 
0 
0.03563323416730942 
0 
0 
0 
0 
0 
0 
0 
0 
0 
0 
0 
0 
0 
0 
0 
0 
0 
0 
0 
0 
0 
0 
0 
0 
0 
0 
0 
0 
0 
0 
0.04526087283590360 
0 
0 
0 
0 
0 
0 
0 
0 
0 
0 
0 
0 
0 
0 
0 
0 
0 
0 
0 
0 
0 
0 
0 
0 
0 
0 
0 
0 
0 
0 
0 
0 
0 
0 
0 
0 
0 
0 
0 
0 
0 
0 
0.1368511828383755 
0 
0 
0.1327565857275731 
0 
0 
0 
0 
0 
0 
0.04011768558289248 
0 
0 
0 
0 
0 
0 
0 
0 
0 
0 
0 
0 
0 
0 
0 
0 
0 
0 
0 
0 
0 
0 
0 
0 
0 
0 
0 
0 
0 
0 
0 
0.04011768558289248 
0 
0 
0 
0 
0 
0 
0 
0 
0 
0 
0 
0 
0 
0.1311759482354220 
0.1206282558484240 
0 
0 
0 
0 
0 
0 
0 
0.1497633694545293 
0 
0 
0 
0 
0.03816027307728646 
0 
0 
0 
0 
0 
0 
0 
0 
0.1677521018845755 
0 
0 
0 
0 
0 
0 
0 
0 
0 
0 
0 
0 
0 
0 
0 
0 
0 
0 
0 
0 
0 
0 
0 
0 
0 
0 
0 
0 
0 
0 
0.003243448634980142 
0 
0.4216369336683977 
0 
0.3517290989287003 
0 
0 
0.009005247370216077 
0.008700538167324556 
0.004497743548171219 
0 
0 
0.01620069190365792 
0 
0 
0 
0 
0 
0 
0 
0 
0 
0 
0.3475171308424223 
0 
0.4605669417358647 
0 
0 
0.006929629643160932 
0 
0 
0 
0 
0 
0 
0 
0 
0 
0 
0 
0 
0 
