solver_type L2R_LR
nr_class 5
label 1 2 3 4 5
nr_feature 2097
bias 0.000000000000000
w
-0.2457817136441069 0.09823173595864305 0.2132139257764148 -0.1268513179881490 -0.009212591758845440 
0.01123103775550430 -0.002482166409592159 -0.5567680208409966 0.3500625765729652 -0.04016554889373353 
0.1503753902535830 -0.1583972995634150 0.3478892657184983 -0.4885312769905388 -0.2202912145118169 
-0.1806136818897594 0.1805458513543664 -0.2119490615978029 -0.03406766053352287 -0.1012306162896862 
-0.1992842627806073 0.2648845353009538 -0.2286421918985894 -0.03483618063935901 -0.09917214451497558 
0.05542412639300134 0.08428337714738617 -0.3056070834061737 0.09730247580201110 0.1114326175892865 
-0.1239649715498634 0.1627216760917433 0.2112730838975618 -0.4509263517029979 0.1219226971354898 
0.2721323992809285 0.1760777882776511 -0.08505203525882390 -0.4676079600098820 -0.1559226433654056 
0.2873228205933046 0.1195266588258192 -0.2241216429430325 -0.1303217602051943 -0.1226496561369885 
-0.1864094787970972 0.05208990314994290 -0.05343865476695334 -0.02776599662999948 -0.09700270041035736 
-0.1641537055652381 0.1030002514743864 -0.1615520384519062 -0.01637186641776410 -0.09464552037624567 
-0.4794881888422162 0.8682159831361027 -0.6436242188594524 -0.4256205169334763 -0.1534209927890145 
-0.2111271713737645 0.5404474408036104 -0.1677361014860072 -0.3484332897496804 -0.1001389602488028 
-0.2006868361523105 0.4498117748274004 -0.1597901565937962 -0.3076057024738489 -0.09834634744501526 
-0.1707925884165015 0.1443072997065917 -0.1646403070123789 -0.03986188316968625 -0.08620306321358946 
-0.1376265365880104 0.2726109180844929 -0.1609377422591800 -0.1140361477660643 -0.07613050339987126 
-0.1376265365880104 0.2726109180844929 -0.1609377422591800 -0.1140361477660643 -0.07613050339987126 
0.05800093721535438 0.2155485365083462 -0.2125380310534909 -0.1529068979543269 -0.09375717925826164 
-0.09594943393254951 0.02021438379288965 -0.01374928873810542 -0.06144411215349255 -0.04885596055168431 
-0.09728054742975767 0.02345354609165721 -0.1126741557408750 -0.08945517540644903 0.2948373704863588 
-0.1761595300132286 -0.1796778201147225 -0.3292208242589383 0.7568017418293081 0.2161419088079359 
0.3544440268075403 -0.1140619935798212 0.003002961231434008 -0.4349365841118032 -0.1333360010808728 
-0.04977692526575334 0.09791109690087318 -0.09112707745501494 -0.03426219308887852 -0.02724460233491758 
-0.04809385797955132 -0.07720718248285980 -0.05103250221897206 0.07630567488756874 -0.02312757369519911 
-0.2511976956849040 0.04643425774817165 -0.005466859671606527 0.1207162279598355 -0.1104462239880393 
-0.04502086511168677 0.1190648251201725 -0.05354009003050558 -0.04216174272312574 -0.02280011702995409 
-0.2425275524656246 0.1155422552006153 -0.3508836285366621 0.4197158877070104 -0.04895190736826574 
-0.02388620602410643 0.01154934875270572 0.02569083312895790 -0.07125448714961082 -0.01419736609510265 
-0.06880956083163715 -0.2291526804552954 0.06160245410290197 0.2598625931718669 -0.05863520584556905 
-0.1118240620728829 -0.2183856482171647 -0.1087943017362806 0.2831988064414912 0.3050030494041582 
-0.1469430173233706 -0.08342270257761750 -0.05036599269630886 0.09774010241224886 -0.07994565417603444 
0.7587128099072115 -0.2791721699441255 -0.4806761794418339 -0.03657817029534809 -0.04466871386270369 
0.1420312603265907 -0.2352915886974109 -0.09167146815436540 0.04042408963257492 0.3161311545885914 
-0.03857692928966598 0.1365547027789810 -0.1236407684853959 -0.01796717613503152 -0.01290937141684732 
-0.01464159991256281 0.03394235590798265 -0.02100974942167762 -0.02105666360807006 -0.009962034242680119 
-0.1755366217636509 -0.1135105179024300 0.4071123031023750 -0.1053359741837329 -0.05754749808155424 
-0.2433737933409837 -0.08270940209179810 0.002047499783567888 0.09987646391195892 -0.05552855158268834 
-0.01519395480248800 0.01883889150869587 -0.01054105303359912 -0.008989531052119366 -0.006166046273925406 
-0.01623225553014751 0.009034733141864934 0.04517947008777678 -0.03443920731301835 -0.007298867079816023 
-0.02102491768509768 0.09451937306396886 -0.1252456223677281 0.05984328620098463 -0.006582760435890036 
-0.01440582473944906 -0.003916721460490481 -0.09613046277860655 0.09244775141930474 -0.002094398197170490 
-0.03075370968417772 -0.1580877492038257 0.2872990668479412 -0.1164562194705197 -0.04710125536280951 
-0.04117465626353196 -0.1942771802306406 -0.01375572458048521 0.1654942601008469 -0.02005856812574929 
-0.09901260190059974 0.2564845447059868 -0.1685079687810366 -0.03335005877526577 -0.01399253825751168 
-0.006875413424061173 0.01307792646892197 -0.007549773433313395 -0.007222963132184247 -0.004518101471889509 
-0.01709701822732682 0.03210155298134381 -0.01035919821651666 -0.01482080515779299 -0.009365291059403540 
-0.09658724077218608 0.08284005005630873 -0.1396947847232138 0.09612917586052613 -0.01557139477333900 
-0.006510152760821499 0.006786357357046448 -0.004731056159496686 -0.004652377065489735 -0.004830225797494355 
0.004716504712780964 -0.02146121082557571 -0.06863926918246904 -0.08587596721556406 0.3450094357978416 
-0.01364967067319380 0.02399382545662804 -0.01462057111950780 -0.01448517128367852 -0.006458251609296813 
-0.03319165172175993 0.02689282455150264 -0.01502767048782728 -0.005267433427504886 -0.009240414733304480 
0.4785366778820286 -0.1114401359132043 -0.2217182033295255 -0.2037985788779030 -0.02858115643678047 
0.4376823521063352 -0.02465488034878160 0.01846536829445454 -0.3721675814805378 -0.03647110946964310 
-0.01164485110922197 0.02705799864616479 -0.007145843266804181 -0.01797258052981957 -0.005207302213033107 
0.2813998541514253 -0.1379449353300525 0.06611470630322741 -0.2139382214198922 -0.02031923138298179 
-0.007257539104253336 0.01134640561190963 -0.009133495636526198 -0.004206433471365825 -0.004040959286761147 
-0.05946374666289216 0.006317310735358854 0.03630117365125837 0.04857748737433277 -0.02226410692698684 
0.03030031124434059 -0.02084794234553145 -0.01823571999180428 -0.01020168076617635 -0.004534513999137537 
-0.01091750057203963 0.01156591172768624 -0.007517816063092119 -0.005624151133580792 -0.005378582567504300 
-0.008040593613364490 0.01602178240792542 -0.006865789435012767 -0.004661217995399133 -0.003546274906115816 
-0.07934040141389170 -0.02625835462625101 -0.05656698871489786 0.2011066215691412 -0.01324490043770720 
-0.02765131879356828 -0.05702159704496971 -0.05729997722224865 -0.03811629524909468 0.3519250582444156 
-0.004523237764565501 0.01760410107243517 -0.003950423240280420 -0.009018895991939656 -0.003913957943242119 
0.03874448326125238 0.001149968599799735 -0.02638450284393995 -0.01633655292063396 -0.005456782546071315 
-0.004439420823456892 0.002866224097499577 -0.004097142180800624 -0.0003623993189986669 -0.0005464177035096055 
-0.01762479920187900 -0.009084896737816452 -0.1323996558039727 0.1017460187541392 -0.007167110987163018 
-0.008958183489195687 0.02303853645816848 -0.009477290817804952 -0.008999902712538766 -0.006258977858342223 
-0.005714531261738668 0.0005963771764367044 -0.005255199418301900 -0.006190533154264614 -0.003761616271174468 
0.04510075843186348 -0.06953262188940958 -0.1105420048450969 0.09672691297909748 -0.01729061245096997 
-0.004906879055264179 0.004958414691995201 -0.006677715905815258 -0.001388052920216694 -0.002637872213373303 
-0.01338587295205099 0.01076773532166902 0.03208120346663491 -0.06219348313141342 -0.006462341316150827 
-0.08017689347075346 -0.06048992698981784 0.1035724129206938 -0.03141654243237019 -0.01970050156393639 
-0.06122786483137541 0.04086966121030210 0.08516646073347031 0.002105265061322703 -0.01661115647177434 
0.02505185485989304 0.02642795288325915 0.1068540240762064 -0.1865502960972679 -0.01723135557395121 
-0.06079766608925533 0.02902515867925712 0.02779878238786382 0.02725748707437466 -0.008725076140511302 
-0.06347957824463869 -0.05563796412115482 0.1374902650240047 -0.06029210267843530 -0.02427525986552126 
-0.006746399427332679 0.008925579450306965 -0.005960107801159107 -0.004403451099633542 -0.003785910967131110 
-0.006560682617367608 0.01043137144778836 -0.004751670758122320 -0.005771912833540209 -0.002708236354570688 
-0.005188696114663599 0.009481473714198248 -0.004572037538519393 -0.004735881928171671 -0.002436640881157432 
-0.01327337073272609 0.03353141626088311 -0.01738610580117797 -0.002835107835978136 -0.004041688579410723 
-0.003091897177698324 0.003768855272622248 -0.003157294572124071 -0.003163126190259989 -0.002237041327523853 
-0.1586904697568290 -0.04322403840341709 0.1748414106479815 0.04206316709244307 -0.01737995196442739 
-0.003579648606611958 0.003170151092560175 -0.005039813288018928 -0.0006557248774612153 -0.002882001945392440 
-0.04233067501117520 -0.02330589334814702 -0.009367543782077905 0.004164026276280526 -0.01666056357471821 
-0.006233472496815729 0.007074260234565420 -0.005641619425517413 -0.002695503532656841 -0.003536401548817577 
-0.01252197208643243 -0.001246405787249659 -0.003940785367238341 -0.003529753757071172 -0.003799834145425112 
-0.04568465310627103 0.002017498642945112 0.03045329705196947 -0.01868426136124680 -0.005052368363556894 
-0.06393264187270169 -0.07004467775764031 -0.1476281898837666 0.1116718453368125 0.3511281969175573 
-0.01394703517592064 -0.04971881916584756 0.04726967025769919 -0.04761949995226375 -0.02715923659102772 
0.07957512950318046 -0.03531469290546323 -0.02624483900186532 -0.08837014854171638 -0.01288061626288198 
-0.07524434682223949 0.01749981267689011 0.3875671816434151 -0.2916606554363724 -0.01950300330293254 
-0.08914518574229210 0.1116787180390107 0.1495538001500659 -0.07528977091844230 -0.01577178550269625 
-0.04450924204027130 -0.004426388681232020 0.07169203545848915 -0.05242298123054256 -0.007372177181479983 
-0.002861960188088149 0.004654289988627521 -0.003725329234683474 -0.003603120967449542 -0.002137900890779092 
-0.01247702912012226 -0.006219025575611271 0.01055232876385129 -0.01444306728835406 -0.005645342992377084 
-0.05973300798108211 -0.01788693935886440 0.2224378465919434 -0.2488699325800149 -0.02068168403271936 
-0.1005641236378964 0.1074611099800108 -0.2783813255408903 0.2493821864510496 -0.01041283589759188 
-0.003418274154708070 0.002447829858370586 -0.002551129975566244 -0.002006203002016779 -0.002018598183143892 
-0.008395440881107495 0.02389607369450448 -0.009141059222971088 -0.004562619863094811 -0.003153502196273769 
-0.01151428799418249 -0.02429047994555251 0.03664541411402732 -0.01191256151263735 -0.01666212451291147 
-0.006942099162568470 0.01568977473453893 -0.003876865378752404 -0.005549470918437293 -0.002659690845127476 
0.03775785632656053 -0.04394345903778114 -0.1383949141459684 0.2101112800889260 -0.01223383709155701 
-0.006716545650378374 0.02036495243005565 -0.007058581883577280 -0.002953653737712407 -0.003180336251749332 
-0.05027032472071957 -0.02772094520320748 0.03977097113862040 -0.001450771394618590 -0.01438543191464213 
-0.009816370784810588 0.03061095340029082 -0.008340894721431001 -0.004693258915601270 -0.003954357138171304 
-0.002358303458199384 0.001396856412893595 -0.002358773239007862 -0.0008244942953762692 -0.001709707889502323 
-0.1366491454499600 0.3862029084305403 -0.2048580564855157 -0.02517685834282311 -0.01595042265982328 
-0.03415065742376901 -0.02860303105054041 -0.03203299681607803 0.03519136269119908 -0.01075839381555660 
-0.04101534642966745 -0.01136814899497050 0.01358598231171709 0.002921525990619611 -0.01364068358853434 
-0.003751968602619471 0.002130139399224216 -0.003263745445872341 -0.0002077699041504128 -0.0003955756324296177 
-0.006239835693085703 0.004009779696073996 -0.003054780005307558 -0.002422439574720445 -0.001881986668113012 
-0.09319955098391092 -0.2587738322081610 -0.03506052273498485 0.3661182047584016 -0.02617323171539237 
-0.008627039742521835 0.01053645419725966 -0.002512789455594388 -0.004722596795980511 -0.001766642931669477 
-0.004389806610780688 0.01516691812570986 -0.006417392299680494 -0.007193301336880338 -0.003704734586434482 
0.004860108628248602 -0.08810089209110830 0.03259701845318217 0.04224678247027931 -0.009271765679369645 
-0.08343758099061964 -0.01547488032673276 -0.1085621422736378 0.1628181038436526 -0.006236915246705826 
-0.01505006337771381 -0.004314740093934847 -0.005982611437909668 -0.01140999716609972 -0.004895739775317412 
-0.01399085177852243 0.1066486804987438 -0.1168364303773680 -0.004803019467464341 -0.002839289644367834 
0.02457496757213784 -0.02658039408023544 0.02387018857481700 -0.03003104459000272 -0.007364263352996685 
-0.006317756957552702 0.02190294044136276 -0.01224916688938281 -0.007867212343936180 -0.004011349546374252 
-0.04458759068098495 -0.009948349515449297 0.2456051366814940 -0.1903152914487277 -0.006573385955914852 
-0.002147153832150403 0.002834075867410078 -0.005135113554932147 -0.0006081804061910629 -0.001437499617115031 
-0.002523457998903892 0.001480421993352235 -0.003498356254717432 -0.0005108071704121230 -0.001068823035638929 
-0.009913856802794857 0.03390077304280634 -0.05513147217173919 -0.001964048279819970 -0.001897811683254416 
-0.3262088535413722 -0.03403884742526299 0.3941977181428494 0.1760952745354463 -0.005444333905577250 
-0.1106200027519133 0.03540337859187066 -0.1263365653216021 0.01129640801536927 -0.07162773512105407 
0.1015159506250429 -0.004525569015910533 0.2797521410634823 -0.5955249839814697 0.03508861335622453 
-0.5089107049274509 0.09962097526108342 -0.2149394878825064 0.3163014523640148 -0.1908856949664371 
-0.1942661484090227 0.2735022473745860 -0.1331468563498471 -0.08429298955672028 -0.1717671242450831 
-0.07094749720103010 -0.1079021763162307 -0.04397148076406981 0.03836692143007985 -0.05617588370623425 
0.7512064169546475 -0.04404279457297619 -0.5504488520013414 -0.2615854259001021 -0.1487152019239464 
-0.02678385683354261 0.4235208386636636 -0.4275674952887144 -0.3014992039695236 -0.08910461265406104 
0.003954771686989685 0.1535114955387494 -0.3945820313385772 0.1968096180310191 -0.1115518984042812 
-0.09086085776741538 0.3089273902688970 -0.4947715980392343 0.04771288184607479 -0.08389239709620006 
-0.1261118366969702 0.1210611956911982 -0.3303621281879370 0.1842761455869816 -0.09851173402954767 
-0.04600719818352972 0.08245371536440765 -0.03721132732661258 -0.03485606823038188 -0.01867789419844890 
-0.04395968208918687 -0.1423757567810702 0.1294557763624421 -0.05760256127809524 -0.06980887292247738 
-0.1980950947650212 0.08052632909800224 0.2993870879866993 -0.1128932905348448 -0.09901121907810148 
0.3976685873416980 -0.2832677073327211 -0.2654663314205577 0.04643039892696898 -0.09257508937533866 
0.1233781234384453 -0.3311987791451308 -0.2399944666576649 0.3871435901685539 -0.06720895000542260 
-0.1077632624639068 0.3525061610070020 -0.1916711344242987 -0.07900136975545412 -0.02356994104174679 
-0.08415338120555549 0.1989086020859018 -0.05109946439418402 -0.07249678878022789 -0.01937216110977556 
0.2318437653183207 -0.05491453650601418 -0.1288589080061932 -0.04127005260955760 -0.05706927988985316 
-0.09483125431742900 0.2047406722330617 0.1387642220598719 -0.1739038807671617 -0.01455013554966845 
0.4378746328741286 -0.2481043395320504 -0.3152701366188760 -0.2015294583327052 -0.03029232097444586 
-0.1843190132210923 -0.008603813688167745 -0.3605376810066631 0.3948512333394262 -0.02257007228803494 
0.1094984381007717 -0.04112998054911885 -0.1038070673929679 0.09500019730803087 -0.03011238203441408 
0.1326084776947001 -0.1719426021235085 -0.1913408863295555 0.1052937934830483 -0.02106898375874272 
-0.2483445836575775 -0.05164497012895596 0.1957168154012274 0.1406715099743689 -0.01727749551472838 
-0.1301306712268005 0.08386397289962890 -0.2100588789375991 0.2035987560461487 -0.01349766062394668 
-0.008514974845142199 0.2841392625810019 -0.2340844001636769 -0.05987778816550154 -0.01899307046872158 
0.2675445326396106 0.03066165347635591 0.1264984699742731 -0.3829210547950367 -0.02719059238808345 
-0.03292210728006196 0.03897089025359513 0.06338436300618669 -0.1032808711681129 -0.02361493745194090 
0.1075022027988087 -0.09151288737094654 -0.1955692245385059 0.02491201846325092 -0.01562758043437209 
-0.05873246997202811 -0.03339920330288256 -0.1103835726280915 0.07290444465746475 -0.02274412858361360 
-0.07359594401066140 -0.01996069682720702 -0.1509880254399501 0.1612607241944565 -0.008621767847686129 
0.01037488667902419 -0.04522863469526765 -0.07009099944417944 0.03018730275878745 -0.01525412515247042 
0.2828338059984699 -0.2765364968748912 -0.1376307211633543 -0.04508079783394651 -0.02562422805354569 
0.3810424474006515 0.07923644549162940 -0.1464718548630838 -0.1987279639564798 -0.01015033527192723 
-0.01565596996401088 0.06943915840415946 -0.02375772409457616 -0.01372186474640266 -0.008210274128826366 
0.09605423301764190 0.07716827404635232 -0.002098403763451466 -0.1524494544896992 -0.01725174715160887 
-0.09886338041195332 -0.01845321041867637 -0.1808084681688247 0.1853470941412091 -0.01153403862696979 
-0.06575021619480391 -0.06439406787738108 0.1762467998502992 -0.1225040627217428 -0.02317270669478038 
-0.05495596510470183 -0.1138469701434613 0.06309030076353560 0.01133627327318889 -0.01374051945597567 
-0.06299299116752172 0.08172200990566550 0.03522507530723212 -0.07940399133481973 -0.01156213575660052 
-0.08505238143477506 -0.02450570382762754 0.03261375466548107 -0.007398772613886931 -0.02269740168848993 
-0.03916679287490010 -0.02828954637105375 0.02006138216062812 0.005612315417119694 -0.01167539062497723 
-0.03276504307996828 -0.1338972322445746 0.1256591811819529 -0.06592306106145720 -0.02004286354213566 
-0.09608395052160710 0.1628163737287115 -0.08945748754906716 -0.02752796860072948 -0.008601241641230956 
-0.04887996092782686 -0.1141702413906751 0.03691901738852222 0.03014936585792798 -0.01461549684213305 
0.1657198331578318 0.08582275391037180 -0.1190302028930680 -0.1280475494028348 -0.01138325860872836 
-0.08106114797756661 -0.01821197867870347 -0.1393488991891065 0.1718378540460494 -0.008216163967067975 
-0.06812367851342595 -0.04310592369246859 -0.1547495765502442 0.2456325171625954 -0.007120229134801122 
-0.1282084888078401 -0.03291602336626228 -0.03781088458834838 0.2140840441274814 -0.01576158598802487 
-0.1120030169474699 -0.01522477076545737 -0.1212982584401548 0.1723941380395506 -0.009915808140478941 
-0.01398296429902913 -0.06279603813349106 0.2104516022857117 -0.1470654998823162 -0.01291980254396718 
-0.06433253738035474 -0.01542998314528967 -0.2700077957044837 0.2519376740759804 -0.01115381745297202 
-0.06889538952219171 -0.02938374866835522 -0.1717181672586721 0.2436873513177285 -0.005581331622502708 
-0.09819306962147517 0.002814952029165648 0.04450316920885319 0.01534263464796232 -0.01435095570371956 
-0.02273791679091585 -0.07248819008102812 -0.05424717427356405 -0.02877233415203081 0.3561419229985560 
-0.07658541990314717 -0.01359754298501987 -0.04420469138479199 0.1118093744819454 -0.006733907764545424 
-0.03622322554237045 -0.02876855936336211 0.1187088444704016 -0.07775103488944686 -0.01141953138585374 
-0.09576958549101679 -0.03165266653329078 -0.3174867333067502 0.2756726497494922 -0.01548455393909545 
-0.1050520283363906 -0.03680018442940767 0.1031794515053766 -0.009945682132158584 -0.01324082211519341 
-0.01453985724042101 -0.04586378561736674 0.2025523281776145 -0.1105690387796168 -0.008713866593975994 
-0.06131726974197550 -0.1622227900419729 -0.1468373285517889 0.3252853056098747 -0.008751150494062322 
-0.09970663590957378 -0.01081373440518657 -0.3246499438661526 0.2787406116913451 -0.01453975702000641 
-0.02484146228054755 -0.01138570647436010 -0.06240604089332046 0.05140591498417235 -0.004750052982759880 
-0.05545607111210954 -0.01273779495361764 -0.1540743703975676 0.1373186857748303 -0.01010251781472286 
-0.003273120845813178 0.003115469992164093 -0.004197626525794637 -0.0006346647581179939 -0.001840342362749185 
-0.04168291645633050 -0.05604631830541453 0.08875223805862360 -0.05957782997610767 -0.01968553679212546 
0.0008124485917244103 -0.006868367288803173 -0.1085834221010140 0.07939889228646187 -0.003601924615843309 
0.3636316532185011 -0.01578551590537788 -0.1035297696895860 -0.1898685446038798 -0.004832400639459625 
0.07389248087392350 -0.01413210141293385 -0.01175781782748256 -0.06455502642826219 -0.003186153124169892 
0.05282683996509639 0.03325807326430735 -0.03552082487352420 -0.04153770651847721 -0.004530191857561500 
-0.02473641980429164 -0.009209806120058353 -0.06460094216275115 0.05658373665137636 -0.005063258373722186 
-0.0008463575348654877 -0.001878960851945340 0.009046209880974621 -0.01891164104536183 -0.003481868154676085 
0.3981974110144861 0.1375322513615504 -0.2428003320846918 -0.1822777011824387 -0.006213525510285312 
-0.03963150209367099 -0.006329412168491492 0.07692350333850215 -0.05328441038805006 -0.009787239530006514 
-0.004499910835238225 0.003347009752595614 -0.003179927309786827 -0.0007328629162741420 -0.001750248430696011 
-0.04802448652243680 0.03374669706713857 -0.05594854442955316 0.03374541532271966 -0.005031461626376122 
-0.01307172059576977 0.03840792994409863 -0.01920067001916303 -0.02436096410233789 -0.004159826442485577 
-0.02171193657489012 -0.02427921053650605 -0.1825354305996714 0.2163670028585351 -0.003854841354717863 
-0.06450176841749622 -0.01790055536952373 0.01571545224291234 0.03557424478946794 -0.006200976579999271 
0.1649466029601475 -0.03318112782915439 -0.1785462575218230 -0.01992789611842498 -0.004789920982340855 
-0.02582996417383969 -0.02551427536887311 -0.1403922523466238 0.1913029364422943 -0.004168417661717033 
-0.03301029784930301 0.07309333787639083 -0.03488218039250880 -0.02063779532892286 -0.005681935351562692 
-0.05056834062922661 0.002661093910807612 -0.03242975228403591 0.01271735900737606 -0.008590995434172872 
-0.02457461344249089 -0.01369111652557566 -0.07316096578466631 0.09661481157843266 -0.002951027134924511 
0.05367009979180135 -0.05879527050274246 -0.2130432451814310 0.1692917162284436 -0.005907213267065195 
-0.02582996417383969 -0.02551427536887311 -0.1403922523466238 0.1913029364422943 -0.004168417661717033 
0.05155492352978337 0.02487641624805482 -0.05943208288671778 -0.02417262646001830 -0.008149093366320737 
-0.01923071281057419 -0.02393514298145885 -0.1369150740015690 0.1851347922032507 -0.005049236410108526 
-0.01063556267899723 -0.02135412560077988 -0.003907290792402732 0.01189625418101762 -0.003998700076439005 
-0.006528808758116330 -0.002365033149579789 0.0009050272963694344 -0.002332361373382978 -0.007670067312223042 
-0.03831281780567083 -0.04038324683174701 0.1176743456726063 -0.05557414236791044 -0.006908369368499748 
-0.009173269716901985 0.01718907101012909 -0.01207670718478185 -0.01489811753658170 -0.003138154918641830 
-0.02700650486930646 -0.03323828861487884 0.04806984788190515 -0.0005682626276968645 -0.003940329900722571 
-0.007671050302660885 -0.01203359987753084 -0.04870246673415327 0.07617606764018403 -0.002403186668257392 
-0.03777778675312719 0.03988924127510207 -0.03694816753634944 -0.009525953256271482 -0.003751290084495683 
-0.03279578377340975 -0.01144042600461864 -0.04875537793059207 0.04766910192593076 -0.002935289936304748 
-0.006250813107100294 -0.03662841068678579 0.08749443178415105 -0.02978554453597428 -0.005869894548358194 
-0.01319603910282854 0.04315071891304131 -0.03564913431790355 -0.003326995320947768 -0.003970901672974917 
0.01601387090641630 -0.07040132491221184 -0.01869815493991362 -0.03577340585619090 -0.007483485096919882 
-0.05940130725935569 -0.01644037801206840 0.05449978962954152 -0.03154891303954210 -0.007518047575591515 
-0.06763045561455591 0.02973124703485331 0.07446028311500175 -0.05061687690454378 -0.007476538490144601 
-0.004896124047471379 0.004097900929944960 -0.004248559818719681 -0.001052167685511652 -0.002121193993475453 
-0.004377466465307463 0.02231225112887499 -0.01051761878602130 -0.006727058750436324 -0.001533901233728111 
-0.01082125501042704 0.02849314166913279 -0.01695095523861502 -0.01916035061775913 -0.004009505038207822 
0.04177311125937658 -0.03649838301119086 -0.09114760998320423 0.06565561213332227 -0.01366792155866864 
-0.03085696651669291 -0.004143662005043037 -0.01241074985910737 0.06038541818033678 -0.0004451267596974072 
-0.02218082868768689 -0.007166435130131526 -0.03805672517686056 0.03941564767000976 -0.003530738149906817 
-0.01930097887123652 -0.01317223906334881 0.02223922947227226 -0.01403258773421892 -0.01047403896241877 
-0.006171731298972132 0.01951097887682483 0.01302515881484590 -0.04622508175021884 -0.003403910040705834 
-0.03766723422960872 -0.01320425458790368 -0.1152156801743894 0.1202784629490721 -0.008728873614464764 
0.1010720633639485 0.007260620372111365 -0.06882368498125006 -0.02945586996015091 -0.002475243574059535 
0.002819907240945749 0.04004767336169745 -0.01062924288148369 -0.007512333410815652 -0.001845142011967888 
-0.01551054475843708 -0.02367605972657307 0.1057315957690291 -0.05986012717308249 -0.005059272170544019 
-0.03280409779938470 -0.008936668932940173 -0.1285217303530442 0.1107355362447298 -0.003337781396662368 
-0.05977627764729106 -0.03444165805915617 -0.1361732562296902 0.2992671377004318 -0.006152463893092184 
0.05427819640613683 -0.03030705082534099 -0.04585456026573574 -0.01784892459264816 -0.004518313212578836 
-0.03351760010955358 -0.008362933349271610 -0.03676006557556727 0.07237568549449937 -0.001664441592550470 
-0.01507774006398288 0.1250070121015091 -0.02802874433477497 -0.04740306125479261 -0.002704393985375883 
-0.01581118439744274 -0.01148000980499161 -0.04693465480265352 0.01536290754523933 -0.01183407637771324 
-0.03823973554348345 0.08886139980877734 -0.01769794299354080 -0.002204904474696278 -0.001339922003280979 
-0.06573530546393799 0.09009602754071130 -0.03821667665712925 -0.01937782299764801 -0.006232599556635041 
-0.04547393707761732 -0.01006433918197533 -0.3006177812614466 0.2757358752980393 -0.006500162005370943 
-0.04547393707761732 -0.01006433918197533 -0.3006177812614466 0.2757358752980393 -0.006500162005370943 
-0.02228128595612829 0.01216696550702739 0.1297572163955181 -0.07674478824243611 -0.005803588328659145 
0.08561080430143947 -0.01745822958342515 -0.02496829362641884 -0.1057864094987015 -0.008455687942740178 
-0.5763063308330083 0.2375124261804172 -0.3810431054256651 0.5747958166015786 -0.1815479107622075 
-0.2605163398054241 -0.08352312230515446 -0.01266694569094001 0.08514284900512151 -0.1697986280004680 
0.08581826662433675 -0.2611532555414451 0.06110921195416263 -0.04772369013600473 -0.1512150962261320 
-0.2203163322322543 0.5823494253640846 -0.3260990453686475 -0.2460372115281240 -0.09874802814337495 
0.2638283562944544 -0.01974848928619634 0.2559873822895811 -0.3948742099799348 -0.1415653012488748 
-0.1532799580488357 0.4475266235521030 -0.5104548056181210 0.007443372061424628 -0.09286652030644935 
-0.08617162342376229 0.09450500547717966 -0.01592165570091069 -0.03883199321746741 -0.09420406782853312 
-0.1056488165516305 0.08786298123146323 -0.1284108241403270 0.07665381364493320 -0.07641566192811244 
0.09586564539826073 0.07559709676803729 -0.2458306517090348 -0.03577095112243758 -0.04943121372129912 
-0.05775834619653968 -0.2445796279849529 0.4277652761176458 -0.3050651949463334 -0.05960676294602130 
0.2195339360907999 0.1005105945284712 -0.08750873917515176 -0.1701088697454189 -0.09107277970339962 
-0.05407760967353484 -0.1582450404179981 -0.002301403907778539 0.001803184167046063 -0.04563365398928406 
0.6069203445301724 -0.3017788751605556 -0.3676311078103307 -0.2712423140507849 -0.03933738431021266 
-0.1637192633443193 -0.01233291446641947 -0.004318933692488993 0.05553898025322038 -0.03374556137695824 
-0.1032623561681767 0.07103820958467402 0.1079538602368351 -0.1489540798110062 -0.03393373192546258 
-0.1545219191808891 0.1062561941739629 -0.2948951307826851 0.2475687257474597 -0.01936363771488170 
0.3347793023960687 -0.1816865553576560 -0.1530921434147796 -0.1423677738659536 -0.02267656582422073 
-0.1230235980749463 0.2394741218062198 -0.1000784845249472 -0.1000393191767496 -0.009214914681751000 
-0.01631043416449068 -0.2554657563044303 0.03342153128353098 0.1945948662834701 -0.02465830207350496 
0.1804859729290788 -0.1137236460200902 -0.2012081208863622 -0.01618813246167837 -0.01736944846843377 
-0.2986965883152800 -0.03495970791696416 0.1814369409292378 0.1806667318273185 -0.01005886806228315 
0.4702591821082843 0.01643673616683673 0.06825884825690574 -0.5321141038693478 -0.01647465373529939 
-0.06895850125118612 -0.1618627263393083 0.3162439680882304 -0.2481583678639991 -0.03112366321653714 
-0.02316047965806172 -0.04977512656086312 -0.09782846658748641 0.09128071257577022 -0.01395483652799796 
0.3397170008104989 -0.2961597295397516 -0.1770597997040874 -0.04804993075905964 -0.02955912637941606 
-0.1279928330083569 -0.02020587943477590 -0.1576419117083355 0.2400880835091060 -0.009532437529051920 
-0.08114605399258445 -0.007906549352864398 0.07918927226632214 -0.02194988908539385 -0.02017408540723575 
-0.01040987548209276 -0.06953471432875656 -0.01609743831617732 0.01287104205672987 -0.02412314249966256 
0.3952337433179949 0.04376730524860798 -0.1765362689766644 -0.1808744385543277 -0.01508002313974126 
-0.08413385044589768 -0.1897501548881370 0.09243300449446480 0.09199688840499944 -0.02061142057721802 
-0.05400032974258329 0.2318015697865204 -0.1402672907643172 -0.04261805629651862 -0.01343647757836220 
-0.05251478953377414 -0.03326697456075221 0.1577812138387685 -0.1145038269513781 -0.01674748349499906 
-0.09949509991502530 0.2290593676792815 -0.1515749069481446 -0.03179218070072711 -0.01043041774647235 
-0.1769531061005145 -0.02679045421502209 -0.1533335849319359 0.3043141056054838 -0.009134069340336410 
0.1672681977239436 -0.2282394886792543 -0.04127118476366941 0.1229877487217167 -0.009425330480898799 
0.002786872455891804 0.03912489479553331 -0.1045168535236885 0.05028722908095746 -0.01330088181048601 
-0.1013097399927154 -0.07093287612817256 -0.03604523614477749 0.2592438564001561 -0.01657224348214006 
-0.04319615822442156 -0.01579591363564882 -0.09289335820228019 0.09824368620115045 -0.006360717510584527 
-0.07032282670484227 0.04553212224434412 -0.002072920584870103 0.04408481931155230 -0.007876922095287080 
-0.06812367851342595 -0.04310592369246859 -0.1547495765502442 0.2456325171625954 -0.007120229134801122 
-0.08669323008680203 -0.01597030950269278 -0.1017794229815670 0.1723304749800794 -0.008144089892724691 
-0.1094827037275717 -0.03446416892430949 -0.5926746587079593 0.5681821183721513 -0.01966342564476338 
0.3235423313154718 0.08048070379144780 -0.1154382263206104 -0.2340114309171107 -0.009393177112516518 
-0.07466312640770445 -0.01472500897382388 -0.2048434218226780 0.2163894480068113 -0.009919586963880329 
-0.02017389021325071 -0.3171975340970804 0.3635809264426579 -0.008335804746314400 -0.005440040003942874 
-0.07854414117112953 0.02233354252251541 -0.03699191648436703 0.02417954956721453 -0.01242286302647719 
-0.06240299383327343 0.04865881503820609 -0.06211645953564934 0.03106363945783262 -0.005833944206902604 
0.02398100248455601 0.02656927500894458 0.03266855665698844 -0.08427032419774794 -0.01022018564750316 
-0.05149094167285087 0.08267104571659195 -0.01469461558132508 -0.06426915568636367 -0.009526205651487629 
-0.06889538952219171 -0.02938374866835522 -0.1717181672586721 0.2436873513177285 -0.005581331622502708 
-0.08479099535191888 0.07000600343916612 0.1916805961268606 -0.1878266582378281 -0.009731685352472912 
-0.1375692447665092 -0.02473933234995393 -0.1335868456844418 0.2700412298038321 -0.005853783530050744 
0.04936217477682942 0.01424478885165868 -0.04725637872945927 -0.02890105783198366 -0.009563640603421988 
-0.01499844646790218 -0.02828762129804509 0.04172509388084134 -0.03220166958331806 -0.008398979946539669 
-0.03038364200904318 -0.02156468263219372 0.004334048414085458 0.01474302704680694 -0.009799625511451535 
0.01464389165177916 0.007731151851522384 0.05072390643091709 -0.08794378717312457 -0.01334666263880413 
-0.02484146228054755 -0.01138570647436010 -0.06240604089332046 0.05140591498417235 -0.004750052982759880 
-0.07389035173566323 -0.02299287284779364 0.03719001456013119 0.01437903776344772 -0.01013606434064414 
-0.02879876933063607 0.02861458131421391 -0.1452879063998243 0.1847993275184329 -0.006327744031627164 
0.07538669677822657 -0.04896889741460631 -0.08340924636597913 0.008724672616288830 -0.01057578723553900 
-0.1609158015467568 0.08950812771155565 -0.2473071023900222 0.2595651501916794 -0.01599572491000110 
-0.05167201168248582 0.009577796099287930 0.2311352964104001 -0.2008510360089667 -0.008082285117077738 
-0.03215027578006100 -0.02742398256537714 -0.03048038062711739 0.1251887704993057 -0.009557884598619571 
-0.04420070937539856 -0.009788269497424078 -0.2597462963852950 0.2352752391206664 -0.007286380992616580 
-0.02063792742171680 0.09437809585067321 -0.1250494297641569 0.05999947066507134 -0.006454265346566526 
-0.03673856017044908 -0.01611735053729548 -0.2648042374823745 0.2498403966551532 -0.008183226771949317 
-0.02582996417383969 -0.02551427536887311 -0.1403922523466238 0.1913029364422943 -0.004168417661717033 
-0.03740443802836128 0.07248124171942460 -0.03069316675873828 -0.01464868509156412 -0.003753141694694398 
-0.02473641980429164 -0.009209806120058353 -0.06460094216275115 0.05658373665137636 -0.005063258373722186 
-0.0008463575348654877 -0.001878960851945340 0.009046209880974621 -0.01891164104536183 -0.003481868154676085 
-0.02171193657489012 -0.02427921053650605 -0.1825354305996714 0.2163670028585351 -0.003854841354717863 
-0.06117166448731830 -0.03911447586745333 0.2210454018424702 -0.1310483324496409 -0.007492905547808654 
-0.03259558229118062 -0.01917802376985487 0.06439787475915311 0.009506800633952853 -0.005226667127049440 
-0.05431483115227209 -0.01203986025044848 -0.1095862188595225 0.1365111866544173 -0.004505529241601074 
-0.09883128957562307 -0.03502603861671310 0.1137680982266104 0.1075046050374528 -0.008533545542978749 
-0.02582996417383969 -0.02551427536887311 -0.1403922523466238 0.1913029364422943 -0.004168417661717033 
0.07295062087384811 -0.03522390766388826 0.09156887555817780 -0.04972920935878569 -0.006726575176473600 
-0.04256129438738962 -0.009139883009625113 -0.1785312536604091 0.1822709410621822 -0.005827554588778621 
-0.01014615371038472 -0.03156469076728651 -0.1754674816783541 0.2013991895229073 -0.006335619874398035 
-0.03301029784930301 0.07309333787639083 -0.03488218039250880 -0.02063779532892286 -0.005681935351562692 
-0.04868007076493740 0.1794970657849873 -0.02564388788575182 -0.04303249175052774 -0.003132534807068529 
0.08873605829916117 0.03633778539451178 -0.07126451326349345 -0.05568492800620090 -0.007004956733442966 
-0.08041848613520299 0.02178708752444259 0.02025227348204349 0.03359787711258506 -0.004106179920361953 
-0.01661397030066851 0.04005743091296345 -0.01469309413742741 -0.03278327239469123 -0.01182357097028323 
0.05181503531590619 0.02694066851622039 -0.03294203497720555 -0.03762593026576196 -0.004962422974996755 
-0.01194822575414345 0.02906872063405638 -0.003355636745422497 -0.02540486159792570 -0.004121384506071239 
-0.05431483115227209 -0.01203986025044848 -0.1095862188595225 0.1365111866544173 -0.004505529241601074 
-0.08612887172383246 0.2814590811456478 -0.1699409197182721 -0.03005563927590661 -0.009846855117405800 
0.04662663624118261 -0.04110450321625273 -0.1476670005055770 0.1801940690878145 -0.005600060475774877 
-0.02582996417383969 -0.02551427536887311 -0.1403922523466238 0.1913029364422943 -0.004168417661717033 
-0.02250347833826243 -0.002303119584440870 -0.03870075389688914 0.03459769604025999 -0.004016623015522696 
-0.009173269716901985 0.01718907101012909 -0.01207670718478185 -0.01489811753658170 -0.003138154918641830 
-0.07239282863497397 -0.008470242972667390 -0.02683473175066679 0.08630708366977200 -0.005866274544757424 
-0.02499432666070754 -0.02236556394319270 0.04407687745853627 -0.02604614179648369 -0.009993415465087170 
-0.007671050302660885 -0.01203359987753084 -0.04870246673415327 0.07617606764018403 -0.002403186668257392 
-0.01167572836059646 0.03755337062747288 -0.02588840522279748 -0.02025888868179847 -0.003652315007908358 
-0.03279578377340975 -0.01144042600461864 -0.04875537793059207 0.04766910192593076 -0.002935289936304748 
-0.006250813107100294 -0.03662841068678579 0.08749443178415105 -0.02978554453597428 -0.005869894548358194 
-0.01570944720537906 0.05530408171914499 -0.03787885101298493 -0.03082987381667825 -0.004057164602088420 
0.01601387090641630 -0.07040132491221184 -0.01869815493991362 -0.03577340585619090 -0.007483485096919882 
0.1506357025027620 -0.02264702266033217 -0.03865559459435954 -0.08901413037363434 -0.007115755443815971 
-0.04484237197068065 -0.009371256045196341 -0.3361481162468878 0.2624850119599115 -0.006666331369982939 
-0.05327067107562000 -0.03196214307970050 -0.04019063441140274 0.09585313475494826 -0.004788745117094467 
-0.01082125501042704 0.02849314166913279 -0.01695095523861502 -0.01916035061775913 -0.004009505038207822 
-0.03967211512009746 -0.03809438571038262 -0.004363554449320226 0.05130054863597140 -0.01072371826845076 
-0.03323437848820153 0.02909898105267867 -0.08873029693425429 0.05536405081623291 -0.003579534166451955 
-0.03085696651669291 -0.004143662005043037 -0.01241074985910737 0.06038541818033678 -0.0004451267596974072 
0.8654369119385112 0.03917236243108464 -0.1777531530035872 -0.5110067431210320 -0.004116052803723912 
-0.02486254747816067 -6.811251638734520e-05 0.07928619015886061 -0.05024326281283212 -0.005067959614929933 
-0.01930097887123652 -0.01317223906334881 0.02223922947227226 -0.01403258773421892 -0.01047403896241877 
-0.006171731298972132 0.01951097887682483 0.01302515881484590 -0.04622508175021884 -0.003403910040705834 
0.8306638600211759 0.07415377623735808 -0.1620042743799420 -0.5407628609421767 -0.002748822388713457 
-0.03415482777653792 -0.009137374094337094 -0.07420985451514608 0.07939114878310012 -0.003562434762921194 
-0.02823893008287192 0.2723245914561450 -0.1080557745794745 -0.06290266506997763 -0.01623164023262291 
-0.02100213833531237 -0.04087831781570948 0.09878421609300607 -0.01464356056231817 -0.003683803109270609 
-0.05941924172793268 0.1089293954334050 -0.007161610236009164 -0.03190634892971796 -0.01186904179303859 
-0.03280409779938470 -0.008936668932940173 -0.1285217303530442 0.1107355362447298 -0.003337781396662368 
-0.03351760010955358 -0.008362933349271610 -0.03676006557556727 0.07237568549449937 -0.001664441592550470 
0.05427819640613683 -0.03030705082534099 -0.04585456026573574 -0.01784892459264816 -0.004518313212578836 
-0.003080844596036544 0.007088978820746464 -0.006525013244082517 -0.001221147580833451 -0.001905677195580632 
-0.01770538859599553 -0.02698817689180511 0.05751270332131809 -0.04478315984221132 -0.01034705358637814 
-0.009137026561090540 0.03763517507632239 -0.01389009445494020 -0.01947622352231730 -0.002699126760420188 
0.001582977676468902 -0.01585310133296410 -0.1113227510906315 0.02098251290203973 -0.005392675221916504 
0.08561080430143947 -0.01745822958342515 -0.02496829362641884 -0.1057864094987015 -0.008455687942740178 
-0.01897039498316818 0.03182255207882327 0.003528321463515968 -0.02193595158433371 -0.002712762376790320 
-0.2682697721491409 0.1853652606774728 -0.3749845747471274 0.1589675315055973 -0.07331750801115633 
-0.1540927005218278 -0.1607837314762838 -0.1388826930203129 0.09387247644052513 -0.08262858997781916 
-0.05165350907432444 -0.1916766157505935 0.3146517421719803 -0.4044651628301734 -0.2488632777361027 
-0.1806136818897594 0.1805458513543664 -0.2119490615978029 -0.03406766053352287 -0.1012306162896862 
-0.01410974079358789 0.06244613193071454 0.1667715613163571 -0.3558939617575514 0.08071355892552624 
-0.1740283164264116 0.1680940003875993 -0.1881907259961660 -0.03087173838801641 -0.09807571661015871 
-0.1581174447717866 0.2691131768827228 -0.2793650347804790 0.09627931926396495 0.1229947233801951 
0.08010013400045551 -0.02525077987030470 -0.1299277595761210 0.1440481403151412 -0.1787167017501748 
0.2990986250038091 0.01513025313237955 -0.2441838499469331 0.03947771834969160 -0.1256019871353269 
-0.1641537055652381 0.1030002514743864 -0.1615520384519062 -0.01637186641776410 -0.09464552037624567 
-0.1611535324429015 -0.04470063176341160 -0.01298718886453000 -0.02380155437865689 -0.09590627250554050 
-0.2000277645770382 0.4219007290161398 -0.1227763077399842 -0.2834444036815788 -0.09839650782759872 
-0.1846268341787570 0.2615274562782672 -0.1788631249433035 -0.1152288477224593 -0.08929289368092788 
-0.1895874293555842 0.3312650630399299 -0.1148303628477732 -0.2426168164057473 -0.09660389502381117 
-0.1376265365880104 0.2726109180844929 -0.1609377422591800 -0.1140361477660643 -0.07613050339987126 
-0.1376265365880104 0.2726109180844929 -0.1609377422591800 -0.1140361477660643 -0.07613050339987126 
0.05800093721535438 0.2155485365083462 -0.2125380310534909 -0.1529068979543269 -0.09375717925826164 
-0.2545541108809960 0.3880537360528862 -0.2832530620446305 -0.1920696150350284 -0.09962770279646324 
-0.09594943393254951 0.02021438379288965 -0.01374928873810542 -0.06144411215349255 -0.04885596055168431 
-0.1052872867941556 0.06166940122845646 -0.1301237808919701 -0.09719712419545645 0.2922995020462969 
-0.1740067935442194 0.01569332493483481 -0.4782994159335221 0.6488127997527970 0.2126884621288440 
-0.04977692526575334 0.09791109690087318 -0.09112707745501494 -0.03426219308887852 -0.02724460233491758 
0.2289758966168793 -0.1395244910536691 -0.07181830424521746 -0.1955131797940393 -0.1016647483388989 
-0.04809385797955132 -0.07720718248285980 -0.05103250221897206 0.07630567488756874 -0.02312757369519911 
-0.2102868941042549 -0.4471656866608395 0.2838727472305498 0.1714397323575426 -0.1191269159376595 
-0.1537436788470395 0.2452867798917256 -0.2779569637574663 0.04859790701497501 -0.05707899933779025 
-0.04952384893425784 0.1339577778215466 -0.06274879421755815 -0.05264308656340731 -0.02386189540575877 
-0.02899774196047585 -0.008042129690730336 0.09082182355689299 -0.09893171001422613 -0.01745097155240682 
-0.1812551136330940 0.09353668278020200 -0.1334624598564785 0.1018332617214596 -0.06171221756635834 
-0.1214353560386351 -0.1463378234822743 0.06010762948643356 0.2176294035287626 -0.05908337926542799 
-0.1118240620728829 -0.2183856482171647 -0.1087943017362806 0.2831988064414912 0.3050030494041582 
0.1420312603265907 -0.2352915886974109 -0.09167146815436540 0.04042408963257492 0.3161311545885914 
-0.1710485868532724 -0.04797891499159428 -0.04047528958195761 0.1063857321251848 -0.06148843828956820 
-0.03857692928966598 0.1365547027789810 -0.1236407684853959 -0.01796717613503152 -0.01290937141684732 
-0.07326898487488381 0.1855425023123586 -0.1134185324737775 -0.1219147423839858 -0.02665541145864392 
-0.01013861608999175 0.01904940320660861 -0.01180104523462504 -0.01057531976778849 -0.008900255866875444 
0.2772971644650781 -0.08471937852200252 0.009548662528022264 -0.2385621656910339 -0.05362974811745472 
0.3559817277369477 -0.2457008858133828 -0.2722287637880076 -0.01475998280993817 -0.02963592352253637 
-0.01519395480248800 0.01883889150869587 -0.01054105303359912 -0.008989531052119366 -0.006166046273925406 
-0.01440582473944906 -0.003916721460490481 -0.09613046277860655 0.09244775141930474 -0.002094398197170490 
-0.02102491768509768 0.09451937306396886 -0.1252456223677281 0.05984328620098463 -0.006582760435890036 
-0.04117465626353196 -0.1942771802306406 -0.01375572458048521 0.1654942601008469 -0.02005856812574929 
-0.05962605922544480 -0.05841435101307774 0.2253786183225104 -0.1176302951654122 -0.05466021640486530 
-0.01288593893996369 0.02399197299834536 -0.01393229887369871 -0.01132030674164439 -0.005446393260518440 
-0.006875413424061173 0.01307792646892197 -0.007549773433313395 -0.007222963132184247 -0.004518101471889509 
-0.01709701822732682 0.03210155298134381 -0.01035919821651666 -0.01482080515779299 -0.009365291059403540 
-0.05257686408759460 0.1380852996896385 -0.09571602368234915 -0.03008026414961894 -0.01048867444388516 
-0.006510152760821499 0.006786357357046448 -0.004731056159496686 -0.004652377065489735 -0.004830225797494355 
0.5410442524658619 -0.1339651578511700 -0.2251920852035552 -0.2330132703611194 -0.02899017132465307 
-0.03631272154235400 0.1024544576541756 -0.07488942913396672 -0.09404855975544794 -0.01979448042421145 
-0.03319165172175993 0.02689282455150264 -0.01502767048782728 -0.005267433427504886 -0.009240414733304480 
-0.02022949762498071 0.007224696636533185 0.008311305750859801 -0.02570990631367176 -0.01050687379202373 
-0.01364967067319380 0.02399382545662804 -0.01462057111950780 -0.01448517128367852 -0.006458251609296813 
-0.03526317821024158 -0.006267891704525888 -0.06637109184758799 -0.03842619981470788 0.3465835112161063 
-0.007257539104253336 0.01134640561190963 -0.009133495636526198 -0.004206433471365825 -0.004040959286761147 
-0.1142750714033589 -0.02707645578599908 -0.006922417053415740 0.06266261203127449 -0.02243887368581774 
-0.05372682223552555 -0.08802142158835946 -0.04048320702819583 0.1204609462110581 -0.008725838970588632 
-0.3370081721876511 -0.01852094180085941 0.5546395751376417 -0.03381184987404269 -0.005383219520056665 
0.03030031124434059 -0.02084794234553145 -0.01823571999180428 -0.01020168076617635 -0.004534513999137537 
-0.01091750057203963 0.01156591172768624 -0.007517816063092119 -0.005624151133580792 -0.005378582567504300 
0.8601343928679859 0.1050793399582530 -0.2744310571477170 -0.4588820930357083 -0.02604394812710468 
-0.02765131879356828 -0.05702159704496971 -0.05729997722224865 -0.03811629524909468 0.3519250582444156 
-0.004523237764565501 0.01760410107243517 -0.003950423240280420 -0.009018895991939656 -0.003913957943242119 
0.03874448326125238 0.001149968599799735 -0.02638450284393995 -0.01633655292063396 -0.005456782546071315 
-0.004439420823456892 0.002866224097499577 -0.004097142180800624 -0.0003623993189986669 -0.0005464177035096055 
-0.008958183489195687 0.02303853645816848 -0.009477290817804952 -0.008999902712538766 -0.006258977858342223 
-0.05406879601563126 -0.03405524362386093 0.04818824512118756 -0.03964360666220825 -0.02065700960329677 
-0.05475664682586112 0.01112834791759616 -0.03164210502387935 0.06184570556053933 -0.02433839175177210 
-0.008040593613364490 0.01602178240792542 -0.006865789435012767 -0.004661217995399133 -0.003546274906115816 
-0.03296846741169562 0.1667010208333200 -0.04552423236072362 -0.08744482454626458 -0.01016213063734444 
-0.004906879055264179 0.004958414691995201 -0.006677715905815258 -0.001388052920216694 -0.002637872213373303 
-0.01338587295205099 0.01076773532166902 0.03208120346663491 -0.06219348313141342 -0.006462341316150827 
-0.1833406007868655 0.02456486828945886 0.1448700243122417 0.03426012277474863 -0.01926251186939330 
-0.1605726878716848 0.2832810287668522 -0.2851633432917922 0.1445586741529123 -0.01175580456103439 
-0.06122786483137541 0.04086966121030210 0.08516646073347031 0.002105265061322703 -0.01661115647177434 
0.02505185485989304 0.02642795288325915 0.1068540240762064 -0.1865502960972679 -0.01723135557395121 
-0.01427848261169518 0.005872343118663978 -0.1915114247654482 0.1248649193255132 -0.005314637167865435 
-0.05627993397512315 -0.01091356207391125 -0.09351931540678820 0.08894793817248925 -0.01866877707181471 
-0.006746399427332679 0.008925579450306965 -0.005960107801159107 -0.004403451099633542 -0.003785910967131110 
-0.05653749661614956 -0.1671540736859854 0.1684261872554253 -0.03408002266965236 -0.01718327376174707 
-0.07706409169022914 -0.05267769340834849 -0.09049956425804517 0.1319643689846413 -0.01574301580816224 
-0.006560682617367608 0.01043137144778836 -0.004751670758122320 -0.005771912833540209 -0.002708236354570688 
-0.2066956468895896 -0.02663402419562718 -0.3591916606225948 0.4998193776006815 -0.01196064842104391 
-0.002142944666463800 -0.03613295659388872 0.1118764100321343 -0.1128658240563264 -0.01705081259753041 
0.07341733244770936 -0.04096565601346894 -0.05126526632257159 -0.03202967946074051 -0.01382983047870169 
-0.005188696114663599 0.009481473714198248 -0.004572037538519393 -0.004735881928171671 -0.002436640881157432 
-0.01327337073272609 0.03353141626088311 -0.01738610580117797 -0.002835107835978136 -0.004041688579410723 
-0.003091897177698324 0.003768855272622248 -0.003157294572124071 -0.003163126190259989 -0.002237041327523853 
-0.008167173690685776 -0.2764312078614727 -0.1607522988773405 0.3759649483248157 -0.01855406751632596 
-0.008766687502181781 -0.008094958228229388 0.05814080112272859 -0.08503353544259784 -0.009475817230346746 
-0.005547510013713794 0.01807437030709476 -0.008679798893132425 -0.01030270259202681 -0.002641992427444432 
-0.1092927423517574 -0.02855815713140465 0.2625942235129568 -0.2448215170113134 -0.02388687006631893 
-0.1590651399098713 0.1635964123297668 -0.2357346153293534 0.2054856319872681 -0.02334491370713343 
-0.003579648606611958 0.003170151092560175 -0.005039813288018928 -0.0006557248774612153 -0.002882001945392440 
-0.006233472496815729 0.007074260234565420 -0.005641619425517413 -0.002695503532656841 -0.003536401548817577 
-0.05997144506803198 -0.04803167518472289 0.1041598528347746 -0.04120191290394761 -0.02281444283941721 
-0.01252197208643243 -0.001246405787249659 -0.003940785367238341 -0.003529753757071172 -0.003799834145425112 
-0.04568465310627103 0.002017498642945112 0.03045329705196947 -0.01868426136124680 -0.005052368363556894 
-0.05383081711713273 -0.04777243957597306 0.08909918584044799 -0.03072451243029695 -0.01591808256377617 
-0.03326448759680968 -0.04261485155269808 0.1172223193821482 -0.07254236122854481 -0.01491096930097700 
-0.01394703517592064 -0.04971881916584756 0.04726967025769919 -0.04761949995226375 -0.02715923659102772 
-0.02389527445345074 -0.03417221677020833 0.06692329388955597 -0.06342486210886099 -0.01111772481411950 
-0.09482239728705373 -0.2521392468502729 -0.04001484998547848 0.3535628239092994 -0.02697264161605377 
-0.01247702912012226 -0.006219025575611271 0.01055232876385129 -0.01444306728835406 -0.005645342992377084 
-0.003418274154708070 0.002447829858370586 -0.002551129975566244 -0.002006203002016779 -0.002018598183143892 
-0.008395440881107495 0.02389607369450448 -0.009141059222971088 -0.004562619863094811 -0.003153502196273769 
-0.02893900674987274 -0.06812067762605342 -0.07854085790116305 0.008346338556262106 0.3545837229547458 
0.006795763205677072 -0.04520507557910757 0.01695283672321727 -0.01448575939816469 -0.005052486133721840 
0.02117775805958458 0.007421516717539035 0.005780186538833890 -0.03105764692393872 -0.008110218694271093 
-0.006942099162568470 0.01568977473453893 -0.003876865378752404 -0.005549470918437293 -0.002659690845127476 
-0.1536421139646986 0.1860021743402874 -0.2521689273992872 0.2506274385520130 -0.01477684327350971 
-0.006716545650378374 0.02036495243005565 -0.007058581883577280 -0.002953653737712407 -0.003180336251749332 
-0.009816370784810588 0.03061095340029082 -0.008340894721431001 -0.004693258915601270 -0.003954357138171304 
-0.002358303458199384 0.001396856412893595 -0.002358773239007862 -0.0008244942953762692 -0.001709707889502323 
-0.06083394586108308 0.03907953842845626 0.1444547496954291 -0.2045625823812464 -0.01667786729076043 
-0.006239835693085703 0.004009779696073996 -0.003054780005307558 -0.002422439574720445 -0.001881986668113012 
-0.003751968602619471 0.002130139399224216 -0.003263745445872341 -0.0002077699041504128 -0.0003955756324296177 
-0.07978435072313254 0.002537746010885415 0.2294741555355721 -0.06334857697582310 -0.01374417423194742 
-0.008627039742521835 0.01053645419725966 -0.002512789455594388 -0.004722596795980511 -0.001766642931669477 
-0.004389806610780688 0.01516691812570986 -0.006417392299680494 -0.007193301336880338 -0.003704734586434482 
-0.02983219042640795 -0.05073187366093687 0.1947932393084188 -0.1338682174115322 -0.01260299529237305 
-0.01399085177852243 0.1066486804987438 -0.1168364303773680 -0.004803019467464341 -0.002839289644367834 
-0.002147153832150403 0.002834075867410078 -0.005135113554932147 -0.0006081804061910629 -0.001437499617115031 
-0.006317756957552702 0.02190294044136276 -0.01224916688938281 -0.007867212343936180 -0.004011349546374252 
-0.009913856802794857 0.03390077304280634 -0.05513147217173919 -0.001964048279819970 -0.001897811683254416 
0 0 0 0 0 
0 0 0 0 0 
0 0 0 0 0 
0 0 0 0 0 
0 0 0 0 0 
0 0 0 0 0 
0 0 0 0 0 
0 0 0 0 0 
0 0 0 0 0 
0 0 0 0 0 
0 0 0 0 0 
-0.02295534767311458 -0.05088568170624310 0.01445393010375889 -0.008237793846535668 -0.01595152937218164 
0 0 0 0 0 
0 0 0 0 0 
0 0 0 0 0 
0 0 0 0 0 
0 0 0 0 0 
0 0 0 0 0 
0 0 0 0 0 
0 0 0 0 0 
0 0 0 0 0 
0 0 0 0 0 
0 0 0 0 0 
-0.1116754581463788 -0.1527184950270550 0.3643910904463784 -0.2694862504219411 -0.04414721403654501 
0 0 0 0 0 
0 0 0 0 0 
0 0 0 0 0 
0 0 0 0 0 
0 0 0 0 0 
0 0 0 0 0 
0 0 0 0 0 
0 0 0 0 0 
0 0 0 0 0 
0 0 0 0 0 
0 0 0 0 0 
0 0 0 0 0 
0 0 0 0 0 
2.893488668542747 -1.112773638965710 -1.166182877409933 -0.9347974243883626 -0.1321826424304252 
0 0 0 0 0 
0 0 0 0 0 
0 0 0 0 0 
0 0 0 0 0 
0 0 0 0 0 
0 0 0 0 0 
0 0 0 0 0 
0 0 0 0 0 
0 0 0 0 0 
-0.008180800136772520 -0.01444899860226578 0.04908285994537517 -0.02323276371622098 -0.005146833036076461 
0 0 0 0 0 
0 0 0 0 0 
0 0 0 0 0 
0 0 0 0 0 
0 0 0 0 0 
0 0 0 0 0 
-0.01204842557672787 -0.01219288084802448 0.02487808061250653 -0.01498743093387667 -0.002599213908342849 
0 0 0 0 0 
0 0 0 0 0 
0 0 0 0 0 
0 0 0 0 0 
0 0 0 0 0 
0 0 0 0 0 
0 0 0 0 0 
0 0 0 0 0 
0 0 0 0 0 
0 0 0 0 0 
0 0 0 0 0 
0 0 0 0 0 
0 0 0 0 0 
0 0 0 0 0 
0 0 0 0 0 
0 0 0 0 0 
0 0 0 0 0 
0 0 0 0 0 
0 0 0 0 0 
0 0 0 0 0 
0 0 0 0 0 
0 0 0 0 0 
0 0 0 0 0 
0 0 0 0 0 
0 0 0 0 0 
0 0 0 0 0 
0 0 0 0 0 
0 0 0 0 0 
0 0 0 0 0 
0 0 0 0 0 
0 0 0 0 0 
0 0 0 0 0 
0 0 0 0 0 
0 0 0 0 0 
0 0 0 0 0 
0 0 0 0 0 
0 0 0 0 0 
0 0 0 0 0 
-0.1050644825535768 -0.04365289489788108 -0.4713961765640867 0.5294173153146324 -0.01209229877321986 
0 0 0 0 0 
-0.09542750045944863 -0.1159576889624734 0.6609763847397566 -0.5046285974396792 -0.02415528019842061 
0 0 0 0 0 
0 0 0 0 0 
0 0 0 0 0 
0 0 0 0 0 
0 0 0 0 0 
0 0 0 0 0 
0 0 0 0 0 
0 0 0 0 0 
0 0 0 0 0 
0 0 0 0 0 
0 0 0 0 0 
0 0 0 0 0 
0 0 0 0 0 
0 0 0 0 0 
0 0 0 0 0 
-0.1580099919663328 -0.9934222707284847 -0.03939190070296605 1.259198265286910 -0.02528470455988998 
0 0 0 0 0 
0 0 0 0 0 
0 0 0 0 0 
0 0 0 0 0 
0 0 0 0 0 
0 0 0 0 0 
0 0 0 0 0 
0 0 0 0 0 
0 0 0 0 0 
0 0 0 0 0 
0 0 0 0 0 
0 0 0 0 0 
0 0 0 0 0 
0 0 0 0 0 
0 0 0 0 0 
0 0 0 0 0 
0 0 0 0 0 
0 0 0 0 0 
-0.007044411647984295 -0.02133498273279748 0.02432824847613291 -0.01254469279255287 -0.002804693548471882 
0 0 0 0 0 
0 0 0 0 0 
0 0 0 0 0 
0 0 0 0 0 
0 0 0 0 0 
0 0 0 0 0 
0 0 0 0 0 
0 0 0 0 0 
0 0 0 0 0 
0 0 0 0 0 
0 0 0 0 0 
0 0 0 0 0 
0 0 0 0 0 
0 0 0 0 0 
0 0 0 0 0 
0 0 0 0 0 
0 0 0 0 0 
0 0 0 0 0 
0 0 0 0 0 
0 0 0 0 0 
-0.01946479594510267 -0.07560366007319222 -0.05004954774776942 -0.02813766939391282 0.3579822653613052 
0 0 0 0 0 
0 0 0 0 0 
0 0 0 0 0 
0 0 0 0 0 
0 0 0 0 0 
0 0 0 0 0 
0 0 0 0 0 
0 0 0 0 0 
0 0 0 0 0 
0 0 0 0 0 
0 0 0 0 0 
0 0 0 0 0 
0 0 0 0 0 
0 0 0 0 0 
0 0 0 0 0 
0 0 0 0 0 
0 0 0 0 0 
0 0 0 0 0 
-0.01970131794409565 -0.02651885005966420 0.09240960075652550 -0.04405010402497078 -0.009452807333375345 
0 0 0 0 0 
0 0 0 0 0 
0 0 0 0 0 
0 0 0 0 0 
0 0 0 0 0 
0 0 0 0 0 
0 0 0 0 0 
0 0 0 0 0 
0 0 0 0 0 
0 0 0 0 0 
0 0 0 0 0 
0 0 0 0 0 
0 0 0 0 0 
0 0 0 0 0 
0 0 0 0 0 
0 0 0 0 0 
0 0 0 0 0 
0 0 0 0 0 
0 0 0 0 0 
0 0 0 0 0 
0 0 0 0 0 
0 0 0 0 0 
0 0 0 0 0 
0 0 0 0 0 
0 0 0 0 0 
0 0 0 0 0 
0 0 0 0 0 
0 0 0 0 0 
0 0 0 0 0 
0 0 0 0 0 
0 0 0 0 0 
0 0 0 0 0 
0 0 0 0 0 
0 0 0 0 0 
0 0 0 0 0 
0 0 0 0 0 
0 0 0 0 0 
0 0 0 0 0 
0 0 0 0 0 
0 0 0 0 0 
-0.01204842557672787 -0.01219288084802448 0.02487808061250653 -0.01498743093387667 -0.002599213908342849 
0 0 0 0 0 
0 0 0 0 0 
0 0 0 0 0 
0 0 0 0 0 
0 0 0 0 0 
-0.01554040617300384 -0.004963321913401006 0.004491217555002666 -0.004617617955842818 -0.008827287513027316 
0 0 0 0 0 
0 0 0 0 0 
0 0 0 0 0 
0 0 0 0 0 
0 0 0 0 0 
0 0 0 0 0 
-0.01554040617300384 -0.004963321913401006 0.004491217555002666 -0.004617617955842818 -0.008827287513027316 
0 0 0 0 0 
0 0 0 0 0 
0 0 0 0 0 
0 0 0 0 0 
-0.2646772891590910 -0.2735678357546320 0.8004441655585486 -0.4809878892345105 -0.08013703316689233 
0 0 0 0 0 
0 0 0 0 0 
0 0 0 0 0 
-0.01110901886563836 -0.01034821282592051 0.01916305273510413 -0.02387857551097234 -0.005927226291553219 
0 0 0 0 0 
0 0 0 0 0 
0 0 0 0 0 
0 0 0 0 0 
0 0 0 0 0 
0 0 0 0 0 
0 0 0 0 0 
-0.1887822689711417 -0.3340814515923398 0.4364163595303758 -0.1788292472322014 -0.09332825800356450 
0 0 0 0 0 
0 0 0 0 0 
0 0 0 0 0 
0 0 0 0 0 
0 0 0 0 0 
0 0 0 0 0 
0 0 0 0 0 
0 0 0 0 0 
0 0 0 0 0 
0 0 0 0 0 
0 0 0 0 0 
0 0 0 0 0 
0 0 0 0 0 
0 0 0 0 0 
0 0 0 0 0 
0 0 0 0 0 
0 0 0 0 0 
0 0 0 0 0 
0 0 0 0 0 
0 0 0 0 0 
-0.01936589150645560 -0.009800965987779280 0.09098009978169873 -0.04225511546548724 -0.002637535517664563 
0 0 0 0 0 
0 0 0 0 0 
0 0 0 0 0 
0 0 0 0 0 
0 0 0 0 0 
0 0 0 0 0 
0 0 0 0 0 
0 0 0 0 0 
0 0 0 0 0 
0 0 0 0 0 
0 0 0 0 0 
0 0 0 0 0 
0 0 0 0 0 
-0.01056193013550610 -0.03040552819171960 0.06628046114451978 -0.03990080021154365 -0.002882026329671548 
0 0 0 0 0 
0 0 0 0 0 
0 0 0 0 0 
0 0 0 0 0 
0 0 0 0 0 
0 0 0 0 0 
0 0 0 0 0 
0 0 0 0 0 
-1.480524790123301 3.048661206313108 -1.959987474157254 0.01483953408451757 -0.3510554374323162 
0 0 0 0 0 
0 0 0 0 0 
0 0 0 0 0 
-0.01936589150645560 -0.009800965987779280 0.09098009978169873 -0.04225511546548724 -0.002637535517664563 
0 0 0 0 0 
-0.02144067933743378 -0.03444158864814803 0.1110798584641752 -0.03695711324398643 -0.007743458972636829 
0 0 0 0 0 
0 0 0 0 0 
0 0 0 0 0 
0 0 0 0 0 
0 0 0 0 0 
0 0 0 0 0 
0 0 0 0 0 
-0.05265527807141424 -0.02693574924107831 -0.2215922388068549 0.3653147174918933 -0.004961978158297579 
0 0 0 0 0 
0 0 0 0 0 
0 0 0 0 0 
0 0 0 0 0 
0 0 0 0 0 
0 0 0 0 0 
0 0 0 0 0 
0 0 0 0 0 
0 0 0 0 0 
0 0 0 0 0 
0 0 0 0 0 
0 0 0 0 0 
0 0 0 0 0 
0 0 0 0 0 
0 0 0 0 0 
0 0 0 0 0 
0 0 0 0 0 
0 0 0 0 0 
0 0 0 0 0 
-0.01110901886563836 -0.01034821282592051 0.01916305273510413 -0.02387857551097234 -0.005927226291553219 
0 0 0 0 0 
-0.1009687525172726 -0.02678521412838773 0.09879574040607887 -0.02003408742611017 -0.01468329023467848 
0 0 0 0 0 
0 0 0 0 0 
-0.04103578534472969 -0.05097357127620006 0.2969930668269870 -0.1245330285278451 -0.007274445838229273 
-0.02599877630438727 -0.005468557753440801 0.1042374239209313 -0.1236030311144693 -0.002083083329315003 
0 0 0 0 0 
0 0 0 0 0 
0 0 0 0 0 
0 0 0 0 0 
-0.002974641203122855 -0.003447465234237829 0.01622788427608487 -0.02297698414177100 -0.003658624763470442 
0 0 0 0 0 
0 0 0 0 0 
0 0 0 0 0 
0 0 0 0 0 
0 0 0 0 0 
0 0 0 0 0 
0 0 0 0 0 
0 0 0 0 0 
0 0 0 0 0 
0 0 0 0 0 
-0.01970591028968544 -0.03501025718588826 0.01823193993174685 -0.003147956008362188 -0.01155769843990433 
0 0 0 0 0 
0 0 0 0 0 
0 0 0 0 0 
0 0 0 0 0 
0 0 0 0 0 
0 0 0 0 0 
0 0 0 0 0 
0 0 0 0 0 
0 0 0 0 0 
0 0 0 0 0 
0 0 0 0 0 
0 0 0 0 0 
0 0 0 0 0 
0 0 0 0 0 
0 0 0 0 0 
0 0 0 0 0 
0 0 0 0 0 
0 0 0 0 0 
0 0 0 0 0 
0 0 0 0 0 
0 0 0 0 0 
0 0 0 0 0 
0 0 0 0 0 
0 0 0 0 0 
0 0 0 0 0 
0 0 0 0 0 
0 0 0 0 0 
0 0 0 0 0 
0 0 0 0 0 
0 0 0 0 0 
0 0 0 0 0 
-0.03633516761395375 -0.02748579846893987 0.05620137866134796 -0.01697750436246201 -0.007558694634085887 
0 0 0 0 0 
0 0 0 0 0 
0 0 0 0 0 
0 0 0 0 0 
-0.08646253766331247 -0.1017679819243700 0.3904166581463536 -0.2351425745928209 -0.02534633667181929 
0 0 0 0 0 
0 0 0 0 0 
0 0 0 0 0 
0 0 0 0 0 
0 0 0 0 0 
0 0 0 0 0 
0 0 0 0 0 
0 0 0 0 0 
0 0 0 0 0 
0 0 0 0 0 
0 0 0 0 0 
0 0 0 0 0 
-0.7656450057373738 -0.7971097037503790 0.6698990113532998 -0.8842060254666539 -0.9404257291494694 
0 0 0 0 0 
0 0 0 0 0 
0 0 0 0 0 
0 0 0 0 0 
0 0 0 0 0 
0 0 0 0 0 
0 0 0 0 0 
-0.04290220961006135 -0.03392242010353400 0.07885439952746738 -0.03624947453700571 -0.01581022033211989 
0 0 0 0 0 
0 0 0 0 0 
0 0 0 0 0 
0 0 0 0 0 
0 0 0 0 0 
0 0 0 0 0 
0 0 0 0 0 
-0.1519295587316364 -0.1415738365579263 0.2247042970663612 -0.1039018202434764 -0.04508644720562878 
0 0 0 0 0 
0 0 0 0 0 
0 0 0 0 0 
0 0 0 0 0 
0 0 0 0 0 
0 0 0 0 0 
0 0 0 0 0 
0 0 0 0 0 
0 0 0 0 0 
0 0 0 0 0 
0 0 0 0 0 
0 0 0 0 0 
0 0 0 0 0 
0 0 0 0 0 
0 0 0 0 0 
0 0 0 0 0 
0 0 0 0 0 
0 0 0 0 0 
0 0 0 0 0 
0 0 0 0 0 
0 0 0 0 0 
1.052512158978477 1.484887532308908 -1.803990863587809 -0.8544752270958104 -0.1539291791866936 
0 0 0 0 0 
0 0 0 0 0 
0 0 0 0 0 
0 0 0 0 0 
0 0 0 0 0 
0 0 0 0 0 
0 0 0 0 0 
0 0 0 0 0 
0 0 0 0 0 
0 0 0 0 0 
0 0 0 0 0 
0 0 0 0 0 
0 0 0 0 0 
0 0 0 0 0 
0 0 0 0 0 
0 0 0 0 0 
0 0 0 0 0 
0 0 0 0 0 
0 0 0 0 0 
0 0 0 0 0 
0 0 0 0 0 
0 0 0 0 0 
0 0 0 0 0 
0 0 0 0 0 
0 0 0 0 0 
0 0 0 0 0 
0 0 0 0 0 
0 0 0 0 0 
0 0 0 0 0 
0 0 0 0 0 
0 0 0 0 0 
0 0 0 0 0 
0 0 0 0 0 
-0.01970131794409565 -0.02651885005966420 0.09240960075652550 -0.04405010402497078 -0.009452807333375345 
-0.7319793241848994 -1.189725002175127 0.5303342354122016 0.9603528307337256 -0.3614127905537926 
0 0 0 0 0 
0 0 0 0 0 
0 0 0 0 0 
0 0 0 0 0 
0 0 0 0 0 
0 0 0 0 0 
0 0 0 0 0 
0 0 0 0 0 
-0.08970605655238310 -0.06765642526414074 0.2357383585157850 -0.1535855477068568 -0.02879400446084328 
-0.01203588772739506 -0.03304207532854733 0.09518355297440347 -0.04309151704883314 -0.004067138177854532 
0 0 0 0 0 
0 0 0 0 0 
0 0 0 0 0 
0 0 0 0 0 
0 0 0 0 0 
0 0 0 0 0 
0 0 0 0 0 
0 0 0 0 0 
0 0 0 0 0 
-0.008180800136772520 -0.01444899860226578 0.04908285994537517 -0.02323276371622098 -0.005146833036076461 
0 0 0 0 0 
0 0 0 0 0 
0 0 0 0 0 
0 0 0 0 0 
-0.002974641203122855 -0.003447465234237829 0.01622788427608487 -0.02297698414177100 -0.003658624763470442 
0 0 0 0 0 
-0.1859107879183899 -0.08924028973203428 -1.132878481912002 1.306707463207904 -0.02490838098862745 
0 0 0 0 0 
0 0 0 0 0 
0 0 0 0 0 
0 0 0 0 0 
0 0 0 0 0 
0 0 0 0 0 
0 0 0 0 0 
0 0 0 0 0 
0 0 0 0 0 
0 0 0 0 0 
0 0 0 0 0 
0 0 0 0 0 
0 0 0 0 0 
-0.05067258769228101 -0.01046509754120585 -0.03620855158797175 0.1849672954366498 -0.01169097097222226 
0 0 0 0 0 
0 0 0 0 0 
-0.4190062757704504 -0.3983845576753952 0.7324450710601127 -0.4784264476316457 -0.1687044724478462 
0 0 0 0 0 
0 0 0 0 0 
0 0 0 0 0 
0 0 0 0 0 
0 0 0 0 0 
0 0 0 0 0 
0 0 0 0 0 
0 0 0 0 0 
0 0 0 0 0 
0 0 0 0 0 
0 0 0 0 0 
0 0 0 0 0 
0 0 0 0 0 
0 0 0 0 0 
0 0 0 0 0 
-0.4423333665160742 -0.5523187484937481 0.8690956008748378 -0.4371052907142629 -0.1931117479711534 
0 0 0 0 0 
0 0 0 0 0 
0 0 0 0 0 
0 0 0 0 0 
-0.01750526725524514 -0.009030907732801763 0.01330204501781752 -0.003977199225278753 -0.002567023394383145 
0 0 0 0 0 
0 0 0 0 0 
0 0 0 0 0 
0 0 0 0 0 
0 0 0 0 0 
0 0 0 0 0 
0 0 0 0 0 
0 0 0 0 0 
0 0 0 0 0 
0 0 0 0 0 
0 0 0 0 0 
0 0 0 0 0 
-0.02025257064425034 -0.01367063608013345 0.009904908928699876 -0.01548608010988787 -0.01374018424222954 
0 0 0 0 0 
0 0 0 0 0 
0 0 0 0 0 
0 0 0 0 0 
0 0 0 0 0 
0 0 0 0 0 
0 0 0 0 0 
0 0 0 0 0 
0 0 0 0 0 
0 0 0 0 0 
0 0 0 0 0 
0 0 0 0 0 
0 0 0 0 0 
0 0 0 0 0 
0 0 0 0 0 
0 0 0 0 0 
0 0 0 0 0 
0 0 0 0 0 
0 0 0 0 0 
0 0 0 0 0 
0 0 0 0 0 
-0.005669494078408786 -0.01859538985146413 0.01005014708986229 -0.01011270955291680 -0.007288689623490274 
-0.02144067933743378 -0.03444158864814803 0.1110798584641752 -0.03695711324398643 -0.007743458972636829 
0 0 0 0 0 
0 0 0 0 0 
0 0 0 0 0 
0 0 0 0 0 
0 0 0 0 0 
0 0 0 0 0 
0 0 0 0 0 
0 0 0 0 0 
0 0 0 0 0 
0 0 0 0 0 
0 0 0 0 0 
-0.08226012352300259 -0.1144096508396131 0.3015118151009870 -0.1664788885283890 -0.02068796531436297 
0 0 0 0 0 
0 0 0 0 0 
0 0 0 0 0 
0 0 0 0 0 
0 0 0 0 0 
-0.02799300825607582 -0.02478377445267899 0.01870666676206969 -0.01138024232772870 -0.01753656901669646 
0 0 0 0 0 
0 0 0 0 0 
0 0 0 0 0 
0 0 0 0 0 
0 0 0 0 0 
0 0 0 0 0 
0 0 0 0 0 
0 0 0 0 0 
0 0 0 0 0 
0 0 0 0 0 
-0.2038810080825682 -0.1129855941199535 0.9123924257749490 -0.07607637031607516 -0.004293041282715559 
0 0 0 0 0 
0 0 0 0 0 
0 0 0 0 0 
0 0 0 0 0 
0 0 0 0 0 
0 0 0 0 0 
0 0 0 0 0 
-0.05245887394236535 -0.04887042188915282 0.04615181177642970 -0.01671174973470447 -0.02274114416386695 
0 0 0 0 0 
0 0 0 0 0 
0 0 0 0 0 
-0.01271708108491533 -0.007370989010520837 0.04950375194911008 -0.03273093253209819 -0.003740473018408410 
0 0 0 0 0 
0 0 0 0 0 
0 0 0 0 0 
0 0 0 0 0 
0 0 0 0 0 
0 0 0 0 0 
-0.02001456896868436 -0.1565155268450916 0.2877432445341841 -0.007923704120387618 -0.003089716718789025 
0 0 0 0 0 
0 0 0 0 0 
0 0 0 0 0 
0 0 0 0 0 
0 0 0 0 0 
-0.01152051780732313 -0.01206985145739842 0.04332674081115034 -0.02081734030874981 -0.004305974297298884 
0 0 0 0 0 
0 0 0 0 0 
0 0 0 0 0 
0 0 0 0 0 
0 0 0 0 0 
0 0 0 0 0 
0 0 0 0 0 
0 0 0 0 0 
0 0 0 0 0 
0 0 0 0 0 
0 0 0 0 0 
0 0 0 0 0 
0 0 0 0 0 
0 0 0 0 0 
0 0 0 0 0 
0 0 0 0 0 
0 0 0 0 0 
0 0 0 0 0 
0 0 0 0 0 
0 0 0 0 0 
0 0 0 0 0 
0 0 0 0 0 
0 0 0 0 0 
0 0 0 0 0 
0 0 0 0 0 
0 0 0 0 0 
0 0 0 0 0 
0 0 0 0 0 
0 0 0 0 0 
0 0 0 0 0 
0 0 0 0 0 
0 0 0 0 0 
0 0 0 0 0 
0 0 0 0 0 
0.2804586426010814 -0.2615240984637012 -1.927169554577997 1.744079225254389 -0.1274733217043432 
-0.01184392834361476 -0.006003965859298687 0.007721084398198803 -0.006303536462331809 -0.004832464265044954 
-0.008180800136772520 -0.01444899860226578 0.04908285994537517 -0.02323276371622098 -0.005146833036076461 
-0.01946479594510267 -0.07560366007319222 -0.05004954774776942 -0.02813766939391282 0.3579822653613052 
-0.01148556756113748 -0.004871775217563483 -0.1694582578212641 0.1671971970841304 -0.001489407585072994 
0 0 0 0 0 
0 0 0 0 0 
0 0 0 0 0 
0 0 0 0 0 
0 0 0 0 0 
0 0 0 0 0 
0 0 0 0 0 
-0.3595029901801007 -0.3281791530534449 0.6619650108075501 -0.4491700051043883 -0.1431586347355074 
0 0 0 0 0 
0 0 0 0 0 
0 0 0 0 0 
0 0 0 0 0 
0 0 0 0 0 
0 0 0 0 0 
-0.01000383396954138 -0.01597875043275337 0.07905314267896832 -0.03577139834597970 -0.004615134356001519 
0 0 0 0 0 
0 0 0 0 0 
-0.09618973805736940 -0.09061960211503849 0.2913261909682229 -0.1662548570826722 -0.04008988684799587 
0 0 0 0 0 
0 0 0 0 0 
0 0 0 0 0 
0 0 0 0 0 
0 0 0 0 0 
0 0 0 0 0 
0 0 0 0 0 
0 0 0 0 0 
0 0 0 0 0 
0 0 0 0 0 
0 0 0 0 0 
0 0 0 0 0 
0 0 0 0 0 
0 0 0 0 0 
0 0 0 0 0 
0 0 0 0 0 
0 0 0 0 0 
0 0 0 0 0 
0 0 0 0 0 
0 0 0 0 0 
0 0 0 0 0 
0 0 0 0 0 
0 0 0 0 0 
0 0 0 0 0 
0 0 0 0 0 
0 0 0 0 0 
0 0 0 0 0 
0 0 0 0 0 
0 0 0 0 0 
0 0 0 0 0 
0 0 0 0 0 
-0.04883083829483798 -0.05603486167458022 0.1816394244244544 -0.1126194992894563 -0.01991578231363484 
0 0 0 0 0 
0 0 0 0 0 
0 0 0 0 0 
0 0 0 0 0 
0 0 0 0 0 
0 0 0 0 0 
0 0 0 0 0 
0 0 0 0 0 
0 0 0 0 0 
0 0 0 0 0 
0 0 0 0 0 
0 0 0 0 0 
0 0 0 0 0 
-0.1964644125828260 -0.1762571036695981 0.4180976610060848 -0.3213896093499396 -0.09214496123832537 
-0.08820118193030030 -0.06407375277065136 0.1643302609612141 -0.1173065104266361 -0.03582626394303715 
0 0 0 0 0 
0 0 0 0 0 
0 0 0 0 0 
0 0 0 0 0 
0 0 0 0 0 
0 0 0 0 0 
0 0 0 0 0 
-0.03995848093393577 -0.04868089326602171 0.02813684886044673 -0.01863403611825006 -0.02529788268213386 
0 0 0 0 0 
0 0 0 0 0 
0 0 0 0 0 
0 0 0 0 0 
-0.09422811721997340 -0.05131050393608219 0.08986400940811268 -0.05929724150294367 -0.02454000741958573 
0 0 0 0 0 
0 0 0 0 0 
0 0 0 0 0 
0 0 0 0 0 
0 0 0 0 0 
-0.02001456896868436 -0.1565155268450916 0.2877432445341841 -0.007923704120387618 -0.003089716718789025 
0 0 0 0 0 
0 0 0 0 0 
0.3205328347935840 0.2951625301337817 -1.273656628175605 0.1058776036379196 -0.5153419697404862 
0 0 0 0 0 
0 0 0 0 0 
0 0 0 0 0 
0 0 0 0 0 
0 0 0 0 0 
0 0 0 0 0 
0 0 0 0 0 
0 0 0 0 0 
0 0 0 0 0 
0 0 0 0 0 
0 0 0 0 0 
-0.01554040617300384 -0.004963321913401006 0.004491217555002666 -0.004617617955842818 -0.008827287513027316 
0 0 0 0 0 
0 0 0 0 0 
0 0 0 0 0 
0 0 0 0 0 
0 0 0 0 0 
0 0 0 0 0 
-0.09734766741971640 -0.08977256871300530 0.1631914261112994 0.1783146039971394 -0.01721535927026336 
0 0 0 0 0 
0 0 0 0 0 
0 0 0 0 0 
0 0 0 0 0 
0 0 0 0 0 
0 0 0 0 0 
0 0 0 0 0 
0 0 0 0 0 
-0.01566033700416455 -0.02933486540370071 0.1278395063756465 -0.06743428352473728 -0.007184455799916636 
0 0 0 0 0 
0 0 0 0 0 
0 0 0 0 0 
0 0 0 0 0 
0 0 0 0 0 
0 0 0 0 0 
0 0 0 0 0 
-0.003603936325039246 -0.003080825311664625 0.003780934298124005 -0.005989673422679168 -0.003690223111852989 
0 0 0 0 0 
0 0 0 0 0 
0 0 0 0 0 
0 0 0 0 0 
0 0 0 0 0 
0 0 0 0 0 
0 0 0 0 0 
0 0 0 0 0 
0 0 0 0 0 
0 0 0 0 0 
0 0 0 0 0 
0 0 0 0 0 
0 0 0 0 0 
0 0 0 0 0 
0 0 0 0 0 
0 0 0 0 0 
0 0 0 0 0 
-0.1651159121121822 -0.2025643524117907 0.3704238658417222 -0.2989517708685403 -0.07991240625204574 
0 0 0 0 0 
0 0 0 0 0 
0 0 0 0 0 
0 0 0 0 0 
0 0 0 0 0 
0 0 0 0 0 
0 0 0 0 0 
0 0 0 0 0 
0 0 0 0 0 
0 0 0 0 0 
0 0 0 0 0 
0 0 0 0 0 
0 0 0 0 0 
0 0 0 0 0 
0 0 0 0 0 
0 0 0 0 0 
0 0 0 0 0 
0 0 0 0 0 
0 0 0 0 0 
0 0 0 0 0 
0 0 0 0 0 
0 0 0 0 0 
0 0 0 0 0 
0 0 0 0 0 
0 0 0 0 0 
0 0 0 0 0 
0 0 0 0 0 
0 0 0 0 0 
0 0 0 0 0 
0 0 0 0 0 
-0.009770850463250212 -0.01562979289797516 0.02360726285375527 -0.01459809213824983 -0.002738796150324873 
0 0 0 0 0 
0 0 0 0 0 
0 0 0 0 0 
0 0 0 0 0 
0 0 0 0 0 
0 0 0 0 0 
0 0 0 0 0 
0 0 0 0 0 
0 0 0 0 0 
0 0 0 0 0 
0 0 0 0 0 
0 0 0 0 0 
0 0 0 0 0 
0 0 0 0 0 
0 0 0 0 0 
0 0 0 0 0 
0 0 0 0 0 
0 0 0 0 0 
0 0 0 0 0 
0 0 0 0 0 
0 0 0 0 0 
0 0 0 0 0 
0 0 0 0 0 
0 0 0 0 0 
0 0 0 0 0 
0 0 0 0 0 
0 0 0 0 0 
0 0 0 0 0 
0 0 0 0 0 
0 0 0 0 0 
0 0 0 0 0 
0 0 0 0 0 
0 0 0 0 0 
0 0 0 0 0 
0 0 0 0 0 
0 0 0 0 0 
0 0 0 0 0 
0 0 0 0 0 
0 0 0 0 0 
0 0 0 0 0 
-0.1489884017074190 -0.1357038416953336 0.4619255447329149 -0.2916395951705399 -0.04416825170064900 
0 0 0 0 0 
0 0 0 0 0 
0 0 0 0 0 
0 0 0 0 0 
0 0 0 0 0 
0 0 0 0 0 
0 0 0 0 0 
0 0 0 0 0 
0 0 0 0 0 
0 0 0 0 0 
0 0 0 0 0 
0 0 0 0 0 
0 0 0 0 0 
0 0 0 0 0 
0 0 0 0 0 
0 0 0 0 0 
0 0 0 0 0 
0 0 0 0 0 
0 0 0 0 0 
0 0 0 0 0 
0 0 0 0 0 
0 0 0 0 0 
0 0 0 0 0 
0 0 0 0 0 
0 0 0 0 0 
0 0 0 0 0 
0 0 0 0 0 
0 0 0 0 0 
0 0 0 0 0 
0 0 0 0 0 
0 0 0 0 0 
0 0 0 0 0 
0 0 0 0 0 
0 0 0 0 0 
0 0 0 0 0 
0 0 0 0 0 
0 0 0 0 0 
0 0 0 0 0 
0 0 0 0 0 
0 0 0 0 0 
0 0 0 0 0 
0 0 0 0 0 
0 0 0 0 0 
0 0 0 0 0 
0 0 0 0 0 
0 0 0 0 0 
0 0 0 0 0 
0 0 0 0 0 
0 0 0 0 0 
0 0 0 0 0 
0 0 0 0 0 
0 0 0 0 0 
0 0 0 0 0 
0 0 0 0 0 
0 0 0 0 0 
0 0 0 0 0 
0 0 0 0 0 
0 0 0 0 0 
0 0 0 0 0 
0 0 0 0 0 
0 0 0 0 0 
0 0 0 0 0 
0 0 0 0 0 
0 0 0 0 0 
0 0 0 0 0 
0 0 0 0 0 
0 0 0 0 0 
0 0 0 0 0 
0 0 0 0 0 
0 0 0 0 0 
0 0 0 0 0 
0 0 0 0 0 
0 0 0 0 0 
0 0 0 0 0 
0 0 0 0 0 
0 0 0 0 0 
0 0 0 0 0 
0 0 0 0 0 
0 0 0 0 0 
0 0 0 0 0 
0 0 0 0 0 
0 0 0 0 0 
0 0 0 0 0 
0 0 0 0 0 
0 0 0 0 0 
0 0 0 0 0 
0 0 0 0 0 
0 0 0 0 0 
0 0 0 0 0 
0 0 0 0 0 
0 0 0 0 0 
0 0 0 0 0 
0 0 0 0 0 
0 0 0 0 0 
0 0 0 0 0 
0 0 0 0 0 
0 0 0 0 0 
0 0 0 0 0 
0 0 0 0 0 
0 0 0 0 0 
0 0 0 0 0 
0 0 0 0 0 
0 0 0 0 0 
-0.01355239736149906 0.04979079826389125 -0.07040633066283578 -0.005675898719837491 -0.004650439969226060 
0 0 0 0 0 
0 0 0 0 0 
0 0 0 0 0 
0 0 0 0 0 
0 0 0 0 0 
0 0 0 0 0 
0 0 0 0 0 
0 0 0 0 0 
0 0 0 0 0 
0 0 0 0 0 
0 0 0 0 0 
-0.009770850463250212 -0.01562979289797516 0.02360726285375527 -0.01459809213824983 -0.002738796150324873 
0 0 0 0 0 
0 0 0 0 0 
0 0 0 0 0 
0 0 0 0 0 
0 0 0 0 0 
0 0 0 0 0 
0 0 0 0 0 
0 0 0 0 0 
0 0 0 0 0 
0 0 0 0 0 
0 0 0 0 0 
0 0 0 0 0 
0 0 0 0 0 
0 0 0 0 0 
0 0 0 0 0 
0 0 0 0 0 
0 0 0 0 0 
-0.4138084751397044 -1.033319896572375 1.399251465090691 -0.5713102101333959 -0.1614130630343142 
0 0 0 0 0 
0 0 0 0 0 
0 0 0 0 0 
0 0 0 0 0 
0 0 0 0 0 
0 0 0 0 0 
0 0 0 0 0 
0 0 0 0 0 
0 0 0 0 0 
0 0 0 0 0 
0 0 0 0 0 
0 0 0 0 0 
0 0 0 0 0 
0 0 0 0 0 
0 0 0 0 0 
0 0 0 0 0 
0 0 0 0 0 
0 0 0 0 0 
0 0 0 0 0 
0 0 0 0 0 
0 0 0 0 0 
0 0 0 0 0 
0 0 0 0 0 
0 0 0 0 0 
0 0 0 0 0 
0 0 0 0 0 
0 0 0 0 0 
0 0 0 0 0 
0 0 0 0 0 
0 0 0 0 0 
0 0 0 0 0 
0 0 0 0 0 
0 0 0 0 0 
0 0 0 0 0 
0 0 0 0 0 
0 0 0 0 0 
0 0 0 0 0 
0 0 0 0 0 
0 0 0 0 0 
0 0 0 0 0 
0 0 0 0 0 
0 0 0 0 0 
0 0 0 0 0 
0 0 0 0 0 
0 0 0 0 0 
0 0 0 0 0 
-0.09358071148556640 -0.1178753656796457 0.2765171629187562 -0.04848413973257757 -0.01147238181884279 
0 0 0 0 0 
0 0 0 0 0 
0 0 0 0 0 
0 0 0 0 0 
0 0 0 0 0 
0 0 0 0 0 
0 0 0 0 0 
0 0 0 0 0 
0 0 0 0 0 
0 0 0 0 0 
0 0 0 0 0 
0 0 0 0 0 
0 0 0 0 0 
0 0 0 0 0 
0 0 0 0 0 
0 0 0 0 0 
0 0 0 0 0 
0 0 0 0 0 
0.0008360303426743528 -0.04981127740149716 0.07949716823900387 -0.03314499082033948 -0.01321615362679883 
0 0 0 0 0 
0 0 0 0 0 
0 0 0 0 0 
0 0 0 0 0 
0 0 0 0 0 
0 0 0 0 0 
0 0 0 0 0 
0 0 0 0 0 
0 0 0 0 0 
0 0 0 0 0 
0 0 0 0 0 
0 0 0 0 0 
0 0 0 0 0 
0 0 0 0 0 
0 0 0 0 0 
0 0 0 0 0 
0 0 0 0 0 
0 0 0 0 0 
0 0 0 0 0 
0 0 0 0 0 
0 0 0 0 0 
0 0 0 0 0 
0 0 0 0 0 
0 0 0 0 0 
0 0 0 0 0 
0 0 0 0 0 
0 0 0 0 0 
0 0 0 0 0 
-0.09874608908807204 -0.1391921071018885 0.3651804836127219 -0.1757359524892770 -0.04080468367000349 
-0.01543802396432071 -0.01426674391524818 0.1472378858498902 -0.06349245940688180 -0.002959829695037325 
0 0 0 0 0 
0 0 0 0 0 
0 0 0 0 0 
0 0 0 0 0 
0 0 0 0 0 
0 0 0 0 0 
0 0 0 0 0 
0 0 0 0 0 
0 0 0 0 0 
0 0 0 0 0 
0 0 0 0 0 
0 0 0 0 0 
0 0 0 0 0 
0 0 0 0 0 
0 0 0 0 0 
0 0 0 0 0 
0 0 0 0 0 
0 0 0 0 0 
0 0 0 0 0 
0 0 0 0 0 
0 0 0 0 0 
0 0 0 0 0 
0 0 0 0 0 
0 0 0 0 0 
0 0 0 0 0 
0 0 0 0 0 
0 0 0 0 0 
0 0 0 0 0 
0 0 0 0 0 
0 0 0 0 0 
0 0 0 0 0 
0 0 0 0 0 
0 0 0 0 0 
0 0 0 0 0 
0 0 0 0 0 
0 0 0 0 0 
0 0 0 0 0 
0 0 0 0 0 
0 0 0 0 0 
0 0 0 0 0 
0 0 0 0 0 
0 0 0 0 0 
0 0 0 0 0 
0 0 0 0 0 
0 0 0 0 0 
0 0 0 0 0 
0 0 0 0 0 
0 0 0 0 0 
0 0 0 0 0 
0 0 0 0 0 
0 0 0 0 0 
0 0 0 0 0 
-0.2502972089996192 -0.2703947390712900 0.5795721655848307 -0.2946959962011134 -0.08724970462913184 
0 0 0 0 0 
0 0 0 0 0 
0 0 0 0 0 
0 0 0 0 0 
0 0 0 0 0 
0 0 0 0 0 
0 0 0 0 0 
0 0 0 0 0 
0 0 0 0 0 
0 0 0 0 0 
0 0 0 0 0 
0 0 0 0 0 
-0.7656450057373738 -0.7971097037503790 0.6698990113532998 -0.8842060254666539 -0.9404257291494694 
0 0 0 0 0 
0 0 0 0 0 
0 0 0 0 0 
0 0 0 0 0 
0 0 0 0 0 
0 0 0 0 0 
0 0 0 0 0 
0 0 0 0 0 
0 0 0 0 0 
0 0 0 0 0 
0 0 0 0 0 
0 0 0 0 0 
0 0 0 0 0 
0 0 0 0 0 
0 0 0 0 0 
0 0 0 0 0 
0 0 0 0 0 
0 0 0 0 0 
0 0 0 0 0 
0 0 0 0 0 
0 0 0 0 0 
0 0 0 0 0 
0 0 0 0 0 
0 0 0 0 0 
0 0 0 0 0 
0 0 0 0 0 
0 0 0 0 0 
0 0 0 0 0 
0 0 0 0 0 
0 0 0 0 0 
0 0 0 0 0 
0 0 0 0 0 
0 0 0 0 0 
0 0 0 0 0 
0 0 0 0 0 
0 0 0 0 0 
0 0 0 0 0 
0 0 0 0 0 
0 0 0 0 0 
0 0 0 0 0 
0 0 0 0 0 
0 0 0 0 0 
0 0 0 0 0 
0 0 0 0 0 
0 0 0 0 0 
0 0 0 0 0 
0 0 0 0 0 
0 0 0 0 0 
0 0 0 0 0 
0 0 0 0 0 
0 0 0 0 0 
0 0 0 0 0 
0 0 0 0 0 
0 0 0 0 0 
0 0 0 0 0 
0 0 0 0 0 
0 0 0 0 0 
0 0 0 0 0 
0 0 0 0 0 
0 0 0 0 0 
0 0 0 0 0 
0 0 0 0 0 
0 0 0 0 0 
0 0 0 0 0 
0 0 0 0 0 
0 0 0 0 0 
0 0 0 0 0 
0 0 0 0 0 
0 0 0 0 0 
0 0 0 0 0 
0 0 0 0 0 
0 0 0 0 0 
-0.8139467496030272 -0.6477534574240499 0.6991422330571163 -0.7670935889256700 -0.9000879841533239 
0 0 0 0 0 
0 0 0 0 0 
0 0 0 0 0 
0 0 0 0 0 
0 0 0 0 0 
0 0 0 0 0 
0 0 0 0 0 
0 0 0 0 0 
-0.1688840424731118 -0.4509768749586236 0.4634103669266471 -0.1762914448458048 -0.06305173142726102 
-0.04447523563966628 -0.01107526123459665 0.04813229481270637 -0.02930740997403374 -0.01121011411592242 
0 0 0 0 0 
0 0 0 0 0 
0 0 0 0 0 
0 0 0 0 0 
-0.02450649192246867 -0.02786817297352779 0.06030877970374235 -0.04895359931332882 -0.01963008616663325 
0 0 0 0 0 
0 0 0 0 0 
0 0 0 0 0 
0 0 0 0 0 
0 0 0 0 0 
0 0 0 0 0 
0 0 0 0 0 
0 0 0 0 0 
0 0 0 0 0 
0 0 0 0 0 
0 0 0 0 0 
0.9821610403586373 -0.4232353286332086 -0.8060338843579439 -0.02056096923025313 -0.03377424039338634 
0 0 0 0 0 
0 0 0 0 0 
0 0 0 0 0 
0 0 0 0 0 
0 0 0 0 0 
0 0 0 0 0 
0 0 0 0 0 
0 0 0 0 0 
0 0 0 0 0 
0 0 0 0 0 
0 0 0 0 0 
0 0 0 0 0 
0 0 0 0 0 
0 0 0 0 0 
0 0 0 0 0 
0 0 0 0 0 
-0.06874756352360849 -0.01686477439294993 -0.01832523465817854 -0.08742881613442118 -0.03039787606838515 
0 0 0 0 0 
0 0 0 0 0 
0 0 0 0 0 
0 0 0 0 0 
0 0 0 0 0 
0 0 0 0 0 
0 0 0 0 0 
0 0 0 0 0 
0 0 0 0 0 
0 0 0 0 0 
0 0 0 0 0 
0 0 0 0 0 
0 0 0 0 0 
0 0 0 0 0 
0 0 0 0 0 
-0.3133487116357305 -0.09347325352983014 -0.6041231052615683 0.7089194349873377 -0.04988250117922066 
0 0 0 0 0 
0 0 0 0 0 
0 0 0 0 0 
0 0 0 0 0 
0 0 0 0 0 
0 0 0 0 0 
0 0 0 0 0 
0 0 0 0 0 
0 0 0 0 0 
0 0 0 0 0 
0 0 0 0 0 
0 0 0 0 0 
0 0 0 0 0 
0 0 0 0 0 
0 0 0 0 0 
0 0 0 0 0 
0 0 0 0 0 
0 0 0 0 0 
0 0 0 0 0 
0 0 0 0 0 
0 0 0 0 0 
0 0 0 0 0 
0 0 0 0 0 
0 0 0 0 0 
0 0 0 0 0 
0 0 0 0 0 
0 0 0 0 0 
0 0 0 0 0 
0 0 0 0 0 
0 0 0 0 0 
0 0 0 0 0 
0 0 0 0 0 
0 0 0 0 0 
0 0 0 0 0 
0 0 0 0 0 
0 0 0 0 0 
0 0 0 0 0 
0 0 0 0 0 
0 0 0 0 0 
0 0 0 0 0 
0 0 0 0 0 
0 0 0 0 0 
0 0 0 0 0 
0 0 0 0 0 
0 0 0 0 0 
0 0 0 0 0 
0 0 0 0 0 
0 0 0 0 0 
0 0 0 0 0 
0 0 0 0 0 
0 0 0 0 0 
0 0 0 0 0 
-0.1448378174373107 -0.1332742955162281 0.3632891718647880 -0.2016962448752244 -0.04260281481915317 
0 0 0 0 0 
0 0 0 0 0 
0 0 0 0 0 
0 0 0 0 0 
0 0 0 0 0 
0 0 0 0 0 
0 0 0 0 0 
0 0 0 0 0 
0 0 0 0 0 
0 0 0 0 0 
0 0 0 0 0 
0 0 0 0 0 
0 0 0 0 0 
0 0 0 0 0 
0 0 0 0 0 
0 0 0 0 0 
0 0 0 0 0 
0 0 0 0 0 
0 0 0 0 0 
0 0 0 0 0 
0 0 0 0 0 
0 0 0 0 0 
0 0 0 0 0 
0 0 0 0 0 
0 0 0 0 0 
0 0 0 0 0 
0 0 0 0 0 
0 0 0 0 0 
-0.08262567809382790 -0.1015182131481421 0.1664748396897409 -0.1206163967014569 -0.04489801728097560 
0 0 0 0 0 
0 0 0 0 0 
0 0 0 0 0 
0 0 0 0 0 
0 0 0 0 0 
0 0 0 0 0 
0 0 0 0 0 
0 0 0 0 0 
0 0 0 0 0 
0 0 0 0 0 
0 0 0 0 0 
0 0 0 0 0 
0 0 0 0 0 
0 0 0 0 0 
0 0 0 0 0 
0 0 0 0 0 
0 0 0 0 0 
0 0 0 0 0 
0 0 0 0 0 
0 0 0 0 0 
0 0 0 0 0 
0 0 0 0 0 
0 0 0 0 0 
0 0 0 0 0 
0 0 0 0 0 
0 0 0 0 0 
0 0 0 0 0 
0 0 0 0 0 
0 0 0 0 0 
0 0 0 0 0 
0 0 0 0 0 
0 0 0 0 0 
0 0 0 0 0 
0 0 0 0 0 
0 0 0 0 0 
0 0 0 0 0 
0 0 0 0 0 
0 0 0 0 0 
0 0 0 0 0 
0 0 0 0 0 
0 0 0 0 0 
0 0 0 0 0 
0 0 0 0 0 
0 0 0 0 0 
0 0 0 0 0 
0 0 0 0 0 
0 0 0 0 0 
1.013806989760448 -1.425679919353935 -1.507604521234391 2.355511219840345 -0.3100377833051500 
0.1170493073892639 -0.1324914719333801 -0.01091798704563834 -0.02968362040656131 -0.009939868927759436 
0 0 0 0 0 
0 0 0 0 0 
0 0 0 0 0 
0 0 0 0 0 
0 0 0 0 0 
0 0 0 0 0 
0 0 0 0 0 
0 0 0 0 0 
0 0 0 0 0 
0 0 0 0 0 
-0.06874756352360849 -0.01686477439294993 -0.01832523465817854 -0.08742881613442118 -0.03039787606838515 
0 0 0 0 0 
0 0 0 0 0 
0 0 0 0 0 
0 0 0 0 0 
0 0 0 0 0 
0 0 0 0 0 
-0.02810418742583683 -0.05061430628634218 0.09744886908970853 -0.04887989385427000 -0.01139946830036690 
0 0 0 0 0 
0 0 0 0 0 
-0.3133487116357305 -0.09347325352983014 -0.6041231052615683 0.7089194349873377 -0.04988250117922066 
0 0 0 0 0 
0 0 0 0 0 
0 0 0 0 0 
0 0 0 0 0 
0 0 0 0 0 
0 0 0 0 0 
0 0 0 0 0 
0 0 0 0 0 
0 0 0 0 0 
0 0 0 0 0 
0 0 0 0 0 
0 0 0 0 0 
0 0 0 0 0 
0 0 0 0 0 
0 0 0 0 0 
0 0 0 0 0 
0 0 0 0 0 
0 0 0 0 0 
0 0 0 0 0 
0 0 0 0 0 
0 0 0 0 0 
0 0 0 0 0 
0 0 0 0 0 
0 0 0 0 0 
0 0 0 0 0 
0 0 0 0 0 
0 0 0 0 0 
0 0 0 0 0 
0 0 0 0 0 
0 0 0 0 0 
0 0 0 0 0 
-0.3133487116357305 -0.09347325352983014 -0.6041231052615683 0.7089194349873377 -0.04988250117922066 
0 0 0 0 0 
0 0 0 0 0 
0 0 0 0 0 
0 0 0 0 0 
0 0 0 0 0 
0 0 0 0 0 
0 0 0 0 0 
0 0 0 0 0 
0 0 0 0 0 
0 0 0 0 0 
0 0 0 0 0 
0 0 0 0 0 
0 0 0 0 0 
-0.06874756352360849 -0.01686477439294993 -0.01832523465817854 -0.08742881613442118 -0.03039787606838515 
-0.01129391881845551 0.001469214604605181 -0.0007486244240081261 -0.02043786321671508 -0.005765835147722579 
0 0 0 0 0 
0 0 0 0 0 
0 0 0 0 0 
0 0 0 0 0 
0 0 0 0 0 
0 0 0 0 0 
0 0 0 0 0 
0 0 0 0 0 
0 0 0 0 0 
0 0 0 0 0 
0 0 0 0 0 
0 0 0 0 0 
0 0 0 0 0 
0 0 0 0 0 
0 0 0 0 0 
0 0 0 0 0 
0 0 0 0 0 
0 0 0 0 0 
0 0 0 0 0 
0 0 0 0 0 
0 0 0 0 0 
-0.8139467496030272 -0.6477534574240499 0.6991422330571163 -0.7670935889256700 -0.9000879841533239 
0 0 0 0 0 
0 0 0 0 0 
0 0 0 0 0 
0 0 0 0 0 
0 0 0 0 0 
0 0 0 0 0 
0 0 0 0 0 
0 0 0 0 0 
0 0 0 0 0 
0 0 0 0 0 
0 0 0 0 0 
0 0 0 0 0 
0 0 0 0 0 
0 0 0 0 0 
0 0 0 0 0 
0 0 0 0 0 
0 0 0 0 0 
0 0 0 0 0 
0 0 0 0 0 
0 0 0 0 0 
0 0 0 0 0 
0 0 0 0 0 
0 0 0 0 0 
0 0 0 0 0 
0 0 0 0 0 
0 0 0 0 0 
0 0 0 0 0 
-0.02718085481148767 -0.04140471686109914 0.1711662471867969 -0.08825162383348709 -0.01149043009721552 
0 0 0 0 0 
0 0 0 0 0 
-0.1008189067102480 -0.2303391711650630 0.2316691435559488 -0.1048647519473078 -0.05379344018039202 
-0.2462046715024944 -0.3363415785804184 0.2614248385577433 -0.3349908584685417 -0.2068998751911572 
-0.06511287601413847 -0.2087977130872107 0.008090085988338262 0.2816411539559283 -0.01785396924877284 
-0.1855153503316785 0.2889389590219869 -0.06203314628115406 -0.5823975812171188 -0.5639456820153648 
-0.01464663968029858 -0.01030658231585090 0.003328300422328792 -0.003609370321546152 -0.01190574202703439 
0 0 0 0 0 
0 0 0 0 0 
0 0 0 0 0 
0 0 0 0 0 
0 0 0 0 0 
-0.1891360556302128 -0.2309752944623585 0.1486872632194350 0.06652952176480230 -0.05313557304494979 
0 0 0 0 0 
-0.04662320663740414 -0.05403283966980866 0.1126356578256463 -0.1026120696072744 -0.02429710655682339 
0.08241270076909565 -0.01525548349165935 -0.03390313193499052 -0.1039020696255991 -0.008594340884974787 
0 0 0 0 0 
0 0 0 0 0 
0 0 0 0 0 
0 0 0 0 0 
0 0 0 0 0 
0 0 0 0 0 
0 0 0 0 0 
0 0 0 0 0 
0 0 0 0 0 
0 0 0 0 0 
-0.3901540956412083 -0.5324148636137939 0.8306762851835638 -0.8209271568298885 -0.3530485332833883 
-0.02472401804307926 0.002460520326124495 0.007390017934001912 -0.006693193910473088 -0.003024944562018496 
-0.3539687087891308 -0.2593940454766622 0.0006201304981406650 -0.1235255284503991 -0.5570323062343764 
0 0 0 0 0 
-0.0005209927291672246 0.0002272407533288201 -0.0005182731458254707 -0.0001347985412152031 -0.0003042143650191934 
-0.0004673792822542931 0.003805575766973667 -0.0007310039457138778 -0.003883406086480168 -0.002412855407530281 
0 0 0 0 0 
0 0 0 0 0 
0 0 0 0 0 
-0.07153525906062129 -0.0006836512458609383 -0.1363930904567814 0.1851133986787927 -0.01232076697509750 
-0.007200865576303041 0.005228900025631270 -0.004869948196279795 -0.007875987382158915 -0.002763347914801838 
0 0 0 0 0 
0.08384264309609007 -0.01718523674546687 -0.02516158264592855 -0.1060610044128291 -0.008799246377420392 
0 0 0 0 0 
0 0 0 0 0 
0 0 0 0 0 
0 0 0 0 0 
0 0 0 0 0 
0 0 0 0 0 
-0.0009163297117049073 0.0008458564593460392 -0.001113523871879382 -0.0002183485320010592 -0.0007195140298168646 
0 0 0 0 0 
0 0 0 0 0 
